{"sizes":[784,16,16,10],"layers":[{"0":{},"1":{},"2":{},"3":{},"4":{},"5":{},"6":{},"7":{},"8":{},"9":{},"10":{},"11":{},"12":{},"13":{},"14":{},"15":{},"16":{},"17":{},"18":{},"19":{},"20":{},"21":{},"22":{},"23":{},"24":{},"25":{},"26":{},"27":{},"28":{},"29":{},"30":{},"31":{},"32":{},"33":{},"34":{},"35":{},"36":{},"37":{},"38":{},"39":{},"40":{},"41":{},"42":{},"43":{},"44":{},"45":{},"46":{},"47":{},"48":{},"49":{},"50":{},"51":{},"52":{},"53":{},"54":{},"55":{},"56":{},"57":{},"58":{},"59":{},"60":{},"61":{},"62":{},"63":{},"64":{},"65":{},"66":{},"67":{},"68":{},"69":{},"70":{},"71":{},"72":{},"73":{},"74":{},"75":{},"76":{},"77":{},"78":{},"79":{},"80":{},"81":{},"82":{},"83":{},"84":{},"85":{},"86":{},"87":{},"88":{},"89":{},"90":{},"91":{},"92":{},"93":{},"94":{},"95":{},"96":{},"97":{},"98":{},"99":{},"100":{},"101":{},"102":{},"103":{},"104":{},"105":{},"106":{},"107":{},"108":{},"109":{},"110":{},"111":{},"112":{},"113":{},"114":{},"115":{},"116":{},"117":{},"118":{},"119":{},"120":{},"121":{},"122":{},"123":{},"124":{},"125":{},"126":{},"127":{},"128":{},"129":{},"130":{},"131":{},"132":{},"133":{},"134":{},"135":{},"136":{},"137":{},"138":{},"139":{},"140":{},"141":{},"142":{},"143":{},"144":{},"145":{},"146":{},"147":{},"148":{},"149":{},"150":{},"151":{},"152":{},"153":{},"154":{},"155":{},"156":{},"157":{},"158":{},"159":{},"160":{},"161":{},"162":{},"163":{},"164":{},"165":{},"166":{},"167":{},"168":{},"169":{},"170":{},"171":{},"172":{},"173":{},"174":{},"175":{},"176":{},"177":{},"178":{},"179":{},"180":{},"181":{},"182":{},"183":{},"184":{},"185":{},"186":{},"187":{},"188":{},"189":{},"190":{},"191":{},"192":{},"193":{},"194":{},"195":{},"196":{},"197":{},"198":{},"199":{},"200":{},"201":{},"202":{},"203":{},"204":{},"205":{},"206":{},"207":{},"208":{},"209":{},"210":{},"211":{},"212":{},"213":{},"214":{},"215":{},"216":{},"217":{},"218":{},"219":{},"220":{},"221":{},"222":{},"223":{},"224":{},"225":{},"226":{},"227":{},"228":{},"229":{},"230":{},"231":{},"232":{},"233":{},"234":{},"235":{},"236":{},"237":{},"238":{},"239":{},"240":{},"241":{},"242":{},"243":{},"244":{},"245":{},"246":{},"247":{},"248":{},"249":{},"250":{},"251":{},"252":{},"253":{},"254":{},"255":{},"256":{},"257":{},"258":{},"259":{},"260":{},"261":{},"262":{},"263":{},"264":{},"265":{},"266":{},"267":{},"268":{},"269":{},"270":{},"271":{},"272":{},"273":{},"274":{},"275":{},"276":{},"277":{},"278":{},"279":{},"280":{},"281":{},"282":{},"283":{},"284":{},"285":{},"286":{},"287":{},"288":{},"289":{},"290":{},"291":{},"292":{},"293":{},"294":{},"295":{},"296":{},"297":{},"298":{},"299":{},"300":{},"301":{},"302":{},"303":{},"304":{},"305":{},"306":{},"307":{},"308":{},"309":{},"310":{},"311":{},"312":{},"313":{},"314":{},"315":{},"316":{},"317":{},"318":{},"319":{},"320":{},"321":{},"322":{},"323":{},"324":{},"325":{},"326":{},"327":{},"328":{},"329":{},"330":{},"331":{},"332":{},"333":{},"334":{},"335":{},"336":{},"337":{},"338":{},"339":{},"340":{},"341":{},"342":{},"343":{},"344":{},"345":{},"346":{},"347":{},"348":{},"349":{},"350":{},"351":{},"352":{},"353":{},"354":{},"355":{},"356":{},"357":{},"358":{},"359":{},"360":{},"361":{},"362":{},"363":{},"364":{},"365":{},"366":{},"367":{},"368":{},"369":{},"370":{},"371":{},"372":{},"373":{},"374":{},"375":{},"376":{},"377":{},"378":{},"379":{},"380":{},"381":{},"382":{},"383":{},"384":{},"385":{},"386":{},"387":{},"388":{},"389":{},"390":{},"391":{},"392":{},"393":{},"394":{},"395":{},"396":{},"397":{},"398":{},"399":{},"400":{},"401":{},"402":{},"403":{},"404":{},"405":{},"406":{},"407":{},"408":{},"409":{},"410":{},"411":{},"412":{},"413":{},"414":{},"415":{},"416":{},"417":{},"418":{},"419":{},"420":{},"421":{},"422":{},"423":{},"424":{},"425":{},"426":{},"427":{},"428":{},"429":{},"430":{},"431":{},"432":{},"433":{},"434":{},"435":{},"436":{},"437":{},"438":{},"439":{},"440":{},"441":{},"442":{},"443":{},"444":{},"445":{},"446":{},"447":{},"448":{},"449":{},"450":{},"451":{},"452":{},"453":{},"454":{},"455":{},"456":{},"457":{},"458":{},"459":{},"460":{},"461":{},"462":{},"463":{},"464":{},"465":{},"466":{},"467":{},"468":{},"469":{},"470":{},"471":{},"472":{},"473":{},"474":{},"475":{},"476":{},"477":{},"478":{},"479":{},"480":{},"481":{},"482":{},"483":{},"484":{},"485":{},"486":{},"487":{},"488":{},"489":{},"490":{},"491":{},"492":{},"493":{},"494":{},"495":{},"496":{},"497":{},"498":{},"499":{},"500":{},"501":{},"502":{},"503":{},"504":{},"505":{},"506":{},"507":{},"508":{},"509":{},"510":{},"511":{},"512":{},"513":{},"514":{},"515":{},"516":{},"517":{},"518":{},"519":{},"520":{},"521":{},"522":{},"523":{},"524":{},"525":{},"526":{},"527":{},"528":{},"529":{},"530":{},"531":{},"532":{},"533":{},"534":{},"535":{},"536":{},"537":{},"538":{},"539":{},"540":{},"541":{},"542":{},"543":{},"544":{},"545":{},"546":{},"547":{},"548":{},"549":{},"550":{},"551":{},"552":{},"553":{},"554":{},"555":{},"556":{},"557":{},"558":{},"559":{},"560":{},"561":{},"562":{},"563":{},"564":{},"565":{},"566":{},"567":{},"568":{},"569":{},"570":{},"571":{},"572":{},"573":{},"574":{},"575":{},"576":{},"577":{},"578":{},"579":{},"580":{},"581":{},"582":{},"583":{},"584":{},"585":{},"586":{},"587":{},"588":{},"589":{},"590":{},"591":{},"592":{},"593":{},"594":{},"595":{},"596":{},"597":{},"598":{},"599":{},"600":{},"601":{},"602":{},"603":{},"604":{},"605":{},"606":{},"607":{},"608":{},"609":{},"610":{},"611":{},"612":{},"613":{},"614":{},"615":{},"616":{},"617":{},"618":{},"619":{},"620":{},"621":{},"622":{},"623":{},"624":{},"625":{},"626":{},"627":{},"628":{},"629":{},"630":{},"631":{},"632":{},"633":{},"634":{},"635":{},"636":{},"637":{},"638":{},"639":{},"640":{},"641":{},"642":{},"643":{},"644":{},"645":{},"646":{},"647":{},"648":{},"649":{},"650":{},"651":{},"652":{},"653":{},"654":{},"655":{},"656":{},"657":{},"658":{},"659":{},"660":{},"661":{},"662":{},"663":{},"664":{},"665":{},"666":{},"667":{},"668":{},"669":{},"670":{},"671":{},"672":{},"673":{},"674":{},"675":{},"676":{},"677":{},"678":{},"679":{},"680":{},"681":{},"682":{},"683":{},"684":{},"685":{},"686":{},"687":{},"688":{},"689":{},"690":{},"691":{},"692":{},"693":{},"694":{},"695":{},"696":{},"697":{},"698":{},"699":{},"700":{},"701":{},"702":{},"703":{},"704":{},"705":{},"706":{},"707":{},"708":{},"709":{},"710":{},"711":{},"712":{},"713":{},"714":{},"715":{},"716":{},"717":{},"718":{},"719":{},"720":{},"721":{},"722":{},"723":{},"724":{},"725":{},"726":{},"727":{},"728":{},"729":{},"730":{},"731":{},"732":{},"733":{},"734":{},"735":{},"736":{},"737":{},"738":{},"739":{},"740":{},"741":{},"742":{},"743":{},"744":{},"745":{},"746":{},"747":{},"748":{},"749":{},"750":{},"751":{},"752":{},"753":{},"754":{},"755":{},"756":{},"757":{},"758":{},"759":{},"760":{},"761":{},"762":{},"763":{},"764":{},"765":{},"766":{},"767":{},"768":{},"769":{},"770":{},"771":{},"772":{},"773":{},"774":{},"775":{},"776":{},"777":{},"778":{},"779":{},"780":{},"781":{},"782":{},"783":{}},{"0":{"bias":-0.9359661936759949,"weights":{"0":-0.01585960201919079,"1":-0.0340220183134079,"2":0.12991103529930115,"3":-0.05437493696808815,"4":0.048319581896066666,"5":-0.06414777785539627,"6":-0.12582111358642578,"7":0.06180838868021965,"8":0.14187680184841156,"9":-0.061595577746629715,"10":0.1456775963306427,"11":0.1939937323331833,"12":-0.13121189177036285,"13":0.02668342925608158,"14":-0.14201265573501587,"15":-0.18407374620437622,"16":-0.14179134368896484,"17":0.04261868819594383,"18":0.13663293421268463,"19":0.01776508241891861,"20":0.031033363193273544,"21":0.1373233199119568,"22":-0.03861173987388611,"23":0.015647994354367256,"24":0.08637091517448425,"25":-0.15122199058532715,"26":0.0022227840963751078,"27":0.13634511828422546,"28":0.18123620748519897,"29":0.1598140150308609,"30":0.12330836802721024,"31":-0.03909819945693016,"32":0.017214784398674965,"33":-0.020644212141633034,"34":-0.04356294497847557,"35":-0.14037610590457916,"36":0.05521780252456665,"37":-0.19363059103488922,"38":0.012408713810145855,"39":0.14021001756191254,"40":-0.01399396825581789,"41":-0.11499220132827759,"42":-0.1725386381149292,"43":-0.006970574613660574,"44":0.056590236723423004,"45":0.022178681567311287,"46":-0.0931132435798645,"47":-0.14303520321846008,"48":0.04775761812925339,"49":0.12915173172950745,"50":-0.10509441792964935,"51":0.13837316632270813,"52":-0.18957805633544922,"53":-0.09266268461942673,"54":-0.16426213085651398,"55":-0.10797088593244553,"56":-0.16219614446163177,"57":0.16886624693870544,"58":-0.00005264287392492406,"59":-0.19894017279148102,"60":0.09420321136713028,"61":0.16819249093532562,"62":-0.10935739427804947,"63":-0.14626945555210114,"64":0.023367682471871376,"65":0.02409733086824417,"66":-0.06833142042160034,"67":-0.2137940227985382,"68":-0.2544929087162018,"69":-0.3021390736103058,"70":-0.007119869347661734,"71":0.05991288647055626,"72":0.06793708354234695,"73":-0.16917784512043,"74":-0.01806291751563549,"75":-0.16502335667610168,"76":-0.1037306860089302,"77":0.03697079420089722,"78":0.057930395007133484,"79":-0.05146937072277069,"80":0.192712664604187,"81":0.03573083505034447,"82":0.14597447216510773,"83":-0.0002738855255302042,"84":-0.12780173122882843,"85":-0.1950565129518509,"86":0.14700277149677277,"87":-0.026591630652546883,"88":0.09431904554367065,"89":0.11059845238924026,"90":-0.0694359838962555,"91":-0.05191392824053764,"92":-0.04420993849635124,"93":0.06576482206583023,"94":0.017328202724456787,"95":-0.2103646695613861,"96":-0.034078199416399,"97":-0.05714917927980423,"98":-0.047902271151542664,"99":-0.004483636002987623,"100":0.0824078842997551,"101":-0.24941585958003998,"102":-0.028355931863188744,"103":0.03210751339793205,"104":-0.0840710774064064,"105":-0.107307069003582,"106":0.1451786309480667,"107":-0.022136958315968513,"108":-0.20096124708652496,"109":0.03856575861573219,"110":-0.06685161590576172,"111":0.16840048134326935,"112":0.016099033877253532,"113":-0.1566329151391983,"114":0.18452055752277374,"115":0.060960330069065094,"116":-0.034769970923662186,"117":0.17419004440307617,"118":-0.09868337213993073,"119":0.2078610211610794,"120":0.052739158272743225,"121":-0.05908142402768135,"122":0.11321046203374863,"123":0.2396203875541687,"124":0.3114158809185028,"125":0.32654592394828796,"126":0.05639008805155754,"127":0.11665498465299606,"128":0.0002797411580104381,"129":-0.22265449166297913,"130":0.1551678478717804,"131":0.22353218495845795,"132":0.11657535284757614,"133":-0.004348826128989458,"134":-0.07691606134176254,"135":0.10573439300060272,"136":0.16901898384094238,"137":0.09645731002092361,"138":-0.12137595564126968,"139":0.054651323705911636,"140":0.006980516482144594,"141":0.08643773198127747,"142":-0.06988635659217834,"143":0.04009897634387016,"144":0.250763475894928,"145":0.317978173494339,"146":0.1815406084060669,"147":0.2210763692855835,"148":0.3180350959300995,"149":0.3561267554759979,"150":0.11749283969402313,"151":0.10297567397356033,"152":0.2486851066350937,"153":0.16159722208976746,"154":0.15265871584415436,"155":0.3049444556236267,"156":0.16121749579906464,"157":0.063424251973629,"158":0.2109716683626175,"159":0.14278176426887512,"160":0.13239087164402008,"161":0.15259778499603271,"162":-0.11407151818275452,"163":-0.30040374398231506,"164":-0.15597888827323914,"165":0.021559059619903564,"166":-0.09927042573690414,"167":0.02932414785027504,"168":-0.1978931576013565,"169":-0.02658785693347454,"170":-0.009211437776684761,"171":0.008798126131296158,"172":-0.03299247846007347,"173":0.20137999951839447,"174":0.3759390711784363,"175":0.32777053117752075,"176":0.014162451028823853,"177":0.19735968112945557,"178":0.2171446532011032,"179":0.08354996889829636,"180":0.1142951101064682,"181":0.13112924993038177,"182":0.0017308092210441828,"183":0.13716205954551697,"184":0.1447071135044098,"185":0.06305845826864243,"186":-0.041190046817064285,"187":-0.07784779369831085,"188":0.15119899809360504,"189":0.10001339763402939,"190":-0.07355337589979172,"191":-0.3021039664745331,"192":0.10191900283098221,"193":-0.12325508147478104,"194":0.03975421190261841,"195":0.08788184076547623,"196":-0.1720299869775772,"197":-0.16696178913116455,"198":0.12568974494934082,"199":-0.0881950631737709,"200":0.33619871735572815,"201":0.47180163860321045,"202":0.48712480068206787,"203":0.2535761296749115,"204":0.2506652772426605,"205":0.08461108058691025,"206":0.2871861755847931,"207":-0.010370353236794472,"208":0.14474846422672272,"209":-0.11568581312894821,"210":-0.12336443364620209,"211":-0.010877026244997978,"212":0.014190101064741611,"213":0.049231842160224915,"214":-0.15086068212985992,"215":-0.07837418466806412,"216":0.08223924040794373,"217":-0.0674699917435646,"218":-0.14372074604034424,"219":0.016072291880846024,"220":-0.13142390549182892,"221":0.12175536900758743,"222":0.18424908816814423,"223":-0.0984504371881485,"224":0.13801807165145874,"225":-0.04896130412817001,"226":-0.14107729494571686,"227":0.014661956578493118,"228":0.16631515324115753,"229":0.49911046028137207,"230":0.0826006531715393,"231":0.1454450786113739,"232":0.22296403348445892,"233":-0.04790692403912544,"234":0.1150820180773735,"235":0.40936821699142456,"236":0.3901989459991455,"237":0.19761410355567932,"238":0.025050098076462746,"239":-0.035199034959077835,"240":-0.2184198945760727,"241":-0.1285213828086853,"242":-0.08963459730148315,"243":0.1501099169254303,"244":-0.11515457183122635,"245":0.1380523145198822,"246":0.2858811616897583,"247":-0.13323605060577393,"248":-0.32361456751823425,"249":0.04043130204081535,"250":0.19582372903823853,"251":0.16096146404743195,"252":-0.013291765935719013,"253":0.1571180373430252,"254":0.01021439116448164,"255":0.00037100998451933265,"256":0.4528180956840515,"257":0.4422767162322998,"258":0.13772423565387726,"259":0.13663573563098907,"260":0.18670479953289032,"261":0.04047561064362526,"262":0.1665220707654953,"263":0.21044325828552246,"264":0.10899950563907623,"265":0.35585060715675354,"266":0.2570221424102783,"267":0.01020023413002491,"268":-0.024037249386310577,"269":0.11241479218006134,"270":-0.03241599351167679,"271":0.004219568334519863,"272":-0.09736355394124985,"273":0.22175927460193634,"274":0.07254908233880997,"275":-0.1422261893749237,"276":-0.03201618045568466,"277":-0.17968115210533142,"278":0.20040351152420044,"279":-0.19360117614269257,"280":0.12968336045742035,"281":-0.13767994940280914,"282":0.02142108604311943,"283":0.04680398479104042,"284":0.28306815028190613,"285":0.15751735866069794,"286":0.05428852513432503,"287":-0.11800723522901535,"288":-0.2644992172718048,"289":-0.3235846757888794,"290":-0.1450425535440445,"291":0.03317337855696678,"292":0.06631578505039215,"293":0.5548603534698486,"294":0.5412540435791016,"295":0.1659805029630661,"296":0.13590650260448456,"297":0.07211775332689285,"298":-0.04342681169509888,"299":0.08895725756883621,"300":0.21035559475421906,"301":0.35275956988334656,"302":-0.04701709374785423,"303":0.022335950285196304,"304":0.05594700947403908,"305":0.01422398816794157,"306":0.1099279522895813,"307":0.1142975389957428,"308":0.0487573966383934,"309":-0.182687908411026,"310":-0.12457191199064255,"311":-0.02517753280699253,"312":0.13491982221603394,"313":-0.05358417332172394,"314":0.024709591642022133,"315":-0.11228222399950027,"316":-0.4523356854915619,"317":-0.433671772480011,"318":-0.3928077220916748,"319":-0.19951215386390686,"320":0.14723017811775208,"321":0.5477173328399658,"322":0.46534210443496704,"323":0.27106767892837524,"324":0.15736620128154755,"325":0.2584494650363922,"326":0.250425785779953,"327":0.26476913690567017,"328":-0.061805348843336105,"329":0.04419764131307602,"330":-0.12087158113718033,"331":-0.0830187276005745,"332":0.06067923828959465,"333":-0.060753729194402695,"334":-0.0568665936589241,"335":0.16047538816928864,"336":-0.05217210203409195,"337":0.15978555381298065,"338":0.19188831746578217,"339":0.03830248489975929,"340":0.18228541314601898,"341":-0.06218704953789711,"342":-0.3991537094116211,"343":-0.2873397171497345,"344":-0.3692438006401062,"345":-0.13670499622821808,"346":-0.328678160905838,"347":-0.6503866314888,"348":-0.5263116955757141,"349":-0.19685769081115723,"350":0.36841174960136414,"351":0.1198108121752739,"352":0.19007299840450287,"353":0.10074751079082489,"354":0.24838334321975708,"355":-0.1902645230293274,"356":-0.2157490849494934,"357":-0.2758515775203705,"358":-0.29972249269485474,"359":-0.1743016541004181,"360":-0.12647104263305664,"361":0.20251473784446716,"362":0.03986271843314171,"363":-0.12907665967941284,"364":-0.013964158482849598,"365":0.0681716799736023,"366":-0.07187914103269577,"367":0.012196273542940617,"368":0.06818275153636932,"369":-0.5371150970458984,"370":-0.5566681027412415,"371":-0.4609922468662262,"372":-0.4286189377307892,"373":-0.4250732362270355,"374":-0.5318654775619507,"375":-0.6189559698104858,"376":-0.6919771432876587,"377":-0.19910922646522522,"378":-0.03647937253117561,"379":0.06472226977348328,"380":0.24436594545841217,"381":-0.039532534778118134,"382":-0.05138958990573883,"383":-0.07324390113353729,"384":-0.03364972025156021,"385":-0.3697301745414734,"386":-0.22902408242225647,"387":-0.4402618408203125,"388":-0.1823117882013321,"389":0.02861684560775757,"390":-0.1435212790966034,"391":-0.08712916076183319,"392":-0.19599412381649017,"393":0.14249297976493835,"394":0.10172180831432343,"395":-0.0655713602900505,"396":-0.161704882979393,"397":-0.2515430748462677,"398":-0.4188906252384186,"399":-0.42303144931793213,"400":-0.19219769537448883,"401":-0.48184481263160706,"402":-0.2581089437007904,"403":-0.5145333409309387,"404":-0.7654210329055786,"405":-0.07979664206504822,"406":0.27060583233833313,"407":0.14097316563129425,"408":0.12928800284862518,"409":-0.031770478934049606,"410":0.3477366864681244,"411":-0.004603247623890638,"412":-0.07037989050149918,"413":-0.06682143360376358,"414":-0.21792209148406982,"415":-0.34095311164855957,"416":-0.045735590159893036,"417":-0.16211248934268951,"418":0.09246063232421875,"419":-0.020501481369137764,"420":-0.19185666739940643,"421":-0.011857971549034119,"422":0.006282532587647438,"423":0.10130608081817627,"424":0.0986928716301918,"425":-0.27387702465057373,"426":-0.5323536992073059,"427":-0.625209629535675,"428":-0.32427161931991577,"429":-0.26135528087615967,"430":-0.3712973892688751,"431":-0.3566599488258362,"432":-0.21944460272789001,"433":0.06235671415925026,"434":0.1921122819185257,"435":0.2733859419822693,"436":0.1524227410554886,"437":-0.014918922446668148,"438":0.07060389965772629,"439":0.009392860345542431,"440":0.06627938151359558,"441":0.1268114298582077,"442":0.178064227104187,"443":-0.12161177396774292,"444":-0.15969355404376984,"445":0.012557136826217175,"446":-0.10087892413139343,"447":-0.18499977886676788,"448":0.14648813009262085,"449":0.1836378574371338,"450":-0.12748639285564423,"451":-0.004190304782241583,"452":0.1305655688047409,"453":-0.31126999855041504,"454":-0.3259926736354828,"455":-0.34749674797058105,"456":-0.07413024455308914,"457":-0.24183690547943115,"458":-0.17289136350154877,"459":-0.21555042266845703,"460":0.12245240807533264,"461":0.07836836576461792,"462":0.19696049392223358,"463":0.05130128934979439,"464":-0.12860770523548126,"465":-0.2839911878108978,"466":0.12791015207767487,"467":0.08119375258684158,"468":0.27768898010253906,"469":0.07643889635801315,"470":0.2139781415462494,"471":-0.09294088184833527,"472":0.0588814914226532,"473":0.009266693145036697,"474":-0.010908522643148899,"475":0.11707687377929688,"476":0.038010790944099426,"477":-0.04835640266537666,"478":0.1808163821697235,"479":0.1350531429052353,"480":0.21390606462955475,"481":-0.06842156499624252,"482":-0.06254938989877701,"483":-0.34365519881248474,"484":-0.33926454186439514,"485":-0.0954551249742508,"486":-0.21040776371955872,"487":-0.15465866029262543,"488":-0.07348500937223434,"489":0.17918062210083008,"490":-0.010266207158565521,"491":-0.15633082389831543,"492":0.0011879950761795044,"493":0.054270755499601364,"494":-0.16331329941749573,"495":0.11232273280620575,"496":0.0876934677362442,"497":0.018030326813459396,"498":-0.08618007600307465,"499":0.17054642736911774,"500":-0.11491362005472183,"501":0.1839239001274109,"502":0.2332051396369934,"503":0.020598307251930237,"504":-0.17533499002456665,"505":-0.10415135324001312,"506":-0.022955549880862236,"507":0.30302631855010986,"508":-0.009786578826606274,"509":0.04990695044398308,"510":-0.1342114359140396,"511":-0.01846279762685299,"512":-0.09775429964065552,"513":-0.2744589149951935,"514":0.05900496616959572,"515":0.07694695889949799,"516":0.1128295511007309,"517":0.04894683137536049,"518":0.21078170835971832,"519":0.04961935430765152,"520":-0.2880195379257202,"521":0.04375116154551506,"522":0.027295466512441635,"523":-0.0026721933390945196,"524":0.08830515295267105,"525":0.13861514627933502,"526":0.21692714095115662,"527":0.3146202862262726,"528":-0.11205510050058365,"529":0.14956393837928772,"530":0.14229750633239746,"531":0.07349999994039536,"532":0.15839220583438873,"533":-0.04711560532450676,"534":0.052555590867996216,"535":0.1026320829987526,"536":0.028928974643349648,"537":0.19692574441432953,"538":0.1238330751657486,"539":0.0715668648481369,"540":-0.020590567961335182,"541":-0.0058455439284443855,"542":-0.0031925225630402565,"543":-0.042391709983348846,"544":-0.17539963126182556,"545":0.09888431429862976,"546":0.04776032641530037,"547":0.13995052874088287,"548":0.07539691030979156,"549":0.04472343623638153,"550":-0.05912597477436066,"551":0.026061229407787323,"552":0.0744326040148735,"553":0.11740859597921371,"554":0.03321031853556633,"555":0.1990283578634262,"556":-0.08787178993225098,"557":-0.11977245658636093,"558":0.04871615022420883,"559":0.053683895617723465,"560":-0.19974154233932495,"561":-0.060985758900642395,"562":-0.12780803442001343,"563":0.12717077136039734,"564":0.22267724573612213,"565":0.031836532056331635,"566":-0.014304040931165218,"567":0.2631363868713379,"568":0.13929392397403717,"569":0.16375437378883362,"570":-0.038590557873249054,"571":0.08686108142137527,"572":0.12216203659772873,"573":-0.18222594261169434,"574":0.052188269793987274,"575":-0.0010947748087346554,"576":0.16070057451725006,"577":-0.23429057002067566,"578":-0.017072472721338272,"579":-0.18907546997070312,"580":-0.053860872983932495,"581":-0.05019165575504303,"582":-0.07845325022935867,"583":-0.13514494895935059,"584":-0.0666586309671402,"585":-0.046185024082660675,"586":-0.08136434853076935,"587":-0.1151745542883873,"588":-0.08874622732400894,"589":0.06389033049345016,"590":-0.04355551302433014,"591":0.062094710767269135,"592":0.06960949301719666,"593":-0.017207147553563118,"594":0.11005676537752151,"595":0.179605633020401,"596":0.22461256384849548,"597":0.1243293508887291,"598":-0.055345237255096436,"599":-0.08477470278739929,"600":0.03895271569490433,"601":-0.12753048539161682,"602":0.13606198132038116,"603":0.1594250202178955,"604":-0.07202908396720886,"605":0.07259587943553925,"606":0.1322612762451172,"607":0.11927564442157745,"608":-0.026557674631476402,"609":0.08319054543972015,"610":0.06865443289279938,"611":0.16051599383354187,"612":-0.1699005663394928,"613":0.05012188479304314,"614":0.1475159376859665,"615":0.13095638155937195,"616":0.18294712901115417,"617":0.10001792013645172,"618":-0.03612250089645386,"619":-0.14630405604839325,"620":-0.02877802960574627,"621":0.23110665380954742,"622":0.2585951089859009,"623":-0.03538069128990173,"624":0.3087994456291199,"625":0.025953270494937897,"626":-0.0035051351878792048,"627":0.23524631559848785,"628":-0.02311612106859684,"629":-0.0760788843035698,"630":0.02146819233894348,"631":-0.07444581389427185,"632":0.12328631430864334,"633":0.0677986890077591,"634":0.015032408758997917,"635":0.0280892513692379,"636":0.013343761675059795,"637":-0.20419858396053314,"638":-0.08368685096502304,"639":0.14840951561927795,"640":0.13056717813014984,"641":-0.11630189418792725,"642":0.09508082270622253,"643":-0.0225776806473732,"644":0.08805329352617264,"645":0.12988024950027466,"646":0.11689769476652145,"647":-0.1797497272491455,"648":0.22108179330825806,"649":0.24477621912956238,"650":0.13029435276985168,"651":0.24942974746227264,"652":-0.1752690076828003,"653":0.24146436154842377,"654":0.09151257574558258,"655":-0.032907962799072266,"656":0.09155412018299103,"657":0.09884199500083923,"658":0.20495009422302246,"659":-0.04466560482978821,"660":-0.15579871833324432,"661":-0.08339128643274307,"662":0.24735412001609802,"663":0.01799488253891468,"664":-0.15766917169094086,"665":-0.22073449194431305,"666":-0.02098841965198517,"667":-0.08485112339258194,"668":-0.18840326368808746,"669":0.027588337659835815,"670":0.1544523537158966,"671":-0.11456248909235,"672":-0.17409944534301758,"673":-0.047178398817777634,"674":0.08781468123197556,"675":0.17935238778591156,"676":-0.004761796444654465,"677":-0.004372165538370609,"678":0.17856210470199585,"679":0.1992209106683731,"680":0.138934925198555,"681":0.06218846142292023,"682":-0.11530125886201859,"683":-0.08032049983739853,"684":0.11501121520996094,"685":0.1635487973690033,"686":-0.02790021523833275,"687":-0.03664587810635567,"688":-0.13522179424762726,"689":-0.05794252082705498,"690":0.1161070466041565,"691":-0.2421586662530899,"692":-0.29534411430358887,"693":-0.07092983275651932,"694":-0.1714751124382019,"695":-0.15612246096134186,"696":-0.160230353474617,"697":0.12110204994678497,"698":-0.16980865597724915,"699":-0.05238015577197075,"700":0.033108942210674286,"701":0.09789936244487762,"702":0.18674521148204803,"703":-0.10536475479602814,"704":-0.1040748581290245,"705":-0.018202221021056175,"706":0.18697375059127808,"707":0.17503103613853455,"708":0.2584618628025055,"709":0.07494349032640457,"710":0.07917510718107224,"711":0.11071177572011948,"712":0.21807724237442017,"713":0.037023719400167465,"714":-0.025214029476046562,"715":0.22612540423870087,"716":0.1441165804862976,"717":-0.007808688096702099,"718":0.043561168015003204,"719":-0.13423381745815277,"720":0.08507638424634933,"721":-0.11303536593914032,"722":-0.012248720973730087,"723":-0.02050386182963848,"724":-0.08893365412950516,"725":-0.024827618151903152,"726":0.14903521537780762,"727":0.1564425677061081,"728":-0.19908294081687927,"729":-0.021541139110922813,"730":-0.15003883838653564,"731":0.045527730137109756,"732":-0.034635383635759354,"733":-0.022045176476240158,"734":-0.03974321112036705,"735":-0.07827334105968475,"736":-0.1414179652929306,"737":0.012744959443807602,"738":0.028196873143315315,"739":-0.037663668394088745,"740":-0.05623817816376686,"741":0.1786569356918335,"742":0.15561267733573914,"743":0.11369804292917252,"744":0.04585444927215576,"745":0.15431199967861176,"746":0.0019901541527360678,"747":0.053691405802965164,"748":0.01313034724444151,"749":-0.23531250655651093,"750":0.14045900106430054,"751":0.05314134806394577,"752":-0.16631346940994263,"753":0.029021138325333595,"754":-0.08180004358291626,"755":0.05871918052434921,"756":0.016747398301959038,"757":-0.07468096911907196,"758":0.024712197482585907,"759":-0.028183570131659508,"760":0.07609088718891144,"761":0.1358405351638794,"762":-0.03890848159790039,"763":0.06303957104682922,"764":0.11843929439783096,"765":-0.0024414388462901115,"766":0.16780835390090942,"767":-0.03180708363652229,"768":0.0610664002597332,"769":-0.03167758882045746,"770":0.08560790121555328,"771":0.16069188714027405,"772":-0.16330260038375854,"773":-0.05861516669392586,"774":-0.05616217851638794,"775":0.19562624394893646,"776":0.1512579321861267,"777":-0.13056908547878265,"778":0.16960148513317108,"779":0.10389555990695953,"780":0.10680417716503143,"781":-0.011787820607423782,"782":0.17970778048038483,"783":0.12460910528898239}},"1":{"bias":0.21448704600334167,"weights":{"0":-0.018994221463799477,"1":-0.05208778753876686,"2":0.13778062164783478,"3":-0.14272934198379517,"4":-0.08675266802310944,"5":0.08752764761447906,"6":0.18912725150585175,"7":0.14389808475971222,"8":-0.017908986657857895,"9":0.18883000314235687,"10":0.031450990587472916,"11":-0.019329065456986427,"12":-0.13661499321460724,"13":-0.17782847583293915,"14":-0.1236845925450325,"15":0.06331807374954224,"16":-0.024572091177105904,"17":0.10107918083667755,"18":-0.14591987431049347,"19":-0.017980165779590607,"20":0.06560349464416504,"21":0.09875652194023132,"22":-0.0976860374212265,"23":-0.1699627935886383,"24":0.15767993032932281,"25":-0.18724393844604492,"26":-0.07398682832717896,"27":0.17056472599506378,"28":-0.12313735485076904,"29":-0.05184314027428627,"30":0.13805340230464935,"31":-0.05320053920149803,"32":-0.14024288952350616,"33":-0.040083691477775574,"34":0.038634292781353,"35":-0.010803320445120335,"36":0.108003169298172,"37":-0.14508704841136932,"38":-0.17847776412963867,"39":0.138003870844841,"40":-0.21244971454143524,"41":-0.10676414519548416,"42":-0.0459723062813282,"43":-0.1896277368068695,"44":0.11615961045026779,"45":0.03221873193979263,"46":-0.007208047900348902,"47":0.03476657718420029,"48":0.1355653554201126,"49":0.062267716974020004,"50":0.02378218248486519,"51":0.08162863552570343,"52":-0.16713398694992065,"53":0.1751794070005417,"54":0.07318059355020523,"55":0.19995735585689545,"56":-0.11085875332355499,"57":0.10911345481872559,"58":-0.036054108291864395,"59":-0.032109878957271576,"60":0.14444507658481598,"61":-0.055879104882478714,"62":-0.17905832827091217,"63":0.053730808198451996,"64":-0.23589518666267395,"65":-0.010447519831359386,"66":-0.2756335139274597,"67":-0.21065574884414673,"68":-0.24004505574703217,"69":-0.04099620506167412,"70":-0.04353318735957146,"71":-0.26254987716674805,"72":-0.3047807812690735,"73":0.045562028884887695,"74":-0.07360745221376419,"75":0.07724560052156448,"76":0.09329969435930252,"77":0.14993202686309814,"78":-0.18055053055286407,"79":0.07731352746486664,"80":-0.11471271514892578,"81":-0.059143129736185074,"82":-0.18501035869121552,"83":0.18332436680793762,"84":-0.13542862236499786,"85":-0.19235263764858246,"86":0.12291164696216583,"87":-0.07921494543552399,"88":-0.18842607736587524,"89":0.15947668254375458,"90":-0.07957843691110611,"91":-0.04543321952223778,"92":-0.07723762094974518,"93":-0.1197134330868721,"94":-0.037462785840034485,"95":-0.2920975387096405,"96":-0.38134631514549255,"97":-0.4405358135700226,"98":-0.18209490180015564,"99":-0.2915573716163635,"100":-0.41547369956970215,"101":-0.2895621657371521,"102":-0.26155421137809753,"103":0.048026591539382935,"104":-0.20712193846702576,"105":-0.1619560867547989,"106":0.2183978110551834,"107":-0.11458482593297958,"108":-0.08981870859861374,"109":0.02582850493490696,"110":-0.14470623433589935,"111":-0.028475100174546242,"112":-0.1434856653213501,"113":-0.034321755170822144,"114":0.01259885635226965,"115":0.030725132673978806,"116":0.1910262405872345,"117":-0.1348406821489334,"118":-0.1803659051656723,"119":0.08789223432540894,"120":-0.20632204413414001,"121":-0.0536063015460968,"122":-0.09608686715364456,"123":-0.24078373610973358,"124":-0.1731932908296585,"125":-0.495763897895813,"126":-0.3388385772705078,"127":-0.5436372756958008,"128":-0.2943789064884186,"129":-0.3813049793243408,"130":-0.10158570110797882,"131":0.05642326921224594,"132":-0.04373881220817566,"133":-0.06235982105135918,"134":0.011173354461789131,"135":-0.10511694103479385,"136":0.12918370962142944,"137":0.08187764137983322,"138":-0.06214768812060356,"139":0.061916761100292206,"140":-0.1301259994506836,"141":0.08887859433889389,"142":0.05594072863459587,"143":0.1439991593360901,"144":-0.09838904440402985,"145":-0.1676158905029297,"146":0.06569454073905945,"147":0.04062388837337494,"148":-0.013770117424428463,"149":0.10011008381843567,"150":-0.06104864180088043,"151":-0.22454015910625458,"152":-0.12424469739198685,"153":-0.353699266910553,"154":-0.11273246258497238,"155":-0.35982024669647217,"156":-0.23289568722248077,"157":-0.3584316074848175,"158":-0.3371345102787018,"159":-0.3908524811267853,"160":-0.23084360361099243,"161":-0.12512023746967316,"162":0.17225787043571472,"163":0.09059109538793564,"164":0.26805761456489563,"165":0.07770198583602905,"166":-0.11316651850938797,"167":-0.19961167871952057,"168":-0.1430017352104187,"169":-0.0570044182240963,"170":-0.1792244017124176,"171":-0.1820612996816635,"172":0.12109819799661636,"173":-0.08756257593631744,"174":0.23659826815128326,"175":0.13484229147434235,"176":-0.02572304755449295,"177":-0.06358826905488968,"178":-0.12997165322303772,"179":0.15172789990901947,"180":-0.07032471150159836,"181":-0.22000588476657867,"182":-0.044860683381557465,"183":0.027401885017752647,"184":-0.0946987196803093,"185":-0.06573489308357239,"186":0.011805880814790726,"187":-0.17530715465545654,"188":-0.1687147170305252,"189":-0.029671018943190575,"190":0.07956378161907196,"191":-0.13065609335899353,"192":-0.2123333215713501,"193":0.007433247286826372,"194":0.04648906737565994,"195":-0.09620226174592972,"196":-0.14465144276618958,"197":0.060143280774354935,"198":0.18824170529842377,"199":0.044630054384469986,"200":0.024005552753806114,"201":0.19789111614227295,"202":-0.08431550860404968,"203":-0.008075552992522717,"204":-0.13996049761772156,"205":-0.06373535841703415,"206":0.1455659121274948,"207":-0.056579966098070145,"208":0.24088838696479797,"209":-0.02969575859606266,"210":-0.010954962112009525,"211":-0.04519008472561836,"212":-0.10936202853918076,"213":0.08251778036355972,"214":-0.04896778613328934,"215":-0.023181430995464325,"216":0.03242599219083786,"217":0.0725947767496109,"218":-0.15492628514766693,"219":-0.15114395320415497,"220":-0.2260524183511734,"221":-0.12727516889572144,"222":0.13393504917621613,"223":0.19631996750831604,"224":-0.022642996162176132,"225":0.15618935227394104,"226":-0.02033100463449955,"227":-0.034410543739795685,"228":-0.09360262006521225,"229":0.16043390333652496,"230":0.1356956660747528,"231":0.1197504922747612,"232":0.0012365542352199554,"233":-0.0568961575627327,"234":-0.23137451708316803,"235":0.20121298730373383,"236":-0.09162265807390213,"237":0.01499732956290245,"238":0.20931026339530945,"239":-0.15693888068199158,"240":-0.16044418513774872,"241":-0.0040315198712050915,"242":0.036874037235975266,"243":-0.15876257419586182,"244":-0.1819315254688263,"245":0.16420020163059235,"246":-0.18551748991012573,"247":-0.1070840135216713,"248":-0.1646188646554947,"249":-0.19776560366153717,"250":-0.06550299376249313,"251":-0.10612802952528,"252":-0.002888550516217947,"253":0.029448125511407852,"254":0.1476680338382721,"255":0.11161871999502182,"256":-0.13780629634857178,"257":0.06707663834095001,"258":0.07947558164596558,"259":-0.05138562247157097,"260":0.02866496704518795,"261":0.0057352823205292225,"262":0.037691835314035416,"263":0.06536699086427689,"264":0.2515258491039276,"265":0.22431336343288422,"266":0.10826566815376282,"267":0.0940585806965828,"268":-0.10973067581653595,"269":0.14202822744846344,"270":0.14758066833019257,"271":-0.026247765868902206,"272":0.19302548468112946,"273":-0.06618743389844894,"274":-0.25759103894233704,"275":-0.37719735503196716,"276":-0.24015772342681885,"277":-0.3878950774669647,"278":-0.09423825889825821,"279":0.17588578164577484,"280":-0.15197594463825226,"281":0.06861968338489532,"282":-0.05703069642186165,"283":-0.030404169112443924,"284":-0.020438145846128464,"285":0.1883801519870758,"286":0.13019715249538422,"287":-0.279169499874115,"288":0.07778773456811905,"289":0.03269822522997856,"290":0.18679408729076385,"291":0.11594851315021515,"292":0.2607104480266571,"293":0.14083829522132874,"294":-0.06940934807062149,"295":0.048021528869867325,"296":0.19649185240268707,"297":0.1579919308423996,"298":0.22598068416118622,"299":0.09218769520521164,"300":-0.03265391290187836,"301":-0.02877121977508068,"302":-0.10327038913965225,"303":-0.5054701566696167,"304":-0.5711930394172668,"305":-0.40958648920059204,"306":-0.08344923704862595,"307":-0.13979646563529968,"308":-0.16033953428268433,"309":-0.0028889772947877645,"310":-0.15142814815044403,"311":-0.0871032327413559,"312":0.16506659984588623,"313":0.08293070644140244,"314":-0.010341286659240723,"315":0.012237956747412682,"316":-0.1660754680633545,"317":-0.06209809333086014,"318":0.102628692984581,"319":0.14982108771800995,"320":0.17875266075134277,"321":-0.3254384696483612,"322":-0.28784647583961487,"323":0.3711112141609192,"324":0.1700717657804489,"325":0.32401609420776367,"326":0.185140460729599,"327":0.24998101592063904,"328":0.12232589721679688,"329":0.18241120874881744,"330":-0.1024075597524643,"331":-0.20181109011173248,"332":-0.2506806254386902,"333":-0.34526920318603516,"334":-0.08842787146568298,"335":-0.03296311944723129,"336":0.03480340912938118,"337":0.08569954335689545,"338":0.1971714049577713,"339":0.13851580023765564,"340":0.2974269688129425,"341":0.21022363007068634,"342":0.23943549394607544,"343":0.23640687763690948,"344":0.21569892764091492,"345":0.09358524531126022,"346":0.11367275565862656,"347":0.061393942683935165,"348":-0.06084228307008743,"349":-0.4780334234237671,"350":-0.1896342784166336,"351":0.3555695712566376,"352":0.2933020293712616,"353":0.4162934720516205,"354":0.4247141182422638,"355":0.2657371759414673,"356":0.30205944180488586,"357":0.1879567950963974,"358":0.0694231241941452,"359":0.0555361844599247,"360":-0.2470107227563858,"361":0.02372591570019722,"362":-0.20301462709903717,"363":-0.11988507956266403,"364":0.130201518535614,"365":0.15739992260932922,"366":0.09799150377511978,"367":-0.14445003867149353,"368":0.1427401751279831,"369":0.19770433008670807,"370":0.1748688668012619,"371":0.18891474604606628,"372":0.15750595927238464,"373":-0.0893266499042511,"374":0.023717191070318222,"375":-0.03632281348109245,"376":-0.2843324542045593,"377":-0.40196916460990906,"378":-0.0029087355360388756,"379":0.15297093987464905,"380":0.3363436758518219,"381":0.39486220479011536,"382":0.12940162420272827,"383":0.22899791598320007,"384":0.5054030418395996,"385":0.15136122703552246,"386":0.042734842747449875,"387":0.02909691631793976,"388":-0.15215079486370087,"389":-0.07145825028419495,"390":0.051202695816755295,"391":-0.17484980821609497,"392":-0.04439025744795799,"393":-0.14869584143161774,"394":-0.16343294084072113,"395":-0.07961901277303696,"396":0.18234248459339142,"397":0.13046422600746155,"398":0.359576940536499,"399":0.23612672090530396,"400":0.09197860956192017,"401":-0.013333488255739212,"402":-0.06334424018859863,"403":0.13109242916107178,"404":-0.4030010998249054,"405":-0.04037792980670929,"406":0.15191520750522614,"407":0.27597782015800476,"408":0.235220268368721,"409":0.27925050258636475,"410":0.29991665482521057,"411":0.32446494698524475,"412":0.2755122482776642,"413":0.18851809203624725,"414":-0.005459423176944256,"415":-0.13846589624881744,"416":-0.14409850537776947,"417":-0.19627434015274048,"418":-0.20892052352428436,"419":0.12262409180402756,"420":0.1664252132177353,"421":-0.01942525990307331,"422":-0.15627597272396088,"423":-0.0924326479434967,"424":0.40710121393203735,"425":0.18248113989830017,"426":0.2607513964176178,"427":0.015631701797246933,"428":-0.0808933898806572,"429":-0.023973587900400162,"430":0.03394296020269394,"431":-0.07911853492259979,"432":-0.3614283800125122,"433":-0.2249479442834854,"434":-0.193964421749115,"435":0.18890754878520966,"436":0.3801456689834595,"437":0.314039021730423,"438":0.19943678379058838,"439":0.41392257809638977,"440":0.36657747626304626,"441":0.2048901915550232,"442":0.11603287607431412,"443":-0.1952369064092636,"444":-0.10029378533363342,"445":-0.014592220075428486,"446":-0.053218498826026917,"447":-0.11004945635795593,"448":0.0997161790728569,"449":-0.16910095512866974,"450":0.08584603667259216,"451":0.015327324159443378,"452":0.03118586353957653,"453":0.10803856700658798,"454":0.23195847868919373,"455":0.27285417914390564,"456":0.17888770997524261,"457":-0.08555861562490463,"458":-0.11003194749355316,"459":-0.2360926866531372,"460":-0.32408592104911804,"461":-0.0638580173254013,"462":0.008107004687190056,"463":0.5240375399589539,"464":0.28367576003074646,"465":0.5645108222961426,"466":0.3745660185813904,"467":-0.014557130634784698,"468":-0.004759899340569973,"469":0.09428269416093826,"470":-0.2778775691986084,"471":-0.12520672380924225,"472":-0.39753076434135437,"473":-0.12104082107543945,"474":0.04693400487303734,"475":-0.02290995791554451,"476":-0.09584524482488632,"477":-0.04521449655294418,"478":-0.1501545011997223,"479":0.0349602997303009,"480":-0.0716659426689148,"481":-0.3416737914085388,"482":-0.05453953146934509,"483":0.2614397704601288,"484":0.29865506291389465,"485":0.024036457762122154,"486":0.045587752014398575,"487":-0.01847074367105961,"488":-0.0704188346862793,"489":0.017190728336572647,"490":0.20780880749225616,"491":0.45259717106819153,"492":0.19772861897945404,"493":0.010206137783825397,"494":0.04724670946598053,"495":-0.021761618554592133,"496":0.01802809350192547,"497":0.056798435747623444,"498":-0.4063190221786499,"499":-0.5465664863586426,"500":-0.3256222605705261,"501":-0.13474252820014954,"502":-0.20216527581214905,"503":0.15217843651771545,"504":-0.12645265460014343,"505":0.08720621466636658,"506":0.02705877460539341,"507":0.057301703840494156,"508":-0.3487730622291565,"509":-0.17089444398880005,"510":-0.2845941483974457,"511":-0.284794420003891,"512":0.019878776744008064,"513":0.0909181758761406,"514":0.11169717460870743,"515":0.3050486743450165,"516":0.14578557014465332,"517":-0.03133549913764,"518":0.09064234793186188,"519":0.2291395217180252,"520":-0.0158611461520195,"521":-0.2943638861179352,"522":-0.1546245962381363,"523":-0.025538677349686623,"524":-0.1854880303144455,"525":-0.3074873089790344,"526":-0.5793529152870178,"527":-0.2873818576335907,"528":-0.19819968938827515,"529":0.11269776523113251,"530":0.1149391159415245,"531":0.11529240012168884,"532":0.11884211003780365,"533":0.08379434794187546,"534":-0.09092764556407928,"535":0.09393048286437988,"536":-0.19273154437541962,"537":-0.20623062551021576,"538":-0.6076695919036865,"539":-0.31917479634284973,"540":-0.5889043807983398,"541":-0.7519738674163818,"542":-0.25290051102638245,"543":-0.32007256150245667,"544":-0.2930402159690857,"545":-0.05106840655207634,"546":0.14300203323364258,"547":-0.19469493627548218,"548":-0.16097907721996307,"549":-0.15817606449127197,"550":-0.21823909878730774,"551":-0.34808048605918884,"552":-0.43460118770599365,"553":-0.3422529101371765,"554":-0.47653424739837646,"555":-0.4545555114746094,"556":-0.2481645941734314,"557":-0.014314625412225723,"558":0.13255681097507477,"559":-0.19149050116539001,"560":-0.05828563868999481,"561":0.1418479084968567,"562":0.1865682750940323,"563":-0.17647480964660645,"564":-0.05068323761224747,"565":-0.24670292437076569,"566":-0.34939494729042053,"567":-0.48013821244239807,"568":-0.7129409313201904,"569":-0.4721958637237549,"570":-0.521645188331604,"571":-0.4575161337852478,"572":-0.45086735486984253,"573":-0.35798442363739014,"574":-0.23975181579589844,"575":-0.2032623291015625,"576":-0.07045853137969971,"577":-0.36703619360923767,"578":-0.4193059802055359,"579":-0.5328092575073242,"580":-0.13542139530181885,"581":-0.2095680832862854,"582":-0.3972829282283783,"583":-0.22794310748577118,"584":-0.1461348831653595,"585":0.14281223714351654,"586":-0.013298087753355503,"587":0.037739869207143784,"588":0.06762196868658066,"589":-0.1583670824766159,"590":-0.011360147967934608,"591":-0.10889677703380585,"592":-0.0699077621102333,"593":-0.4404187798500061,"594":-0.5117945075035095,"595":-0.44636106491088867,"596":-0.3072790205478668,"597":-0.2911219298839569,"598":-0.339255690574646,"599":-0.4498734176158905,"600":-0.23252083361148834,"601":-0.3730061650276184,"602":-0.2490917593240738,"603":-0.22742225229740143,"604":-0.23131780326366425,"605":-0.14244170486927032,"606":-0.15372560918331146,"607":-0.1513751596212387,"608":-0.24314343929290771,"609":-0.10528679192066193,"610":-0.2640264630317688,"611":-0.209737166762352,"612":0.09817785024642944,"613":0.18134866654872894,"614":0.19486427307128906,"615":-0.1979881078004837,"616":0.058472562581300735,"617":0.04859669879078865,"618":0.08116751164197922,"619":-0.07514781504869461,"620":-0.16790977120399475,"621":-0.14572258293628693,"622":-0.32317084074020386,"623":-0.054474759846925735,"624":-0.1097906157374382,"625":-0.014122344553470612,"626":-0.21288415789604187,"627":-0.23998430371284485,"628":-0.2256595492362976,"629":-0.43611329793930054,"630":-0.29376280307769775,"631":-0.17973487079143524,"632":-0.20360031723976135,"633":0.014069369062781334,"634":-0.0609062984585762,"635":-0.20801031589508057,"636":-0.27085426449775696,"637":-0.1996723711490631,"638":-0.3221500813961029,"639":-0.1772039830684662,"640":-0.011779486201703548,"641":-0.0964520201086998,"642":0.12347915768623352,"643":-0.1280876100063324,"644":-0.12662716209888458,"645":-0.16232022643089294,"646":0.15195515751838684,"647":-0.09293753653764725,"648":-0.057825252413749695,"649":-0.005549877416342497,"650":-0.1071680560708046,"651":0.10737182199954987,"652":-0.28547585010528564,"653":-0.07865648716688156,"654":-0.15082530677318573,"655":-0.15538091957569122,"656":-0.42066147923469543,"657":-0.13533958792686462,"658":-0.056307103484869,"659":-0.3528789281845093,"660":-0.31077060103416443,"661":-0.13066087663173676,"662":-0.11685115844011307,"663":-0.17190493643283844,"664":0.0887015238404274,"665":-0.18930266797542572,"666":-0.1035233810544014,"667":-0.0448993481695652,"668":0.10859441757202148,"669":-0.05205145850777626,"670":-0.06666260212659836,"671":0.09051144123077393,"672":0.15709705650806427,"673":0.13569657504558563,"674":-0.11618009954690933,"675":0.07554368674755096,"676":-0.1330883502960205,"677":0.23674049973487854,"678":0.2907770276069641,"679":0.018567537888884544,"680":0.10124130547046661,"681":-0.1564325988292694,"682":-0.09997542202472687,"683":-0.13272732496261597,"684":-0.2948611080646515,"685":-0.349173903465271,"686":-0.3400202691555023,"687":-0.3820134401321411,"688":-0.41128024458885193,"689":-0.36483335494995117,"690":-0.12895135581493378,"691":-0.1297139674425125,"692":-0.006862887181341648,"693":0.189691424369812,"694":-0.19011631608009338,"695":0.06555519998073578,"696":0.1193319633603096,"697":0.12378854304552078,"698":-0.03633006662130356,"699":0.10316111147403717,"700":-0.07856526970863342,"701":-0.06588030606508255,"702":0.08522859960794449,"703":0.07361271232366562,"704":-0.020604442805051804,"705":0.20365789532661438,"706":0.09728284180164337,"707":0.06137793883681297,"708":-0.005967287812381983,"709":-0.12069646269083023,"710":-0.023459704592823982,"711":0.08544092625379562,"712":-0.06743435561656952,"713":-0.06887948513031006,"714":0.06300630420446396,"715":-0.20147506892681122,"716":-0.09546545147895813,"717":-0.12040332704782486,"718":0.13265857100486755,"719":0.03691660612821579,"720":0.2624851167201996,"721":-0.14900118112564087,"722":0.17053240537643433,"723":-0.016137413680553436,"724":0.1748286783695221,"725":-0.1505136936903,"726":-0.17051546275615692,"727":-0.04289324954152107,"728":0.08765210211277008,"729":0.18117286264896393,"730":0.05839714780449867,"731":-0.07459720224142075,"732":0.04848736897110939,"733":-0.056381016969680786,"734":-0.12210576981306076,"735":0.11257202178239822,"736":0.19805845618247986,"737":-0.01561182364821434,"738":-0.12347087264060974,"739":0.010097519494593143,"740":0.1322517842054367,"741":0.23518162965774536,"742":0.3496303856372833,"743":0.2121192216873169,"744":-0.00928686186671257,"745":0.08032787591218948,"746":-0.08469808101654053,"747":0.09770818054676056,"748":0.1433272808790207,"749":0.011300365440547466,"750":0.09077881276607513,"751":-0.04689972847700119,"752":-0.18548162281513214,"753":0.16632328927516937,"754":0.1754951924085617,"755":0.014199379831552505,"756":-0.08883427083492279,"757":0.025971954688429832,"758":-0.10418014973402023,"759":0.07146172225475311,"760":-0.011944892816245556,"761":-0.19193844497203827,"762":-0.0853797048330307,"763":0.02860606275498867,"764":0.11447713524103165,"765":-0.0004208363825455308,"766":0.03908180445432663,"767":0.027976104989647865,"768":0.12831678986549377,"769":-0.07460083067417145,"770":-0.07901988923549652,"771":-0.18272337317466736,"772":-0.060432106256484985,"773":-0.07558412849903107,"774":-0.15860851109027863,"775":-0.14678382873535156,"776":0.15997770428657532,"777":-0.1565849930047989,"778":0.06834772229194641,"779":0.09185057878494263,"780":-0.05668367072939873,"781":-0.15200300514698029,"782":-0.010789383202791214,"783":0.16197487711906433}},"2":{"bias":0.04010478034615517,"weights":{"0":0.06650124490261078,"1":-0.19549883902072906,"2":0.1446622610092163,"3":0.12980274856090546,"4":0.02326982095837593,"5":-0.030050745233893394,"6":0.08926688879728317,"7":0.08437515795230865,"8":-0.17090710997581482,"9":0.12286975234746933,"10":0.024233929812908173,"11":0.19774244725704193,"12":0.1740509271621704,"13":-0.09343264251947403,"14":-0.03771710395812988,"15":-0.08653667569160461,"16":0.03967226669192314,"17":0.05273906886577606,"18":-0.11142373085021973,"19":-0.13020822405815125,"20":0.012970858253538609,"21":-0.15157100558280945,"22":-0.04648151621222496,"23":0.16931407153606415,"24":0.15305984020233154,"25":0.042241696268320084,"26":0.15198934078216553,"27":-0.0920032411813736,"28":0.10034611076116562,"29":-0.19784891605377197,"30":-0.05284125357866287,"31":-0.11408699303865433,"32":0.09889515489339828,"33":-0.0381062850356102,"34":-0.17083528637886047,"35":-0.17939341068267822,"36":0.0682973712682724,"37":0.17866405844688416,"38":-0.12940309941768646,"39":-0.0700606182217598,"40":0.15362608432769775,"41":0.21596401929855347,"42":-0.04841497167944908,"43":0.17138707637786865,"44":-0.1679173707962036,"45":-0.006323379464447498,"46":0.10346090793609619,"47":-0.18634375929832458,"48":0.06216204911470413,"49":-0.13482895493507385,"50":0.006930346135050058,"51":-0.04810217022895813,"52":-0.19132447242736816,"53":-0.15401996672153473,"54":0.10805629938840866,"55":0.17101293802261353,"56":-0.12158031016588211,"57":0.035572782158851624,"58":-0.013777438551187515,"59":-0.14008775353431702,"60":0.017104219645261765,"61":-0.1036495566368103,"62":-0.1631055623292923,"63":0.07140466570854187,"64":0.09472742676734924,"65":0.0927586480975151,"66":0.12238308787345886,"67":0.22157473862171173,"68":0.24831804633140564,"69":0.31899669766426086,"70":0.13611961901187897,"71":-0.022755997255444527,"72":-0.0032137713860720396,"73":0.1577836126089096,"74":-0.007480708882212639,"75":0.09779831022024155,"76":0.03046618029475212,"77":0.19863057136535645,"78":0.17932948470115662,"79":0.07011321187019348,"80":-0.05931134894490242,"81":-0.06376613676548004,"82":0.009667517617344856,"83":-0.17336097359657288,"84":-0.11825749278068542,"85":-0.13183793425559998,"86":-0.0597703717648983,"87":-0.11724624782800674,"88":-0.03646382316946983,"89":0.041518229991197586,"90":-0.14238320291042328,"91":0.009619077667593956,"92":0.1542723923921585,"93":0.1649986058473587,"94":0.46870094537734985,"95":0.45340749621391296,"96":0.3131828308105469,"97":0.5017794370651245,"98":0.5915012955665588,"99":0.4634520709514618,"100":0.41503018140792847,"101":0.2429853230714798,"102":0.21852067112922668,"103":0.03247024491429329,"104":0.28333449363708496,"105":0.010172063484787941,"106":0.1839703917503357,"107":0.0013477468164637685,"108":0.13020409643650055,"109":-0.1232767328619957,"110":0.02402420900762081,"111":0.08675546944141388,"112":-0.029975589364767075,"113":0.11005262285470963,"114":0.05789440870285034,"115":0.19187568128108978,"116":-0.12289387732744217,"117":-0.00791571382433176,"118":0.05341127887368202,"119":-0.02190505899488926,"120":0.15159843862056732,"121":0.04311538115143776,"122":-0.06817823648452759,"123":0.05877901241183281,"124":0.06726071238517761,"125":0.28067639470100403,"126":0.24893634021282196,"127":0.11635459214448929,"128":0.193261057138443,"129":0.3141593933105469,"130":0.19865953922271729,"131":-0.20833660662174225,"132":0.10085011273622513,"133":0.26057296991348267,"134":-0.051684822887182236,"135":-0.0015510121593251824,"136":0.07695245742797852,"137":0.1644541621208191,"138":-0.16874335706233978,"139":0.1585300713777542,"140":-0.15144120156764984,"141":0.07502800226211548,"142":0.0054984972812235355,"143":-0.018138397485017776,"144":0.10037742555141449,"145":0.09843826293945312,"146":-0.19645340740680695,"147":0.09777028113603592,"148":0.21336957812309265,"149":0.07459428161382675,"150":0.003291974775493145,"151":-0.06806539744138718,"152":0.2073354423046112,"153":0.046519435942173004,"154":0.2013521045446396,"155":0.27758413553237915,"156":0.06107264757156372,"157":0.15626513957977295,"158":0.16094081103801727,"159":0.1710602343082428,"160":-0.02956370823085308,"161":0.02034260332584381,"162":-0.20811715722084045,"163":-0.10566265881061554,"164":-0.24175608158111572,"165":0.022115366533398628,"166":0.10848810523748398,"167":0.16061115264892578,"168":-0.13130849599838257,"169":0.02498003840446472,"170":0.1630854606628418,"171":-0.16913557052612305,"172":-0.013204059563577175,"173":-0.13060928881168365,"174":-0.14715933799743652,"175":0.11250263452529907,"176":0.015449796803295612,"177":0.009892020374536514,"178":-0.03506436571478844,"179":-0.08331917971372604,"180":0.04453026130795479,"181":-0.025546127930283546,"182":0.004261113703250885,"183":0.1905529648065567,"184":0.19820816814899445,"185":0.2175748199224472,"186":0.1372654289007187,"187":-0.020327504724264145,"188":-0.17696784436702728,"189":0.12441223114728928,"190":-0.03315430507063866,"191":-0.3695421814918518,"192":-0.11866413801908493,"193":-0.27323117852211,"194":0.05913015455007553,"195":0.047571729868650436,"196":0.16572801768779755,"197":0.10983341187238693,"198":0.0340224988758564,"199":0.08727680891752243,"200":0.05013461038470268,"201":0.04743245244026184,"202":0.1361638307571411,"203":0.09025528281927109,"204":0.07258521765470505,"205":0.020531870424747467,"206":-0.17083844542503357,"207":-0.1096956729888916,"208":0.09670579433441162,"209":0.06523752957582474,"210":0.033044084906578064,"211":0.1111096665263176,"212":-0.015164507552981377,"213":-0.029594091698527336,"214":0.06593475490808487,"215":-0.20888888835906982,"216":-0.11895602941513062,"217":-0.1576465666294098,"218":-0.13438953459262848,"219":-0.3583296537399292,"220":-0.2938266396522522,"221":-0.28532829880714417,"222":0.06527526676654816,"223":-0.09471561759710312,"224":-0.00041860382771119475,"225":0.033658821135759354,"226":0.18459095060825348,"227":-0.012917593121528625,"228":-0.2974233031272888,"229":0.12093547731637955,"230":-0.015493020415306091,"231":-0.23780037462711334,"232":-0.05871913582086563,"233":-0.19685202836990356,"234":0.006008146330714226,"235":0.21981249749660492,"236":0.007040048949420452,"237":0.018455911427736282,"238":0.09138289839029312,"239":0.13283765316009521,"240":0.18990032374858856,"241":0.2368021011352539,"242":-0.2954598069190979,"243":-0.05325183644890785,"244":-0.22202225029468536,"245":-0.16490381956100464,"246":-0.11527784913778305,"247":-0.08509035408496857,"248":-0.13551296293735504,"249":-0.25681793689727783,"250":-0.21457232534885406,"251":-0.018825752660632133,"252":0.13426364958286285,"253":-0.05387177690863609,"254":0.11084748059511185,"255":0.0915689691901207,"256":0.09372156113386154,"257":-0.08973359316587448,"258":-0.11723312735557556,"259":-0.12679816782474518,"260":-0.13391077518463135,"261":0.10373157262802124,"262":0.03765997663140297,"263":0.24497376382350922,"264":0.06007339805364609,"265":0.054021261632442474,"266":0.21178625524044037,"267":0.10000118613243103,"268":0.2515498995780945,"269":-0.07142195850610733,"270":-0.2832958400249481,"271":-0.2507910132408142,"272":-0.3240211606025696,"273":-0.2662670910358429,"274":-0.21475419402122498,"275":-0.18168634176254272,"276":-0.2844932973384857,"277":-0.24443288147449493,"278":0.07611129432916641,"279":0.023013105615973473,"280":-0.02613949589431286,"281":0.08572064340114594,"282":0.07142766565084457,"283":-0.08925876021385193,"284":-0.01791502721607685,"285":-0.16385114192962646,"286":-0.2200598269701004,"287":-0.3115749955177307,"288":0.0007614620262756944,"289":0.09140270203351974,"290":-0.016942370682954788,"291":0.09887906163930893,"292":0.1948859691619873,"293":0.15371623635292053,"294":0.20018458366394043,"295":0.20275327563285828,"296":-0.040196824818849564,"297":0.06453227996826172,"298":-0.28919368982315063,"299":-0.1742730587720871,"300":-0.14474374055862427,"301":-0.07158318161964417,"302":-0.016603315249085426,"303":-0.04533977434039116,"304":-0.0500352568924427,"305":-0.07464592158794403,"306":-0.22772696614265442,"307":-0.11735249310731888,"308":-0.18281519412994385,"309":0.15948143601417542,"310":-0.1596764624118805,"311":0.08963004499673843,"312":-0.21868380904197693,"313":-0.14367304742336273,"314":-0.3348590135574341,"315":-0.35637545585632324,"316":-0.3522073030471802,"317":-0.38884931802749634,"318":0.024616198614239693,"319":-0.06962607055902481,"320":0.11302349716424942,"321":0.050012778490781784,"322":0.1047070249915123,"323":0.15372343361377716,"324":0.0052611553110182285,"325":-0.19197647273540497,"326":-0.025212706997990608,"327":0.1611887365579605,"328":0.1716618537902832,"329":0.34202030301094055,"330":0.14215794205665588,"331":0.24908514320850372,"332":-0.017504211515188217,"333":-0.00863733422011137,"334":-0.05367402732372284,"335":-0.14059729874134064,"336":0.16912081837654114,"337":0.15437261760234833,"338":-0.09712710231542587,"339":-0.17737124860286713,"340":-0.2437664121389389,"341":-0.1002437174320221,"342":-0.35678163170814514,"343":-0.23647354543209076,"344":-0.4008215665817261,"345":-0.3463174104690552,"346":-0.4241699278354645,"347":-0.46254560351371765,"348":-0.07603233307600021,"349":0.17713071405887604,"350":0.0036236937157809734,"351":0.1772104650735855,"352":-0.04463445767760277,"353":-0.11892639845609665,"354":0.24264834821224213,"355":0.24226221442222595,"356":0.05546141415834427,"357":0.1953754723072052,"358":0.36451035737991333,"359":0.42931628227233887,"360":0.4332781732082367,"361":-0.0004547846911009401,"362":0.09421946108341217,"363":-0.10763724148273468,"364":-0.11264555901288986,"365":-0.06392564624547958,"366":0.017604593187570572,"367":0.011490564793348312,"368":-0.24889592826366425,"369":-0.2832554578781128,"370":-0.40417802333831787,"371":-0.5156519412994385,"372":-0.5159479975700378,"373":-0.6068252325057983,"374":-0.465898334980011,"375":-0.23955108225345612,"376":-0.24806596338748932,"377":-0.17495514452457428,"378":-0.02128552831709385,"379":0.14466378092765808,"380":0.018519561737775803,"381":-0.042543888092041016,"382":-0.04154827818274498,"383":0.1601504236459732,"384":-0.02868719957768917,"385":0.31232181191444397,"386":0.06288857012987137,"387":0.6125648617744446,"388":0.5053673982620239,"389":0.07462102174758911,"390":-0.0867154449224472,"391":0.028690624982118607,"392":0.03999115526676178,"393":-0.16016250848770142,"394":-0.08156251162290573,"395":-0.08334515243768692,"396":-0.14266854524612427,"397":-0.21205048263072968,"398":-0.1426364779472351,"399":-0.2566967308521271,"400":-0.24126236140727997,"401":-0.21947018802165985,"402":-0.44327497482299805,"403":-0.0818352922797203,"404":-0.26533055305480957,"405":-0.3131924867630005,"406":-0.010225404985249043,"407":0.11833881586790085,"408":-0.1551215499639511,"409":-0.34705042839050293,"410":-0.009574541822075844,"411":0.2169879674911499,"412":0.2252718210220337,"413":0.1598018854856491,"414":0.06705403327941895,"415":0.18447072803974152,"416":0.1231604665517807,"417":-0.053856562823057175,"418":-0.13062171638011932,"419":-0.09161480516195297,"420":0.12496567517518997,"421":0.16518661379814148,"422":-0.11888730525970459,"423":-0.17296957969665527,"424":0.06279376894235611,"425":-0.0010812407126650214,"426":0.11219532787799835,"427":-0.12032674252986908,"428":-0.17499025166034698,"429":-0.2766711115837097,"430":-0.2358296513557434,"431":-0.27710554003715515,"432":-0.21433955430984497,"433":-0.23658835887908936,"434":0.09564630687236786,"435":0.0823376253247261,"436":-0.04753689095377922,"437":-0.12299638241529465,"438":-0.012671343982219696,"439":0.20675620436668396,"440":0.049810510128736496,"441":0.201444610953331,"442":0.0544118769466877,"443":0.06808619946241379,"444":0.028189536184072495,"445":0.20250508189201355,"446":0.0709470584988594,"447":-0.15057702362537384,"448":0.17581996321678162,"449":0.057693418115377426,"450":0.07860059291124344,"451":0.01290922798216343,"452":0.2357863038778305,"453":0.32516908645629883,"454":0.3536998927593231,"455":-0.12462079524993896,"456":0.055752746760845184,"457":-0.21063664555549622,"458":-0.1343120038509369,"459":-0.08815579861402512,"460":-0.328745573759079,"461":-0.4847782254219055,"462":-0.036381181329488754,"463":-0.1097286194562912,"464":-0.4176580011844635,"465":-0.1642478108406067,"466":-0.2027236968278885,"467":0.10653882473707199,"468":0.24310220777988434,"469":-0.23116174340248108,"470":0.04196649044752121,"471":-0.1655491441488266,"472":0.02455371618270874,"473":0.2358635514974594,"474":0.11092629283666611,"475":-0.017219627276062965,"476":-0.07254301011562347,"477":0.0997755229473114,"478":-0.16179752349853516,"479":0.18311236798763275,"480":0.054338887333869934,"481":0.14983107149600983,"482":0.04479363188147545,"483":0.29590603709220886,"484":0.07160349935293198,"485":0.18229122459888458,"486":0.2206510305404663,"487":-0.11459259688854218,"488":-0.06141207739710808,"489":-0.12069356441497803,"490":-0.2750694155693054,"491":-0.28520074486732483,"492":-0.24633905291557312,"493":-0.09053217619657516,"494":0.10648290812969208,"495":-0.025783447548747063,"496":0.10622992366552353,"497":-0.05458594486117363,"498":0.04354241117835045,"499":-0.07695544511079788,"500":0.09055564552545547,"501":0.1863599568605423,"502":0.1755160391330719,"503":0.1516820639371872,"504":-0.18685752153396606,"505":-0.08716188371181488,"506":-0.18200403451919556,"507":-0.07786422222852707,"508":0.3115706145763397,"509":0.1878337264060974,"510":0.33987465500831604,"511":0.2805173695087433,"512":0.26044875383377075,"513":0.23270608484745026,"514":0.3882848918437958,"515":0.17437422275543213,"516":0.2783326506614685,"517":-0.19020876288414001,"518":-0.3036491870880127,"519":-0.10303234308958054,"520":-0.24066761136054993,"521":0.1112484559416771,"522":0.1923823207616806,"523":-0.04219871759414673,"524":0.3033269941806793,"525":0.2560407519340515,"526":0.05098717659711838,"527":0.00036063772859051824,"528":0.2800191044807434,"529":0.11349328607320786,"530":0.0784134566783905,"531":-0.1743423193693161,"532":-0.18270571529865265,"533":-0.13761594891548157,"534":-0.190409854054451,"535":-0.1773529350757599,"536":0.060816690325737,"537":0.27904099225997925,"538":0.21224825084209442,"539":0.107571542263031,"540":0.4695669710636139,"541":0.5466800928115845,"542":0.37206029891967773,"543":0.6369781494140625,"544":0.7657791972160339,"545":0.14319279789924622,"546":0.028075488284230232,"547":0.03972635418176651,"548":-0.0629541352391243,"549":-0.11462826281785965,"550":-0.09034502506256104,"551":0.12678460776805878,"552":-0.030032794922590256,"553":-0.05570415407419205,"554":-0.0009220985812135041,"555":0.12504306435585022,"556":-0.0612688884139061,"557":0.0949692577123642,"558":0.029503798112273216,"559":-0.05932251363992691,"560":0.14564132690429688,"561":-0.18041697144508362,"562":0.11733021587133408,"563":0.07605359703302383,"564":0.2098027467727661,"565":0.3384963870048523,"566":0.21175479888916016,"567":0.32616785168647766,"568":0.11918729543685913,"569":0.30525460839271545,"570":0.3860386610031128,"571":0.24079537391662598,"572":0.4704812467098236,"573":0.2221715897321701,"574":0.01784772425889969,"575":0.04773379862308502,"576":0.036768682301044464,"577":-0.015483519993722439,"578":0.08011669665575027,"579":0.047540225088596344,"580":0.0690532922744751,"581":0.021715285256505013,"582":-0.14402179419994354,"583":0.17331305146217346,"584":0.2808050215244293,"585":0.21297580003738403,"586":-0.021388353779911995,"587":-0.008481217548251152,"588":-0.06969195604324341,"589":0.15149229764938354,"590":-0.07879158109426498,"591":-0.15063923597335815,"592":0.052216146141290665,"593":0.014853190630674362,"594":0.11021335422992706,"595":0.2501760721206665,"596":0.20885713398456573,"597":0.21463020145893097,"598":0.2453540861606598,"599":0.31530725955963135,"600":0.2242536097764969,"601":0.2349012792110443,"602":0.1962352842092514,"603":-0.06397707760334015,"604":-0.22900110483169556,"605":0.01185337733477354,"606":-0.11641456186771393,"607":-0.02502513863146305,"608":0.2427978366613388,"609":-0.07394374907016754,"610":0.06479627639055252,"611":0.07653535902500153,"612":-0.012874689884483814,"613":-0.01699129119515419,"614":0.054931290447711945,"615":-0.07291673123836517,"616":-0.08840548247098923,"617":0.180669903755188,"618":0.1786641627550125,"619":-0.15863829851150513,"620":0.02702152356505394,"621":-0.09838451445102692,"622":-0.02207237295806408,"623":0.07052244991064072,"624":-0.08596040308475494,"625":0.2567017376422882,"626":0.3298899829387665,"627":0.004761857911944389,"628":0.1590707153081894,"629":0.0895129069685936,"630":0.15196900069713593,"631":-0.1279187947511673,"632":-0.1087237000465393,"633":-0.25877654552459717,"634":-0.005340114701539278,"635":-0.20314523577690125,"636":-0.0301812831312418,"637":-0.00053697096882388,"638":0.1576988846063614,"639":-0.030336808413267136,"640":-0.061765510588884354,"641":0.049920737743377686,"642":0.011285151354968548,"643":0.14658766984939575,"644":0.011468689888715744,"645":0.1481083184480667,"646":0.0461057610809803,"647":-0.1504039466381073,"648":0.11565575003623962,"649":-0.1463591307401657,"650":-0.021574826911091805,"651":0.1092553585767746,"652":0.12936989963054657,"653":-0.02149331569671631,"654":-0.14182129502296448,"655":0.12094108015298843,"656":0.1845031976699829,"657":-0.07688218355178833,"658":0.19526809453964233,"659":-0.11519603431224823,"660":-0.009619650430977345,"661":-0.4067642390727997,"662":-0.36518195271492004,"663":0.008405574597418308,"664":-0.2199336290359497,"665":0.046050261706113815,"666":-0.024856453761458397,"667":-0.12312529981136322,"668":0.03715437278151512,"669":-0.0993509590625763,"670":0.16480687260627747,"671":0.029284775257110596,"672":0.03481225669384003,"673":0.13288411498069763,"674":-0.12102961540222168,"675":-0.011505580507218838,"676":0.051694661378860474,"677":-0.22083887457847595,"678":0.05806153640151024,"679":0.0658303052186966,"680":-0.18274620175361633,"681":-0.012447410263121128,"682":0.01458559650927782,"683":-0.07568099349737167,"684":0.32414868474006653,"685":0.1441023200750351,"686":0.06788638234138489,"687":0.12047982960939407,"688":0.16156460344791412,"689":-0.16806526482105255,"690":-0.048677992075681686,"691":-0.07671643793582916,"692":-0.2569660246372223,"693":0.055002473294734955,"694":0.18248547613620758,"695":-0.08164513111114502,"696":0.002341905841603875,"697":0.0718814954161644,"698":-0.04867459088563919,"699":0.10438505560159683,"700":0.02919001877307892,"701":0.036261215806007385,"702":-0.18401598930358887,"703":0.1293109506368637,"704":0.02546638250350952,"705":-0.07467536628246307,"706":-0.12373105436563492,"707":-0.0709744244813919,"708":-0.31248393654823303,"709":0.03692871332168579,"710":-0.23523131012916565,"711":-0.08353212475776672,"712":-0.23551063239574432,"713":-0.03837837278842926,"714":-0.2888622581958771,"715":-0.2756737768650055,"716":-0.13112126290798187,"717":-0.012461533769965172,"718":-0.07144641131162643,"719":-0.010631917044520378,"720":-0.052210863679647446,"721":-0.10017775744199753,"722":-0.09821879118680954,"723":0.07338140904903412,"724":-0.02380598708987236,"725":0.13392695784568787,"726":-0.18253907561302185,"727":0.18215829133987427,"728":0.03991400822997093,"729":-0.07697390764951706,"730":0.049832120537757874,"731":-0.08026424795389175,"732":0.09091648459434509,"733":-0.13725680112838745,"734":0.011883504688739777,"735":-0.1722678393125534,"736":-0.08941445499658585,"737":0.009865492582321167,"738":0.09785989671945572,"739":0.14157085120677948,"740":-0.003858444280922413,"741":-0.07952239364385605,"742":0.01867147535085678,"743":-0.19367055594921112,"744":-0.12290924787521362,"745":-0.02600613422691822,"746":0.03272679075598717,"747":-0.10985639691352844,"748":0.15781794488430023,"749":-0.17049136757850647,"750":0.11992232501506805,"751":0.14023132622241974,"752":0.038214582949876785,"753":0.08901187032461166,"754":-0.05293471738696098,"755":-0.1892983466386795,"756":-0.09093784540891647,"757":0.116904616355896,"758":-0.17508980631828308,"759":-0.057005662471055984,"760":-0.09915027022361755,"761":-0.023933816701173782,"762":-0.030513208359479904,"763":-0.060472272336483,"764":-0.05778830498456955,"765":0.015749042853713036,"766":0.12557505071163177,"767":-0.037466853857040405,"768":-0.10037253797054291,"769":-0.06173454970121384,"770":-0.15400153398513794,"771":0.17817282676696777,"772":-0.0641343742609024,"773":0.17133045196533203,"774":-0.017866535112261772,"775":0.030498750507831573,"776":-0.12270153313875198,"777":0.13037005066871643,"778":0.1675688922405243,"779":-0.15662164986133575,"780":0.08235970884561539,"781":-0.032681286334991455,"782":-0.14471940696239471,"783":-0.06998972594738007}},"3":{"bias":0.3963608145713806,"weights":{"0":-0.12536218762397766,"1":-0.05359296128153801,"2":-0.1985434740781784,"3":0.046290814876556396,"4":-0.11400672793388367,"5":-0.09890633076429367,"6":0.1648900806903839,"7":0.1519438922405243,"8":-0.03155739977955818,"9":-0.026292424649000168,"10":-0.010550475679337978,"11":0.11248578131198883,"12":-0.1652277559041977,"13":-0.1851789653301239,"14":0.04093117266893387,"15":-0.14065830409526825,"16":0.17099663615226746,"17":-0.18147960305213928,"18":0.12410297989845276,"19":-0.10874776542186737,"20":0.1099328100681305,"21":-0.02673480100929737,"22":-0.18366533517837524,"23":-0.049875736236572266,"24":-0.11002424359321594,"25":-0.15236744284629822,"26":0.004702000878751278,"27":0.15913930535316467,"28":-0.08587478846311569,"29":0.09196639806032181,"30":-0.026941318064928055,"31":0.12168798595666885,"32":0.07630167156457901,"33":-0.16106586158275604,"34":-0.04073337838053703,"35":-0.005171218886971474,"36":0.13443392515182495,"37":0.18450197577476501,"38":-0.15311183035373688,"39":0.05219005420804024,"40":0.12053811550140381,"41":-0.13539454340934753,"42":-0.12582455575466156,"43":0.08417709171772003,"44":-0.16619329154491425,"45":-0.026283320039510727,"46":-0.16328442096710205,"47":-0.001101196277886629,"48":0.10642832517623901,"49":0.16701067984104156,"50":-0.09696368128061295,"51":0.13008920848369598,"52":-0.1078014075756073,"53":0.17460736632347107,"54":-0.08288328349590302,"55":-0.07253732532262802,"56":-0.02047460526227951,"57":-0.13921013474464417,"58":0.09424258023500443,"59":-0.1340055614709854,"60":0.11157910525798798,"61":-0.05229288339614868,"62":-0.051952846348285675,"63":0.043474990874528885,"64":0.11458227783441544,"65":0.1774345487356186,"66":0.08313955366611481,"67":0.16436661779880524,"68":-0.09815055876970291,"69":-0.013599993661046028,"70":0.057559240609407425,"71":0.00471847876906395,"72":-0.044171884655952454,"73":0.1641206592321396,"74":-0.0589175820350647,"75":-0.15778344869613647,"76":-0.0625455379486084,"77":-0.090758316218853,"78":-0.006963789463043213,"79":-0.1528623104095459,"80":-0.005032883957028389,"81":-0.19770807027816772,"82":0.05182585120201111,"83":-0.19046775996685028,"84":0.049954187124967575,"85":-0.043860387057065964,"86":0.1381855010986328,"87":0.07527534663677216,"88":0.19181756675243378,"89":0.18665893375873566,"90":0.10239986330270767,"91":0.057198576629161835,"92":-0.1891728788614273,"93":0.05951648950576782,"94":0.012171952985227108,"95":-0.002417027484625578,"96":0.06576143950223923,"97":-0.12002845108509064,"98":-0.0045947181060910225,"99":-0.1239686906337738,"100":0.08706363290548325,"101":-0.222365140914917,"102":-0.19819609820842743,"103":-0.24514862895011902,"104":-0.018324004486203194,"105":0.03554306924343109,"106":-0.03831258788704872,"107":0.15361575782299042,"108":-0.05005167797207832,"109":-0.0651567205786705,"110":-0.08273335546255112,"111":0.11041583120822906,"112":0.17495538294315338,"113":-0.09145013242959976,"114":-0.14706112444400787,"115":-0.020607106387615204,"116":-0.20373424887657166,"117":-0.079310841858387,"118":0.056734681129455566,"119":0.07902807742357254,"120":0.007413866464048624,"121":0.06800447404384613,"122":0.07710874080657959,"123":0.11156805604696274,"124":-0.1441074013710022,"125":-0.03902044892311096,"126":0.0703849047422409,"127":0.02043169178068638,"128":-0.10250160843133926,"129":0.3601644039154053,"130":0.11181755363941193,"131":-0.19906091690063477,"132":-0.013619027100503445,"133":-0.14126288890838623,"134":-0.12303470075130463,"135":-0.1963585466146469,"136":0.052423108369112015,"137":-0.009550349786877632,"138":-0.17418740689754486,"139":-0.19775919616222382,"140":0.19747161865234375,"141":0.06222841143608093,"142":-0.0313899926841259,"143":-0.01114643644541502,"144":-0.16413083672523499,"145":-0.04017283767461777,"146":-0.06590055674314499,"147":-0.06305103003978729,"148":0.16169452667236328,"149":0.13016407191753387,"150":0.15140345692634583,"151":0.13100819289684296,"152":0.18321362137794495,"153":-0.02154846116900444,"154":-0.14773166179656982,"155":-0.09554032236337662,"156":-0.06693131476640701,"157":0.20257258415222168,"158":0.032951366156339645,"159":-0.03760576620697975,"160":-0.24013417959213257,"161":-0.11089044064283371,"162":-0.1918768584728241,"163":-0.18802058696746826,"164":-0.18014109134674072,"165":0.12310115247964859,"166":0.149904265999794,"167":-0.11756054311990738,"168":-0.17324432730674744,"169":0.07512527704238892,"170":-0.023046646267175674,"171":-0.030279194936156273,"172":-0.18206147849559784,"173":-0.09495887160301208,"174":-0.09017547965049744,"175":0.004807999357581139,"176":0.25474414229393005,"177":0.1313595026731491,"178":0.16908131539821625,"179":0.16707569360733032,"180":0.16788241267204285,"181":0.11597443372011185,"182":0.06350501626729965,"183":-0.1933821141719818,"184":-0.17466281354427338,"185":-0.03214871883392334,"186":-0.0037356140092015266,"187":-0.14923027157783508,"188":-0.13796111941337585,"189":-0.0680110976099968,"190":-0.06999176740646362,"191":-0.04636344313621521,"192":-0.09075969457626343,"193":0.18900300562381744,"194":0.11827976256608963,"195":-0.1913478672504425,"196":-0.05533107370138168,"197":0.027348555624485016,"198":0.13917386531829834,"199":-0.1001686230301857,"200":0.13227948546409607,"201":-0.13749960064888,"202":-0.07490968704223633,"203":0.2623678743839264,"204":0.09368153661489487,"205":0.23323848843574524,"206":0.521422803401947,"207":0.23615603148937225,"208":0.09584832191467285,"209":0.294077068567276,"210":-0.02364390157163143,"211":-0.13709601759910583,"212":-0.07227647304534912,"213":-0.1542898565530777,"214":-0.17609883844852448,"215":0.2112327218055725,"216":-0.07798710465431213,"217":0.14365161955356598,"218":-0.12595710158348083,"219":-0.10331869125366211,"220":-0.06985492259263992,"221":-0.050875041633844376,"222":-0.08195129036903381,"223":0.06535914540290833,"224":-0.015294387936592102,"225":-0.18804767727851868,"226":-0.16649910807609558,"227":-0.17035113275051117,"228":0.10270342230796814,"229":-0.14103473722934723,"230":0.11315417289733887,"231":-0.0445011630654335,"232":0.11199914664030075,"233":0.43387869000434875,"234":0.4335537850856781,"235":0.23482286930084229,"236":0.22033292055130005,"237":0.13673344254493713,"238":0.05526577681303024,"239":0.0007155828643590212,"240":-0.1640310138463974,"241":-0.03918687626719475,"242":0.04776114970445633,"243":0.28146734833717346,"244":0.16343416273593903,"245":0.18302948772907257,"246":0.21637767553329468,"247":0.46859025955200195,"248":0.2909929156303406,"249":0.14408141374588013,"250":-0.06290457397699356,"251":0.03438142314553261,"252":0.14916612207889557,"253":0.17259734869003296,"254":0.15536147356033325,"255":-0.07089700549840927,"256":0.09450774639844894,"257":0.018057098612189293,"258":0.2027750015258789,"259":0.04554495960474014,"260":0.16904915869235992,"261":0.3815723955631256,"262":0.36617377400398254,"263":0.1935858130455017,"264":0.15138714015483856,"265":-0.01968003623187542,"266":-0.16178663074970245,"267":-0.15745152533054352,"268":-0.12769880890846252,"269":0.30690139532089233,"270":0.4321354925632477,"271":0.4289361834526062,"272":0.5087215304374695,"273":0.2544851303100586,"274":0.40056437253952026,"275":0.30679160356521606,"276":0.08405143767595291,"277":0.1311601847410202,"278":-0.14108464121818542,"279":-0.03660905361175537,"280":-0.13034231960773468,"281":0.18850401043891907,"282":-0.09512409567832947,"283":-0.08762430399656296,"284":0.05007099360227585,"285":0.06828783452510834,"286":-0.08145962655544281,"287":0.007514184340834618,"288":0.10211820900440216,"289":0.42768988013267517,"290":0.37445712089538574,"291":0.13596273958683014,"292":0.2088240087032318,"293":-0.024335671216249466,"294":-0.3880540430545807,"295":-0.3651826083660126,"296":0.08863501995801926,"297":0.0337991937994957,"298":0.3450314402580261,"299":0.3587700128555298,"300":0.5167056322097778,"301":0.5105162858963013,"302":0.2906530499458313,"303":0.4899785816669464,"304":0.29757028818130493,"305":0.045586369931697845,"306":0.19599002599716187,"307":-0.013239026069641113,"308":0.041564907878637314,"309":0.0888904258608818,"310":-0.18430070579051971,"311":-0.08388420194387436,"312":-0.018670761957764626,"313":-0.08819256722927094,"314":-0.04951385781168938,"315":-0.08771517127752304,"316":-0.08995184302330017,"317":-0.10477065294981003,"318":0.02865932323038578,"319":-0.09011366218328476,"320":-0.0650579184293747,"321":-0.36768412590026855,"322":-0.3684661388397217,"323":-0.2751745581626892,"324":0.10951296240091324,"325":0.18113404512405396,"326":0.18025663495063782,"327":0.16524359583854675,"328":0.28092584013938904,"329":0.3986612856388092,"330":0.29721859097480774,"331":0.38641923666000366,"332":0.04382436349987984,"333":-0.11252852529287338,"334":-0.13470546901226044,"335":-0.1985214203596115,"336":-0.07754363864660263,"337":-0.15744982659816742,"338":0.013123958371579647,"339":0.1669720858335495,"340":-0.03770608827471733,"341":-0.08390984684228897,"342":0.007494189776480198,"343":-0.10289495438337326,"344":0.0014839803334325552,"345":0.16103732585906982,"346":0.16785947978496552,"347":0.10059640556573868,"348":-0.2501535415649414,"349":-0.15458625555038452,"350":-0.2274797260761261,"351":-0.10639141499996185,"352":0.050701215863227844,"353":0.15939320623874664,"354":0.26568248867988586,"355":0.04546144977211952,"356":0.2684759199619293,"357":0.29678088426589966,"358":0.3531305193901062,"359":-0.0027935204561799765,"360":-0.0744205117225647,"361":-0.11965914070606232,"362":-0.14363574981689453,"363":-0.05545280873775482,"364":-0.10527815669775009,"365":-0.19137470424175262,"366":0.1743280440568924,"367":-0.04073595255613327,"368":0.08228403329849243,"369":-0.10995236784219742,"370":-0.0016723042353987694,"371":-0.01925450935959816,"372":-0.13894294202327728,"373":0.08747038245201111,"374":0.05316312611103058,"375":0.10491027683019638,"376":-0.0459088496863842,"377":-0.21556022763252258,"378":-0.24792823195457458,"379":-0.1424189954996109,"380":0.06788308173418045,"381":-0.09523524343967438,"382":0.24704089760780334,"383":0.08126883953809738,"384":0.0008620888111181557,"385":0.12838371098041534,"386":0.11306767165660858,"387":0.11503943800926208,"388":0.08570258319377899,"389":0.14114484190940857,"390":-0.006418291945010424,"391":0.03707392141222954,"392":0.12314420938491821,"393":0.10918521136045456,"394":0.1675337702035904,"395":-0.10169477760791779,"396":-0.007609594147652388,"397":-0.11713680624961853,"398":-0.21148374676704407,"399":-0.002147052437067032,"400":-0.25695574283599854,"401":0.11184430867433548,"402":0.12857891619205475,"403":0.19611519575119019,"404":-0.03078938089311123,"405":-0.14534620940685272,"406":-0.19089311361312866,"407":-0.01976967602968216,"408":0.1526188999414444,"409":0.06828121840953827,"410":0.07744614779949188,"411":-0.17270228266716003,"412":-0.3095317780971527,"413":-0.18906989693641663,"414":-0.1311187744140625,"415":-0.04968201741576195,"416":0.21801888942718506,"417":-0.0648176372051239,"418":-0.03114604949951172,"419":0.02977866493165493,"420":0.16292917728424072,"421":0.19230195879936218,"422":-0.06531636416912079,"423":0.08324834704399109,"424":0.1513795554637909,"425":-0.055141884833574295,"426":-0.027532439678907394,"427":-0.0944126695394516,"428":-0.21929872035980225,"429":-0.09483589977025986,"430":0.1864202469587326,"431":0.00878129992634058,"432":0.11315108090639114,"433":0.15538758039474487,"434":-0.14516761898994446,"435":0.17164739966392517,"436":0.22063353657722473,"437":0.16709096729755402,"438":-0.0871424674987793,"439":0.0055655864998698235,"440":-0.022190678864717484,"441":-0.3726683557033539,"442":-0.13019979000091553,"443":0.028644036501646042,"444":-0.16956491768360138,"445":-0.06475994735956192,"446":-0.17613370716571808,"447":0.16330400109291077,"448":0.1525024026632309,"449":-0.07489676773548126,"450":0.054087571799755096,"451":-0.21103741228580475,"452":-0.1611243188381195,"453":0.20400385558605194,"454":0.05885862931609154,"455":0.02315436862409115,"456":0.0453028529882431,"457":-0.07275359332561493,"458":-0.017917783930897713,"459":-0.0972474068403244,"460":0.3114967942237854,"461":-0.17666473984718323,"462":0.02156761847436428,"463":0.12048905342817307,"464":0.20625531673431396,"465":0.08057362586259842,"466":0.0017617796547710896,"467":0.08634529262781143,"468":-0.30279600620269775,"469":-0.21434201300144196,"470":-0.07083985954523087,"471":0.10343777388334274,"472":0.0034572992008179426,"473":0.08572275191545486,"474":-0.030424803495407104,"475":0.14672596752643585,"476":0.06206350773572922,"477":-0.01486975234001875,"478":-0.08517447859048843,"479":-0.07002798467874527,"480":0.06503064930438995,"481":0.12060367316007614,"482":0.08035395294427872,"483":0.059822604060173035,"484":-0.1563798487186432,"485":-0.03330925479531288,"486":-0.12474952638149261,"487":0.03578197956085205,"488":0.2773473560810089,"489":-0.05453093349933624,"490":-0.055759381502866745,"491":0.1685766726732254,"492":0.14155565202236176,"493":0.3385711908340454,"494":0.1888687163591385,"495":0.023798372596502304,"496":0.10762616246938705,"497":-0.19007185101509094,"498":-0.1923493891954422,"499":0.022638166323304176,"500":0.16441383957862854,"501":0.24816781282424927,"502":-0.01387501135468483,"503":0.15638862550258636,"504":-0.15841573476791382,"505":-0.19464612007141113,"506":-0.16577844321727753,"507":-0.009243021719157696,"508":0.070663683116436,"509":0.2121519148349762,"510":0.2792283892631531,"511":0.018313447013497353,"512":-0.07205826789140701,"513":0.02774996869266033,"514":-0.16289706528186798,"515":-0.040624406188726425,"516":0.20937888324260712,"517":-0.07940080761909485,"518":-0.04102132469415665,"519":0.18217884004116058,"520":0.04331353306770325,"521":0.13732029497623444,"522":-0.08656565099954605,"523":0.06689172983169556,"524":0.03661894425749779,"525":-0.22825036942958832,"526":-0.13980743288993835,"527":0.05769602581858635,"528":0.11312621831893921,"529":-0.10186859220266342,"530":0.01022347342222929,"531":-0.10670603811740875,"532":-0.07559841871261597,"533":0.049838464707136154,"534":-0.042355772107839584,"535":0.062011316418647766,"536":-0.12931358814239502,"537":0.14878392219543457,"538":0.1273679882287979,"539":0.1416952908039093,"540":-0.194358229637146,"541":0.09093187004327774,"542":-0.11806763708591461,"543":-0.21870987117290497,"544":-0.01008845865726471,"545":0.025627531111240387,"546":0.18755419552326202,"547":0.00867361482232809,"548":-0.17364540696144104,"549":-0.2743040919303894,"550":-0.36119502782821655,"551":-0.06659822911024094,"552":-0.016887016594409943,"553":0.08967946469783783,"554":0.023987293243408203,"555":0.15411025285720825,"556":-0.14132951200008392,"557":0.1349952220916748,"558":-0.10416290163993835,"559":0.1821083128452301,"560":0.19708910584449768,"561":0.12536662817001343,"562":-0.16182173788547516,"563":-0.13696058094501495,"564":0.18167929351329803,"565":0.08140293508768082,"566":0.18307770788669586,"567":0.030972938984632492,"568":0.0017524798167869449,"569":-0.09636979550123215,"570":-0.08321188390254974,"571":-0.37556904554367065,"572":-0.16818936169147491,"573":-0.15224894881248474,"574":-0.0594329796731472,"575":-0.06699500232934952,"576":-0.3567371964454651,"577":-0.4622178077697754,"578":-0.2618829011917114,"579":-0.264886736869812,"580":0.13705502450466156,"581":0.1319660097360611,"582":0.043783675879240036,"583":0.012426772154867649,"584":0.016424771398305893,"585":0.13265328109264374,"586":-0.04588552191853523,"587":-0.08712390065193176,"588":0.08501115441322327,"589":0.09724230319261551,"590":0.13456615805625916,"591":0.10433865338563919,"592":0.11163097620010376,"593":-0.18306057155132294,"594":-0.03977636620402336,"595":-0.009049762971699238,"596":-0.1585761457681656,"597":-0.049998391419649124,"598":-0.2385411411523819,"599":-0.012672283686697483,"600":0.019219061359763145,"601":-0.09611255675554276,"602":-0.3175852596759796,"603":-0.29509738087654114,"604":-0.3746660351753235,"605":-0.4316273033618927,"606":-0.15237212181091309,"607":0.03808128833770752,"608":0.015284936875104904,"609":0.2102779746055603,"610":0.15689903497695923,"611":0.03337639942765236,"612":0.20632816851139069,"613":0.16095678508281708,"614":0.1132112517952919,"615":0.04062984883785248,"616":0.0789024606347084,"617":0.10474393516778946,"618":0.1467992067337036,"619":-0.1761050969362259,"620":-0.1134181022644043,"621":-0.07819671183824539,"622":-0.089544877409935,"623":0.07563730329275131,"624":-0.05841827020049095,"625":0.16940130293369293,"626":-0.022325370460748672,"627":0.142727792263031,"628":0.19585366547107697,"629":0.0450737439095974,"630":0.1106247529387474,"631":0.0009924661135300994,"632":-0.09307776391506195,"633":-0.14402464032173157,"634":-0.39853212237358093,"635":-0.02839995175600052,"636":-0.1123996153473854,"637":0.1479758471250534,"638":0.05549148470163345,"639":0.11484017223119736,"640":0.18593771755695343,"641":0.15212328732013702,"642":-0.10612095147371292,"643":0.1917886584997177,"644":-0.19491244852542877,"645":-0.16853003203868866,"646":0.09413377195596695,"647":0.11934028565883636,"648":-0.019567303359508514,"649":-0.16420884430408478,"650":-0.122210793197155,"651":0.12407008558511734,"652":0.1905842274427414,"653":0.15165570378303528,"654":0.17777132987976074,"655":0.3925432562828064,"656":0.08687124401330948,"657":0.19550633430480957,"658":0.11452773958444595,"659":0.07054218649864197,"660":0.06929030269384384,"661":-0.3070022165775299,"662":0.04670102149248123,"663":0.07140892744064331,"664":0.1587693840265274,"665":-0.02021724358201027,"666":-0.022583216428756714,"667":-0.054715346544981,"668":-0.1118398904800415,"669":-0.1563674509525299,"670":-0.16886131465435028,"671":-0.12066210806369781,"672":-0.19601768255233765,"673":0.11025862395763397,"674":-0.039684128016233444,"675":-0.01900533027946949,"676":0.12333422899246216,"677":-0.05379372090101242,"678":-0.01266330573707819,"679":-0.08616764843463898,"680":0.2744258642196655,"681":0.17195339500904083,"682":0.27430757880210876,"683":0.2514338195323944,"684":0.33540549874305725,"685":0.2461816370487213,"686":0.21243314445018768,"687":0.14576002955436707,"688":0.20761606097221375,"689":0.21867914497852325,"690":0.000006571154699486215,"691":0.20337951183319092,"692":0.0671723484992981,"693":-0.05283958464860916,"694":0.17738987505435944,"695":-0.07790482044219971,"696":-0.14880777895450592,"697":0.02843082882463932,"698":-0.16942107677459717,"699":0.06849613785743713,"700":-0.06502590328454971,"701":0.17989091575145721,"702":-0.1015092059969902,"703":-0.03616875782608986,"704":-0.11317871510982513,"705":-0.012136382050812244,"706":-0.047617509961128235,"707":0.13806496560573578,"708":-0.06382332742214203,"709":-0.009291299618780613,"710":0.05121273174881935,"711":0.34329473972320557,"712":0.36277762055397034,"713":0.215290367603302,"714":0.1021924540400505,"715":0.28766873478889465,"716":0.3943217992782593,"717":0.3074517548084259,"718":0.04161324352025986,"719":-0.027294278144836426,"720":0.13344693183898926,"721":0.021203547716140747,"722":-0.08690112829208374,"723":-0.14005890488624573,"724":0.17223867774009705,"725":0.17621520161628723,"726":0.04070158302783966,"727":0.048036955296993256,"728":-0.09894121438264847,"729":0.05853116512298584,"730":-0.03981883078813553,"731":0.11265416443347931,"732":-0.18403711915016174,"733":0.13143949210643768,"734":0.10986257344484329,"735":0.0020522382110357285,"736":-0.13493318855762482,"737":-0.06897234916687012,"738":-0.04887021705508232,"739":-0.0518004447221756,"740":-0.009293586015701294,"741":0.19673262536525726,"742":-0.04870787262916565,"743":0.07152164727449417,"744":0.2354530245065689,"745":0.19916188716888428,"746":-0.06075536832213402,"747":-0.06900537759065628,"748":0.06764188408851624,"749":-0.13209332525730133,"750":0.08563468605279922,"751":0.1194196566939354,"752":0.12477155774831772,"753":-0.10818707197904587,"754":-0.04769837483763695,"755":-0.19529984891414642,"756":0.12308099865913391,"757":0.10576672852039337,"758":-0.05526755750179291,"759":-0.08363967388868332,"760":0.07537007331848145,"761":-0.00031905301148071885,"762":-0.1228707879781723,"763":0.0147189786657691,"764":-0.11578057706356049,"765":-0.1282193511724472,"766":0.025244232267141342,"767":0.03842218965291977,"768":0.17068548500537872,"769":-0.10589749366044998,"770":-0.07476058602333069,"771":0.13306333124637604,"772":-0.08360352367162704,"773":-0.04483437165617943,"774":0.14441758394241333,"775":-0.05807868018746376,"776":-0.03416657820343971,"777":0.14897620677947998,"778":0.06440235674381256,"779":-0.09045562893152237,"780":0.01506931334733963,"781":0.11141472309827805,"782":0.03998836874961853,"783":-0.1756882518529892}},"4":{"bias":-0.15530255436897278,"weights":{"0":-0.163600891828537,"1":0.07883227616548538,"2":0.15265962481498718,"3":0.058141037821769714,"4":0.16860507428646088,"5":0.03522147238254547,"6":0.17476923763751984,"7":-0.14523547887802124,"8":-0.040806692093610764,"9":0.05559191107749939,"10":-0.0958775207400322,"11":-0.09344357997179031,"12":0.18774056434631348,"13":-0.08590633422136307,"14":-0.14710357785224915,"15":-0.11126533150672913,"16":0.09913280606269836,"17":0.10768581926822662,"18":-0.14243972301483154,"19":0.11870180070400238,"20":-0.19092755019664764,"21":-0.13476449251174927,"22":0.12953510880470276,"23":0.08346396684646606,"24":0.10052355378866196,"25":-0.08405913412570953,"26":0.1608959436416626,"27":-0.09965634346008301,"28":0.0979958102107048,"29":-0.197099968791008,"30":-0.13644802570343018,"31":0.06475088745355606,"32":-0.18621790409088135,"33":0.07652465254068375,"34":-0.06840093433856964,"35":0.007026492152363062,"36":0.14336295425891876,"37":0.16754314303398132,"38":0.03776053711771965,"39":0.14220747351646423,"40":0.04934123158454895,"41":0.15121318399906158,"42":0.16956490278244019,"43":0.0748666375875473,"44":-0.12513819336891174,"45":-0.1461903154850006,"46":-0.14333024621009827,"47":0.17385126650333405,"48":-0.16715991497039795,"49":0.17904716730117798,"50":-0.1034659743309021,"51":-0.07664231956005096,"52":0.13603657484054565,"53":0.19700972735881805,"54":0.15688031911849976,"55":0.016808679327368736,"56":0.13799208402633667,"57":0.029426228255033493,"58":0.19850029051303864,"59":-0.0015968502266332507,"60":-0.12496877461671829,"61":0.1554776281118393,"62":0.12017374485731125,"63":0.1233258843421936,"64":0.16018129885196686,"65":0.05571523308753967,"66":-0.10677801072597504,"67":-0.19759616255760193,"68":-0.18060165643692017,"69":-0.11972758173942566,"70":-0.14334502816200256,"71":-0.13352155685424805,"72":-0.16815674304962158,"73":0.045015133917331696,"74":-0.07478906214237213,"75":0.11098030209541321,"76":0.09581825137138367,"77":0.10239406675100327,"78":-0.09401977807283401,"79":-0.03609168156981468,"80":0.16170822083950043,"81":-0.035737499594688416,"82":0.10269490629434586,"83":0.054975368082523346,"84":-0.10934937745332718,"85":-0.12056676298379898,"86":0.12405993044376373,"87":0.0625438392162323,"88":-0.0511435940861702,"89":0.16977904736995697,"90":0.033421020954847336,"91":0.0955912247300148,"92":-0.08109431713819504,"93":-0.2661343216896057,"94":-0.20181900262832642,"95":0.05843808501958847,"96":-0.05612139031291008,"97":-0.12262707203626633,"98":0.010258836671710014,"99":-0.2354998141527176,"100":-0.21326188743114471,"101":-0.20627202093601227,"102":-0.14428840577602386,"103":0.02060260996222496,"104":-0.2920244336128235,"105":-0.07076451182365417,"106":-0.014003022573888302,"107":-0.018912166357040405,"108":-0.04963209107518196,"109":-0.03338298946619034,"110":-0.1557333916425705,"111":0.1626257747411728,"112":-0.0009391525527462363,"113":-0.06251463294029236,"114":-0.04494330286979675,"115":-0.0652787983417511,"116":-0.038094792515039444,"117":0.03742014616727829,"118":0.1458102911710739,"119":-0.006174065172672272,"120":-0.20572198927402496,"121":-0.29038646817207336,"122":-0.2896798551082611,"123":-0.05208391696214676,"124":-0.1540648490190506,"125":-0.20071770250797272,"126":-0.17766046524047852,"127":0.12107905000448227,"128":0.07808633148670197,"129":0.018104862421751022,"130":0.07410788536071777,"131":0.060318682342767715,"132":0.06344527751207352,"133":0.02595215104520321,"134":-0.21769024431705475,"135":0.06336308270692825,"136":0.14081373810768127,"137":-0.20626412332057953,"138":0.08257120102643967,"139":0.026881227269768715,"140":-0.024150164797902107,"141":-0.12750016152858734,"142":0.08215374499559402,"143":0.13534028828144073,"144":-0.1562587022781372,"145":0.13741576671600342,"146":-0.21784518659114838,"147":-0.0126490518450737,"148":-0.13500401377677917,"149":-0.0988268330693245,"150":-0.10804014652967453,"151":-0.38942503929138184,"152":-0.29124853014945984,"153":0.11139100044965744,"154":0.13143157958984375,"155":0.12450338155031204,"156":-0.03819892928004265,"157":0.102659672498703,"158":0.02384248934686184,"159":-0.07058262825012207,"160":-0.3234233558177948,"161":-0.21985700726509094,"162":-0.2279895395040512,"163":0.021504178643226624,"164":-0.2584786117076874,"165":0.04119208827614784,"166":-0.07896464318037033,"167":0.016536667943000793,"168":-0.01347376499325037,"169":-0.19119225442409515,"170":0.16575203835964203,"171":0.17093613743782043,"172":-0.1316264122724533,"173":-0.1098383292555809,"174":-0.12974859774112701,"175":-0.14260037243366241,"176":-0.20146217942237854,"177":-0.30715906620025635,"178":-0.11104552447795868,"179":-0.19441907107830048,"180":-0.2269289791584015,"181":-0.048996783792972565,"182":-0.17292724549770355,"183":0.1686723530292511,"184":-0.21677403151988983,"185":0.05342783406376839,"186":-0.051526989787817,"187":-0.23231588304042816,"188":0.02066056616604328,"189":0.07807634025812149,"190":0.15018539130687714,"191":-0.055770739912986755,"192":-0.22857488691806793,"193":0.14185382425785065,"194":0.06952369213104248,"195":-0.15700869262218475,"196":-0.052711889147758484,"197":0.11632684618234634,"198":0.06058819219470024,"199":-0.04370064288377762,"200":-0.09164288640022278,"201":0.06653839349746704,"202":0.1525644212961197,"203":0.01795019581913948,"204":-0.3374345004558563,"205":-0.20022477209568024,"206":0.001824361621402204,"207":-0.07702326774597168,"208":0.0877649262547493,"209":-0.14152127504348755,"210":-0.021038513630628586,"211":-0.32191815972328186,"212":-0.184355229139328,"213":-0.025950444862246513,"214":-0.19337154924869537,"215":0.03229577839374542,"216":0.18889370560646057,"217":0.009436268359422684,"218":0.00640472024679184,"219":0.23932430148124695,"220":0.13021475076675415,"221":-0.1065974235534668,"222":0.20001594722270966,"223":-0.09664780646562576,"224":-0.19037766754627228,"225":-0.10588932037353516,"226":0.20857463777065277,"227":0.10492176562547684,"228":0.22644799947738647,"229":0.11919182538986206,"230":0.07460736483335495,"231":0.174334317445755,"232":0.024690920487046242,"233":-0.06783874332904816,"234":-0.046604640781879425,"235":-0.028525060042738914,"236":-0.053160205483436584,"237":-0.15287354588508606,"238":-0.22585009038448334,"239":-0.07722242176532745,"240":0.21091052889823914,"241":0.16003049910068512,"242":0.19371114671230316,"243":0.1116948202252388,"244":0.4055538773536682,"245":0.1509704291820526,"246":0.1252671182155609,"247":0.3715396821498871,"248":0.2210288643836975,"249":-0.07265347987413406,"250":0.12282876670360565,"251":-0.04416463524103165,"252":0.048566799610853195,"253":0.050858691334724426,"254":-0.16109684109687805,"255":0.02420431189239025,"256":0.02125854231417179,"257":-0.018591923639178276,"258":0.27888816595077515,"259":0.1717197597026825,"260":0.06538072228431702,"261":0.016211679205298424,"262":-0.056609753519296646,"263":-0.11273596435785294,"264":0.11388048529624939,"265":0.095248281955719,"266":0.1933704912662506,"267":0.17332424223423004,"268":0.4839365482330322,"269":0.4786292016506195,"270":0.5524972081184387,"271":0.43376097083091736,"272":0.292106568813324,"273":0.5499140620231628,"274":-0.01831512711942196,"275":0.2370471954345703,"276":0.2569618821144104,"277":0.25992724299430847,"278":-0.12265296280384064,"279":0.10695528239011765,"280":0.18937177956104279,"281":-0.05271940678358078,"282":0.16533705592155457,"283":0.15986505150794983,"284":0.2630866765975952,"285":0.05733108893036842,"286":-0.10477089136838913,"287":0.1433946043252945,"288":-0.01849076710641384,"289":-0.021598398685455322,"290":0.1644809991121292,"291":0.24158911406993866,"292":-0.024629997089505196,"293":0.26142391562461853,"294":0.3320651948451996,"295":0.18741141259670258,"296":0.2592766582965851,"297":0.359356552362442,"298":0.5372921228408813,"299":0.5798388123512268,"300":0.37894317507743835,"301":0.29960256814956665,"302":0.3622606694698334,"303":0.24394813179969788,"304":0.37716349959373474,"305":0.296131432056427,"306":0.19523067772388458,"307":0.18471109867095947,"308":0.12095222622156143,"309":-0.06901548057794571,"310":0.1632743626832962,"311":-0.02624695934355259,"312":0.26999664306640625,"313":-0.06270699948072433,"314":0.10979728400707245,"315":0.1944849193096161,"316":0.09860420227050781,"317":0.028008759021759033,"318":0.25776904821395874,"319":0.13392555713653564,"320":0.3316051959991455,"321":0.40511181950569153,"322":0.23390063643455505,"323":-0.2261909544467926,"324":-0.38592031598091125,"325":0.23051267862319946,"326":0.26034584641456604,"327":0.18019980192184448,"328":0.2857458293437958,"329":0.31274333596229553,"330":-0.09826845675706863,"331":0.1825902760028839,"332":-0.0773230567574501,"333":-0.044858649373054504,"334":-0.08513954281806946,"335":0.02448517456650734,"336":0.07300061732530594,"337":-0.11187674850225449,"338":0.15488746762275696,"339":-0.06562135368585587,"340":0.04984813928604126,"341":0.1524909883737564,"342":0.22640886902809143,"343":0.15217545628547668,"344":-0.048156194388866425,"345":0.29086244106292725,"346":0.052034877240657806,"347":0.3546224534511566,"348":0.27733901143074036,"349":0.06070892885327339,"350":-0.5453154444694519,"351":-0.3600262701511383,"352":-0.49750444293022156,"353":-0.05246239900588989,"354":-0.15941131114959717,"355":-0.08569467067718506,"356":0.12729030847549438,"357":0.013636479154229164,"358":-0.06071174517273903,"359":0.1259436458349228,"360":-0.032116975635290146,"361":-0.11145534366369247,"362":0.1169058158993721,"363":0.10061696916818619,"364":0.06409842520952225,"365":-0.08258321136236191,"366":0.1003495380282402,"367":-0.13555710017681122,"368":0.06894548237323761,"369":0.21403087675571442,"370":0.19067305326461792,"371":0.22755937278270721,"372":-0.03309353068470955,"373":0.14953163266181946,"374":0.4265798330307007,"375":0.033746711909770966,"376":-0.20552892982959747,"377":-0.22769364714622498,"378":-0.5774481296539307,"379":-0.6313436627388,"380":-0.4703943133354187,"381":-0.24097102880477905,"382":-0.2634716331958771,"383":-0.11614266782999039,"384":-0.2232171893119812,"385":0.017245672643184662,"386":-0.02720760554075241,"387":0.026700522750616074,"388":-0.08936656266450882,"389":0.019337963312864304,"390":-0.0252268984913826,"391":-0.11477018147706985,"392":0.060094308108091354,"393":0.03563574329018593,"394":-0.06824760884046555,"395":0.1448371708393097,"396":0.15175436437129974,"397":-0.06889475136995316,"398":0.009666754864156246,