{"sizes":[784,16,16,10],"layers":[{"0":{},"1":{},"2":{},"3":{},"4":{},"5":{},"6":{},"7":{},"8":{},"9":{},"10":{},"11":{},"12":{},"13":{},"14":{},"15":{},"16":{},"17":{},"18":{},"19":{},"20":{},"21":{},"22":{},"23":{},"24":{},"25":{},"26":{},"27":{},"28":{},"29":{},"30":{},"31":{},"32":{},"33":{},"34":{},"35":{},"36":{},"37":{},"38":{},"39":{},"40":{},"41":{},"42":{},"43":{},"44":{},"45":{},"46":{},"47":{},"48":{},"49":{},"50":{},"51":{},"52":{},"53":{},"54":{},"55":{},"56":{},"57":{},"58":{},"59":{},"60":{},"61":{},"62":{},"63":{},"64":{},"65":{},"66":{},"67":{},"68":{},"69":{},"70":{},"71":{},"72":{},"73":{},"74":{},"75":{},"76":{},"77":{},"78":{},"79":{},"80":{},"81":{},"82":{},"83":{},"84":{},"85":{},"86":{},"87":{},"88":{},"89":{},"90":{},"91":{},"92":{},"93":{},"94":{},"95":{},"96":{},"97":{},"98":{},"99":{},"100":{},"101":{},"102":{},"103":{},"104":{},"105":{},"106":{},"107":{},"108":{},"109":{},"110":{},"111":{},"112":{},"113":{},"114":{},"115":{},"116":{},"117":{},"118":{},"119":{},"120":{},"121":{},"122":{},"123":{},"124":{},"125":{},"126":{},"127":{},"128":{},"129":{},"130":{},"131":{},"132":{},"133":{},"134":{},"135":{},"136":{},"137":{},"138":{},"139":{},"140":{},"141":{},"142":{},"143":{},"144":{},"145":{},"146":{},"147":{},"148":{},"149":{},"150":{},"151":{},"152":{},"153":{},"154":{},"155":{},"156":{},"157":{},"158":{},"159":{},"160":{},"161":{},"162":{},"163":{},"164":{},"165":{},"166":{},"167":{},"168":{},"169":{},"170":{},"171":{},"172":{},"173":{},"174":{},"175":{},"176":{},"177":{},"178":{},"179":{},"180":{},"181":{},"182":{},"183":{},"184":{},"185":{},"186":{},"187":{},"188":{},"189":{},"190":{},"191":{},"192":{},"193":{},"194":{},"195":{},"196":{},"197":{},"198":{},"199":{},"200":{},"201":{},"202":{},"203":{},"204":{},"205":{},"206":{},"207":{},"208":{},"209":{},"210":{},"211":{},"212":{},"213":{},"214":{},"215":{},"216":{},"217":{},"218":{},"219":{},"220":{},"221":{},"222":{},"223":{},"224":{},"225":{},"226":{},"227":{},"228":{},"229":{},"230":{},"231":{},"232":{},"233":{},"234":{},"235":{},"236":{},"237":{},"238":{},"239":{},"240":{},"241":{},"242":{},"243":{},"244":{},"245":{},"246":{},"247":{},"248":{},"249":{},"250":{},"251":{},"252":{},"253":{},"254":{},"255":{},"256":{},"257":{},"258":{},"259":{},"260":{},"261":{},"262":{},"263":{},"264":{},"265":{},"266":{},"267":{},"268":{},"269":{},"270":{},"271":{},"272":{},"273":{},"274":{},"275":{},"276":{},"277":{},"278":{},"279":{},"280":{},"281":{},"282":{},"283":{},"284":{},"285":{},"286":{},"287":{},"288":{},"289":{},"290":{},"291":{},"292":{},"293":{},"294":{},"295":{},"296":{},"297":{},"298":{},"299":{},"300":{},"301":{},"302":{},"303":{},"304":{},"305":{},"306":{},"307":{},"308":{},"309":{},"310":{},"311":{},"312":{},"313":{},"314":{},"315":{},"316":{},"317":{},"318":{},"319":{},"320":{},"321":{},"322":{},"323":{},"324":{},"325":{},"326":{},"327":{},"328":{},"329":{},"330":{},"331":{},"332":{},"333":{},"334":{},"335":{},"336":{},"337":{},"338":{},"339":{},"340":{},"341":{},"342":{},"343":{},"344":{},"345":{},"346":{},"347":{},"348":{},"349":{},"350":{},"351":{},"352":{},"353":{},"354":{},"355":{},"356":{},"357":{},"358":{},"359":{},"360":{},"361":{},"362":{},"363":{},"364":{},"365":{},"366":{},"367":{},"368":{},"369":{},"370":{},"371":{},"372":{},"373":{},"374":{},"375":{},"376":{},"377":{},"378":{},"379":{},"380":{},"381":{},"382":{},"383":{},"384":{},"385":{},"386":{},"387":{},"388":{},"389":{},"390":{},"391":{},"392":{},"393":{},"394":{},"395":{},"396":{},"397":{},"398":{},"399":{},"400":{},"401":{},"402":{},"403":{},"404":{},"405":{},"406":{},"407":{},"408":{},"409":{},"410":{},"411":{},"412":{},"413":{},"414":{},"415":{},"416":{},"417":{},"418":{},"419":{},"420":{},"421":{},"422":{},"423":{},"424":{},"425":{},"426":{},"427":{},"428":{},"429":{},"430":{},"431":{},"432":{},"433":{},"434":{},"435":{},"436":{},"437":{},"438":{},"439":{},"440":{},"441":{},"442":{},"443":{},"444":{},"445":{},"446":{},"447":{},"448":{},"449":{},"450":{},"451":{},"452":{},"453":{},"454":{},"455":{},"456":{},"457":{},"458":{},"459":{},"460":{},"461":{},"462":{},"463":{},"464":{},"465":{},"466":{},"467":{},"468":{},"469":{},"470":{},"471":{},"472":{},"473":{},"474":{},"475":{},"476":{},"477":{},"478":{},"479":{},"480":{},"481":{},"482":{},"483":{},"484":{},"485":{},"486":{},"487":{},"488":{},"489":{},"490":{},"491":{},"492":{},"493":{},"494":{},"495":{},"496":{},"497":{},"498":{},"499":{},"500":{},"501":{},"502":{},"503":{},"504":{},"505":{},"506":{},"507":{},"508":{},"509":{},"510":{},"511":{},"512":{},"513":{},"514":{},"515":{},"516":{},"517":{},"518":{},"519":{},"520":{},"521":{},"522":{},"523":{},"524":{},"525":{},"526":{},"527":{},"528":{},"529":{},"530":{},"531":{},"532":{},"533":{},"534":{},"535":{},"536":{},"537":{},"538":{},"539":{},"540":{},"541":{},"542":{},"543":{},"544":{},"545":{},"546":{},"547":{},"548":{},"549":{},"550":{},"551":{},"552":{},"553":{},"554":{},"555":{},"556":{},"557":{},"558":{},"559":{},"560":{},"561":{},"562":{},"563":{},"564":{},"565":{},"566":{},"567":{},"568":{},"569":{},"570":{},"571":{},"572":{},"573":{},"574":{},"575":{},"576":{},"577":{},"578":{},"579":{},"580":{},"581":{},"582":{},"583":{},"584":{},"585":{},"586":{},"587":{},"588":{},"589":{},"590":{},"591":{},"592":{},"593":{},"594":{},"595":{},"596":{},"597":{},"598":{},"599":{},"600":{},"601":{},"602":{},"603":{},"604":{},"605":{},"606":{},"607":{},"608":{},"609":{},"610":{},"611":{},"612":{},"613":{},"614":{},"615":{},"616":{},"617":{},"618":{},"619":{},"620":{},"621":{},"622":{},"623":{},"624":{},"625":{},"626":{},"627":{},"628":{},"629":{},"630":{},"631":{},"632":{},"633":{},"634":{},"635":{},"636":{},"637":{},"638":{},"639":{},"640":{},"641":{},"642":{},"643":{},"644":{},"645":{},"646":{},"647":{},"648":{},"649":{},"650":{},"651":{},"652":{},"653":{},"654":{},"655":{},"656":{},"657":{},"658":{},"659":{},"660":{},"661":{},"662":{},"663":{},"664":{},"665":{},"666":{},"667":{},"668":{},"669":{},"670":{},"671":{},"672":{},"673":{},"674":{},"675":{},"676":{},"677":{},"678":{},"679":{},"680":{},"681":{},"682":{},"683":{},"684":{},"685":{},"686":{},"687":{},"688":{},"689":{},"690":{},"691":{},"692":{},"693":{},"694":{},"695":{},"696":{},"697":{},"698":{},"699":{},"700":{},"701":{},"702":{},"703":{},"704":{},"705":{},"706":{},"707":{},"708":{},"709":{},"710":{},"711":{},"712":{},"713":{},"714":{},"715":{},"716":{},"717":{},"718":{},"719":{},"720":{},"721":{},"722":{},"723":{},"724":{},"725":{},"726":{},"727":{},"728":{},"729":{},"730":{},"731":{},"732":{},"733":{},"734":{},"735":{},"736":{},"737":{},"738":{},"739":{},"740":{},"741":{},"742":{},"743":{},"744":{},"745":{},"746":{},"747":{},"748":{},"749":{},"750":{},"751":{},"752":{},"753":{},"754":{},"755":{},"756":{},"757":{},"758":{},"759":{},"760":{},"761":{},"762":{},"763":{},"764":{},"765":{},"766":{},"767":{},"768":{},"769":{},"770":{},"771":{},"772":{},"773":{},"774":{},"775":{},"776":{},"777":{},"778":{},"779":{},"780":{},"781":{},"782":{},"783":{}},{"0":{"bias":-10.197431564331055,"weights":{"0":-0.17170517146587372,"1":-0.032445333898067474,"2":0.02521882764995098,"3":0.023477062582969666,"4":0.04603950306773186,"5":-0.02439163252711296,"6":-0.16114746034145355,"7":-0.04252102971076965,"8":-0.10103282332420349,"9":-0.1817583590745926,"10":-0.14576388895511627,"11":-0.10353343188762665,"12":0.19787512719631195,"13":-0.11836585402488708,"14":0.048621781170368195,"15":0.0839458703994751,"16":-0.026894962415099144,"17":-0.007603489328175783,"18":-0.18988709151744843,"19":0.014108228497207165,"20":0.12628911435604095,"21":-0.004627333488315344,"22":-0.02995297871530056,"23":0.18146562576293945,"24":-0.15277552604675293,"25":0.1352648138999939,"26":0.009682193398475647,"27":-0.1324649155139923,"28":-0.1456463634967804,"29":0.03184350207448006,"30":0.08608221262693405,"31":-0.020444385707378387,"32":0.1919218897819519,"33":0.08056814968585968,"34":0.19076699018478394,"35":-0.18595166504383087,"36":-0.030556729063391685,"37":0.03600362688302994,"38":0.1184113621711731,"39":0.08752721548080444,"40":-0.10599075257778168,"41":-0.16989928483963013,"42":-0.11581096798181534,"43":0.24681654572486877,"44":0.08840274065732956,"45":0.1284102201461792,"46":0.144816592335701,"47":-0.1928611695766449,"48":-0.10266012698411942,"49":-0.1014532670378685,"50":0.027716802433133125,"51":-0.12409695982933044,"52":0.12764039635658264,"53":0.12248192727565765,"54":-0.07759005576372147,"55":-0.13065795600414276,"56":0.0818525180220604,"57":0.1655796766281128,"58":0.1099301129579544,"59":-0.09664375334978104,"60":-0.07058300822973251,"61":-0.03845441713929176,"62":-0.18918706476688385,"63":0.07800205051898956,"64":-1.2351003885269165,"65":-2.9177348613739014,"66":-2.270955801010132,"67":-1.8340554237365723,"68":-1.2321609258651733,"69":-2.5770633220672607,"70":-4.087166786193848,"71":-1.5537816286087036,"72":-1.3123122453689575,"73":-2.250478506088257,"74":-1.8343931436538696,"75":-1.4229644536972046,"76":-1.4560288190841675,"77":-1.2192857265472412,"78":-0.31525918841362,"79":-0.10860399901866913,"80":0.1440306305885315,"81":-0.18552881479263306,"82":-0.17073245346546173,"83":0.062496356666088104,"84":-0.034254979342222214,"85":-0.19717170298099518,"86":0.022224213927984238,"87":0.1266692727804184,"88":0.017052724957466125,"89":0.3756635785102844,"90":0.7305943965911865,"91":0.9728867411613464,"92":-0.4481986165046692,"93":-2.9328529834747314,"94":-2.654667854309082,"95":-2.118544340133667,"96":0.8265451788902283,"97":-0.6464048027992249,"98":2.3164777755737305,"99":-2.4557571411132812,"100":-5.102004528045654,"101":-0.08942325413227081,"102":0.5155088305473328,"103":-4.59972620010376,"104":-1.6424020528793335,"105":-2.0316085815429688,"106":-0.48541000485420227,"107":-0.4888435900211334,"108":0.35492464900016785,"109":0.17184779047966003,"110":0.07774145156145096,"111":-0.01441103033721447,"112":-0.1048717349767685,"113":0.16402894258499146,"114":-0.12709254026412964,"115":0.02285667136311531,"116":0.10056083649396896,"117":1.2397129535675049,"118":2.1480355262756348,"119":2.067394495010376,"120":2.673006534576416,"121":-0.6816310882568359,"122":-1.6227775812149048,"123":-0.19976848363876343,"124":4.854765892028809,"125":-1.7178518772125244,"126":-1.0813984870910645,"127":2.7764835357666016,"128":-0.6306307911872864,"129":-1.0904570817947388,"130":7.098026275634766,"131":-4.6529107093811035,"132":-4.382944107055664,"133":0.19355350732803345,"134":2.411351203918457,"135":0.12054136395454407,"136":1.707934021949768,"137":1.5832980871200562,"138":0.8035112619400024,"139":0.2856845259666443,"140":-0.08616900444030762,"141":-0.11021238565444946,"142":0.11061389744281769,"143":0.8613449335098267,"144":0.9343468546867371,"145":2.4542109966278076,"146":2.666797161102295,"147":2.2435781955718994,"148":-0.41241443157196045,"149":1.8527185916900635,"150":-3.2803890705108643,"151":-0.11159252375364304,"152":-1.3876395225524902,"153":3.91251540184021,"154":1.4396113157272339,"155":-0.7232415080070496,"156":0.3098246455192566,"157":3.7076289653778076,"158":3.0073676109313965,"159":-0.06457506865262985,"160":4.400108337402344,"161":1.8518691062927246,"162":3.783358335494995,"163":2.2751777172088623,"164":3.1331121921539307,"165":3.535567283630371,"166":0.814712405204773,"167":0.16612771153450012,"168":0.06437147408723831,"169":-0.13951659202575684,"170":0.6722545027732849,"171":1.8234059810638428,"172":0.5819108486175537,"173":2.3805220127105713,"174":0.4066448509693146,"175":-0.7024616599082947,"176":1.2528115510940552,"177":1.584771752357483,"178":1.1978100538253784,"179":0.4276285469532013,"180":3.582167148590088,"181":-0.7472847700119019,"182":-2.2253177165985107,"183":1.9081135988235474,"184":-2.7470362186431885,"185":2.3189077377319336,"186":-1.3555691242218018,"187":-1.6233803033828735,"188":3.4860117435455322,"189":2.8474950790405273,"190":1.66162109375,"191":1.1292303800582886,"192":5.263200283050537,"193":2.4374430179595947,"194":0.9167163968086243,"195":0.10375364124774933,"196":0.14836466312408447,"197":0.015452960506081581,"198":-0.26575949788093567,"199":0.18111392855644226,"200":0.9127187132835388,"201":2.4878454208374023,"202":1.0949021577835083,"203":0.36947688460350037,"204":-0.9301929473876953,"205":-1.563854455947876,"206":-2.057001829147339,"207":-5.099140167236328,"208":-0.0015740393428131938,"209":-2.3183674812316895,"210":-3.176862955093384,"211":5.791541576385498,"212":0.4121858775615692,"213":3.871206045150757,"214":0.7969447374343872,"215":0.3679906725883484,"216":-1.0333131551742554,"217":-0.8845236301422119,"218":0.9477909207344055,"219":2.819854974746704,"220":5.794360637664795,"221":3.7307028770446777,"222":0.5285707116127014,"223":-0.044117044657468796,"224":0.13313576579093933,"225":0.10420920699834824,"226":0.7208178043365479,"227":0.354079008102417,"228":-0.27318981289863586,"229":1.047738790512085,"230":2.962972402572632,"231":2.160127878189087,"232":0.5615361928939819,"233":3.4924216270446777,"234":0.4650769829750061,"235":4.068345546722412,"236":1.3012948036193848,"237":1.4680752754211426,"238":-6.783667087554932,"239":-1.7673009634017944,"240":-3.0038254261016846,"241":-6.824989318847656,"242":0.5190362930297852,"243":1.1095166206359863,"244":-1.532088279724121,"245":2.5998294353485107,"246":-0.4943424463272095,"247":-1.1942074298858643,"248":6.694531440734863,"249":4.101644992828369,"250":0.962292492389679,"251":0.17773592472076416,"252":-0.013713056221604347,"253":-0.14409001171588898,"254":-0.29821300506591797,"255":0.33299896121025085,"256":1.35028076171875,"257":0.008290037512779236,"258":4.928583145141602,"259":2.554246187210083,"260":1.4139543771743774,"261":1.6473007202148438,"262":-0.29992660880088806,"263":0.9023289680480957,"264":-1.625823736190796,"265":0.735572099685669,"266":-5.417748928070068,"267":0.2529350817203522,"268":-1.7423981428146362,"269":-0.4966214895248413,"270":-2.387589454650879,"271":-2.398047924041748,"272":0.2790715992450714,"273":1.4409165382385254,"274":2.9605021476745605,"275":-0.6166596412658691,"276":7.898927688598633,"277":5.831120014190674,"278":1.7153377532958984,"279":-0.13042660057544708,"280":-0.022466884925961494,"281":0.1976892352104187,"282":-0.08729030191898346,"283":0.4961942136287689,"284":2.0703847408294678,"285":-0.7209346294403076,"286":0.31738701462745667,"287":0.20721766352653503,"288":0.6598401665687561,"289":3.0353078842163086,"290":1.922975778579712,"291":-0.21247811615467072,"292":6.379536151885986,"293":2.370495080947876,"294":2.5689914226531982,"295":4.339846611022949,"296":1.9636231660842896,"297":1.784401774406433,"298":2.570317268371582,"299":1.063398003578186,"300":0.6114010214805603,"301":3.097954034805298,"302":3.456719398498535,"303":1.2129162549972534,"304":5.572994232177734,"305":4.746767997741699,"306":0.3036991357803345,"307":0.04278000816702843,"308":0.00900483038276434,"309":0.07099699974060059,"310":-0.17608091235160828,"311":0.76557856798172,"312":0.16022977232933044,"313":-2.990753412246704,"314":0.797312319278717,"315":-2.560415267944336,"316":0.8544355630874634,"317":2.77298641204834,"318":0.48998063802719116,"319":-1.1187902688980103,"320":7.039231300354004,"321":3.7221758365631104,"322":10.966812133789062,"323":9.762394905090332,"324":2.6720101833343506,"325":5.882492542266846,"326":5.483431339263916,"327":1.3694456815719604,"328":2.4439170360565186,"329":6.27987003326416,"330":1.3346070051193237,"331":-1.5452942848205566,"332":1.6243243217468262,"333":3.2963767051696777,"334":0.8743277788162231,"335":0.012004008516669273,"336":0.04918203502893448,"337":-0.07665856182575226,"338":-0.0771658644080162,"339":0.32442954182624817,"340":-1.2897599935531616,"341":-1.9570800065994263,"342":-2.574206829071045,"343":-0.6401516199111938,"344":1.4380918741226196,"345":4.342138290405273,"346":3.2380807399749756,"347":5.082282066345215,"348":1.8898440599441528,"349":3.2813713550567627,"350":7.698166847229004,"351":8.664885520935059,"352":-1.1880314350128174,"353":-3.755849599838257,"354":5.558504581451416,"355":-1.7452561855316162,"356":1.4855332374572754,"357":-0.36155110597610474,"358":-5.063076496124268,"359":-5.198056697845459,"360":-4.416723728179932,"361":0.077973872423172,"362":0.036242999136447906,"363":0.11217403411865234,"364":-0.11497270315885544,"365":-0.14851157367229462,"366":-0.17238691449165344,"367":0.3273986577987671,"368":-2.5778396129608154,"369":-3.602583885192871,"370":-8.082148551940918,"371":-6.03755521774292,"372":-0.2571668028831482,"373":0.9571776390075684,"374":3.2963101863861084,"375":2.530428886413574,"376":4.802206993103027,"377":7.061178207397461,"378":1.3348842859268188,"379":5.551938533782959,"380":0.9897685647010803,"381":5.511979579925537,"382":-2.6846234798431396,"383":-1.0527852773666382,"384":-4.449916362762451,"385":-9.423619270324707,"386":-6.918376445770264,"387":-2.9017648696899414,"388":-2.59474515914917,"389":-0.42169010639190674,"390":-0.40318575501441956,"391":-0.4824095368385315,"392":-0.13498719036579132,"393":0.023038430139422417,"394":-0.23230573534965515,"395":0.9705209732055664,"396":-1.6091126203536987,"397":-8.78878402709961,"398":-11.28059196472168,"399":-8.938800811767578,"400":-6.386411190032959,"401":-5.1190505027771,"402":-3.00003719329834,"403":-2.966207981109619,"404":3.5786383152008057,"405":3.0744121074676514,"406":3.285919666290283,"407":6.889013290405273,"408":4.735437393188477,"409":2.410691022872925,"410":0.0549691803753376,"411":-1.5069385766983032,"412":-0.37012240290641785,"413":-3.407829999923706,"414":-7.5366902351379395,"415":-5.417844295501709,"416":-0.4486944377422333,"417":-1.337935447692871,"418":-0.7462058663368225,"419":0.0972176343202591,"420":0.030142873525619507,"421":0.1044367179274559,"422":0.1419210582971573,"423":0.3495354652404785,"424":0.27132177352905273,"425":-7.237741947174072,"426":-12.367059707641602,"427":-13.156242370605469,"428":-13.998669624328613,"429":-14.997434616088867,"430":-8.3181791305542,"431":-5.371159076690674,"432":4.178264617919922,"433":4.057411193847656,"434":4.629174709320068,"435":6.63671350479126,"436":0.4926280677318573,"437":-6.002075672149658,"438":0.21897679567337036,"439":-1.131642460823059,"440":4.453004360198975,"441":3.5122900009155273,"442":-1.3082678318023682,"443":-1.8138898611068726,"444":1.417922019958496,"445":-1.2263305187225342,"446":-0.8285295963287354,"447":0.06752751767635345,"448":-0.18677859008312225,"449":-0.10204153507947922,"450":0.5476447343826294,"451":2.2604620456695557,"452":0.49032941460609436,"453":-1.4163057804107666,"454":-3.3849666118621826,"455":-8.153726577758789,"456":-9.224395751953125,"457":-14.132139205932617,"458":-11.607657432556152,"459":-12.723398208618164,"460":-3.4897942543029785,"461":-0.5993846654891968,"462":0.9848726391792297,"463":-0.28379949927330017,"464":-3.852257013320923,"465":-1.1243364810943604,"466":2.427584409713745,"467":1.4916733503341675,"468":0.25607937574386597,"469":2.6239306926727295,"470":5.2537102699279785,"471":2.9042770862579346,"472":2.561167001724243,"473":-3.6028032302856445,"474":-1.4077560901641846,"475":-0.28828486800193787,"476":0.03354858607053757,"477":0.033022478222846985,"478":0.36066198348999023,"479":1.8316054344177246,"480":-0.2831062972545624,"481":-0.5794346928596497,"482":2.261237144470215,"483":4.645386695861816,"484":0.6982426047325134,"485":-4.321425914764404,"486":-8.344291687011719,"487":-16.239253997802734,"488":-9.437395095825195,"489":-8.626402854919434,"490":-1.3861069679260254,"491":-4.751547336578369,"492":1.9964238405227661,"493":1.8762129545211792,"494":-2.0823378562927246,"495":-2.795194149017334,"496":-1.8657513856887817,"497":0.5927585959434509,"498":4.734321594238281,"499":0.7198885083198547,"500":-2.648017644882202,"501":-5.954712867736816,"502":-0.9139198064804077,"503":-0.09022016823291779,"504":-0.01820327155292034,"505":0.16558831930160522,"506":0.7695407271385193,"507":5.605381965637207,"508":4.673703193664551,"509":1.8200339078903198,"510":4.9422712326049805,"511":3.0498859882354736,"512":2.921123743057251,"513":2.8286869525909424,"514":0.5456951260566711,"515":-5.4948506355285645,"516":-11.106383323669434,"517":-9.766127586364746,"518":1.8767707347869873,"519":3.8637900352478027,"520":1.0878506898880005,"521":0.1733577996492386,"522":2.31901478767395,"523":-4.263127326965332,"524":2.1857995986938477,"525":-0.767707884311676,"526":-1.42445969581604,"527":-0.6383417248725891,"528":-0.8902129530906677,"529":-3.068843126296997,"530":-0.17704187333583832,"531":0.14613077044487,"532":0.10855091363191605,"533":0.16037724912166595,"534":0.4768623113632202,"535":5.147404670715332,"536":3.891704797744751,"537":0.2538028657436371,"538":0.6869703531265259,"539":0.13108158111572266,"540":2.141117811203003,"541":3.043738603591919,"542":2.1847903728485107,"543":-0.724132776260376,"544":-3.090501308441162,"545":-1.4980225563049316,"546":1.2794488668441772,"547":0.9375095367431641,"548":-0.5289316177368164,"549":-3.8834621906280518,"550":1.3533554077148438,"551":1.1785426139831543,"552":3.2802236080169678,"553":-1.3332337141036987,"554":-4.339649200439453,"555":2.6001384258270264,"556":0.060546327382326126,"557":-1.348968505859375,"558":-0.6669455170631409,"559":-0.13314568996429443,"560":0.1231442466378212,"561":-0.1241418793797493,"562":0.18351323902606964,"563":0.40007084608078003,"564":-2.814201593399048,"565":0.8185666799545288,"566":1.5881686210632324,"567":-0.9120628237724304,"568":1.6190725564956665,"569":-3.8735475540161133,"570":-2.4652976989746094,"571":1.2813174724578857,"572":-2.7260637283325195,"573":-6.971279621124268,"574":0.2854534685611725,"575":0.7404235005378723,"576":-3.071739673614502,"577":-0.556047260761261,"578":0.5004318356513977,"579":-2.012484312057495,"580":-2.0934722423553467,"581":-1.704308271408081,"582":-1.1155695915222168,"583":-2.168632745742798,"584":-0.5816696882247925,"585":-0.11688273400068283,"586":-0.2532283067703247,"587":-0.013409733772277832,"588":0.16802291572093964,"589":0.04232678562402725,"590":0.07673002779483795,"591":-0.6624014377593994,"592":-2.7888193130493164,"593":-2.7129616737365723,"594":1.5902459621429443,"595":0.9067416787147522,"596":2.847315788269043,"597":2.3326077461242676,"598":-2.296719789505005,"599":-0.8107882738113403,"600":-3.053093671798706,"601":-1.641356348991394,"602":-0.5375447273254395,"603":0.4670041799545288,"604":1.4261500835418701,"605":1.1315423250198364,"606":0.036855846643447876,"607":-4.738048076629639,"608":-0.19558367133140564,"609":0.6158962249755859,"610":-4.115197658538818,"611":-5.23967981338501,"612":-3.7193710803985596,"613":-0.9734161496162415,"614":-0.06848777830600739,"615":0.06736569851636887,"616":-0.19147127866744995,"617":0.017544610425829887,"618":-0.5977427959442139,"619":-0.9149964451789856,"620":-1.2302833795547485,"621":-3.441927433013916,"622":-3.1956536769866943,"623":-0.8240963220596313,"624":-0.4798184037208557,"625":-2.7952425479888916,"626":-0.4791572690010071,"627":1.1503314971923828,"628":-8.178114891052246,"629":-3.3832483291625977,"630":1.1632294654846191,"631":-1.4150383472442627,"632":-1.1532469987869263,"633":3.4424996376037598,"634":3.367856025695801,"635":0.09482616931200027,"636":-1.9723008871078491,"637":-3.1337623596191406,"638":-4.233980178833008,"639":-2.188493013381958,"640":-1.3338388204574585,"641":-0.410440593957901,"642":-0.20003163814544678,"643":-0.08151153475046158,"644":0.006536687724292278,"645":0.12240154296159744,"646":-0.04282202571630478,"647":-0.24746271967887878,"648":0.7232111096382141,"649":0.5651165843009949,"650":-0.1969379484653473,"651":0.07319626957178116,"652":1.4712026119232178,"653":-0.877069354057312,"654":-1.6997424364089966,"655":-2.4471864700317383,"656":-0.8626137375831604,"657":3.3319082260131836,"658":0.789814829826355,"659":1.3955496549606323,"660":-2.0220181941986084,"661":0.4851532280445099,"662":-0.37665119767189026,"663":-3.3265514373779297,"664":-3.396854877471924,"665":-3.896867513656616,"666":-5.074630260467529,"667":-1.7074171304702759,"668":-0.7830888032913208,"669":-0.17566817998886108,"670":0.09878360480070114,"671":-0.1365419626235962,"672":0.08308593183755875,"673":0.06853080540895462,"674":0.1472754031419754,"675":-0.08108411729335785,"676":-0.2389608472585678,"677":-0.11979446560144424,"678":0.6514493227005005,"679":1.3035961389541626,"680":0.5808480381965637,"681":1.5150701999664307,"682":0.1916147619485855,"683":-1.5419379472732544,"684":-3.1880698204040527,"685":-1.132883906364441,"686":0.6225727200508118,"687":1.6302725076675415,"688":2.1057512760162354,"689":2.1002721786499023,"690":-1.1851860284805298,"691":-3.365412950515747,"692":-2.8343513011932373,"693":-2.5858547687530518,"694":-1.8400185108184814,"695":-0.5833749175071716,"696":-0.6684578657150269,"697":-0.2817348539829254,"698":0.016871478408575058,"699":0.17901666462421417,"700":-0.0628458559513092,"701":-0.11216460168361664,"702":0.12729988992214203,"703":-0.042519088834524155,"704":-0.7111855149269104,"705":-0.7015125751495361,"706":-0.7941654920578003,"707":0.06669285893440247,"708":1.5703017711639404,"709":3.7530455589294434,"710":4.975942611694336,"711":0.19626569747924805,"712":0.6855168342590332,"713":2.7807071208953857,"714":2.0627505779266357,"715":2.3076677322387695,"716":2.1505470275878906,"717":1.2278071641921997,"718":1.077937126159668,"719":1.7499303817749023,"720":0.3818315863609314,"721":-0.13596829771995544,"722":-0.11494788527488708,"723":0.1748376041650772,"724":0.02521812543272972,"725":-0.18393665552139282,"726":-0.017962714657187462,"727":0.15041278302669525,"728":-0.19385077059268951,"729":0.09002725034952164,"730":0.1425940841436386,"731":0.1770583540201187,"732":0.23243224620819092,"733":0.15278585255146027,"734":-0.0982394739985466,"735":0.03796951100230217,"736":-0.672032356262207,"737":-0.4009917378425598,"738":-0.6322523355484009,"739":-0.6404435634613037,"740":-0.244966521859169,"741":0.37161821126937866,"742":1.155319094657898,"743":1.2348424196243286,"744":1.1026544570922852,"745":0.4763904809951782,"746":0.004302111454308033,"747":0.0250287726521492,"748":-0.11225248128175735,"749":0.12878240644931793,"750":0.13002757728099823,"751":-0.06664914637804031,"752":-0.19452659785747528,"753":-0.13210639357566833,"754":0.06330873817205429,"755":0.0680995061993599,"756":-0.0989341214299202,"757":0.05077828839421272,"758":0.14601103961467743,"759":-0.19644862413406372,"760":0.1577017605304718,"761":0.1465364694595337,"762":-0.05761318281292915,"763":-0.14188364148139954,"764":0.1345144510269165,"765":-0.07004920393228531,"766":0.28606006503105164,"767":0.2878735363483429,"768":-0.06112769618630409,"769":0.0020968122407794,"770":-0.25013914704322815,"771":-0.1079883798956871,"772":-0.1851629763841629,"773":-0.06686725467443466,"774":-0.07646849006414413,"775":0.05199383199214935,"776":0.17266109585762024,"777":0.08935876935720444,"778":-0.05563686788082123,"779":0.06448595970869064,"780":0.11605145782232285,"781":0.020241770893335342,"782":-0.10075871646404266,"783":-0.0008930363692343235}},"1":{"bias":-3.0691328048706055,"weights":{"0":0.0731557160615921,"1":-0.024822985753417015,"2":-0.18429933488368988,"3":0.03236036002635956,"4":0.15107125043869019,"5":-0.14611196517944336,"6":0.07932884991168976,"7":0.0034566258545964956,"8":-0.15938812494277954,"9":0.11648263037204742,"10":-0.053050246089696884,"11":0.03624363988637924,"12":0.005506522487848997,"13":0.08002761006355286,"14":0.16254308819770813,"15":0.021750539541244507,"16":0.011840587481856346,"17":-0.19046878814697266,"18":-0.19331228733062744,"19":0.15349312126636505,"20":-0.014414374716579914,"21":0.058334968984127045,"22":-0.19343484938144684,"23":0.19013427197933197,"24":-0.1360144168138504,"25":-0.1966736763715744,"26":-0.07677718251943588,"27":0.12394216656684875,"28":-0.057686321437358856,"29":-0.17992398142814636,"30":-0.03810125216841698,"31":0.09341028332710266,"32":-0.06687355041503906,"33":-0.08213960379362106,"34":0.1318163275718689,"35":0.04235399514436722,"36":0.059427838772535324,"37":0.0349278561770916,"38":-0.1122305765748024,"39":0.06973369419574738,"40":-0.21979056298732758,"41":-0.5854706764221191,"42":-0.8795991539955139,"43":0.05594737455248833,"44":-0.29453742504119873,"45":-0.14239585399627686,"46":-0.17920510470867157,"47":-0.01615923084318638,"48":0.1617308109998703,"49":0.04552856460213661,"50":-0.0709313228726387,"51":-0.17777220904827118,"52":-0.0628494992852211,"53":-0.10184427350759506,"54":0.18285274505615234,"55":-0.0029989585746079683,"56":-0.004732274450361729,"57":-0.15148645639419556,"58":0.07947082817554474,"59":0.15967988967895508,"60":0.10262402892112732,"61":0.015989895910024643,"62":0.00908612459897995,"63":0.0912180244922638,"64":-0.7594184875488281,"65":-1.947347640991211,"66":-1.3024417161941528,"67":-1.033798336982727,"68":-0.6955671906471252,"69":0.28550800681114197,"70":-1.410951852798462,"71":-0.5203848481178284,"72":-0.6585111618041992,"73":-1.7121976613998413,"74":-1.53389573097229,"75":0.5726743340492249,"76":0.0940588116645813,"77":-0.2412787824869156,"78":0.1332392543554306,"79":-0.07419344782829285,"80":0.13018248975276947,"81":0.098711296916008,"82":0.026320399716496468,"83":0.12645688652992249,"84":-0.06005397439002991,"85":0.0692833960056305,"86":-0.10629098862409592,"87":0.01716000959277153,"88":0.09729570150375366,"89":0.1301981508731842,"90":0.06877844780683517,"91":0.14656759798526764,"92":-0.9226203560829163,"93":-2.922451972961426,"94":-3.571237564086914,"95":-5.505414962768555,"96":-3.6764872074127197,"97":-5.715973377227783,"98":-5.327205181121826,"99":-1.4048258066177368,"100":-0.1749202013015747,"101":-0.3542633354663849,"102":0.3485478162765503,"103":0.6568584442138672,"104":-0.7732247710227966,"105":-1.0012121200561523,"106":0.3455865681171417,"107":0.03734644129872322,"108":-0.10048624873161316,"109":0.06593064963817596,"110":0.07777003943920135,"111":0.03874218836426735,"112":-0.19481129944324493,"113":0.09850507229566574,"114":0.032112933695316315,"115":-0.16164755821228027,"116":0.15818098187446594,"117":0.1207198053598404,"118":-0.1861383318901062,"119":-0.1568600833415985,"120":-1.1473429203033447,"121":-5.168983459472656,"122":-4.030322551727295,"123":-4.7313690185546875,"124":-4.33668851852417,"125":-3.314000129699707,"126":-2.3349385261535645,"127":-0.2849818170070648,"128":-2.5417139530181885,"129":-2.7142157554626465,"130":-1.8615858554840088,"131":-2.3969790935516357,"132":2.2040579319000244,"133":1.3340109586715698,"134":2.1112613677978516,"135":3.713810920715332,"136":0.54334956407547,"137":-0.8614983558654785,"138":-0.1347108781337738,"139":0.018291259184479713,"140":-0.10867654532194138,"141":-0.14505474269390106,"142":0.17085163295269012,"143":-0.015209036879241467,"144":0.17324157059192657,"145":-0.3893613815307617,"146":-0.4508455693721771,"147":-0.647441565990448,"148":-3.536149740219116,"149":-6.289752006530762,"150":-4.315083980560303,"151":-4.899574279785156,"152":-3.3980553150177,"153":-1.1511317491531372,"154":-2.146460771560669,"155":-1.7363700866699219,"156":-4.299032688140869,"157":-5.227169990539551,"158":-5.577828884124756,"159":-2.098411798477173,"160":1.6380064487457275,"161":2.683048725128174,"162":1.892744779586792,"163":1.5201694965362549,"164":-1.5786867141723633,"165":-1.7893080711364746,"166":0.041830260306596756,"167":-0.15518663823604584,"168":0.10523273795843124,"169":0.17810581624507904,"170":-0.2504156529903412,"171":0.11751489341259003,"172":0.2550531029701233,"173":-0.48264747858047485,"174":-1.1777464151382446,"175":-3.9961671829223633,"176":-5.9141316413879395,"177":-7.101282119750977,"178":-2.166527271270752,"179":-2.7075095176696777,"180":-3.9719088077545166,"181":-3.4278573989868164,"182":-2.5213193893432617,"183":-2.6345877647399902,"184":-2.2661917209625244,"185":-1.6237108707427979,"186":1.0492604970932007,"187":-0.7094115018844604,"188":1.6025351285934448,"189":-1.8302035331726074,"190":-2.453145742416382,"191":1.7715873718261719,"192":-0.9399406909942627,"193":-1.1468743085861206,"194":0.46672436594963074,"195":-0.15342912077903748,"196":-0.0697973370552063,"197":0.163695827126503,"198":-0.47973307967185974,"199":0.1785999983549118,"200":-0.3007012903690338,"201":-0.9003307819366455,"202":-2.2157561779022217,"203":-4.65951681137085,"204":-4.558583736419678,"205":-3.8246986865997314,"206":-7.229371547698975,"207":-0.9872023463249207,"208":1.413568139076233,"209":-4.591414451599121,"210":-3.115389347076416,"211":-3.77068829536438,"212":-2.728508710861206,"213":-4.556951999664307,"214":-4.885479927062988,"215":-0.0932408943772316,"216":-2.4613168239593506,"217":-1.1609363555908203,"218":2.545247793197632,"219":3.154611110687256,"220":2.206820487976074,"221":0.9370099902153015,"222":0.9413214921951294,"223":0.18138523399829865,"224":-0.011707828380167484,"225":0.04292664676904678,"226":-0.535660445690155,"227":0.15990598499774933,"228":-0.24407550692558289,"229":-0.21476814150810242,"230":-1.8636565208435059,"231":-5.072261810302734,"232":-4.668724060058594,"233":-2.0379648208618164,"234":-4.064119338989258,"235":-4.830431938171387,"236":-5.227984428405762,"237":-0.22159212827682495,"238":-2.0608408451080322,"239":-4.391785621643066,"240":-2.4310567378997803,"241":0.8047179579734802,"242":-3.1880409717559814,"243":0.22119663655757904,"244":-1.6361839771270752,"245":-0.47621893882751465,"246":2.238954544067383,"247":-0.2512967586517334,"248":-0.23828253149986267,"249":2.881089210510254,"250":-0.27145034074783325,"251":-0.08939338475465775,"252":-0.28988179564476013,"253":-0.11233755201101303,"254":-0.41823819279670715,"255":-0.14287738502025604,"256":-0.3988209068775177,"257":-0.32931962609291077,"258":-1.6544127464294434,"259":-5.817009925842285,"260":-6.2538580894470215,"261":-4.763143062591553,"262":-2.166907548904419,"263":-0.5333314538002014,"264":0.21876156330108643,"265":0.20639750361442566,"266":1.4230002164840698,"267":1.6493195295333862,"268":3.4886977672576904,"269":-2.8581762313842773,"270":-1.0488399267196655,"271":-1.0052024126052856,"272":-3.150517225265503,"273":-1.6911592483520508,"274":-1.4784140586853027,"275":-2.577742099761963,"276":0.054463762789964676,"277":2.203152656555176,"278":-0.6203435659408569,"279":0.32296526432037354,"280":-0.3098091185092926,"281":0.007729930337518454,"282":-0.014583170413970947,"283":-0.1495758444070816,"284":-0.020409857854247093,"285":-0.8730912804603577,"286":-1.9894566535949707,"287":-3.5748953819274902,"288":-2.574204683303833,"289":-2.578953981399536,"290":0.13237951695919037,"291":-1.7385152578353882,"292":-0.44501399993896484,"293":0.8359308838844299,"294":7.682302951812744,"295":6.828248023986816,"296":3.5307581424713135,"297":-1.3990117311477661,"298":-1.4609827995300293,"299":1.9590827226638794,"300":-4.902449131011963,"301":-1.1845476627349854,"302":-1.6107417345046997,"303":-0.9257103204727173,"304":1.9613590240478516,"305":2.193244457244873,"306":1.7884643077850342,"307":-0.053756508976221085,"308":-0.07191797345876694,"309":-0.16228747367858887,"310":0.20405720174312592,"311":-0.05197867751121521,"312":-0.12744148075580597,"313":-1.0455381870269775,"314":-2.086578130722046,"315":-2.4077095985412598,"316":-0.3675411343574524,"317":-0.8901689052581787,"318":-0.9877779483795166,"319":-2.3761401176452637,"320":0.05162528157234192,"321":2.7511978149414062,"322":5.566983222961426,"323":7.566310405731201,"324":-1.0122153759002686,"325":-1.4265590906143188,"326":-2.023658275604248,"327":-4.398000240325928,"328":-5.333869934082031,"329":-4.2235565185546875,"330":-3.5466761589050293,"331":1.1489876508712769,"332":4.939632892608643,"333":2.5706279277801514,"334":0.7360907793045044,"335":0.2329285740852356,"336":0.13399146497249603,"337":-0.18975943326950073,"338":0.07661259174346924,"339":-0.15769648551940918,"340":-0.06271721422672272,"341":-1.6414352655410767,"342":-2.5160295963287354,"343":-2.940160036087036,"344":-2.0054612159729004,"345":-3.245504140853882,"346":3.032860517501831,"347":0.9327800869941711,"348":2.7633860111236572,"349":1.5643858909606934,"350":6.372182846069336,"351":2.907428026199341,"352":-0.8132928013801575,"353":-2.3726329803466797,"354":-4.526585578918457,"355":-4.004950046539307,"356":-5.927417755126953,"357":-5.472827911376953,"358":-4.331540584564209,"359":-0.7722733020782471,"360":0.33062803745269775,"361":-0.96656334400177,"362":-1.4495612382888794,"363":0.06193947046995163,"364":-0.10195904225111008,"365":0.14251506328582764,"366":0.06702711433172226,"367":0.17533282935619354,"368":0.02315090037882328,"369":-1.4656310081481934,"370":-3.247460126876831,"371":-2.5045361518859863,"372":-1.347902774810791,"373":-0.49926698207855225,"374":-0.02976921945810318,"375":2.8257625102996826,"376":0.5485073924064636,"377":-4.850284576416016,"378":0.22144950926303864,"379":-2.737166404724121,"380":1.554864525794983,"381":2.7478275299072266,"382":-2.844154119491577,"383":-1.5899293422698975,"384":-6.294826030731201,"385":-4.5878214836120605,"386":-4.536750316619873,"387":-3.5310182571411133,"388":-2.800266981124878,"389":-2.6645712852478027,"390":-1.561722755432129,"391":0.12894777953624725,"392":-0.15365265309810638,"393":-0.19810500741004944,"394":-0.1898467093706131,"395":-0.16877612471580505,"396":-0.30751094222068787,"397":-0.5914731621742249,"398":-0.8117681741714478,"399":-2.1816012859344482,"400":0.8843018412590027,"401":1.5700647830963135,"402":-1.2733606100082397,"403":-1.8347276449203491,"404":-0.9126405715942383,"405":-0.308258980512619,"406":4.055148601531982,"407":2.2391183376312256,"408":0.20736005902290344,"409":1.3914926052093506,"410":-3.095795154571533,"411":-4.699615478515625,"412":-4.663001537322998,"413":-3.5701866149902344,"414":-2.3225629329681396,"415":-0.7775394916534424,"416":-0.32603591680526733,"417":-0.8731805682182312,"418":-0.030229952186346054,"419":-0.09132041782140732,"420":-0.1789470762014389,"421":0.13418135046958923,"422":0.13458937406539917,"423":0.04442377761006355,"424":-0.3952409029006958,"425":0.6179033517837524,"426":0.623940646648407,"427":-2.1540493965148926,"428":0.026057375594973564,"429":-0.18099379539489746,"430":1.6176940202713013,"431":1.3105332851409912,"432":6.625333786010742,"433":1.624640703201294,"434":4.486027240753174,"435":-1.1224513053894043,"436":6.779796600341797,"437":2.642749786376953,"438":-4.224525451660156,"439":-2.710049867630005,"440":-2.368577480316162,"441":-1.6124138832092285,"442":-1.9940954446792603,"443":-1.4428064823150635,"444":-0.8187621831893921,"445":-0.3812007009983063,"446":-0.014024120755493641,"447":-0.14086975157260895,"448":0.06817296892404556,"449":-0.012517212890088558,"450":-1.180539608001709,"451":-1.6866657733917236,"452":-0.8966498374938965,"453":-0.05599598586559296,"454":-1.5823156833648682,"455":-1.6536061763763428,"456":-5.50093412399292,"457":-3.853468894958496,"458":-4.061583042144775,"459":-2.1315178871154785,"460":-4.0843634605407715,"461":-1.5443235635757446,"462":-0.1699855923652649,"463":-0.7602337002754211,"464":-1.5927211046218872,"465":-3.027078628540039,"466":-3.5879249572753906,"467":-3.110614538192749,"468":-3.007960796356201,"469":-1.5624806880950928,"470":-2.077157497406006,"471":-2.002570390701294,"472":-0.8949885964393616,"473":-0.8879194259643555,"474":-1.0162183046340942,"475":-0.06392337381839752,"476":-0.1638559103012085,"477":-0.02908717840909958,"478":-1.5135241746902466,"479":-1.1149019002914429,"480":0.2699620723724365,"481":2.637007474899292,"482":2.124480962753296,"483":-0.9871019721031189,"484":-1.7442281246185303,"485":-2.460081100463867,"486":1.183618187904358,"487":-3.795527458190918,"488":-3.679274559020996,"489":5.190651893615723,"490":3.30598521232605,"491":-0.09669378399848938,"492":-1.2938445806503296,"493":-3.4848053455352783,"494":-4.327913761138916,"495":-3.6920204162597656,"496":-3.066455364227295,"497":-2.594111919403076,"498":-1.7560627460479736,"499":-2.3036632537841797,"500":-1.5576354265213013,"501":-0.8922853469848633,"502":-0.813063383102417,"503":0.05878148972988129,"504":0.09293456375598907,"505":-0.10628677159547806,"506":-0.6884841918945312,"507":0.541843831539154,"508":0.7820870876312256,"509":1.1777243614196777,"510":3.685285806655884,"511":-0.9989764094352722,"512":-0.0326884463429451,"513":2.129485607147217,"514":-2.6974940299987793,"515":1.3831448554992676,"516":5.815333366394043,"517":4.499440670013428,"518":1.963800311088562,"519":-2.8352701663970947,"520":-0.16752247512340546,"521":-1.2283389568328857,"522":0.33817335963249207,"523":0.40912923216819763,"524":0.011034091003239155,"525":-2.9338958263397217,"526":-3.440183162689209,"527":-2.609966993331909,"528":-0.11494070291519165,"529":1.022217869758606,"530":0.07332557439804077,"531":0.15737679600715637,"532":-0.048603933304548264,"533":0.10636434704065323,"534":-1.1296107769012451,"535":-0.6397043466567993,"536":-0.0242442786693573,"537":-2.6093270778656006,"538":-2.687648296356201,"539":0.822730302810669,"540":-2.22493577003479,"541":-0.4654749929904938,"542":-2.6508395671844482,"543":2.165893077850342,"544":2.653062343597412,"545":5.383388996124268,"546":-0.41219669580459595,"547":-3.340338945388794,"548":-0.5144674181938171,"549":-2.078702926635742,"550":-2.430853843688965,"551":2.7105512619018555,"552":-1.3288968801498413,"553":-3.48078989982605,"554":-3.3787717819213867,"555":-1.8298859596252441,"556":0.5761856436729431,"557":1.6731045246124268,"558":-0.18248482048511505,"559":0.030842484906315804,"560":-0.0645177811384201,"561":0.18623346090316772,"562":-0.8203091025352478,"563":-2.1794795989990234,"564":-1.383041262626648,"565":-3.755885601043701,"566":-3.1510584354400635,"567":-5.474937438964844,"568":0.7401533722877502,"569":4.324936389923096,"570":3.5167627334594727,"571":2.0768420696258545,"572":-1.0572320222854614,"573":1.6134891510009766,"574":6.699414253234863,"575":2.7880795001983643,"576":-0.6072536110877991,"577":1.3362517356872559,"578":-2.566899538040161,"579":3.326066732406616,"580":-0.8673833012580872,"581":-3.4365265369415283,"582":-3.5542166233062744,"583":-1.5802695751190186,"584":0.986854076385498,"585":1.4406226873397827,"586":-0.032048724591732025,"587":0.13162687420845032,"588":-0.18462854623794556,"589":0.08207574486732483,"590":-1.0149767398834229,"591":-1.8261518478393555,"592":-1.3233391046524048,"593":-1.9058774709701538,"594":0.5804628729820251,"595":-2.0803024768829346,"596":3.873006820678711,"597":2.04826283454895,"598":2.893143653869629,"599":-2.179450511932373,"600":-1.4729427099227905,"601":-3.588177442550659,"602":2.3773269653320312,"603":2.1210227012634277,"604":-2.033966541290283,"605":-0.3832016587257385,"606":-0.11929536610841751,"607":1.5959980487823486,"608":-1.8245357275009155,"609":-2.935711145401001,"610":-2.7203118801116943,"611":-0.8589127659797668,"612":0.8908904194831848,"613":0.3811224699020386,"614":0.1917848438024521,"615":-0.15520843863487244,"616":-0.12157027423381805,"617":0.07933840900659561,"618":-0.4595564007759094,"619":-0.8963075280189514,"620":-1.8906563520431519,"621":1.2804700136184692,"622":5.172791481018066,"623":-0.7220510840415955,"624":0.06574275344610214,"625":-0.6657822132110596,"626":0.2608821392059326,"627":-5.039839744567871,"628":-1.6487642526626587,"629":-8.097076416015625,"630":-0.023742740973830223,"631":-2.48109769821167,"632":3.45086669921875,"633":4.009888172149658,"634":2.131945848464966,"635":-1.7090803384780884,"636":-3.8462014198303223,"637":-1.962980031967163,"638":0.04256671294569969,"639":1.229091763496399,"640":0.21902410686016083,"641":-0.15319710969924927,"642":-0.023301398381590843,"643":0.025370722636580467,"644":-0.05090447515249252,"645":-0.16428282856941223,"646":0.011093132197856903,"647":-0.8004966974258423,"648":0.43709835410118103,"649":2.2237136363983154,"650":5.506739139556885,"651":-0.3568224608898163,"652":0.49336639046669006,"653":-3.895059823989868,"654":-0.7457298040390015,"655":-2.1070003509521484,"656":3.4032163619995117,"657":-1.8463830947875977,"658":-3.662247657775879,"659":-2.274193048477173,"660":2.620508909225464,"661":0.40811634063720703,"662":-1.9894540309906006,"663":-3.9403152465820312,"664":-5.926159381866455,"665":-4.43062686920166,"666":-0.9001028537750244,"667":-0.06542742997407913,"668":-0.10503581911325455,"669":0.15259917080402374,"670":0.2318374514579773,"671":0.14823965728282928,"672":-0.09223935753107071,"673":0.044611796736717224,"674":0.12107563763856888,"675":-0.503338634967804,"676":0.9426875710487366,"677":0.037808265537023544,"678":0.2605690360069275,"679":4.26041316986084,"680":0.08881515264511108,"681":-1.925318956375122,"682":-2.118407726287842,"683":-2.6192429065704346,"684":-4.653428077697754,"685":-6.861291408538818,"686":-3.808692693710327,"687":-5.034243583679199,"688":-1.5335999727249146,"689":2.9797327518463135,"690":0.10009802132844925,"691":-0.9755716323852539,"692":-2.018012762069702,"693":-1.613090991973877,"694":-0.7002931833267212,"695":0.15208247303962708,"696":-0.11584983021020889,"697":-0.015457035973668098,"698":0.046641383320093155,"699":0.07487943023443222,"700":0.021828485652804375,"701":-0.11907213926315308,"702":-0.09314410388469696,"703":-0.19653098285198212,"704":0.8191897869110107,"705":0.5171149373054504,"706":-0.16634328663349152,"707":-1.1713201999664307,"708":-1.4491047859191895,"709":-3.788816213607788,"710":-6.690849781036377,"711":-0.8296857476234436,"712":-1.1917411088943481,"713":-0.1196763664484024,"714":0.21390700340270996,"715":-5.044456481933594,"716":-4.267988204956055,"717":-0.2715988755226135,"718":0.08583450317382812,"719":0.21337738633155823,"720":0.33780840039253235,"721":-0.0053755249828100204,"722":-0.05054574832320213,"723":0.06836533546447754,"724":-0.10448520630598068,"725":-0.12878866493701935,"726":-0.1302085518836975,"727":0.1858290731906891,"728":0.001427189214155078,"729":0.01107239630073309,"730":-0.10038639605045319,"731":-0.19750550389289856,"732":-0.24042074382305145,"733":-0.9790529012680054,"734":-0.8085852861404419,"735":-0.9426935911178589,"736":-0.2950412333011627,"737":-0.5866217017173767,"738":-1.6205644607543945,"739":-2.0896952152252197,"740":-2.633897542953491,"741":-1.9285731315612793,"742":-1.7768254280090332,"743":-0.8162806034088135,"744":-0.7376030087471008,"745":-0.05566549673676491,"746":-0.8519541621208191,"747":-0.15430958569049835,"748":0.001440478372387588,"749":0.07229097932577133,"750":-0.1897381842136383,"751":0.18563097715377808,"752":0.06159093230962753,"753":0.1231372207403183,"754":-0.03215287625789642,"755":0.09902013838291168,"756":-0.010101611725986004,"757":0.1699075847864151,"758":-0.08956419676542282,"759":0.05666681379079819,"760":-0.04415047541260719,"761":0.16919296979904175,"762":0.1697581559419632,"763":-0.07159684598445892,"764":-0.1337576061487198,"765":-0.21094383299350739,"766":-0.020296603441238403,"767":-0.39414432644844055,"768":-0.2634381055831909,"769":-0.17769400775432587,"770":0.006971508730202913,"771":0.4008350670337677,"772":0.2392100840806961,"773":0.06986766308546066,"774":0.08900726586580276,"775":0.0938245877623558,"776":-0.15089233219623566,"777":-0.1690928041934967,"778":0.03364912420511246,"779":0.12460605800151825,"780":-0.1504148542881012,"781":0.09284346550703049,"782":-0.1258758157491684,"783":0.1848684549331665}},"2":{"bias":10.321488380432129,"weights":{"0":-0.16071602702140808,"1":-0.15814289450645447,"2":-0.01992948353290558,"3":-0.19880902767181396,"4":0.07447564601898193,"5":-0.11742400377988815,"6":0.057187940925359726,"7":-0.09668421745300293,"8":-0.143524169921875,"9":0.00013325556938070804,"10":0.07527673989534378,"11":0.17696405947208405,"12":0.06185437738895416,"13":-0.09769866615533829,"14":-0.11007874459028244,"15":0.1500157117843628,"16":-0.042710933834314346,"17":-0.11850243806838989,"18":-0.011578591540455818,"19":0.1832391321659088,"20":0.013771774247288704,"21":0.08257636427879333,"22":0.06272085011005402,"23":-0.1929939240217209,"24":-0.10704440623521805,"25":0.06639020144939423,"26":-0.07578463107347488,"27":-0.17754638195037842,"28":-0.059000127017498016,"29":-0.09669718146324158,"30":-0.18677853047847748,"31":-0.14540664851665497,"32":0.036415331065654755,"33":-0.12687483429908752,"34":-0.1342698186635971,"35":-0.04669183865189552,"36":-0.06219640374183655,"37":0.21755947172641754,"38":0.10506553202867508,"39":-0.06444180756807327,"40":0.14521071314811707,"41":-0.06526163220405579,"42":0.07334145158529282,"43":-0.16872616112232208,"44":-0.06790942698717117,"45":-0.19513891637325287,"46":0.051352035254240036,"47":-0.13013461232185364,"48":0.03365657851099968,"49":-0.17934903502464294,"50":0.19371409714221954,"51":0.028054505586624146,"52":0.186376690864563,"53":0.19327494502067566,"54":-0.009145998395979404,"55":-0.17022450268268585,"56":-0.17554591596126556,"57":0.13618183135986328,"58":-0.12506723403930664,"59":-0.08538129180669785,"60":-0.06873954832553864,"61":0.14363527297973633,"62":-0.13804508745670319,"63":0.13707035779953003,"64":0.29982903599739075,"65":0.48049402236938477,"66":0.8562353849411011,"67":1.2425693273544312,"68":1.2532693147659302,"69":2.4867401123046875,"70":2.622114419937134,"71":2.1439733505249023,"72":1.3729172945022583,"73":1.9439352750778198,"74":1.8522614240646362,"75":1.375008225440979,"76":1.0226397514343262,"77":0.6756983995437622,"78":-0.047425027936697006,"79":0.0357610248029232,"80":-0.19610612094402313,"81":-0.027049757540225983,"82":0.06615251302719116,"83":-0.05271286517381668,"84":-0.06851696223020554,"85":0.18238544464111328,"86":-0.08190310001373291,"87":-0.03487130627036095,"88":0.12465281784534454,"89":0.3218228816986084,"90":-0.0612153522670269,"91":0.26503318548202515,"92":1.0116006135940552,"93":1.1358752250671387,"94":1.285561442375183,"95":1.7787798643112183,"96":-1.410683035850525,"97":-1.849300742149353,"98":-0.10438795387744904,"99":-0.17743723094463348,"100":3.529999256134033,"101":2.077258825302124,"102":3.476375102996826,"103":3.458890199661255,"104":6.767907619476318,"105":5.459516525268555,"106":2.965646266937256,"107":0.6575674414634705,"108":0.21232077479362488,"109":0.02004053443670273,"110":0.0747150331735611,"111":0.15503981709480286,"112":0.08953388035297394,"113":0.08201835304498672,"114":-0.0768832340836525,"115":0.10827750712633133,"116":0.1517607569694519,"117":0.8958209753036499,"118":0.6697560548782349,"119":0.8977987766265869,"120":0.5626637935638428,"121":1.767910361289978,"122":2.4945669174194336,"123":5.65213680267334,"124":2.185887098312378,"125":-0.37353935837745667,"126":2.1477954387664795,"127":-0.8893538117408752,"128":1.0540781021118164,"129":-1.7869699001312256,"130":3.549168586730957,"131":-0.0991470068693161,"132":-0.4090396761894226,"133":3.9146928787231445,"134":-0.6580339074134827,"135":-1.048256754875183,"136":2.537116765975952,"137":1.4234110116958618,"138":0.23352353274822235,"139":0.014020326547324657,"140":-0.009368540719151497,"141":0.04737626016139984,"142":-0.012803716585040092,"143":-0.16441486775875092,"144":0.5317809581756592,"145":1.3417654037475586,"146":0.7296400666236877,"147":-1.4423035383224487,"148":-0.9776133298873901,"149":0.3572651445865631,"150":2.47941255569458,"151":-1.0181821584701538,"152":-1.1748613119125366,"153":-1.3271241188049316,"154":2.2378079891204834,"155":-1.1492037773132324,"156":-2.9520344734191895,"157":-0.5963265895843506,"158":-0.6546018123626709,"159":-0.7044401168823242,"160":-2.6462132930755615,"161":-2.6600706577301025,"162":-1.0086956024169922,"163":-1.0648654699325562,"164":1.5387171506881714,"165":1.0258121490478516,"166":0.3585849404335022,"167":-0.028338005766272545,"168":-0.16063351929187775,"169":-0.05465882271528244,"170":-0.31553584337234497,"171":-0.09477519989013672,"172":0.1526784896850586,"173":0.38484448194503784,"174":0.20477689802646637,"175":-1.7830697298049927,"176":0.5832076072692871,"177":3.0665030479431152,"178":1.7486435174942017,"179":1.2730062007904053,"180":-0.5660790205001831,"181":0.21731428802013397,"182":-1.669069528579712,"183":5.072704792022705,"184":-1.3735172748565674,"185":-1.9847283363342285,"186":0.3438721299171448,"187":2.3157243728637695,"188":-0.717272937297821,"189":-4.376356601715088,"190":-1.0040253400802612,"191":2.222430467605591,"192":1.33401358127594,"193":0.43567171692848206,"194":0.13887834548950195,"195":-0.053938884288072586,"196":0.14303743839263916,"197":-0.014874891377985477,"198":0.1317877620458603,"199":0.11059492826461792,"200":0.603513240814209,"201":0.2539125084877014,"202":-2.0312538146972656,"203":-5.488302707672119,"204":2.208352565765381,"205":-0.9840800762176514,"206":-0.5094989538192749,"207":0.2797291874885559,"208":0.4770200848579407,"209":0.16847223043441772,"210":-2.613510847091675,"211":3.891002655029297,"212":2.995166301727295,"213":-0.6359753608703613,"214":-5.37255334854126,"215":0.14623485505580902,"216":-4.676074981689453,"217":0.17102907598018646,"218":2.0743024349212646,"219":-1.504318118095398,"220":2.6053621768951416,"221":1.8804830312728882,"222":0.1715533286333084,"223":0.071073018014431,"224":0.16044099628925323,"225":-0.70637446641922,"226":-0.5280793309211731,"227":-0.41411933302879333,"228":0.80543053150177,"229":1.1138345003128052,"230":-1.4522271156311035,"231":-2.8138296604156494,"232":-0.49315881729125977,"233":2.6663413047790527,"234":-2.790598154067993,"235":-0.42201828956604004,"236":-5.132089138031006,"237":0.5208268761634827,"238":-2.156899929046631,"239":-1.707678198814392,"240":-3.4787240028381348,"241":-1.0851246118545532,"242":-2.6902709007263184,"243":1.7227344512939453,"244":-0.12381397932767868,"245":0.16237814724445343,"246":1.9501564502716064,"247":-1.460322618484497,"248":4.007751941680908,"249":2.5191738605499268,"250":-0.37920844554901123,"251":0.334218829870224,"252":-0.082215815782547,"253":-0.9252334237098694,"254":-1.4576300382614136,"255":-1.6842557191848755,"256":0.5085352659225464,"257":4.228664398193359,"258":0.6620737314224243,"259":0.055131614208221436,"260":-0.10451462119817734,"261":1.762457251548767,"262":-0.6431649923324585,"263":1.6397929191589355,"264":-2.427194356918335,"265":2.771113872528076,"266":-1.303636074066162,"267":0.4843502640724182,"268":-4.107475757598877,"269":-5.782418251037598,"270":-0.7457665801048279,"271":-3.449740171432495,"272":0.0585508830845356,"273":-1.0887706279754639,"274":-0.6185907125473022,"275":0.5564255714416504,"276":1.952980399131775,"277":-0.010289939120411873,"278":0.662304699420929,"279":0.08237570524215698,"280":0.029234712943434715,"281":-0.9653071165084839,"282":-2.5238447189331055,"283":-3.5912275314331055,"284":-1.6420458555221558,"285":1.9398154020309448,"286":-1.8204559087753296,"287":-1.2731060981750488,"288":-0.08025185018777847,"289":-2.6002018451690674,"290":4.663025856018066,"291":-0.38469699025154114,"292":1.374351143836975,"293":1.267471194267273,"294":0.44063422083854675,"295":-3.152564525604248,"296":-9.208161354064941,"297":-5.8705925941467285,"298":-6.667214870452881,"299":-6.221930503845215,"300":-1.7425487041473389,"301":-1.5691032409667969,"302":-6.622110843658447,"303":-2.5884649753570557,"304":-1.9313750267028809,"305":-1.667936086654663,"306":0.9939035773277283,"307":-0.034026533365249634,"308":0.1804855465888977,"309":-0.5399410128593445,"310":-2.6518173217773438,"311":-2.4373865127563477,"312":0.5095808506011963,"313":0.42576685547828674,"314":-0.6304095387458801,"315":-1.378859043121338,"316":1.6126896142959595,"317":-0.6587995886802673,"318":1.5600857734680176,"319":-2.1380648612976074,"320":-3.9482038021087646,"321":-6.437392234802246,"322":2.932079792022705,"323":2.6916344165802,"324":0.23884862661361694,"325":-5.108617782592773,"326":-4.740623474121094,"327":-9.501319885253906,"328":-6.347683906555176,"329":-5.844407558441162,"330":-6.119300365447998,"331":-5.099936008453369,"332":-2.3258047103881836,"333":-0.6626915335655212,"334":0.4515957832336426,"335":-0.15931333601474762,"336":-0.008325038477778435,"337":-0.17093537747859955,"338":-2.540789842605591,"339":0.08378618210554123,"340":1.7345014810562134,"341":-0.046108175069093704,"342":0.7715278267860413,"343":-1.251641869544983,"344":-2.4030518531799316,"345":-2.011765956878662,"346":-2.122037410736084,"347":-3.8287084102630615,"348":-7.9119744300842285,"349":-1.5520429611206055,"350":10.088443756103516,"351":11.410794258117676,"352":1.5531620979309082,"353":-1.5266602039337158,"354":3.1426117420196533,"355":0.6355339288711548,"356":-4.324040412902832,"357":-1.9772228002548218,"358":-4.903163433074951,"359":-0.33062559366226196,"360":-2.980454444885254,"361":0.5684886574745178,"362":0.27536487579345703,"363":0.06555061787366867,"364":0.18190358579158783,"365":0.08309365808963776,"366":-1.2851470708847046,"367":0.9026137590408325,"368":2.1751625537872314,"369":-3.4503514766693115,"370":-1.1988365650177002,"371":-2.9908041954040527,"372":-2.129509925842285,"373":-4.7939043045043945,"374":-2.1783716678619385,"375":-0.9175163507461548,"376":3.1327524185180664,"377":4.154609680175781,"378":10.503931999206543,"379":13.124043464660645,"380":1.9575563669204712,"381":2.436643600463867,"382":3.21821928024292,"383":1.5413480997085571,"384":0.8825581073760986,"385":1.6298043727874756,"386":-1.8842523097991943,"387":-3.677995443344116,"388":-4.097822666168213,"389":0.81914222240448,"390":-0.021831847727298737,"391":0.19392460584640503,"392":0.0011998036643490195,"393":-0.08063921332359314,"394":-1.2426447868347168,"395":-0.08844348788261414,"396":1.2288073301315308,"397":-3.3520872592926025,"398":2.9499268531799316,"399":0.34580886363983154,"400":-2.286926031112671,"401":1.9138485193252563,"402":-0.6896098852157593,"403":2.5502703189849854,"404":-3.446784496307373,"405":4.4627156257629395,"406":12.910459518432617,"407":4.104281425476074,"408":1.4085886478424072,"409":-1.3802909851074219,"410":2.752075433731079,"411":2.479302406311035,"412":0.6488808989524841,"413":-1.576834797859192,"414":0.8708488941192627,"415":-6.098876953125,"416":-2.940690279006958,"417":0.03752346709370613,"418":0.1439545452594757,"419":-0.07514321804046631,"420":0.08468082547187805,"421":0.06555767357349396,"422":-0.7628607749938965,"423":0.9366791844367981,"424":2.4323463439941406,"425":-1.9252427816390991,"426":-0.30095651745796204,"427":-2.914930582046509,"428":-2.5137524604797363,"429":-0.4352084994316101,"430":-0.7217145562171936,"431":3.7881104946136475,"432":-2.838164806365967,"433":11.271035194396973,"434":7.683302402496338,"435":3.5315017700195312,"436":4.2562689781188965,"437":0.17965592443943024,"438":0.20155099034309387,"439":3.1868271827697754,"440":-3.240102767944336,"441":-2.2050585746765137,"442":-2.873075485229492,"443":-2.988102912902832,"444":0.8158414363861084,"445":-0.23007744550704956,"446":-0.08938667178153992,"447":-0.20045685768127441,"448":0.09305334836244583,"449":0.08434131741523743,"450":-0.23542314767837524,"451":1.2241780757904053,"452":1.5693237781524658,"453":-0.04357832670211792,"454":-0.16044393181800842,"455":-0.20258231461048126,"456":-0.585430920124054,"457":-0.5415268540382385,"458":0.03841165080666542,"459":-0.1639430671930313,"460":4.071126461029053,"461":9.654516220092773,"462":9.340717315673828,"463":1.7915443181991577,"464":3.4036850929260254,"465":-2.5622446537017822,"466":-0.07668395340442657,"467":0.24168232083320618,"468":0.7288477420806885,"469":-0.7885666489601135,"470":-2.9247751235961914,"471":-0.8040952086448669,"472":0.6661562323570251,"473":0.9312814474105835,"474":0.6554863452911377,"475":0.08027719706296921,"476":-0.08665352314710617,"477":-0.11542670428752899,"478":0.10190992057323456,"479":1.5664242506027222,"480":1.365463137626648,"481":-0.6431885361671448,"482":1.994337558746338,"483":1.7422734498977661,"484":0.8110464215278625,"485":3.150691509246826,"486":-3.7698872089385986,"487":-0.4869883358478546,"488":7.26999568939209,"489":3.012298345565796,"490":4.914030075073242,"491":1.1203638315200806,"492":4.363714694976807,"493":0.3870597779750824,"494":0.5177124738693237,"495":0.14576101303100586,"496":-1.2900253534317017,"497":4.029263496398926,"498":-0.1629510074853897,"499":0.5852630734443665,"500":-1.3309918642044067,"501":0.8942038416862488,"502":0.393136590719223,"503":-0.8120666146278381,"504":0.18261288106441498,"505":0.1971076875925064,"506":0.181208074092865,"507":3.5693039894104004,"508":0.9184424877166748,"509":-0.5500913262367249,"510":0.7697879076004028,"511":1.5665028095245361,"512":-0.9256160855293274,"513":-2.7586684226989746,"514":4.3505144119262695,"515":2.2724125385284424,"516":9.419588088989258,"517":6.994450092315674,"518":6.4700608253479,"519":0.5237497091293335,"520":-1.0745065212249756,"521":-2.846104621887207,"522":-0.5657773017883301,"523":-0.9818724393844604,"524":0.4052657186985016,"525":1.5045779943466187,"526":0.4074382185935974,"527":2.0471746921539307,"528":1.3100813627243042,"529":0.5648272037506104,"530":-0.007138807326555252,"531":-0.1667233109474182,"532":0.06279253959655762,"533":-0.1662960946559906,"534":-0.23172681033611298,"535":3.9027349948883057,"536":-0.8334367275238037,"537":-0.2560572624206543,"538":0.23205780982971191,"539":-1.26788330078125,"540":-0.9012151956558228,"541":2.70347261428833,"542":0.37006792426109314,"543":-0.17016753554344177,"544":-5.155689239501953,"545":4.220637321472168,"546":2.442657709121704,"547":5.295097827911377,"548":-0.7223945260047913,"549":0.48096102476119995,"550":0.6122792363166809,"551":0.18549811840057373,"552":2.6007132530212402,"553":1.254931926727295,"554":-0.09670354425907135,"555":0.5108638405799866,"556":1.005620002746582,"557":1.0475338697433472,"558":0.1764756739139557,"559":0.1370263397693634,"560":-0.1639309972524643,"561":-0.4632837772369385,"562":0.1116531491279602,"563":5.086272716522217,"564":0.9100072979927063,"565":-0.7289889454841614,"566":-1.5618635416030884,"567":-0.5951332449913025,"568":-0.25996798276901245,"569":-0.24154254794120789,"570":1.4205108880996704,"571":-3.652409315109253,"572":-1.128458857536316,"573":-4.8501787185668945,"574":0.7906551361083984,"575":4.376718997955322,"576":6.027847766876221,"577":3.1872670650482178,"578":4.069148540496826,"579":3.496868133544922,"580":4.110857009887695,"581":1.9583135843276978,"582":2.3928308486938477,"583":1.9247781038284302,"584":1.3383209705352783,"585":1.175862193107605,"586":0.03635111823678017,"587":-0.018632007762789726,"588":-0.011628763750195503,"589":-0.0637873038649559,"590":0.5839903950691223,"591":2.9671521186828613,"592":3.4121854305267334,"593":1.9003217220306396,"594":1.9154369831085205,"595":2.764371156692505,"596":0.5679765939712524,"597":1.5121378898620605,"598":-2.99959135055542,"599":-6.12418794631958,"600":-0.1460442990064621,"601":-2.0356853008270264,"602":3.13130259513855,"603":1.3815947771072388,"604":0.29026633501052856,"605":2.4987335205078125,"606":1.4736846685409546,"607":-1.607084035873413,"608":-2.6265015602111816,"609":0.42661407589912415,"610":4.306703567504883,"611":1.3435217142105103,"612":-0.5116174221038818,"613":0.09566488116979599,"614":-0.01424319390207529,"615":-0.12718361616134644,"616":0.04710792005062103,"617":-0.09555473923683167,"618":0.7572333812713623,"619":-0.0007050709682516754,"620":5.092894554138184,"621":5.264702320098877,"622":-0.26688992977142334,"623":-1.9945849180221558,"624":-1.527732491493225,"625":-0.9145448207855225,"626":1.7434659004211426,"627":0.5431703329086304,"628":1.9851537942886353,"629":-4.407494068145752,"630":-1.9547619819641113,"631":-2.2631912231445312,"632":2.246417999267578,"633":1.1045185327529907,"634":2.020397424697876,"635":-3.9158732891082764,"636":1.0052138566970825,"637":3.4052023887634277,"638":2.7359979152679443,"639":-1.1082838773727417,"640":-0.6007438898086548,"641":0.06269244104623795,"642":-0.1513155996799469,"643":0.1325405389070511,"644":0.05631560459733009,"645":-0.0977494940161705,"646":0.030364446341991425,"647":-0.33887338638305664,"648":0.9269371628761292,"649":1.2404217720031738,"650":0.6410895586013794,"651":-0.9866596460342407,"652":-0.16996900737285614,"653":0.18553359806537628,"654":-3.4113683700561523,"655":-0.3943580985069275,"656":-5.681680679321289,"657":1.4759857654571533,"658":-0.08518289029598236,"659":0.046231988817453384,"660":1.1033234596252441,"661":0.4132460057735443,"662":2.34163498878479,"663":2.3289921283721924,"664":6.050705909729004,"665":3.376619577407837,"666":3.3359456062316895,"667":1.5073198080062866,"668":-0.26177161931991577,"669":0.22004494071006775,"670":0.06787633150815964,"671":-0.11121198534965515,"672":-0.1658829003572464,"673":-0.1786281317472458,"674":0.09574782848358154,"675":-0.05164841189980507,"676":-0.3350040018558502,"677":0.8255818486213684,"678":1.7765971422195435,"679":0.733585000038147,"680":-0.7859166264533997,"681":1.159749150276184,"682":1.7681187391281128,"683":4.814726829528809,"684":-0.9286951422691345,"685":0.2608872354030609,"686":-1.6601207256317139,"687":-0.2124401181936264,"688":1.4802919626235962,"689":1.1210981607437134,"690":2.5053319931030273,"691":2.9811899662017822,"692":5.476171016693115,"693":2.1724607944488525,"694":2.826676368713379,"695":2.565208673477173,"696":0.3392842710018158,"697":0.21576498448848724,"698":0.08245814591646194,"699":-0.09168912470340729,"700":-0.1911201924085617,"701":0.04327831789851189,"702":0.1560182273387909,"703":0.1262623518705368,"704":0.29404088854789734,"705":-0.9914057850837708,"706":-0.12742656469345093,"707":-0.09477825462818146,"708":1.225365400314331,"709":2.4637763500213623,"710":5.050351619720459,"711":-0.20080088078975677,"712":1.4846402406692505,"713":1.0406107902526855,"714":-2.172471046447754,"715":0.4637031555175781,"716":0.9600970149040222,"717":2.9203097820281982,"718":1.5446476936340332,"719":-1.9518576860427856,"720":1.704434871673584,"721":2.2505080699920654,"722":0.4581947326660156,"723":0.9066522717475891,"724":0.03824767842888832,"725":0.16431231796741486,"726":-0.11881384998559952,"727":-0.00668667908757925,"728":-0.011865680105984211,"729":0.08771606534719467,"730":0.003986131399869919,"731":0.19922122359275818,"732":0.1614888459444046,"733":-0.25531861186027527,"734":-0.38541802763938904,"735":-0.5354763269424438,"736":-1.109208345413208,"737":3.5524423122406006,"738":5.052624225616455,"739":0.44906407594680786,"740":-1.1121357679367065,"741":0.5484237670898438,"742":1.185107707977295,"743":1.9728671312332153,"744":0.25528600811958313,"745":0.09583626687526703,"746":-0.013050909154117107,"747":-1.4772752523422241,"748":1.949154257774353,"749":2.5411548614501953,"750":-0.014245949685573578,"751":0.10139109194278717,"752":0.015940828248858452,"753":0.008795199915766716,"754":0.040239591151475906,"755":0.013972535729408264,"756":0.08240195363759995,"757":-0.1387026309967041,"758":0.19543983042240143,"759":-0.06455352157354355,"760":-0.1569366306066513,"761":0.02381238155066967,"762":-0.17721349000930786,"763":-0.08396121859550476,"764":0.23530177772045135,"765":-0.003868740051984787,"766":0.43933525681495667,"767":1.2061444520950317,"768":1.2554463148117065,"769":0.3951478600502014,"770":0.4183891713619232,"771":0.11133212596178055,"772":-0.1260496973991394,"773":0.0020876543130725622,"774":0.1563713550567627,"775":0.1161608174443245,"776":-0.1882556974887848,"777":-0.19594541192054749,"778":-0.41710153222084045,"779":0.03030032105743885,"780":0.0696895644068718,"781":0.0006995917647145689,"782":0.13301515579223633,"783":-0.16308149695396423}},"3":{"bias":6.269845008850098,"weights":{"0":0.04082299768924713,"1":0.07389117032289505,"2":-0.14722581207752228,"3":0.18871085345745087,"4":-0.07426287978887558,"5":0.12314441055059433,"6":0.058657456189394,"7":-0.08700316399335861,"8":-0.06140195205807686,"9":0.03177158534526825,"10":-0.04592776298522949,"11":-0.1099899560213089,"12":-0.11666404455900192,"13":-0.10540810972452164,"14":-0.1943192332983017,"15":0.11769869923591614,"16":0.17953237891197205,"17":0.050687335431575775,"18":0.11706972867250443,"19":0.07509486377239227,"20":0.14749960601329803,"21":-0.17179478704929352,"22":0.024463580921292305,"23":-0.16050049662590027,"24":0.0002546784817241132,"25":0.11923129111528397,"26":0.14210131764411926,"27":0.003647781675681472,"28":-0.15464678406715393,"29":-0.030930068343877792,"30":-0.04140090569853783,"31":0.133918896317482,"32":0.10441454499959946,"33":0.032282326370477676,"34":-0.06733731925487518,"35":-0.11349136382341385,"36":0.04007839038968086,"37":0.07863707840442657,"38":-0.10505395382642746,"39":0.017257023602724075,"40":0.09949968755245209,"41":0.11786051094532013,"42":-0.17353206872940063,"43":-0.12947490811347961,"44":0.1080629974603653,"45":-0.3037773072719574,"46":-0.2512366771697998,"47":-0.04972027614712715,"48":0.023017851635813713,"49":0.15702274441719055,"50":0.06503073871135712,"51":-0.02010870724916458,"52":0.019171763211488724,"53":-0.05080679804086685,"54":0.10742927342653275,"55":0.011927382089197636,"56":0.01566120609641075,"57":-0.17669877409934998,"58":0.05517362803220749,"59":0.10498946905136108,"60":0.10123851895332336,"61":0.030863862484693527,"62":0.07833877950906754,"63":-0.18986237049102783,"64":-0.07562047988176346,"65":-0.0799381285905838,"66":-0.2784423828125,"67":-0.326534628868103,"68":-0.019978025928139687,"69":0.002479149028658867,"70":-0.14105819165706635,"71":-0.35222214460372925,"72":-0.2474687546491623,"73":-0.3793898820877075,"74":-0.38057032227516174,"75":-0.28839531540870667,"76":-0.16944141685962677,"77":-0.3256849944591522,"78":-0.16124285757541656,"79":-0.1483575999736786,"80":-0.19034868478775024,"81":0.14495474100112915,"82":-0.18679127097129822,"83":0.1395045518875122,"84":0.12031745910644531,"85":0.15767939388751984,"86":0.17171981930732727,"87":0.03674354776740074,"88":-0.15507721900939941,"89":-0.35675832629203796,"90":-0.258232444524765,"91":-0.3243735134601593,"92":-0.7616444230079651,"93":-0.34121501445770264,"94":-1.0605440139770508,"95":-4.694573879241943,"96":-2.5576601028442383,"97":-1.0666694641113281,"98":0.04932233691215515,"99":-1.0828869342803955,"100":-1.6205205917358398,"101":-0.27052807807922363,"102":1.1996506452560425,"103":1.712395429611206,"104":0.8508121967315674,"105":1.4537981748580933,"106":0.2592344880104065,"107":0.10151130706071854,"108":0.1306302398443222,"109":0.12601029872894287,"110":0.05673397704958916,"111":0.023616159334778786,"112":0.07023300230503082,"113":-0.04069780185818672,"114":-0.19481916725635529,"115":0.006230122409760952,"116":0.4025685489177704,"117":0.25928595662117004,"118":-0.016058925539255142,"119":0.3804556727409363,"120":-0.3038824796676636,"121":-1.0516225099563599,"122":-0.8365620374679565,"123":-6.178773403167725,"124":-3.5347073078155518,"125":0.2779048681259155,"126":-5.0179290771484375,"127":-5.778493404388428,"128":-3.2284646034240723,"129":0.6753684878349304,"130":-0.011310474015772343,"131":3.294363260269165,"132":0.45535293221473694,"133":2.0044915676116943,"134":1.9710651636123657,"135":1.7155357599258423,"136":1.0431056022644043,"137":-1.4565719366073608,"138":-0.6687246561050415,"139":-0.21651943027973175,"140":-0.19261303544044495,"141":-0.018642542883753777,"142":-0.06529482454061508,"143":-0.20330888032913208,"144":0.16464704275131226,"145":0.6068189740180969,"146":1.8488786220550537,"147":0.8876932263374329,"148":0.5303848385810852,"149":2.655578136444092,"150":0.9523519277572632,"151":-1.4965484142303467,"152":-0.738698422908783,"153":-3.024714946746826,"154":-2.949617385864258,"155":0.5376818776130676,"156":-4.382899284362793,"157":-3.6567912101745605,"158":-6.38299036026001,"159":-5.522401809692383,"160":-3.0490663051605225,"161":-3.433929681777954,"162":0.3898673951625824,"163":2.0525076389312744,"164":0.9423455595970154,"165":0.0707402229309082,"166":-0.27643394470214844,"167":-0.11172527819871902,"168":-0.18307845294475555,"169":-0.14255231618881226,"170":0.13353204727172852,"171":-0.08263548463582993,"172":0.9385014772415161,"173":1.934324026107788,"174":3.0232014656066895,"175":2.2508890628814697,"176":3.808690309524536,"177":-1.8359357118606567,"178":-8.075156211853027,"179":-0.23367799818515778,"180":0.9057207107543945,"181":-1.0720289945602417,"182":1.2244058847427368,"183":2.061276435852051,"184":3.24609637260437,"185":4.571539878845215,"186":1.9175629615783691,"187":-0.25880351662635803,"188":3.3588218688964844,"189":1.5623550415039062,"190":0.5061253905296326,"191":0.5267741084098816,"192":-1.4941363334655762,"193":-0.7825582027435303,"194":0.0738067552447319,"195":-0.247071772813797,"196":0.03600270673632622,"197":-0.007457550149410963,"198":0.22130882740020752,"199":1.0468653440475464,"200":1.5777435302734375,"201":-0.952541172504425,"202":1.5233981609344482,"203":-0.47209760546684265,"204":-0.21645212173461914,"205":2.324833869934082,"206":6.126180648803711,"207":0.17022529244422913,"208":1.1365193128585815,"209":-1.896697998046875,"210":-1.9786765575408936,"211":-0.29670432209968567,"212":2.5848686695098877,"213":-1.1704800128936768,"214":-1.1737267971038818,"215":0.6235991716384888,"216":1.125551462173462,"217":-1.9924607276916504,"218":-1.353013515472412,"219":-2.040724992752075,"220":-1.366140604019165,"221":-1.6330260038375854,"222":-1.4462203979492188,"223":0.025024546310305595,"224":-0.04488237574696541,"225":-0.17257662117481232,"226":0.10590169578790665,"227":0.16563604772090912,"228":-0.03132997453212738,"229":-0.5419345498085022,"230":-0.8980064988136292,"231":0.6770355105400085,"232":2.5849289894104004,"233":5.239304542541504,"234":-2.8080966472625732,"235":1.6165406703948975,"236":-2.4208669662475586,"237":-2.3344244956970215,"238":0.8519148826599121,"239":0.6432780623435974,"240":1.192030668258667,"241":-0.13798531889915466,"242":-2.3585431575775146,"243":-1.2602394819259644,"244":-0.22589457035064697,"245":-2.4293479919433594,"246":-0.7329997420310974,"247":-2.1838622093200684,"248":-3.975114107131958,"249":-2.3224806785583496,"250":-1.7672706842422485,"251":-0.055727679282426834,"252":0.0939350500702858,"253":-0.11372743546962738,"254":-0.2709204852581024,"255":0.6283740997314453,"256":-1.1557921171188354,"257":0.6373322606086731,"258":-1.7641552686691284,"259":-0.5674198269844055,"260":-2.514805316925049,"261":-3.3255980014801025,"262":0.8674143552780151,"263":-1.3560292720794678,"264":1.7105244398117065,"265":0.468548059463501,"266":1.0777535438537598,"267":-2.057199716567993,"268":-0.6846771240234375,"269":0.8966625928878784,"270":2.674071788787842,"271":2.4657256603240967,"272":-3.51623797416687,"273":-1.417628288269043,"274":2.461927890777588,"275":-5.026741981506348,"276":-3.6212408542633057,"277":-3.053271532058716,"278":-2.215240716934204,"279":-0.05755726248025894,"280":0.09116275608539581,"281":0.033167894929647446,"282":0.7364770174026489,"283":2.6739375591278076,"284":-1.5689159631729126,"285":-1.553571343421936,"286":-0.8920851945877075,"287":-1.929459810256958,"288":-0.7940734028816223,"289":4.491515159606934,"290":3.506603717803955,"291":1.1978729963302612,"292":4.254103183746338,"293":-0.2617890238761902,"294":-3.4363176822662354,"295":0.8738672733306885,"296":-1.9315707683563232,"297":1.2996423244476318,"298":2.605151891708374,"299":2.602257490158081,"300":-3.7147693634033203,"301":-5.92203426361084,"302":0.13951656222343445,"303":-7.288896083831787,"304":-7.289013862609863,"305":-3.1700644493103027,"306":-1.349647045135498,"307":-0.18125206232070923,"308":0.06782654672861099,"309":-0.04805415868759155,"310":0.4806867241859436,"311":0.44584354758262634,"312":-0.8923499584197998,"313":0.3002549111843109,"314":-1.965552568435669,"315":2.0716845989227295,"316":0.2236708551645279,"317":2.138715982437134,"318":-0.3545418083667755,"319":2.6902780532836914,"320":3.8979053497314453,"321":-1.8046437501907349,"322":-2.6774942874908447,"323":7.312089443206787,"324":4.586637496948242,"325":5.503680229187012,"326":-0.7523305416107178,"327":3.308931827545166,"328":2.7470836639404297,"329":0.4612542688846588,"330":-2.1698570251464844,"331":-5.952945232391357,"332":-9.352279663085938,"333":-5.606933116912842,"334":-2.6437578201293945,"335":0.15556062757968903,"336":0.034410689026117325,"337":0.04810174182057381,"338":0.5496320724487305,"339":-2.2386627197265625,"340":1.1245845556259155,"341":1.1457221508026123,"342":2.9208645820617676,"343":0.6304736733436584,"344":2.707589626312256,"345":-0.6501667499542236,"346":-0.00031557976035401225,"347":5.531469821929932,"348":2.0373783111572266,"349":-5.052661418914795,"350":-2.291738748550415,"351":8.068302154541016,"352":4.6754865646362305,"353":4.572248458862305,"354":7.317724704742432,"355":3.8788816928863525,"356":1.8667222261428833,"357":3.45939302444458,"358":5.357916355133057,"359":-1.416619896888733,"360":-6.0789055824279785,"361":-2.544691562652588,"362":-0.26160600781440735,"363":0.16498371958732605,"364":-0.1412600725889206,"365":-0.19041769206523895,"366":0.15995268523693085,"367":-0.855373740196228,"368":3.1767289638519287,"369":2.0081186294555664,"370":2.7234671115875244,"371":6.048338890075684,"372":1.0298830270767212,"373":1.7000980377197266,"374":5.527926921844482,"375":4.692705154418945,"376":-1.5970171689987183,"377":-5.902573108673096,"378":0.8904960751533508,"379":5.8806962966918945,"380":4.687821865081787,"381":6.128862380981445,"382":-0.30810558795928955,"383":3.936962842941284,"384":5.7293524742126465,"385":4.377171039581299,"386":1.685874342918396,"387":-2.3555145263671875,"388":-4.050034999847412,"389":-2.620356798171997,"390":-0.49980100989341736,"391":-0.06123539060354233,"392":-0.15485917031764984,"393":0.18557898700237274,"394":-0.016876472160220146,"395":1.1080951690673828,"396":2.504472255706787,"397":2.521420955657959,"398":2.21303653717041,"399":5.177031517028809,"400":3.1705076694488525,"401":1.53679358959198,"402":1.4560595750808716,"403":-0.11446380615234375,"404":-3.5090184211730957,"405":-2.8719310760498047,"406":-2.573070526123047,"407":3.950976610183716,"408":7.055071830749512,"409":-0.7067540884017944,"410":7.92015266418457,"411":3.661705732345581,"412":5.424008369445801,"413":3.8552372455596924,"414":4.218958854675293,"415":1.1441978216171265,"416":-2.0834784507751465,"417":-1.31782066822052,"418":-0.36843958497047424,"419":-0.1791725903749466,"420":0.03125922754406929,"421":0.1320512294769287,"422":-0.1858452409505844,"423":0.053013261407613754,"424":2.0095691680908203,"425":1.9079378843307495,"426":4.21467924118042,"427":0.25857168436050415,"428":0.979341983795166,"429":0.6969412565231323,"430":3.7806546688079834,"431":0.22837510704994202,"432":-6.5763840675354,"433":-1.7473160028457642,"434":-4.873895645141602,"435":4.038267612457275,"436":5.236201763153076,"437":5.526840686798096,"438":2.4993155002593994,"439":5.832141399383545,"440":4.947004318237305,"441":4.152400970458984,"442":5.439452171325684,"443":1.147064447402954,"444":-2.1497504711151123,"445":-1.9163260459899902,"446":-0.2338578850030899,"447":0.11633188277482986,"448":-0.18780142068862915,"449":0.08095739781856537,"450":-0.3454122245311737,"451":-1.2607438564300537,"452":1.426180362701416,"453":-1.1472958326339722,"454":4.431661605834961,"455":1.1404367685317993,"456":3.166161298751831,"457":-2.7283899784088135,"458":-0.7536803483963013,"459":-0.7590014934539795,"460":-3.432162046432495,"461":-3.2654430866241455,"462":0.4476741850376129,"463":6.521041393280029,"464":1.44182550907135,"465":2.5202856063842773,"466":4.198922634124756,"467":2.6421098709106445,"468":6.050477504730225,"469":3.987349271774292,"470":3.110124111175537,"471":-0.8639494180679321,"472":-2.7610270977020264,"473":-1.6440149545669556,"474":0.08564335107803345,"475":-0.05163620412349701,"476":0.18858017027378082,"477":0.07384635508060455,"478":-0.4247616231441498,"479":-0.7568155527114868,"480":-0.8215831518173218,"481":-1.5154175758361816,"482":0.042745884507894516,"483":1.859525203704834,"484":-2.439213752746582,"485":-1.4140151739120483,"486":-2.3308985233306885,"487":1.5253369808197021,"488":-1.6284565925598145,"489":-0.7560015916824341,"490":1.4185787439346313,"491":6.029784679412842,"492":4.3860764503479,"493":4.585346698760986,"494":6.602767467498779,"495":-1.0340144634246826,"496":-1.7600177526474,"497":2.965275764465332,"498":-1.0644336938858032,"499":-0.14355938136577606,"500":-2.6004996299743652,"501":-1.0126181840896606,"502":-0.12566021084785461,"503":0.18656644225120544,"504":0.19488170742988586,"505":-0.14694832265377045,"506":-0.1412714272737503,"507":-1.7909924983978271,"508":-1.5229833126068115,"509":-3.8578922748565674,"510":-0.7695825695991516,"511":0.5094719529151917,"512":0.7392114400863647,"513":-2.3892881870269775,"514":-1.7465646266937256,"515":-2.4844493865966797,"516":-3.5333139896392822,"517":1.2921329736709595,"518":1.6037778854370117,"519":4.199938774108887,"520":0.9868546724319458,"521":-0.7650406956672668,"522":-0.7404399514198303,"523":-3.082263946533203,"524":-2.1294965744018555,"525":-0.4671553373336792,"526":-5.968300819396973,"527":-2.4221043586730957,"528":-2.8583192825317383,"529":-1.2500661611557007,"530":-0.2116018682718277,"531":-0.14695219695568085,"532":0.15587414801120758,"533":0.16828003525733948,"534":-0.19491326808929443,"535":-1.3994206190109253,"536":-2.868434190750122,"537":-5.0757598876953125,"538":-2.6217994689941406,"539":-2.2615127563476562,"540":-4.161938667297363,"541":-3.7603683471679688,"542":-1.7807791233062744,"543":2.307440996170044,"544":-1.2253330945968628,"545":-4.276017665863037,"546":3.282212257385254,"547":-2.13381290435791,"548":0.2760718762874603,"549":-5.010670185089111,"550":-1.5980385541915894,"551":-2.536665678024292,"552":-7.240058422088623,"553":-4.160275459289551,"554":-12.089818000793457,"555":-4.523763179779053,"556":-2.480027914047241,"557":-0.7091224193572998,"558":-0.04989476501941681,"559":0.0926424190402031,"560":0.1412903070449829,"561":-0.09287320077419281,"562":-0.5313958525657654,"563":-2.424039363861084,"564":-5.7616682052612305,"565":-8.13034439086914,"566":-10.943469047546387,"567":-9.682195663452148,"568":-10.467247009277344,"569":-9.482694625854492,"570":-9.270938873291016,"571":-5.971385478973389,"572":-5.107726097106934,"573":-4.249661922454834,"574":-4.5190110206604,"575":-5.874002933502197,"576":-1.774465799331665,"577":-7.182802677154541,"578":-5.981443881988525,"579":-5.236215591430664,"580":-11.007349967956543,"581":-8.498241424560547,"582":-8.204221725463867,"583":-4.206913471221924,"584":-0.31228339672088623,"585":0.34780991077423096,"586":-0.11769770085811615,"587":-0.06310790032148361,"588":0.07108376920223236,"589":-0.11808480322360992,"590":-0.528113842010498,"591":-4.133218288421631,"592":-5.327873229980469,"593":-5.914449214935303,"594":-10.68550968170166,"595":-9.071131706237793,"596":-7.190964221954346,"597":-5.962393760681152,"598":-7.834171772003174,"599":-9.440906524658203,"600":-5.250475883483887,"601":-10.180727005004883,"602":-8.864474296569824,"603":-6.451590538024902,"604":3.4306788444519043,"605":-9.490339279174805,"606":-4.134510517120361,"607":-4.150566577911377,"608":-5.643994331359863,"609":-4.18482780456543,"610":-3.2369956970214844,"611":-3.090367078781128,"612":0.40565359592437744,"613":0.7858585119247437,"614":-0.13337893784046173,"615":-0.031381506472826004,"616":-0.06676273047924042,"617":-0.1999109834432602,"618":-0.1573731154203415,"619":-2.3075923919677734,"620":-4.9970622062683105,"621":-8.205124855041504,"622":-5.876592636108398,"623":-3.511451005935669,"624":-2.2013986110687256,"625":-2.774829626083374,"626":-3.739985227584839,"627":-2.3911383152008057,"628":-3.673677444458008,"629":-7.49567985534668,"630":-1.8061610460281372,"631":-5.3310065269470215,"632":-4.890865325927734,"633":-5.805634498596191,"634":-1.1472383737564087,"635":-2.166590452194214,"636":-4.048572063446045,"637":-3.5608394145965576,"638":-1.7923275232315063,"639":-2.073880672454834,"640":-0.21941281855106354,"641":0.2038331776857376,"642":0.021699922159314156,"643":-0.14831455051898956,"644":0.05356576293706894,"645":0.05122729763388634,"646":-0.8120058178901672,"647":-0.7252271771430969,"648":-3.188692331314087,"649":-5.629284858703613,"650":-1.1989613771438599,"651":2.18165922164917,"652":-2.354067325592041,"653":-7.053615570068359,"654":2.493867874145508,"655":-2.049002170562744,"656":-2.8901429176330566,"657":-4.797564506530762,"658":-3.2883644104003906,"659":-4.838889122009277,"660":-5.807966709136963,"661":-3.813873529434204,"662":-3.02219557762146,"663":0.3124231696128845,"664":-4.773176193237305,"665":-1.411446452140808,"666":-2.6254658699035645,"667":-2.088106155395508,"668":0.20631660521030426,"669":0.08348806202411652,"670":0.1424916535615921,"671":0.07895142585039139,"672":0.1877405047416687,"673":-0.15632157027721405,"674":0.11120813339948654,"675":-0.7627915740013123,"676":-1.9273910522460938,"677":2.3943891525268555,"678":2.5523407459259033,"679":3.829965591430664,"680":1.4704450368881226,"681":-2.1992554664611816,"682":-1.0343488454818726,"683":-2.7899858951568604,"684":-5.849140167236328,"685":-4.558190822601318,"686":-9.013047218322754,"687":-1.4388777017593384,"688":-5.560273170471191,"689":-3.222587823867798,"690":-1.629267692565918,"691":-4.486276149749756,"692":-2.5614678859710693,"693":1.1074765920639038,"694":0.15982374548912048,"695":0.7277563810348511,"696":-0.038227979093790054,"697":-0.3891710340976715,"698":-0.18703170120716095,"699":-0.19900226593017578,"700":-0.12700340151786804,"701":-0.03690575063228607,"702":-0.14386920630931854,"703":0.105486199259758,"704":0.19394385814666748,"705":2.650174856185913,"706":3.1238882541656494,"707":1.6505181789398193,"708":1.6255663633346558,"709":-3.193199634552002,"710":-3.1128158569335938,"711":-2.396989107131958,"712":-1.8166817426681519,"713":-3.589531183242798,"714":4.296611309051514,"715":1.147982120513916,"716":-1.4426454305648804,"717":-0.5319117903709412,"718":-0.5625553131103516,"719":-2.090697765350342,"720":1.3585914373397827,"721":4.447297096252441,"722":2.107752561569214,"723":0.980886697769165,"724":-0.08754190057516098,"725":-0.0596584789454937,"726":-0.002091564703732729,"727":-0.012844167649745941,"728":0.14079581201076508,"729":0.0873531922698021,"730":0.08496130257844925,"731":-0.0125339450314641,"732":0.32214564085006714,"733":0.6517702341079712,"734":1.3015971183776855,"735":0.41210049390792847,"736":0.9053239822387695,"737":2.41292405128479,"738":3.1876797676086426,"739":1.2663874626159668,"740":3.507518768310547,"741":3.7706611156463623,"742":1.654894232749939,"743":2.139087677001953,"744":-1.8069045543670654,"745":-3.327207088470459,"746":-2.1753127574920654,"747":-2.652484655380249,"748":0.056893907487392426,"749":2.230156660079956,"750":0.10363863408565521,"751":0.06925591826438904,"752":-0.08121741563081741,"753":-0.1736282855272293,"754":-0.06551778316497803,"755":-0.10431794822216034,"756":0.15284477174282074,"757":0.06983332335948944,"758":0.13126789033412933,"759":-0.07679063826799393,"760":-0.11410459876060486,"761":-0.1823558509349823,"762":-0.18602824211120605,"763":0.1628059446811676,"764":0.13331587612628937,"765":0.19729141891002655,"766":-0.38278940320014954,"767":-1.3587483167648315,"768":-1.3572909832000732,"769":-0.18990279734134674,"770":0.07819478958845139,"771":0.12269778549671173,"772":0.2468278557062149,"773":0.5917993783950806,"774":1.0862314701080322,"775":0.663540244102478,"776":0.6965136528015137,"777":0.14517995715141296,"778":0.2730351388454437,"779":0.21747523546218872,"780":-0.06519294530153275,"781":0.1985517293214798,"782":-0.11200544983148575,"783":0.07605345547199249}},"4":{"bias":-2.7128775119781494,"weights":{"0":0.09372330456972122,"1":-0.12207864224910736,"2":-0.19310824573040009,"3":-0.1652473509311676,"4":0.1935133934020996,"5":-0.17559395730495453,"6":0.12144623696804047,"7":-0.11159040778875351,"8":-0.0481722392141819,"9":-0.04933135211467743,"10":-0.04173344001173973,"11":0.14005522429943085,"12":-0.3978036940097809,"13":-0.8653436303138733,"14":-0.09756316244602203,"15":0.1447879672050476,"16":0.1832258701324463,"17":-0.10304621607065201,"18":0.06493902951478958,"19":-0.18806976079940796,"20":-0.13106991350650787,"21":0.14041760563850403,"22":0.1604883074760437,"23":0.02808678150177002,"24":-0.01720045693218708,"25":-0.09701703488826752,"26":-0.19127093255519867,"27":0.13968071341514587,"28":-0.029226312413811684,"29":-0.05995839834213257,"30":0.11798657476902008,"31":-0.02363419532775879,"32":-0.036471888422966,"33":0.13883830606937408,"34":0.11401040107011795,"35":0.0953855887055397,"36":-0.10099708288908005,"37":-0.000797957880422473,"38":-0.07883915305137634,"39":-0.38655394315719604,"40":-0.6369491219520569,"41":-0.6163182854652405,"42":0.04739606752991676,"43":0.18898876011371613,"44":0.2587325870990753,"45":0.21639007329940796,"46":0.1406632959842682,"47":0.16994677484035492,"48":-0.18734055757522583,"49":0.07212509959936142,"50":0.08157895505428314,"51":0.048974502831697464,"52":0.09873117506504059,"53":-0.11122823506593704,"54":0.10514017194509506,"55":-0.14065609872341156,"56":-0.17500567436218262,"57":-0.14346779882907867,"58":-0.07426312565803528,"59":0.01778111234307289,"60":0.18850542604923248,"61":0.12510286271572113,"62":-0.21099719405174255,"63":0.0456354022026062,"64":-0.01461817603558302,"65":-0.04249963164329529,"66":-0.3165026903152466,"67":-0.9793164730072021,"68":-1.0798529386520386,"69":-0.46316009759902954,"70":-0.34308338165283203,"71":-0.07511626929044724,"72":-0.05715019255876541,"73":-0.2468845695257187,"74":-0.045918602496385574,"75":-0.11264807730913162,"76":-0.1348482221364975,"77":-0.01860547624528408,"78":-0.05746208876371384,"79":0.1568809598684311,"80":0.09167734533548355,"81":-0.0581938661634922,"82":-0.11738579720258713,"83":0.1176050677895546,"84":0.17792707681655884,"85":-0.14882774651050568,"86":-0.16066697239875793,"87":0.13687226176261902,"88":0.015088736079633236,"89":-0.1786709725856781,"90":0.00971985049545765,"91":-0.18793991208076477,"92":-0.4530293643474579,"93":-0.17571218311786652,"94":-0.750353991985321,"95":-1.2998353242874146,"96":-0.9265809059143066,"97":-0.34060266613960266,"98":-0.4231545627117157,"99":-0.4849138855934143,"100":-0.20931872725486755,"101":-0.34945714473724365,"102":-0.16297121345996857,"103":-0.4032075107097626,"104":-0.03048270009458065,"105":-0.0646975189447403,"106":0.16136899590492249,"107":-0.1948651820421219,"108":0.0637398436665535,"109":0.1311134248971939,"110":-0.1922965943813324,"111":0.06209242716431618,"112":0.17533496022224426,"113":-0.09252438694238663,"114":-0.01123103778809309,"115":-0.12201536446809769,"116":-0.06836912035942078,"117":-0.16700710356235504,"118":-0.26303642988204956,"119":-0.7553123831748962,"120":-0.9430654644966125,"121":-1.1181156635284424,"122":-2.1790711879730225,"123":-3.7064945697784424,"124":-3.9252898693084717,"125":-4.009748935699463,"126":-2.1812078952789307,"127":1.3755046129226685,"128":1.0774035453796387,"129":-1.9354274272918701,"130":-1.531960368156433,"131":-2.3743979930877686,"132":-1.3467196226119995,"133":0.0020396877080202103,"134":-0.13363169133663177,"135":-0.24316228926181793,"136":-0.2049797773361206,"137":0.16698963940143585,"138":-0.006640434265136719,"139":0.13186614215373993,"140":0.0558326281607151,"141":-0.07056786864995956,"142":-0.19487547874450684,"143":0.21158547699451447,"144":0.1549297571182251,"145":-0.18983282148838043,"146":-1.0930107831954956,"147":-0.9299659132957458,"148":0.05326256901025772,"149":2.1898443698883057,"150":0.5437888503074646,"151":0.5841131806373596,"152":-6.250370025634766,"153":-12.85370922088623,"154":-12.797844886779785,"155":-9.127326011657715,"156":-10.13032341003418,"157":-7.314566135406494,"158":-2.481066942214966,"159":-3.1245718002319336,"160":-7.590633869171143,"161":-3.745013475418091,"162":-0.9037116765975952,"163":-1.059627890586853,"164":-0.2761180102825165,"165":0.04041963070631027,"166":0.18074661493301392,"167":-0.15073581039905548,"168":-0.04017602279782295,"169":0.05727490037679672,"170":0.0022731302306056023,"171":0.336196631193161,"172":0.18874730169773102,"173":0.9079423546791077,"174":-0.09859292209148407,"175":-1.9684556722640991,"176":0.39836835861206055,"177":0.7568394541740417,"178":2.2906124591827393,"179":5.620699405670166,"180":-4.753037929534912,"181":3.220149517059326,"182":0.6032296419143677,"183":-0.19063155353069305,"184":1.456618070602417,"185":1.4962270259857178,"186":1.5518463850021362,"187":-2.7212932109832764,"188":-2.7739908695220947,"189":-1.0801669359207153,"190":-3.870551586151123,"191":-2.4729654788970947,"192":-1.5465478897094727,"193":-0.5902591943740845,"194":-0.255858838558197,"195":0.048557963222265244,"196":0.15611585974693298,"197":0.054895661771297455,"198":0.8208855986595154,"199":1.2210139036178589,"200":0.41715484857559204,"201":-2.4052181243896484,"202":-0.3288447856903076,"203":1.1981467008590698,"204":1.587607502937317,"205":3.2490200996398926,"206":-5.659372806549072,"207":1.055382490158081,"208":7.593764781951904,"209":5.99961519241333,"210":3.763512134552002,"211":2.350447416305542,"212":2.6423871517181396,"213":2.0221199989318848,"214":2.2224462032318115,"215":3.319354772567749,"216":2.106776714324951,"217":-2.4877381324768066,"218":-9.217754364013672,"219":-5.202035903930664,"220":-2.813828468322754,"221":-1.8678547143936157,"222":-0.4212380647659302,"223":-0.14611192047595978,"224":-0.21180035173892975,"225":0.29059934616088867,"226":0.6600554585456848,"227":0.8822178840637207,"228":1.5134992599487305,"229":0.40036192536354065,"230":0.5105963349342346,"231":1.018965721130371,"232":1.210858702659607,"233":1.199011206626892,"234":-1.8982301950454712,"235":4.1952667236328125,"236":5.958768844604492,"237":3.0143706798553467,"238":4.421739101409912,"239":1.9498658180236816,"240":3.8803744316101074,"241":1.8749992847442627,"242":1.1043659448623657,"243":-0.7756673097610474,"244":3.550633668899536,"245":1.2844185829162598,"246":-0.7985172867774963,"247":-4.714089870452881,"248":-5.63325309753418,"249":-3.187117099761963,"250":-0.5308748483657837,"251":-0.18604859709739685,"252":0.09829443693161011,"253":0.2762518525123596,"254":-0.21335618197917938,"255":0.8116300106048584,"256":1.5507441759109497,"257":1.528680682182312,"258":1.2160574197769165,"259":2.457871913909912,"260":-1.4004155397415161,"261":3.2034692764282227,"262":5.092575550079346,"263":2.73984694480896,"264":6.76077938079834,"265":5.3191962242126465,"266":6.638486862182617,"267":2.473038673400879,"268":-1.014027714729309,"269":0.17262525856494904,"270":-1.5643506050109863,"271":-3.524616003036499,"272":1.825377106666565,"273":0.7851212620735168,"274":3.789308547973633,"275":-4.45839262008667,"276":-5.531098365783691,"277":-2.6233627796173096,"278":-0.657559871673584,"279":0.21971839666366577,"280":-0.057733938097953796,"281":-0.11465811729431152,"282":-1.159148097038269,"283":0.40837571024894714,"284":-0.9335471391677856,"285":1.0348106622695923,"286":2.2095859050750732,"287":1.4314610958099365,"288":0.5898097157478333,"289":2.506422758102417,"290":1.3656502962112427,"291":3.019670009613037,"292":0.048492852598428726,"293":8.799565315246582,"294":0.415257066488266,"295":0.09492175281047821,"296":0.13522571325302124,"297":1.7764723300933838,"298":0.7100206613540649,"299":-2.67210054397583,"300":1.4470605850219727,"301":0.2941589653491974,"302":0.22634167969226837,"303":-4.476120948791504,"304":-4.77777099609375,"305":-0.9383119344711304,"306":0.20459116995334625,"307":0.4005614221096039,"308":-0.1717619150876999,"309":0.4042944312095642,"310":-2.048607110977173,"311":0.6498620510101318,"312":1.5624746084213257,"313":4.060400485992432,"314":3.090447425842285,"315":2.5235040187835693,"316":1.082184076309204,"317":0.8398839235305786,"318":0.40215083956718445,"319":2.272810220718384,"320":0.0655950978398323,"321":8.354361534118652,"322":0.6206241250038147,"323":0.5256208181381226,"324":5.784743785858154,"325":4.537091255187988,"326":2.4531736373901367,"327":2.0156164169311523,"328":0.9111747741699219,"329":-0.007248487323522568,"330":-4.911956787109375,"331":-4.572310447692871,"332":0.34099873900413513,"333":2.1855130195617676,"334":0.9730908870697021,"335":0.33663320541381836,"336":-0.13754914700984955,"337":0.05293731391429901,"338":-1.3538289070129395,"339":2.091728925704956,"340":2.324589967727661,"341":5.963426113128662,"342":0.3064782917499542,"343":3.3486740589141846,"344":0.1736035943031311,"345":0.6582828164100647,"346":-2.1586339473724365,"347":-7.523902893066406,"348":-10.325370788574219,"349":-1.513185977935791,"350":6.286007881164551,"351":2.445194721221924,"352":1.8970277309417725,"353":1.8302383422851562,"354":5.780807018280029,"355":2.566009759902954,"356":-1.0447611808776855,"357":0.8781289458274841,"358":-0.5806773900985718,"359":-3.3042402267456055,"360":-0.10935436934232712,"361":2.7969095706939697,"362":2.0918354988098145,"363":0.745490312576294,"364":0.012769495137035847,"365":0.05132763087749481,"366":0.3088398575782776,"367":2.399214506149292,"368":0.8846913576126099,"369":0.007781968917697668,"370":-2.2114431858062744,"371":-2.8346505165100098,"372":-4.418340682983398,"373":-4.730637073516846,"374":-7.142830848693848,"375":-2.2471415996551514,"376":-3.811221122741699,"377":0.030855292454361916,"378":4.3410258293151855,"379":-2.1034958362579346,"380":1.0954359769821167,"381":0.17055699229240417,"382":4.887897968292236,"383":0.00701078400015831,"384":1.4188036918640137,"385":1.98063325881958,"386":-0.6179797649383545,"387":-5.939632892608643,"388":-3.2183310985565186,"389":2.093724250793457,"390":2.7832441329956055,"391":0.49236416816711426,"392":-0.11937352269887924,"393":-0.09392982721328735,"394":-0.06545308977365494,"395":1.7165966033935547,"396":1.4139351844787598,"397":-4.224290370941162,"398":-3.2876522541046143,"399":-7.404495716094971,"400":-4.939335823059082,"401":-3.975276470184326,"402":-2.6274869441986084,"403":-0.061631496995687485,"404":-1.1998859643936157,"405":1.0829966068267822,"406":-0.5634788870811462,"407":-1.8836952447891235,"408":1.7186594009399414,"409":-1.1250015497207642,"410":2.491319179534912,"411":-3.420968532562256,"412":-0.7306460738182068,"413":-0.9651747941970825,"414":-1.8390889167785645,"415":-0.38061681389808655,"416":-0.21083587408065796,"417":5.088216304779053,"418":3.8236005306243896,"419":0.08496225625276566,"420":-0.15010903775691986,"421":0.021236391738057137,"422":-0.12677010893821716,"423":-0.680251955986023,"424":-2.3689002990722656,"425":-4.434582233428955,"426":-3.0251200199127197,"427":-5.527896881103516,"428":1.3066686391830444,"429":2.431210994720459,"430":-1.629130244255066,"431":3.458411455154419,"432":-0.8376563787460327,"433":-2.7268545627593994,"434":2.005490779876709,"435":6.430989742279053,"436":-5.3258843421936035,"437":1.626531720161438,"438":2.9965736865997314,"439":2.4858953952789307,"440":1.017593502998352,"441":0.37406522035598755,"442":-2.7099783420562744,"443":-2.7950353622436523,"444":0.256962388753891,"445":1.4967985153198242,"446":0.8305938243865967,"447":-0.12398549914360046,"448":0.07197850197553635,"449":0.008929298259317875,"450":0.0970848798751831,"451":-1.7544057369232178,"452":-3.7313573360443115,"453":-4.312854290008545,"454":-2.345592975616455,"455":3.5707919597625732,"456":-2.893049955368042,"457":-1.7450002431869507,"458":0.7181792259216309,"459":-0.6842235326766968,"460":0.8108847141265869,"461":-1.0400128364562988,"462":-4.337961196899414,"463":-0.8914291262626648,"464":0.004944307263940573,"465":1.7345582246780396,"466":-1.765161156654358,"467":-1.2676609754562378,"468":1.6830106973648071,"469":2.2544586658477783,"470":-2.161179780960083,"471":-0.9149605631828308,"472":-0.18749889731407166,"473":3.829803705215454,"474":2.0935373306274414,"475":0.15222741663455963,"476":-0.18973152339458466,"477":-0.1689550131559372,"478":-0.1906450390815735,"479":-1.3817920684814453,"480":-0.6308426856994629,"481":-2.768712043762207,"482":-2.9644670486450195,"483":-0.9884732365608215,"484":-0.22838212549686432,"485":0.8384569883346558,"486":-0.5646465420722961,"487":-2.171220064163208,"488":0.03590473532676697,"489":-0.7059351801872253,"490":-1.927528738975525,"491":-0.9496893286705017,"492":-0.969879150390625,"493":-1.3961962461471558,"494":-1.7490381002426147,"495":4.885824680328369,"496":4.1426682472229,"497":1.71190345287323,"498":-1.1958072185516357,"499":-0.006424762774258852,"500":1.4504265785217285,"501":2.337036609649658,"502":1.6534905433654785,"503":0.27805283665657043,"504":-0.10635127127170563,"505":0.16649681329727173,"506":-0.06753743439912796,"507":-0.745843231678009,"508":1.6668308973312378,