{"sizes":[784,16,16,10],"layers":[{"0":{},"1":{},"2":{},"3":{},"4":{},"5":{},"6":{},"7":{},"8":{},"9":{},"10":{},"11":{},"12":{},"13":{},"14":{},"15":{},"16":{},"17":{},"18":{},"19":{},"20":{},"21":{},"22":{},"23":{},"24":{},"25":{},"26":{},"27":{},"28":{},"29":{},"30":{},"31":{},"32":{},"33":{},"34":{},"35":{},"36":{},"37":{},"38":{},"39":{},"40":{},"41":{},"42":{},"43":{},"44":{},"45":{},"46":{},"47":{},"48":{},"49":{},"50":{},"51":{},"52":{},"53":{},"54":{},"55":{},"56":{},"57":{},"58":{},"59":{},"60":{},"61":{},"62":{},"63":{},"64":{},"65":{},"66":{},"67":{},"68":{},"69":{},"70":{},"71":{},"72":{},"73":{},"74":{},"75":{},"76":{},"77":{},"78":{},"79":{},"80":{},"81":{},"82":{},"83":{},"84":{},"85":{},"86":{},"87":{},"88":{},"89":{},"90":{},"91":{},"92":{},"93":{},"94":{},"95":{},"96":{},"97":{},"98":{},"99":{},"100":{},"101":{},"102":{},"103":{},"104":{},"105":{},"106":{},"107":{},"108":{},"109":{},"110":{},"111":{},"112":{},"113":{},"114":{},"115":{},"116":{},"117":{},"118":{},"119":{},"120":{},"121":{},"122":{},"123":{},"124":{},"125":{},"126":{},"127":{},"128":{},"129":{},"130":{},"131":{},"132":{},"133":{},"134":{},"135":{},"136":{},"137":{},"138":{},"139":{},"140":{},"141":{},"142":{},"143":{},"144":{},"145":{},"146":{},"147":{},"148":{},"149":{},"150":{},"151":{},"152":{},"153":{},"154":{},"155":{},"156":{},"157":{},"158":{},"159":{},"160":{},"161":{},"162":{},"163":{},"164":{},"165":{},"166":{},"167":{},"168":{},"169":{},"170":{},"171":{},"172":{},"173":{},"174":{},"175":{},"176":{},"177":{},"178":{},"179":{},"180":{},"181":{},"182":{},"183":{},"184":{},"185":{},"186":{},"187":{},"188":{},"189":{},"190":{},"191":{},"192":{},"193":{},"194":{},"195":{},"196":{},"197":{},"198":{},"199":{},"200":{},"201":{},"202":{},"203":{},"204":{},"205":{},"206":{},"207":{},"208":{},"209":{},"210":{},"211":{},"212":{},"213":{},"214":{},"215":{},"216":{},"217":{},"218":{},"219":{},"220":{},"221":{},"222":{},"223":{},"224":{},"225":{},"226":{},"227":{},"228":{},"229":{},"230":{},"231":{},"232":{},"233":{},"234":{},"235":{},"236":{},"237":{},"238":{},"239":{},"240":{},"241":{},"242":{},"243":{},"244":{},"245":{},"246":{},"247":{},"248":{},"249":{},"250":{},"251":{},"252":{},"253":{},"254":{},"255":{},"256":{},"257":{},"258":{},"259":{},"260":{},"261":{},"262":{},"263":{},"264":{},"265":{},"266":{},"267":{},"268":{},"269":{},"270":{},"271":{},"272":{},"273":{},"274":{},"275":{},"276":{},"277":{},"278":{},"279":{},"280":{},"281":{},"282":{},"283":{},"284":{},"285":{},"286":{},"287":{},"288":{},"289":{},"290":{},"291":{},"292":{},"293":{},"294":{},"295":{},"296":{},"297":{},"298":{},"299":{},"300":{},"301":{},"302":{},"303":{},"304":{},"305":{},"306":{},"307":{},"308":{},"309":{},"310":{},"311":{},"312":{},"313":{},"314":{},"315":{},"316":{},"317":{},"318":{},"319":{},"320":{},"321":{},"322":{},"323":{},"324":{},"325":{},"326":{},"327":{},"328":{},"329":{},"330":{},"331":{},"332":{},"333":{},"334":{},"335":{},"336":{},"337":{},"338":{},"339":{},"340":{},"341":{},"342":{},"343":{},"344":{},"345":{},"346":{},"347":{},"348":{},"349":{},"350":{},"351":{},"352":{},"353":{},"354":{},"355":{},"356":{},"357":{},"358":{},"359":{},"360":{},"361":{},"362":{},"363":{},"364":{},"365":{},"366":{},"367":{},"368":{},"369":{},"370":{},"371":{},"372":{},"373":{},"374":{},"375":{},"376":{},"377":{},"378":{},"379":{},"380":{},"381":{},"382":{},"383":{},"384":{},"385":{},"386":{},"387":{},"388":{},"389":{},"390":{},"391":{},"392":{},"393":{},"394":{},"395":{},"396":{},"397":{},"398":{},"399":{},"400":{},"401":{},"402":{},"403":{},"404":{},"405":{},"406":{},"407":{},"408":{},"409":{},"410":{},"411":{},"412":{},"413":{},"414":{},"415":{},"416":{},"417":{},"418":{},"419":{},"420":{},"421":{},"422":{},"423":{},"424":{},"425":{},"426":{},"427":{},"428":{},"429":{},"430":{},"431":{},"432":{},"433":{},"434":{},"435":{},"436":{},"437":{},"438":{},"439":{},"440":{},"441":{},"442":{},"443":{},"444":{},"445":{},"446":{},"447":{},"448":{},"449":{},"450":{},"451":{},"452":{},"453":{},"454":{},"455":{},"456":{},"457":{},"458":{},"459":{},"460":{},"461":{},"462":{},"463":{},"464":{},"465":{},"466":{},"467":{},"468":{},"469":{},"470":{},"471":{},"472":{},"473":{},"474":{},"475":{},"476":{},"477":{},"478":{},"479":{},"480":{},"481":{},"482":{},"483":{},"484":{},"485":{},"486":{},"487":{},"488":{},"489":{},"490":{},"491":{},"492":{},"493":{},"494":{},"495":{},"496":{},"497":{},"498":{},"499":{},"500":{},"501":{},"502":{},"503":{},"504":{},"505":{},"506":{},"507":{},"508":{},"509":{},"510":{},"511":{},"512":{},"513":{},"514":{},"515":{},"516":{},"517":{},"518":{},"519":{},"520":{},"521":{},"522":{},"523":{},"524":{},"525":{},"526":{},"527":{},"528":{},"529":{},"530":{},"531":{},"532":{},"533":{},"534":{},"535":{},"536":{},"537":{},"538":{},"539":{},"540":{},"541":{},"542":{},"543":{},"544":{},"545":{},"546":{},"547":{},"548":{},"549":{},"550":{},"551":{},"552":{},"553":{},"554":{},"555":{},"556":{},"557":{},"558":{},"559":{},"560":{},"561":{},"562":{},"563":{},"564":{},"565":{},"566":{},"567":{},"568":{},"569":{},"570":{},"571":{},"572":{},"573":{},"574":{},"575":{},"576":{},"577":{},"578":{},"579":{},"580":{},"581":{},"582":{},"583":{},"584":{},"585":{},"586":{},"587":{},"588":{},"589":{},"590":{},"591":{},"592":{},"593":{},"594":{},"595":{},"596":{},"597":{},"598":{},"599":{},"600":{},"601":{},"602":{},"603":{},"604":{},"605":{},"606":{},"607":{},"608":{},"609":{},"610":{},"611":{},"612":{},"613":{},"614":{},"615":{},"616":{},"617":{},"618":{},"619":{},"620":{},"621":{},"622":{},"623":{},"624":{},"625":{},"626":{},"627":{},"628":{},"629":{},"630":{},"631":{},"632":{},"633":{},"634":{},"635":{},"636":{},"637":{},"638":{},"639":{},"640":{},"641":{},"642":{},"643":{},"644":{},"645":{},"646":{},"647":{},"648":{},"649":{},"650":{},"651":{},"652":{},"653":{},"654":{},"655":{},"656":{},"657":{},"658":{},"659":{},"660":{},"661":{},"662":{},"663":{},"664":{},"665":{},"666":{},"667":{},"668":{},"669":{},"670":{},"671":{},"672":{},"673":{},"674":{},"675":{},"676":{},"677":{},"678":{},"679":{},"680":{},"681":{},"682":{},"683":{},"684":{},"685":{},"686":{},"687":{},"688":{},"689":{},"690":{},"691":{},"692":{},"693":{},"694":{},"695":{},"696":{},"697":{},"698":{},"699":{},"700":{},"701":{},"702":{},"703":{},"704":{},"705":{},"706":{},"707":{},"708":{},"709":{},"710":{},"711":{},"712":{},"713":{},"714":{},"715":{},"716":{},"717":{},"718":{},"719":{},"720":{},"721":{},"722":{},"723":{},"724":{},"725":{},"726":{},"727":{},"728":{},"729":{},"730":{},"731":{},"732":{},"733":{},"734":{},"735":{},"736":{},"737":{},"738":{},"739":{},"740":{},"741":{},"742":{},"743":{},"744":{},"745":{},"746":{},"747":{},"748":{},"749":{},"750":{},"751":{},"752":{},"753":{},"754":{},"755":{},"756":{},"757":{},"758":{},"759":{},"760":{},"761":{},"762":{},"763":{},"764":{},"765":{},"766":{},"767":{},"768":{},"769":{},"770":{},"771":{},"772":{},"773":{},"774":{},"775":{},"776":{},"777":{},"778":{},"779":{},"780":{},"781":{},"782":{},"783":{}},{"0":{"bias":0.14974313974380493,"weights":{"0":-0.001483980449847877,"1":0.18726447224617004,"2":0.04938578978180885,"3":0.11153095960617065,"4":0.14454476535320282,"5":0.006910067517310381,"6":-0.08229389041662216,"7":0.07267996668815613,"8":-0.07409659773111343,"9":0.14604035019874573,"10":0.17646262049674988,"11":-0.08828633278608322,"12":0.1641593873500824,"13":0.011582559905946255,"14":-0.0004022232606075704,"15":0.17447517812252045,"16":0.09404607862234116,"17":-0.1882268786430359,"18":0.08967642486095428,"19":0.032305724918842316,"20":-0.00661420589312911,"21":0.025929521769285202,"22":0.14270859956741333,"23":-0.06890740245580673,"24":-0.007712509483098984,"25":0.18267159163951874,"26":0.16248734295368195,"27":-0.012499646283686161,"28":0.19779178500175476,"29":0.15416710078716278,"30":-0.18687424063682556,"31":-0.19655314087867737,"32":0.17076599597930908,"33":-0.18781252205371857,"34":-0.06114738807082176,"35":-0.20150576531887054,"36":0.03904812037944794,"37":0.0512835718691349,"38":-0.16840864717960358,"39":-0.020447567105293274,"40":-0.11578872054815292,"41":0.17664356529712677,"42":-0.04413609579205513,"43":-0.0425230972468853,"44":-0.03415538743138313,"45":-0.003225543536245823,"46":0.06219601258635521,"47":-0.15099547803401947,"48":-0.17259235680103302,"49":-0.1911027878522873,"50":-0.045368216931819916,"51":-0.11097865551710129,"52":-0.03615788370370865,"53":0.17135165631771088,"54":0.08016620576381683,"55":0.010175459086894989,"56":0.027902968227863312,"57":0.03516972064971924,"58":0.19374234974384308,"59":-0.07100650668144226,"60":0.13600152730941772,"61":0.06568288058042526,"62":-0.11485474556684494,"63":0.12287872284650803,"64":0.16854381561279297,"65":0.0850253626704216,"66":0.20414185523986816,"67":-0.05717182159423828,"68":0.14077934622764587,"69":-0.11764126271009445,"70":0.29876843094825745,"71":0.2627648115158081,"72":0.15956856310367584,"73":0.19884039461612701,"74":0.05226661264896393,"75":0.12566493451595306,"76":0.1259140968322754,"77":0.00763669004663825,"78":-0.007299293298274279,"79":0.11474131047725677,"80":0.11804307252168655,"81":0.056121621280908585,"82":-0.027771852910518646,"83":0.011294569820165634,"84":0.04600795358419418,"85":0.10242091864347458,"86":0.06610937416553497,"87":-0.19198569655418396,"88":0.08526603132486343,"89":0.04072006419301033,"90":0.18635888397693634,"91":-0.11827429383993149,"92":0.06623027473688126,"93":0.2998453378677368,"94":0.0037441186141222715,"95":0.02680228091776371,"96":0.1514514535665512,"97":-0.017273692414164543,"98":0.3077172040939331,"99":0.22982211410999298,"100":0.038310982286930084,"101":0.09404291212558746,"102":0.3138602077960968,"103":0.20388950407505035,"104":-0.06480441987514496,"105":0.17699404060840607,"106":0.1193806454539299,"107":-0.0076660281047225,"108":0.16493621468544006,"109":0.06754978001117706,"110":-0.16545259952545166,"111":-0.032469138503074646,"112":-0.07055572420358658,"113":-0.1780185103416443,"114":-0.02602931298315525,"115":-0.07350894063711166,"116":0.22520914673805237,"117":0.23328599333763123,"118":-0.13682042062282562,"119":-0.2356753945350647,"120":-0.0822434276342392,"121":0.31323400139808655,"122":0.07257188856601715,"123":0.02250172384083271,"124":0.42960160970687866,"125":0.05697622522711754,"126":0.4584042429924011,"127":-0.010267164558172226,"128":0.014510148204863071,"129":-0.02018607035279274,"130":-0.14676471054553986,"131":0.18037423491477966,"132":0.083977609872818,"133":0.11322791129350662,"134":-0.031990066170692444,"135":-0.17895840108394623,"136":-0.019734112545847893,"137":-0.05937395989894867,"138":-0.03165057301521301,"139":-0.06677304208278656,"140":-0.09327124059200287,"141":0.1644296646118164,"142":-0.04277099668979645,"143":0.07583938539028168,"144":-0.16426944732666016,"145":-0.24187570810317993,"146":0.01924910396337509,"147":-0.088422492146492,"148":-0.020749593153595924,"149":0.03466682508587837,"150":-0.23367123305797577,"151":-0.049897097051143646,"152":0.23166003823280334,"153":-0.32721707224845886,"154":0.0983881950378418,"155":0.1813814342021942,"156":-0.42009758949279785,"157":-0.4892043173313141,"158":-0.40627342462539673,"159":-0.2215586155653,"160":0.07029305398464203,"161":0.18728101253509521,"162":0.06310289353132248,"163":0.10757873207330704,"164":-0.06535385549068451,"165":-0.03986343368887901,"166":-0.10021992027759552,"167":0.161407470703125,"168":-0.13150908052921295,"169":0.02915061265230179,"170":0.15847916901111603,"171":0.04957161471247673,"172":-0.008297666907310486,"173":-0.24689477682113647,"174":-0.30855339765548706,"175":-0.17929914593696594,"176":-0.5042877197265625,"177":-0.19156232476234436,"178":-0.22364778816699982,"179":0.11482186615467072,"180":0.12198282778263092,"181":-0.46664491295814514,"182":0.012016399763524532,"183":0.2410268634557724,"184":-0.20966777205467224,"185":-0.037361983209848404,"186":0.03556160256266594,"187":-0.022037487477064133,"188":-0.20110799372196198,"189":-0.2189285159111023,"190":0.06775602698326111,"191":0.05182112380862236,"192":-0.16132394969463348,"193":-0.1899438500404358,"194":0.10957498103380203,"195":0.18046000599861145,"196":-0.17207954823970795,"197":-0.08017154783010483,"198":0.14881010353565216,"199":0.0219267625361681,"200":-0.1317862868309021,"201":-0.2834542393684387,"202":-0.4096718728542328,"203":-0.4152590036392212,"204":-0.2178201824426651,"205":-0.2000150978565216,"206":0.008558056317269802,"207":-0.05175873264670372,"208":0.2632257044315338,"209":0.05607344210147858,"210":-0.11579540371894836,"211":0.37773075699806213,"212":0.06242658942937851,"213":0.2515624165534973,"214":-0.19092698395252228,"215":-0.31466782093048096,"216":-0.06322778016328812,"217":-0.08324408531188965,"218":0.21014831960201263,"219":0.20109118521213531,"220":0.0713229775428772,"221":-0.017471035942435265,"222":-0.2118842899799347,"223":-0.07993233948945999,"224":-0.03703112155199051,"225":0.1428106725215912,"226":0.01973491907119751,"227":-0.03944028541445732,"228":-0.18509216606616974,"229":0.09015721827745438,"230":-0.17356812953948975,"231":0.026908770203590393,"232":-0.12173797190189362,"233":0.25077635049819946,"234":-0.06123219057917595,"235":-0.013281264342367649,"236":-0.09524326026439667,"237":-0.0063310833647847176,"238":-0.277015745639801,"239":-0.1810763031244278,"240":-0.10816501826047897,"241":-0.14340588450431824,"242":0.2941822111606598,"243":0.29438719153404236,"244":0.17735861241817474,"245":0.2091507613658905,"246":0.30582115054130554,"247":0.3601664900779724,"248":-0.029424719512462616,"249":-0.14405997097492218,"250":0.03417717292904854,"251":0.019319506362080574,"252":0.10219569504261017,"253":0.1708567589521408,"254":0.029862254858016968,"255":0.04218311235308647,"256":-0.4512427747249603,"257":0.027086270973086357,"258":0.14530552923679352,"259":0.2733123004436493,"260":0.17617717385292053,"261":-0.21046686172485352,"262":-0.19303570687770844,"263":0.09627465158700943,"264":-0.36728256940841675,"265":-0.4628724157810211,"266":-0.5584656596183777,"267":-0.22623486816883087,"268":-0.3022293448448181,"269":-0.425060898065567,"270":-0.549068808555603,"271":-0.23135565221309662,"272":-0.032770540565252304,"273":0.1321696639060974,"274":0.005620961543172598,"275":0.26821473240852356,"276":-0.21670396625995636,"277":-0.30181562900543213,"278":-0.1087532639503479,"279":0.15031130611896515,"280":0.05991881713271141,"281":-0.10591503232717514,"282":-0.19185785949230194,"283":-0.3966718912124634,"284":-0.21726922690868378,"285":-0.14993324875831604,"286":-0.07928097248077393,"287":0.13173551857471466,"288":0.20017948746681213,"289":0.415324330329895,"290":-0.08319287747144699,"291":0.041348643600940704,"292":-0.1888614147901535,"293":0.11770906299352646,"294":0.37374982237815857,"295":0.4284519851207733,"296":-0.2227039337158203,"297":-0.25440096855163574,"298":-0.17670565843582153,"299":0.10704826563596725,"300":-0.14392483234405518,"301":-0.28533536195755005,"302":0.15451444685459137,"303":0.03149620443582535,"304":0.06444348394870758,"305":-0.4136471748352051,"306":-0.20862442255020142,"307":0.018535925075411797,"308":-0.19240611791610718,"309":0.012654961086809635,"310":-0.01247628778219223,"311":-0.1433890461921692,"312":-0.2349318563938141,"313":-0.07023488730192184,"314":-0.17993563413619995,"315":0.33208420872688293,"316":0.3943488299846649,"317":0.22170092165470123,"318":-0.2741270363330841,"319":0.08434098213911057,"320":0.07276982069015503,"321":0.0662025660276413,"322":0.6642377972602844,"323":0.5312415361404419,"324":0.14283034205436707,"325":-0.14346587657928467,"326":-0.5989790558815002,"327":-0.28908348083496094,"328":-0.15602393448352814,"329":-0.2084616869688034,"330":0.14285816252231598,"331":0.20945370197296143,"332":0.2405368685722351,"333":-0.1773829162120819,"334":-0.09771628677845001,"335":-0.16801315546035767,"336":0.04005108401179314,"337":0.046810127794742584,"338":-0.16140352189540863,"339":-0.1576748639345169,"340":-0.017974697053432465,"341":-0.16874347627162933,"342":-0.007330655585974455,"343":-0.034086715430021286,"344":-0.17909105122089386,"345":0.029018301516771317,"346":-0.014724016189575195,"347":0.26071101427078247,"348":-0.009894325397908688,"349":0.30405503511428833,"350":0.6794162392616272,"351":0.2696090340614319,"352":-0.24034437537193298,"353":-0.22072264552116394,"354":-0.09193761646747589,"355":-0.0026538490783423185,"356":-0.25085243582725525,"357":-0.019797123968601227,"358":-0.03924376145005226,"359":0.10905352979898453,"360":0.07271214574575424,"361":0.08277005702257156,"362":-0.20673176646232605,"363":0.11029800027608871,"364":0.17798934876918793,"365":-0.14073756337165833,"366":0.10547272861003876,"367":0.030825480818748474,"368":-0.12546874582767487,"369":0.011162672191858292,"370":-0.0212112944573164,"371":0.21729806065559387,"372":0.290038526058197,"373":0.2862088084220886,"374":-0.17937256395816803,"375":-0.2959706783294678,"376":0.0762220248579979,"377":0.0822923555970192,"378":0.33410531282424927,"379":0.6822931170463562,"380":0.2135453224182129,"381":0.40543174743652344,"382":0.13817720115184784,"383":0.25072965025901794,"384":0.1295270472764969,"385":0.015238331630825996,"386":-0.033566664904356,"387":-0.08352412283420563,"388":0.1296655535697937,"389":0.010966550558805466,"390":0.06759900599718094,"391":0.06702586263418198,"392":0.15719351172447205,"393":-0.017797982320189476,"394":0.004584582522511482,"395":0.20548027753829956,"396":0.1603669375181198,"397":0.06592964380979538,"398":0.4630095958709717,"399":0.12456205487251282,"400":-0.08877451717853546,"401":0.12974651157855988,"402":-0.25085678696632385,"403":0.5292350053787231,"404":0.1890021115541458,"405":0.5918365120887756,"406":0.5624947547912598,"407":-0.17888842523097992,"408":0.1202985867857933,"409":0.3808829188346863,"410":0.06923280656337738,"411":0.16769959032535553,"412":-0.1718083918094635,"413":-0.15517567098140717,"414":-0.1986844688653946,"415":-0.41280582547187805,"416":-0.1647540181875229,"417":-0.09158261865377426,"418":0.12742912769317627,"419":0.20255103707313538,"420":-0.10503814369440079,"421":0.12087863683700562,"422":-0.013145851902663708,"423":0.015941284596920013,"424":-0.06672581285238266,"425":-0.015469343401491642,"426":0.2317400872707367,"427":-0.35969534516334534,"428":0.018291417509317398,"429":0.3863072693347931,"430":-0.07395078241825104,"431":0.2431376874446869,"432":0.37094828486442566,"433":0.5539131760597229,"434":0.6754655241966248,"435":0.24894873797893524,"436":0.06265448033809662,"437":0.6824682354927063,"438":-0.04426829516887665,"439":-0.21214480698108673,"440":-0.4806140661239624,"441":-0.59211665391922,"442":0.03768334165215492,"443":-0.13552092015743256,"444":-0.4662734866142273,"445":0.015480506233870983,"446":-0.015536400489509106,"447":0.17030499875545502,"448":0.0353766568005085,"449":0.016343364492058754,"450":-0.061326026916503906,"451":-0.10816245526075363,"452":0.011709218844771385,"453":0.4730713963508606,"454":0.08982580155134201,"455":-0.4318416118621826,"456":0.16477863490581512,"457":0.6205956339836121,"458":0.09927953034639359,"459":0.21107877790927887,"460":-0.10427957028150558,"461":0.4234817624092102,"462":0.45315423607826233,"463":0.6686011552810669,"464":0.49935099482536316,"465":0.4188520610332489,"466":0.18572913110256195,"467":-0.3171616196632385,"468":-0.25379079580307007,"469":-0.5012800693511963,"470":-0.1643058806657791,"471":-0.3965652585029602,"472":-0.2564896047115326,"473":-0.07949137687683105,"474":0.1425940841436386,"475":0.10123097896575928,"476":-0.11423762887716293,"477":-0.05742911994457245,"478":-0.1912330836057663,"479":-0.2587154507637024,"480":-0.1297329217195511,"481":0.242006316781044,"482":0.2559572160243988,"483":0.1586630642414093,"484":0.374291330575943,"485":0.0361490398645401,"486":-0.09754089266061783,"487":0.17235605418682098,"488":0.18852047622203827,"489":0.5865172743797302,"490":0.638146698474884,"491":0.2312520146369934,"492":1.0193077325820923,"493":-0.05361310765147209,"494":-0.3904285132884979,"495":-0.5222633481025696,"496":-0.36343204975128174,"497":0.07835914939641953,"498":-0.4039400517940521,"499":-0.10073921829462051,"500":-0.15201829373836517,"501":0.05107995867729187,"502":0.20834068953990936,"503":-0.0703561007976532,"504":0.07241252809762955,"505":-0.11154909431934357,"506":-0.059567876160144806,"507":0.05633825808763504,"508":-0.12545494735240936,"509":0.11729470640420914,"510":0.4205811023712158,"511":0.6231078505516052,"512":0.22838358581066132,"513":0.9550825953483582,"514":0.3461465537548065,"515":0.5652517676353455,"516":0.7030276656150818,"517":0.6971553564071655,"518":0.4957541525363922,"519":-0.2257433980703354,"520":0.03525333106517792,"521":-0.8508479595184326,"522":-0.9366486072540283,"523":-0.3397390842437744,"524":0.2669949233531952,"525":-0.19112059473991394,"526":-0.16449792683124542,"527":-0.1906481832265854,"528":-0.08278578519821167,"529":-0.13733893632888794,"530":0.11722350120544434,"531":-0.11990595608949661,"532":0.13443955779075623,"533":0.16946542263031006,"534":-0.11056499183177948,"535":-0.07066933065652847,"536":-0.22905680537223816,"537":-0.5042127966880798,"538":0.041903361678123474,"539":0.727138340473175,"540":0.550179660320282,"541":0.5335870385169983,"542":0.685405969619751,"543":0.12815280258655548,"544":-0.11435017734766006,"545":-0.14836204051971436,"546":-0.15817803144454956,"547":-0.3199266791343689,"548":-0.6186723709106445,"549":-0.025028230622410774,"550":0.13275375962257385,"551":-0.259977787733078,"552":0.09954392910003662,"553":0.13524334132671356,"554":-0.08179309964179993,"555":-0.06953870505094528,"556":0.13354432582855225,"557":0.1856323480606079,"558":0.1131366416811943,"559":0.04799912869930267,"560":-0.12232598662376404,"561":0.17847485840320587,"562":-0.2198251634836197,"563":-0.08222309499979019,"564":-0.26518476009368896,"565":-0.32940733432769775,"566":-0.08356939256191254,"567":0.26189276576042175,"568":-0.07704639434814453,"569":0.152198925614357,"570":-0.001179030630737543,"571":0.02731996774673462,"572":-0.24151498079299927,"573":-0.392586350440979,"574":-0.3113977015018463,"575":-0.47216305136680603,"576":-0.2588092088699341,"577":0.09836424887180328,"578":-0.21221941709518433,"579":-0.004132850095629692,"580":0.08106385171413422,"581":0.2109350860118866,"582":-0.12195304781198502,"583":-0.015709253028035164,"584":0.022322598844766617,"585":-0.15147505700588226,"586":0.04021190479397774,"587":0.19884976744651794,"588":0.05535086616873741,"589":0.16728028655052185,"590":0.07994235306978226,"591":-0.08196989446878433,"592":-0.48006194829940796,"593":-0.1490277796983719,"594":-0.07089531421661377,"595":0.3380279541015625,"596":-0.5537137985229492,"597":0.09924709796905518,"598":-0.09829825907945633,"599":-0.5258498787879944,"600":-0.2307693064212799,"601":-0.3587106466293335,"602":-0.17788614332675934,"603":-0.41805678606033325,"604":-0.33631646633148193,"605":0.1320357322692871,"606":-0.3558489680290222,"607":-0.2832978367805481,"608":-0.28017276525497437,"609":-0.08283824473619461,"610":0.18982930481433868,"611":0.07665696740150452,"612":0.04117809981107712,"613":-0.1350024789571762,"614":0.1224880963563919,"615":-0.17328482866287231,"616":-0.025743786245584488,"617":-0.12973006069660187,"618":0.09579213708639145,"619":-0.015301265753805637,"620":-0.3020153045654297,"621":-0.09024854749441147,"622":0.0000490738166263327,"623":-0.26268884539604187,"624":-0.5439839363098145,"625":-0.5821444392204285,"626":0.012126768007874489,"627":-0.42055898904800415,"628":-0.31550028920173645,"629":-0.17916987836360931,"630":-0.3857100307941437,"631":-0.17048275470733643,"632":-0.18454959988594055,"633":-0.22624747455120087,"634":-0.42132845520973206,"635":0.05346345156431198,"636":0.07925911247730255,"637":-0.08381736278533936,"638":-0.19659511744976044,"639":-0.27877238392829895,"640":-0.09634878486394882,"641":0.0992886871099472,"642":-0.043168943375349045,"643":-0.028760254383087158,"644":-0.1152520552277565,"645":-0.18512757122516632,"646":-0.11363618075847626,"647":0.13203945755958557,"648":-0.09375504404306412,"649":-0.07192900031805038,"650":-0.21593299508094788,"651":-0.5242556929588318,"652":-0.15153641998767853,"653":-0.3761329650878906,"654":-0.31039056181907654,"655":0.06743431091308594,"656":0.13491475582122803,"657":0.09085164964199066,"658":-0.13484486937522888,"659":-0.3109772801399231,"660":0.3188897669315338,"661":-0.14989523589611053,"662":-0.11086628586053848,"663":0.10618016123771667,"664":0.06797041743993759,"665":-0.04956725612282753,"666":-0.03803960978984833,"667":0.007201196625828743,"668":0.07665332406759262,"669":-0.12430261075496674,"670":0.15858621895313263,"671":-0.13622283935546875,"672":0.07977096736431122,"673":-0.11065994948148727,"674":0.07863404601812363,"675":-0.19735202193260193,"676":0.034013718366622925,"677":-0.271476149559021,"678":-0.19778236746788025,"679":-0.7476596832275391,"680":-0.4014917314052582,"681":-0.36849576234817505,"682":-0.03211682289838791,"683":-0.08932916820049286,"684":-0.25070276856422424,"685":-0.27922847867012024,"686":0.10255318135023117,"687":-0.2754839360713959,"688":0.018869485706090927,"689":-0.18578177690505981,"690":-0.44197389483451843,"691":0.4727063775062561,"692":0.37182313203811646,"693":-0.05789339542388916,"694":0.08366551995277405,"695":0.014078281819820404,"696":-0.15006107091903687,"697":-0.07356400787830353,"698":0.02694047801196575,"699":-0.18674154579639435,"700":-0.007092862855643034,"701":0.19344890117645264,"702":-0.09124861657619476,"703":-0.008648950606584549,"704":-0.2219187468290329,"705":0.08048161119222641,"706":-0.28406229615211487,"707":-0.42026376724243164,"708":-0.5508583784103394,"709":-0.33769890666007996,"710":-0.09351059049367905,"711":-0.18424127995967865,"712":-0.4255225360393524,"713":-0.11663258075714111,"714":-0.061866044998168945,"715":0.13612553477287292,"716":-0.18341004848480225,"717":-0.03139021620154381,"718":-0.09869261831045151,"719":0.03841022774577141,"720":0.25399190187454224,"721":0.2531053423881531,"722":-0.13954974710941315,"723":0.18148571252822876,"724":0.1058591827750206,"725":-0.14094941318035126,"726":-0.1830446571111679,"727":-0.11919998377561569,"728":0.009407078847289085,"729":0.1307372748851776,"730":0.049374476075172424,"731":0.12499864399433136,"732":-0.058457452803850174,"733":-0.015650160610675812,"734":-0.11623207479715347,"735":-0.03960772976279259,"736":-0.27228376269340515,"737":-0.21216922998428345,"738":-0.19507963955402374,"739":-0.006890719756484032,"740":-0.0614510104060173,"741":-0.262495756149292,"742":-0.39932969212532043,"743":-0.13420839607715607,"744":-0.20090912282466888,"745":-0.011513345874845982,"746":-0.016927141696214676,"747":0.07447575032711029,"748":-0.002247749362140894,"749":-0.02142772264778614,"750":-0.23096443712711334,"751":0.17269013822078705,"752":-0.17863576114177704,"753":0.11270109564065933,"754":-0.039569202810525894,"755":-0.07930226624011993,"756":0.19908970594406128,"757":-0.04303622990846634,"758":-0.13534480333328247,"759":0.12384144961833954,"760":-0.12849529087543488,"761":0.16723257303237915,"762":0.07852616906166077,"763":-0.07777048647403717,"764":-0.19813714921474457,"765":-0.00012490857625380158,"766":0.05983036011457443,"767":0.028359632939100266,"768":-0.11087746918201447,"769":-0.1948767453432083,"770":-0.1012081652879715,"771":0.10471159219741821,"772":-0.10944580286741257,"773":0.1407739371061325,"774":-0.2219156175851822,"775":-0.1823633909225464,"776":0.03397255390882492,"777":-0.07782924920320511,"778":-0.08711681514978409,"779":-0.1121436059474945,"780":0.04776805639266968,"781":-0.13459213078022003,"782":0.07658129185438156,"783":-0.1363334357738495}},"1":{"bias":0.9388934969902039,"weights":{"0":0.14597521722316742,"1":-0.061838310211896896,"2":0.023600198328495026,"3":-0.06125500053167343,"4":0.10557199269533157,"5":-0.10899139195680618,"6":-0.013125202618539333,"7":-0.1880180686712265,"8":-0.14432452619075775,"9":0.15107116103172302,"10":-0.16288568079471588,"11":0.14281970262527466,"12":0.0547090619802475,"13":-0.12245818227529526,"14":0.13544195890426636,"15":-0.16206353902816772,"16":0.15586592257022858,"17":0.19293884932994843,"18":0.06635688245296478,"19":0.07586444914340973,"20":0.05844639614224434,"21":0.13849467039108276,"22":0.007314156275242567,"23":-0.1535593867301941,"24":-0.1528657227754593,"25":0.18257980048656464,"26":0.17410755157470703,"27":-0.1632428616285324,"28":0.13985687494277954,"29":0.14025335013866425,"30":-0.1108793169260025,"31":-0.15441441535949707,"32":-0.08888427913188934,"33":-0.07774513959884644,"34":0.10141519457101822,"35":-0.18381591141223907,"36":0.13952915370464325,"37":0.19099220633506775,"38":-0.1643654853105545,"39":0.10479999333620071,"40":0.11402985453605652,"41":0.19607989490032196,"42":-0.09904290735721588,"43":0.11218469589948654,"44":-0.17671649158000946,"45":0.015186576172709465,"46":0.1210252121090889,"47":-0.18678423762321472,"48":0.10737651586532593,"49":-0.09317628294229507,"50":-0.18502773344516754,"51":-0.1330144703388214,"52":0.10711841285228729,"53":-0.05067121237516403,"54":0.0722045972943306,"55":-0.037500590085983276,"56":0.14625254273414612,"57":-0.03136058896780014,"58":0.08063901215791702,"59":-0.1803777813911438,"60":-0.05179426074028015,"61":-0.1436697095632553,"62":0.115620918571949,"63":-0.07305432856082916,"64":0.14321888983249664,"65":0.027819721028208733,"66":-0.08843769133090973,"67":-0.0387180931866169,"68":-0.10714483261108398,"69":-0.03199261054396629,"70":-0.04633326083421707,"71":-0.08793453127145767,"72":-0.04136345908045769,"73":0.01687227003276348,"74":0.0721387267112732,"75":0.19496673345565796,"76":0.21363748610019684,"77":0.3182741105556488,"78":0.2696109712123871,"79":0.006469411309808493,"80":-0.11908320337533951,"81":-0.20333726704120636,"82":-0.05987155809998512,"83":0.04755958542227745,"84":0.03299495205283165,"85":0.07452920079231262,"86":-0.08062836527824402,"87":-0.15417948365211487,"88":-0.04103148356080055,"89":0.05920902267098427,"90":0.06684266775846481,"91":0.10386010259389877,"92":-0.10698235034942627,"93":-0.3864941895008087,"94":-0.1629180908203125,"95":-0.18995243310928345,"96":-0.27048459649086,"97":-0.0904451310634613,"98":-0.31881463527679443,"99":-0.48519080877304077,"100":-0.1162714958190918,"101":0.26820114254951477,"102":0.1005294919013977,"103":0.37712669372558594,"104":0.0012006843462586403,"105":0.0712587907910347,"106":0.5592744946479797,"107":0.319772869348526,"108":0.09307431429624557,"109":-0.03178573399782181,"110":0.040993984788656235,"111":-0.031218647956848145,"112":0.17519135773181915,"113":0.1999451369047165,"114":0.06962652504444122,"115":0.06850234419107437,"116":-0.2001131772994995,"117":0.04504506662487984,"118":0.052596110850572586,"119":-0.04078580066561699,"120":-0.0496000275015831,"121":0.20802149176597595,"122":-0.3421463966369629,"123":0.054384250193834305,"124":0.041613779962062836,"125":0.07926454395055771,"126":0.46487054228782654,"127":0.030130449682474136,"128":-0.3661815822124481,"129":-0.0554121658205986,"130":-0.0780235156416893,"131":-0.4068451523780823,"132":-0.25585752725601196,"133":0.0995401069521904,"134":0.2436523139476776,"135":0.38729292154312134,"136":0.3340801000595093,"137":0.22059239447116852,"138":0.004212796222418547,"139":-0.09051944315433502,"140":0.16633528470993042,"141":-0.12152643501758575,"142":0.1641450971364975,"143":-0.16204047203063965,"144":0.05531807616353035,"145":-0.03725903108716011,"146":-0.09852801263332367,"147":0.14896996319293976,"148":-0.22828304767608643,"149":0.05395882576704025,"150":-0.1466626077890396,"151":-0.09265775233507156,"152":0.042669717222452164,"153":-0.10575860738754272,"154":0.1770714968442917,"155":0.2692059576511383,"156":-0.2845141589641571,"157":0.29873982071876526,"158":0.06376850605010986,"159":0.5103321671485901,"160":-0.027059705927968025,"161":-0.053074005991220474,"162":-0.09282020479440689,"163":0.15915969014167786,"164":0.02944163605570793,"165":0.015909727662801743,"166":0.07131920009851456,"167":0.14134517312049866,"168":-0.1830749362707138,"169":0.03622433543205261,"170":-0.022027047351002693,"171":0.03854574263095856,"172":-0.11366195976734161,"173":0.003509146859869361,"174":-0.08411218971014023,"175":0.3960927128791809,"176":0.1622772067785263,"177":-0.08755967020988464,"178":-0.12134550511837006,"179":0.1059543713927269,"180":-0.20571085810661316,"181":0.35074231028556824,"182":-0.11718019843101501,"183":-0.17060509324073792,"184":-0.21699374914169312,"185":0.16535450518131256,"186":-0.3614516258239746,"187":0.12704657018184662,"188":0.16003485023975372,"189":0.5127196907997131,"190":0.359934002161026,"191":0.2587583363056183,"192":0.5733022093772888,"193":0.34653976559638977,"194":-0.10205599665641785,"195":0.13142751157283783,"196":0.1851077824831009,"197":-0.01126126665621996,"198":-0.09486537426710129,"199":-0.21655753254890442,"200":-0.23680397868156433,"201":0.019119512289762497,"202":0.05541592091321945,"203":0.021671293303370476,"204":0.08388779312372208,"205":-0.3496415615081787,"206":0.14709961414337158,"207":-0.5330846905708313,"208":-0.0459883026778698,"209":-0.182814359664917,"210":-0.24405889213085175,"211":-0.013658791780471802,"212":-0.1274290531873703,"213":-0.06289848685264587,"214":0.17023174464702606,"215":-0.4774034023284912,"216":0.05072460323572159,"217":-0.09479641914367676,"218":-0.5150973200798035,"219":0.5023429989814758,"220":0.5429741144180298,"221":0.2839002311229706,"222":-0.07597515732049942,"223":0.16661010682582855,"224":-0.010210949927568436,"225":0.11727366596460342,"226":-0.049812909215688705,"227":0.07494256645441055,"228":-0.3378094732761383,"229":0.05306483805179596,"230":0.09195576608181,"231":-0.5566356778144836,"232":-0.19829034805297852,"233":-0.060695063322782516,"234":-0.22817473113536835,"235":-0.24362386763095856,"236":-0.053638704121112823,"237":0.2344614714384079,"238":-0.5295448303222656,"239":0.20997828245162964,"240":0.10767527669668198,"241":-0.2398519068956375,"242":-0.009306409396231174,"243":-0.0757221132516861,"244":0.07492192834615707,"245":0.05181610584259033,"246":0.052891094237565994,"247":0.3870171904563904,"248":0.7547276020050049,"249":0.283015638589859,"250":-0.015165096148848534,"251":0.13121162354946136,"252":-0.17193861305713654,"253":-0.07694606482982635,"254":0.09430954605340958,"255":-0.06235172599554062,"256":0.13953110575675964,"257":-0.1645846664905548,"258":-0.37117528915405273,"259":-0.17321626842021942,"260":-0.016895703971385956,"261":-0.30913737416267395,"262":-0.0764283835887909,"263":-0.4600865840911865,"264":-0.4851248562335968,"265":-0.004914939869195223,"266":0.31332820653915405,"267":-0.4140247106552124,"268":-0.4504190683364868,"269":-0.2655864953994751,"270":-0.18712985515594482,"271":-0.19021135568618774,"272":0.32754555344581604,"273":-0.10264677554368973,"274":-0.1258038878440857,"275":-0.12955030798912048,"276":0.9987350106239319,"277":0.20185978710651398,"278":0.05661376193165779,"279":-0.006951756775379181,"280":0.17614227533340454,"281":-0.19504456222057343,"282":0.16024628281593323,"283":0.02417391538619995,"284":0.3588481843471527,"285":-0.16100163757801056,"286":0.040023140609264374,"287":-0.337860107421875,"288":-0.6202979683876038,"289":-0.27488598227500916,"290":-0.4526171088218689,"291":0.4955281615257263,"292":1.0113483667373657,"293":1.455214023590088,"294":0.9867086410522461,"295":0.34843528270721436,"296":0.2351514846086502,"297":0.13173948228359222,"298":-0.15775707364082336,"299":0.3226203918457031,"300":-0.010827506892383099,"301":0.17258159816265106,"302":0.5428675413131714,"303":-0.08188249170780182,"304":0.36489737033843994,"305":0.10930372029542923,"306":0.15183812379837036,"307":0.0721791610121727,"308":-0.1752273291349411,"309":-0.16851121187210083,"310":0.2478249967098236,"311":0.4081251919269562,"312":0.3358186185359955,"313":0.4522165060043335,"314":0.24920813739299774,"315":0.48588627576828003,"316":0.42744073271751404,"317":1.4381524324417114,"318":1.8961764574050903,"319":1.7014272212982178,"320":1.4061481952667236,"321":0.6359584331512451,"322":0.4394596517086029,"323":-0.12846867740154266,"324":0.02590702287852764,"325":0.0725497454404831,"326":-0.044702284038066864,"327":-0.06458885222673416,"328":-0.1428803950548172,"329":0.10043876618146896,"330":0.34175753593444824,"331":0.06132996454834938,"332":0.08522290736436844,"333":-0.3117249608039856,"334":-0.022770769894123077,"335":-0.03532571345567703,"336":-0.12365438789129257,"337":0.09869818389415741,"338":0.045431170612573624,"339":0.28091415762901306,"340":0.5263341069221497,"341":1.1716091632843018,"342":1.5633211135864258,"343":1.8891040086746216,"344":2.1674673557281494,"345":2.341029167175293,"346":1.1202646493911743,"347":0.5149015784263611,"348":0.2609311044216156,"349":-0.10601169615983963,"350":0.2689189910888672,"351":0.18794724345207214,"352":0.08468884974718094,"353":0.18579766154289246,"354":0.004081567749381065,"355":-0.033109162002801895,"356":0.21556855738162994,"357":0.1583818644285202,"358":0.23650607466697693,"359":-0.036181967705488205,"360":-0.2851387858390808,"361":-0.1118132695555687,"362":-0.1984247863292694,"363":0.14394539594650269,"364":0.14720764756202698,"365":0.23587794601917267,"366":0.11578860133886337,"367":0.5246339440345764,"368":0.8907744288444519,"369":1.4036928415298462,"370":1.5383355617523193,"371":1.5224580764770508,"372":0.8015667200088501,"373":0.08125071227550507,"374":-0.10649225115776062,"375":-0.10561079531908035,"376":-0.41428354382514954,"377":-0.04753691330552101,"378":-0.12173587828874588,"379":0.1793307065963745,"380":-0.2298664152622223,"381":0.1950514316558838,"382":-0.006554795894771814,"383":0.1588866412639618,"384":0.13042671978473663,"385":-0.20849564671516418,"386":0.19453829526901245,"387":0.0853903591632843,"388":-0.032001662999391556,"389":-0.4418129324913025,"390":0.02806435339152813,"391":0.16409151256084442,"392":0.15845951437950134,"393":0.1765754520893097,"394":0.1683134287595749,"395":0.24274785816669464,"396":0.5020318627357483,"397":0.8896491527557373,"398":0.6022623181343079,"399":-0.16143740713596344,"400":-0.12655097246170044,"401":-0.33805832266807556,"402":-0.0189045462757349,"403":-0.2342732548713684,"404":-0.38467174768447876,"405":-0.080723337829113,"406":-0.17239956557750702,"407":0.2255096733570099,"408":0.11754186451435089,"409":0.24627786874771118,"410":-0.25538143515586853,"411":0.14618882536888123,"412":-0.09595301747322083,"413":-0.13746339082717896,"414":0.3800674378871918,"415":-0.09435658901929855,"416":0.10206269472837448,"417":-0.49507004022598267,"418":-0.052563443779945374,"419":0.17651250958442688,"420":-0.08086594939231873,"421":-0.18294373154640198,"422":0.04791916161775589,"423":0.038800615817308426,"424":-0.12478651106357574,"425":-0.1607448011636734,"426":-0.3769337832927704,"427":-0.30137112736701965,"428":-0.22477610409259796,"429":-0.39562633633613586,"430":0.14454081654548645,"431":-0.4613244831562042,"432":0.11033967137336731,"433":-0.055474743247032166,"434":-0.05537897348403931,"435":-0.15012520551681519,"436":0.02094368077814579,"437":0.2984606921672821,"438":0.16825492680072784,"439":0.1397247165441513,"440":0.3482646048069,"441":-0.15888585150241852,"442":0.13170450925827026,"443":-0.10684317350387573,"444":-0.2945939898490906,"445":-0.28911641240119934,"446":-0.30472302436828613,"447":-0.12288478761911392,"448":0.1494791954755783,"449":-0.03067496046423912,"450":-0.07693206518888474,"451":-0.2983255386352539,"452":-0.20585370063781738,"453":-0.11391269415616989,"454":-0.44771334528923035,"455":-0.16050021350383759,"456":0.0795741155743599,"457":0.043051764369010925,"458":-0.26921069622039795,"459":-0.007191678509116173,"460":-0.3592987060546875,"461":-0.37776657938957214,"462":-0.47814103960990906,"463":0.4051290452480316,"464":0.16839627921581268,"465":-0.2794433832168579,"466":0.0811811238527298,"467":-0.035303205251693726,"468":0.14946427941322327,"469":-0.00023706586216576397,"470":0.24878306686878204,"471":-0.14593592286109924,"472":-0.10896476358175278,"473":-0.39148712158203125,"474":-0.391328901052475,"475":-0.08044169098138809,"476":-0.12515734136104584,"477":0.11588828265666962,"478":0.020284170284867287,"479":-0.06448788195848465,"480":-0.2415781021118164,"481":-0.04367494210600853,"482":-0.0009930107044056058,"483":-0.12139302492141724,"484":0.13987286388874054,"485":0.14557866752147675,"486":0.012795776128768921,"487":0.03777271881699562,"488":-0.3054901957511902,"489":0.10468365252017975,"490":-0.1704295575618744,"491":-0.45895129442214966,"492":0.017180638387799263,"493":-0.32010406255722046,"494":0.0031155364122241735,"495":-0.03737996891140938,"496":-0.09367897361516953,"497":-0.1334487795829773,"498":0.10991395264863968,"499":-0.06715688854455948,"500":-0.09266338497400284,"501":-0.17433835566043854,"502":-0.30248674750328064,"503":-0.2027963101863861,"504":-0.0841766744852066,"505":-0.15062443912029266,"506":-0.08414904028177261,"507":-0.09643998742103577,"508":-0.25240397453308105,"509":0.25602173805236816,"510":-0.04959903657436371,"511":-0.2641144096851349,"512":-0.0900319516658783,"513":0.2023845762014389,"514":-0.3679202198982239,"515":0.24902281165122986,"516":-0.2567024528980255,"517":-0.18967801332473755,"518":0.11878182739019394,"519":-0.04829560965299606,"520":0.10605555772781372,"521":-0.22877024114131927,"522":0.041811127215623856,"523":-0.05810809135437012,"524":0.1495857834815979,"525":-0.039591360837221146,"526":0.1726243793964386,"527":-0.20257601141929626,"528":-0.23291262984275818,"529":-0.5831142663955688,"530":-0.030861185863614082,"531":0.0913594588637352,"532":0.022679561749100685,"533":-0.12229131907224655,"534":0.11150036752223969,"535":-0.16514533758163452,"536":-0.31348881125450134,"537":0.08483610302209854,"538":0.07482488453388214,"539":0.11607251316308975,"540":-0.11608630418777466,"541":-0.060578662902116776,"542":0.11182333528995514,"543":0.1551426351070404,"544":0.4422155022621155,"545":-0.3662089705467224,"546":0.025637423619627953,"547":-0.015160644426941872,"548":0.11882445961236954,"549":-0.061783768236637115,"550":-0.13441117107868195,"551":-0.2446865737438202,"552":-0.14690126478672028,"553":-0.04520756006240845,"554":-0.07330390810966492,"555":-0.11111832410097122,"556":-0.4000522792339325,"557":-0.8038901686668396,"558":-0.10513604432344437,"559":-0.029877327382564545,"560":0.1011255756020546,"561":-0.08356108516454697,"562":0.1753852814435959,"563":-0.47712796926498413,"564":-0.9675147533416748,"565":-0.11382665485143661,"566":-0.012617766857147217,"567":-0.0734587162733078,"568":0.15710508823394775,"569":0.10706576704978943,"570":0.030456624925136566,"571":-0.6966702342033386,"572":0.18285533785820007,"573":0.003307585371658206,"574":-0.00872788019478321,"575":-0.10738406330347061,"576":-0.10195948928594589,"577":0.12405449897050858,"578":-0.00791899487376213,"579":-0.31104978919029236,"580":-0.1256844401359558,"581":-0.18023119866847992,"582":-0.05899769812822342,"583":0.03682752326130867,"584":-0.02688295766711235,"585":-0.3459816575050354,"586":0.07565116137266159,"587":-0.00630992790684104,"588":-0.04754896089434624,"589":0.1735960990190506,"590":-0.07831767946481705,"591":-0.4326613247394562,"592":-0.11468030512332916,"593":-0.23548153042793274,"594":-0.009576261974871159,"595":-0.011948791332542896,"596":-0.19688723981380463,"597":-0.2332262247800827,"598":-0.08654492348432541,"599":0.30222198367118835,"600":0.14080724120140076,"601":-0.11471104621887207,"602":0.025869444012641907,"603":0.1650846153497696,"604":-0.20122753083705902,"605":0.2550850510597229,"606":-0.21393997967243195,"607":0.24889026582241058,"608":0.07842239737510681,"609":-0.1344955712556839,"610":-0.21270820498466492,"611":-0.3312503397464752,"612":-0.21510933339595795,"613":-0.07530748844146729,"614":0.13537484407424927,"615":-0.029967892915010452,"616":0.1136641651391983,"617":0.12772563099861145,"618":-0.24792544543743134,"619":-0.20587751269340515,"620":-0.15311488509178162,"621":-0.651215672492981,"622":-0.16888533532619476,"623":-0.11204476654529572,"624":-0.17885015904903412,"625":-0.05820978805422783,"626":0.25673508644104004,"627":-0.09391070902347565,"628":0.3425981402397156,"629":0.3051764965057373,"630":-0.3140924870967865,"631":0.2692347466945648,"632":-0.011496010236442089,"633":-0.4049210250377655,"634":-0.12027215212583542,"635":-0.031064234673976898,"636":-0.40246304869651794,"637":-0.3584156632423401,"638":-0.22656729817390442,"639":-0.30313366651535034,"640":-0.32400771975517273,"641":0.08117599785327911,"642":-0.12445247173309326,"643":0.11807551980018616,"644":-0.012732129544019699,"645":0.1972936987876892,"646":-0.02577275224030018,"647":-0.24079392850399017,"648":0.005361651070415974,"649":-0.3884895145893097,"650":-0.22158017754554749,"651":-0.03041459619998932,"652":0.14735043048858643,"653":0.07837790250778198,"654":0.2596709430217743,"655":-0.18271823227405548,"656":-0.17919567227363586,"657":-0.2678619921207428,"658":0.3944723904132843,"659":0.300076425075531,"660":0.06628835946321487,"661":-0.17465780675411224,"662":-0.6362961530685425,"663":-0.3175831735134125,"664":0.0009739884408190846,"665":-0.317193865776062,"666":-0.31708863377571106,"667":0.048337969928979874,"668":-0.10003294795751572,"669":0.15755215287208557,"670":0.12560322880744934,"671":0.05529210716485977,"672":0.18004381656646729,"673":0.013586322776973248,"674":0.09334085136651993,"675":0.032175589352846146,"676":-0.06477062404155731,"677":0.13461051881313324,"678":0.03915772959589958,"679":-0.2281242311000824,"680":-0.44524094462394714,"681":-0.30600038170814514,"682":0.25578227639198303,"683":-0.1638377606868744,"684":-0.001136465580202639,"685":0.27143973112106323,"686":0.08083867281675339,"687":0.08635199069976807,"688":0.3566035032272339,"689":-0.00007333912799367681,"690":0.16309507191181183,"691":0.07671376317739487,"692":0.11254652589559555,"693":0.18240506947040558,"694":0.36137855052948,"695":0.029363185167312622,"696":0.0032640425488352776,"697":-0.03449355438351631,"698":0.04700857400894165,"699":-0.018707387149333954,"700":0.11228394508361816,"701":-0.196741983294487,"702":-0.06429610401391983,"703":0.05667001008987427,"704":0.14463868737220764,"705":-0.053949881345033646,"706":-0.03182907775044441,"707":-0.09445003420114517,"708":-0.10565071552991867,"709":-0.40281376242637634,"710":-0.16574618220329285,"711":-0.3538689911365509,"712":-0.21024885773658752,"713":0.19000409543514252,"714":-0.03090532124042511,"715":0.0031106031965464354,"716":0.13051505386829376,"717":0.5898609161376953,"718":0.609158456325531,"719":0.3880102336406708,"720":0.5411686897277832,"721":0.6821829676628113,"722":0.573587954044342,"723":0.1882251501083374,"724":-0.131906658411026,"725":0.021702419966459274,"726":-0.14649616181850433,"727":0.16461646556854248,"728":-0.01116033922880888,"729":0.1998991221189499,"730":0.06814738363027573,"731":-0.05985664948821068,"732":-0.17800328135490417,"733":0.09865804761648178,"734":0.3549557030200958,"735":-0.05340594798326492,"736":0.21947325766086578,"737":-0.020429233089089394,"738":-0.10917448997497559,"739":0.06371685862541199,"740":-0.10088592767715454,"741":0.22494323551654816,"742":-0.20984768867492676,"743":-0.04654838889837265,"744":0.0477292463183403,"745":0.24437877535820007,"746":-0.04663769528269768,"747":0.13455994427204132,"748":0.10839366912841797,"749":0.06147715076804161,"750":0.07659751921892166,"751":0.1452939510345459,"752":-0.07858336716890335,"753":0.1917569786310196,"754":0.1605379730463028,"755":0.017351465299725533,"756":0.15716616809368134,"757":0.1389608234167099,"758":0.13538803160190582,"759":0.07734797894954681,"760":0.1490122228860855,"761":-0.18156149983406067,"762":-0.09084251523017883,"763":0.08795163780450821,"764":0.03833426535129547,"765":-0.12918128073215485,"766":0.13393759727478027,"767":-0.12460259348154068,"768":-0.15135891735553741,"769":0.11877076327800751,"770":0.003983554430305958,"771":-0.17766119539737701,"772":0.1276046186685562,"773":0.06880351901054382,"774":0.10409656167030334,"775":0.13113713264465332,"776":0.09315574914216995,"777":-0.13137909770011902,"778":0.2149677276611328,"779":0.1362135261297226,"780":-0.10147041827440262,"781":-0.10775433480739594,"782":0.07742255926132202,"783":-0.1597810536623001}},"2":{"bias":-1.2137781381607056,"weights":{"0":-0.08550511300563812,"1":0.0041931066662073135,"2":0.17285509407520294,"3":0.19643162190914154,"4":0.1609208583831787,"5":0.022622184827923775,"6":-0.15888050198554993,"7":0.07561694085597992,"8":0.06628832966089249,"9":0.005320005584508181,"10":0.17659129202365875,"11":-0.16630780696868896,"12":0.14696602523326874,"13":0.17801518738269806,"14":-0.13873730599880219,"15":-0.034279681742191315,"16":-0.11246674507856369,"17":0.0970490425825119,"18":0.0750766396522522,"19":-0.10304617136716843,"20":0.048972371965646744,"21":-0.1649017482995987,"22":0.15681321918964386,"23":0.031140679493546486,"24":0.12866270542144775,"25":0.16153299808502197,"26":-0.05069568380713463,"27":-0.10153429210186005,"28":-0.15425650775432587,"29":-0.1868937462568283,"30":-0.0540674552321434,"31":-0.1540047526359558,"32":0.18789604306221008,"33":0.07476698607206345,"34":-0.08973602205514908,"35":-0.04136209562420845,"36":0.02753848023712635,"37":0.013226666487753391,"38":-0.03390345722436905,"39":-0.14506737887859344,"40":-0.2820788025856018,"41":0.09433091431856155,"42":0.1496695727109909,"43":-0.12523162364959717,"44":0.11005526036024094,"45":-0.13693349063396454,"46":0.0912904441356659,"47":-0.2045472115278244,"48":0.07670175284147263,"49":0.02282913774251938,"50":0.04130087047815323,"51":-0.16230234503746033,"52":-0.19711269438266754,"53":-0.024236220866441727,"54":-0.19546659290790558,"55":0.04487576335668564,"56":0.12283636629581451,"57":-0.12611591815948486,"58":-0.06635063141584396,"59":0.020291313529014587,"60":0.06476043909788132,"61":-0.04527268558740616,"62":-0.004558883141726255,"63":-0.31586408615112305,"64":-0.30327296257019043,"65":-0.09930436313152313,"66":-0.25391629338264465,"67":-0.5266318917274475,"68":-0.6545003652572632,"69":-0.28025364875793457,"70":-0.08212217688560486,"71":0.012324350886046886,"72":-0.03350217640399933,"73":0.14163628220558167,"74":-0.21901534497737885,"75":-0.2297905534505844,"76":-0.04026910290122032,"77":-0.13550540804862976,"78":-0.0608665905892849,"79":0.13690800964832306,"80":0.017722437158226967,"81":0.06883632391691208,"82":0.02293275110423565,"83":0.024482138454914093,"84":0.12898296117782593,"85":0.11481989175081253,"86":-0.09820638597011566,"87":-0.17160142958164215,"88":-0.04072251543402672,"89":-0.13361749053001404,"90":-0.071802519261837,"91":-0.14674746990203857,"92":-0.5412493348121643,"93":-0.14281368255615234,"94":-0.4282756745815277,"95":-0.010961144231259823,"96":-0.16479410231113434,"97":-0.08751455694437027,"98":0.08165628463029861,"99":0.07442069053649902,"100":-0.03936323896050453,"101":0.2779961824417114,"102":0.20950402319431305,"103":-0.13462930917739868,"104":-0.5786479115486145,"105":-0.07938898354768753,"106":0.14344856142997742,"107":-0.12385748326778412,"108":-0.1110459491610527,"109":0.0536627471446991,"110":-0.10018999874591827,"111":-0.031331587582826614,"112":-0.08051428198814392,"113":-0.10627387464046478,"114":-0.14828653633594513,"115":0.14578641951084137,"116":-0.06878134608268738,"117":0.2891419529914856,"118":0.13428324460983276,"119":-0.43817636370658875,"120":0.32583096623420715,"121":0.36819159984588623,"122":-0.0034697253722697496,"123":0.1628204882144928,"124":0.27139812707901,"125":0.24612553417682648,"126":-0.008779661729931831,"127":-0.292825847864151,"128":0.05995416268706322,"129":0.09979213029146194,"130":0.06325250118970871,"131":0.2952408492565155,"132":0.1651972085237503,"133":-0.44424545764923096,"134":-0.10250125080347061,"135":-0.23311887681484222,"136":-0.09037916362285614,"137":0.03044271469116211,"138":0.03776394948363304,"139":0.1267566978931427,"140":0.0018100837478414178,"141":0.16424673795700073,"142":0.039962176233530045,"143":-0.046142514795064926,"144":0.4797356128692627,"145":0.40849727392196655,"146":0.4130362272262573,"147":0.18517236411571503,"148":-0.07060849666595459,"149":-0.04587971419095993,"150":-0.06267176568508148,"151":0.18951350450515747,"152":0.5193057060241699,"153":-0.004167483188211918,"154":0.15105794370174408,"155":0.1951616406440735,"156":-0.428446501493454,"157":-0.3267729580402374,"158":-0.056231409311294556,"159":0.06384295970201492,"160":0.09653561562299728,"161":0.22405068576335907,"162":0.10389527678489685,"163":0.0916483923792839,"164":0.35103633999824524,"165":0.10209855437278748,"166":0.03788583725690842,"167":0.0882946252822876,"168":0.04487137496471405,"169":-0.07360969483852386,"170":0.23179855942726135,"171":0.03515429049730301,"172":0.03499578684568405,"173":0.35723093152046204,"174":0.30816054344177246,"175":0.047249890863895416,"176":0.24876666069030762,"177":0.4019134044647217,"178":-0.08486680686473846,"179":0.1392877697944641,"180":0.09901025891304016,"181":-0.021191038191318512,"182":-0.45604047179222107,"183":0.04412655159831047,"184":0.07528998702764511,"185":0.15719737112522125,"186":-0.23767127096652985,"187":-0.01671922579407692,"188":-0.15447315573692322,"189":0.07625016570091248,"190":-0.2702666223049164,"191":-0.08765345811843872,"192":-0.07353778183460236,"193":-0.0015769953606650233,"194":-0.00929255224764347,"195":-0.10753026604652405,"196":-0.05835837870836258,"197":0.032766714692115784,"198":0.06695001572370529,"199":0.21656227111816406,"200":0.5087710618972778,"201":0.22023341059684753,"202":0.14933687448501587,"203":-0.2803310453891754,"204":-0.020897453650832176,"205":0.024108903482556343,"206":-0.165399968624115,"207":-0.4070386588573456,"208":-0.010887622833251953,"209":0.38811588287353516,"210":-0.39659979939460754,"211":-0.34611430764198303,"212":0.005274108611047268,"213":0.051377881318330765,"214":-0.4359797537326813,"215":0.08411024510860443,"216":0.07932846248149872,"217":-0.16461439430713654,"218":-0.39347586035728455,"219":-0.08802645653486252,"220":-0.09721170365810394,"221":-0.08432028442621231,"222":0.1359741985797882,"223":0.06862822920084,"224":0.1886921375989914,"225":-0.11421002447605133,"226":0.035532377660274506,"227":0.36802250146865845,"228":0.6648312211036682,"229":0.703866720199585,"230":0.06610428541898727,"231":-0.1955532282590866,"232":-0.10095003992319107,"233":-0.14955657720565796,"234":-0.09091825783252716,"235":-0.3872928321361542,"236":0.08391476422548294,"237":0.3634122908115387,"238":0.30039915442466736,"239":0.010642413049936295,"240":-0.07759327441453934,"241":0.02402121014893055,"242":0.5685852766036987,"243":-0.47424837946891785,"244":-0.03408084064722061,"245":-0.29389840364456177,"246":-0.35700443387031555,"247":-0.747614324092865,"248":-0.7047274112701416,"249":-0.24663589894771576,"250":0.12163358181715012,"251":0.2276684194803238,"252":0.05267341062426567,"253":-0.1282944679260254,"254":-0.0028145292308181524,"255":0.26425832509994507,"256":0.4499776065349579,"257":0.5524060726165771,"258":-0.07720265537500381,"259":0.14964216947555542,"260":-0.46431389451026917,"261":0.044708192348480225,"262":-0.2243064045906067,"263":-0.15980592370033264,"264":-0.05646085366606712,"265":-0.0035063414834439754,"266":0.31672295928001404,"267":0.7879098653793335,"268":0.4779932200908661,"269":0.5637733340263367,"270":0.3927532434463501,"271":0.29180485010147095,"272":0.5566313862800598,"273":0.1875734180212021,"274":0.1124415472149849,"275":-0.8752755522727966,"276":-1.249277949333191,"277":-0.4721599221229553,"278":-0.11864688992500305,"279":-0.1961149275302887,"280":-0.188789501786232,"281":0.18350383639335632,"282":0.12046033143997192,"283":0.1479288637638092,"284":0.2163824737071991,"285":-0.10875273495912552,"286":-0.18520967662334442,"287":0.09139058738946915,"288":-0.30795347690582275,"289":-0.23383374512195587,"290":-0.04631395265460014,"291":-0.0031759049743413925,"292":-0.4794498383998871,"293":-0.10250052064657211,"294":-0.25441691279411316,"295":-0.15300379693508148,"296":0.36478087306022644,"297":0.5413597226142883,"298":0.7112648487091064,"299":0.7866112589836121,"300":0.7543157339096069,"301":0.17532119154930115,"302":-0.15051542222499847,"303":-1.382094144821167,"304":-1.787030577659607,"305":-0.806648313999176,"306":-0.1240682601928711,"307":-0.005550307221710682,"308":0.03330567851662636,"309":-0.174550861120224,"310":-0.0098824268206954,"311":0.43640071153640747,"312":0.16696444153785706,"313":-0.01721986196935177,"314":-0.10585077106952667,"315":0.01717088557779789,"316":-0.08533144742250443,"317":0.15777891874313354,"318":-0.310420960187912,"319":-0.1950753927230835,"320":0.2212846279144287,"321":-0.6076587438583374,"322":-0.08031666278839111,"323":0.4691482484340668,"324":0.11107064038515091,"325":0.3515818417072296,"326":0.39785265922546387,"327":0.560714840888977,"328":0.9678191542625427,"329":0.17875035107135773,"330":-0.040391940623521805,"331":-1.3117852210998535,"332":-1.1113044023513794,"333":-0.2172846794128418,"334":-0.2866099178791046,"335":-0.07754760980606079,"336":0.15608568489551544,"337":0.07931870222091675,"338":-0.012095755897462368,"339":0.1388094425201416,"340":0.27339476346969604,"341":0.22017444670200348,"342":-0.4684881567955017,"343":-0.0775071233510971,"344":-0.0798114687204361,"345":0.02167477272450924,"346":0.17512492835521698,"347":0.09552224725484848,"348":0.29659366607666016,"349":-0.31324824690818787,"350":0.637910783290863,"351":0.28432708978652954,"352":0.3422267735004425,"353":0.09850750118494034,"354":0.5367534756660461,"355":0.9734859466552734,"356":0.4861387014389038,"357":0.03313641995191574,"358":-0.5294285416603088,"359":-0.6931823492050171,"360":-0.4428681433200836,"361":0.13672128319740295,"362":-0.17823435366153717,"363":-0.14564639329910278,"364":0.0628286674618721,"365":0.18279816210269928,"366":0.15831103920936584,"367":-0.02215762250125408,"368":0.22399000823497772,"369":-0.12669721245765686,"370":0.31549274921417236,"371":-0.05294365808367729,"372":0.5608972311019897,"373":0.07463141530752182,"374":-0.18002116680145264,"375":0.0504608117043972,"376":-0.2198857218027115,"377":0.18162637948989868,"378":0.7225785255432129,"379":0.08485324680805206,"380":0.6512913703918457,"381":0.42123714089393616,"382":0.4762915372848511,"383":0.806130051612854,"384":0.3844570517539978,"385":-0.6254344582557678,"386":-0.7628664374351501,"387":-0.615225613117218,"388":-0.4965723156929016,"389":0.07544874399900436,"390":-0.07150839269161224,"391":0.08098014444112778,"392":0.14503583312034607,"393":0.039776865392923355,"394":0.04279176518321037,"395":0.04296770691871643,"396":0.33732908964157104,"397":0.2738681733608246,"398":0.0009864968014881015,"399":-0.07879101485013962,"400":-0.4242198169231415,"401":-0.054561857134103775,"402":-0.4366997480392456,"403":-0.1413637101650238,"404":0.057061076164245605,"405":0.3537679612636566,"406":0.38519102334976196,"407":-0.029032543301582336,"408":0.45092251896858215,"409":0.46283358335494995,"410":0.45979341864585876,"411":0.19255401194095612,"412":-0.7157083749771118,"413":-0.6377513408660889,"414":-1.084204077720642,"415":-0.048134151846170425,"416":-0.26882049441337585,"417":0.2637680470943451,"418":0.20174695551395416,"419":-0.10732483118772507,"420":0.009301993064582348,"421":0.023012805730104446,"422":-0.1129082515835762,"423":0.2464328110218048,"424":0.6675747632980347,"425":0.12043330073356628,"426":-0.5511729717254639,"427":-0.48910272121429443,"428":-0.15885703265666962,"429":-0.3293828070163727,"430":-0.14820484817028046,"431":0.02619301527738571,"432":0.20990058779716492,"433":0.2392302304506302,"434":0.15834827721118927,"435":0.2723018229007721,"436":0.7429274320602417,"437":0.46364161372184753,"438":-0.2583555579185486,"439":0.14623285830020905,"440":-0.8557769656181335,"441":-0.3175215721130371,"442":0.1441325694322586,"443":0.007846123538911343,"444":-0.23138248920440674,"445":0.15487037599086761,"446":0.13874459266662598,"447":0.19707739353179932,"448":0.1372012346982956,"449":-0.09426016360521317,"450":-0.0817168727517128,"451":0.2798856496810913,"452":0.39688390493392944,"453":0.14959698915481567,"454":-0.4929329752922058,"455":-0.21921822428703308,"456":-0.18574988842010498,"457":-0.4851224720478058,"458":-0.025312639772892,"459":-0.2743290960788727,"460":0.18827015161514282,"461":0.5389200448989868,"462":0.22131553292274475,"463":0.03876287490129471,"464":0.3655692934989929,"465":-0.37442171573638916,"466":0.12929363548755646,"467":-0.43639200925827026,"468":-0.39503011107444763,"469":0.22320382297039032,"470":0.22374984622001648,"471":-0.13414978981018066,"472":0.09672635048627853,"473":-0.0037264921702444553,"474":0.13616427779197693,"475":-0.09239844977855682,"476":0.0024780372623354197,"477":0.05348743870854378,"478":-0.04995522275567055,"479":-0.0671345666050911,"480":-0.019609322771430016,"481":-0.3794916570186615,"482":-0.3485049307346344,"483":0.09772419184446335,"484":0.10714057087898254,"485":-0.05511198937892914,"486":-0.519504964351654,"487":-0.35590243339538574,"488":0.05957885459065437,"489":0.528864324092865,"490":0.4500407576560974,"491":-0.2628256380558014,"492":0.09396693110466003,"493":-0.2756922245025635,"494":0.08189639449119568,"495":0.0771685391664505,"496":0.1357521265745163,"497":-0.24092413485050201,"498":-0.24241124093532562,"499":0.17490354180335999,"500":0.11590930074453354,"501":0.16156266629695892,"502":-0.0005635407869704068,"503":-0.07161422073841095,"504":0.18906918168067932,"505":-0.012130038812756538,"506":0.17545360326766968,"507":0.1759106069803238,"508":-0.31898796558380127,"509":-0.10528324544429779,"510":-0.13774612545967102,"511":-0.19516706466674805,"512":-0.38604798913002014,"513":-0.11068201065063477,"514":0.3760773241519928,"515":-0.25262925028800964,"516":0.2112155258655548,"517":0.17641684412956238,"518":0.17068688571453094,"519":0.11888200044631958,"520":0.0377144031226635,"521":-0.27298009395599365,"522":0.24216489493846893,"523":-0.013932357542216778,"524":0.21502135694026947,"525":-0.17960090935230255,"526":0.36405250430107117,"527":-0.0560079924762249,"528":0.35087528824806213,"529":0.44338998198509216,"530":0.030872086063027382,"531":-0.0014029440935701132,"532":-0.15639176964759827,"533":-0.07048963755369186,"534":-0.23406459391117096,"535":-0.014530548825860023,"536":-0.20219120383262634,"537":-0.06928157806396484,"538":-0.1923709362745285,"539":0.09965783357620239,"540":-0.07352182269096375,"541":-0.08154306560754776,"542":-0.17650151252746582,"543":-0.5737192630767822,"544":-0.6534096598625183,"545":-0.606561005115509,"546":-0.3193197548389435,"547":-0.09598313271999359,"548":0.34167584776878357,"549":-0.03222847729921341,"550":0.30740630626678467,"551":0.059896890074014664,"552":-0.10211709886789322,"553":-0.166485995054245,"554":-0.12410034239292145,"555":-0.2617083787918091,"556":-0.2609376311302185,"557":0.05049704760313034,"558":-0.1126185730099678,"559":0.056846197694540024,"560":0.11987368762493134,"561":-0.11708816140890121,"562":-0.15556474030017853,"563":0.21962541341781616,"564":0.24112753570079803,"565":-0.3800792396068573,"566":0.13247890770435333,"567":0.19829127192497253,"568":-0.1856030970811844,"569":0.0445801243185997,"570":-0.2690492272377014,"571":-0.4524446129798889,"572":-0.18984146416187286,"573":-0.2123222053050995,"574":0.19455979764461517,"575":-0.04846405237913132,"576":-0.08716590702533722,"577":-0.23048517107963562,"578":-0.1576855629682541,"579":-0.2316570281982422,"580":0.14814962446689606,"581":0.2689235508441925,"582":-0.28065985441207886,"583":-0.006853943690657616,"584":0.023805717006325722,"585":0.15066397190093994,"586":-0.0006465002661570907,"587":0.15866751968860626,"588":0.04416566342115402,"589":0.16086125373840332,"590":0.02817569486796856,"591":0.16985638439655304,"592":-0.33272260427474976,"593":-0.017125671729445457,"594":-0.12578170001506805,"595":-0.32831087708473206,"596":-0.1574234962463379,"597":-0.1352945864200592,"598":-0.4817711412906647,"599":-0.11517887562513351,"600":-0.020971044898033142,"601":-0.04011130705475807,"602":-0.4045560956001282,"603":0.11966757476329803,"604":0.6164819002151489,"605":-0.408405065536499,"606":0.41649022698402405,"607":0.13980448246002197,"608":-0.12063824385404587,"609":-0.14953725039958954,"610":-0.1487128734588623,"611":-0.018238577991724014,"612":-0.06267201900482178,"613":-0.06480629742145538,"614":0.1762457937002182,"615":-0.18853312730789185,"616":-0.06358911842107773,"617":0.08722452819347382,"618":0.2065390646457672,"619":0.08200737833976746,"620":-0.1285744309425354,"621":0.2774102985858917,"622":0.0041078501380980015,"623":-0.22150540351867676,"624":0.0600782185792923,"625":-0.34246259927749634,"626":0.2627604901790619,"627":0.21147197484970093,"628":-0.27216216921806335,"629":-0.02078556828200817,"630":-0.20002707839012146,"631":-0.17105484008789062,"632":0.05282009020447731,"633":-0.21260377764701843,"634":0.26805490255355835,"635":-0.13544109463691711,"636":-0.026062553748488426,"637":0.05004332214593887,"638":-0.17567144334316254,"639":-0.12529821693897247,"640":-0.11152331531047821,"641":-0.019441375508904457,"642":-0.07655133306980133,"643":-0.026492804288864136,"644":0.11879701167345047,"645":-0.13712255656719208,"646":0.021241694688796997,"647":0.2793162167072296,"648":-0.053696662187576294,"649":-0.06576243788003922,"650":-0.29065921902656555,"651":0.3150186836719513,"652":0.004497400484979153,"653":-0.21752074360847473,"654":-0.3373751640319824,"655":-0.10087047517299652,"656":0.024831978604197502,"657":0.10201290994882584,"658":0.03505125641822815,"659":-0.192595437169075,"660":-0.26083648204803467,"661":0.3315908908843994,"662":0.472258597612381,"663":-0.0073003266006708145,"664":-0.05437631905078888,"665":0.22220256924629211,"666":-0.24490174651145935,"667":-0.09774225205183029,"668":0.06334977596998215,"669":0.1665884554386139,"670":0.08414959162473679,"671":0.1346506029367447,"672":-0.03436865657567978,"673":0.12524469196796417,"674":-0.14432163536548615,"675":0.061536263674497604,"676":0.18621200323104858,"677":-0.03047044947743416,"678":0.1851959526538849,"679":0.1016993522644043,"680":-0.31765976548194885,"681":-0.2778262495994568,"682":0.13974013924598694,"683":0.08702825009822845,"684":-0.13039959967136383,"685":-0.06907004117965698,"686":-0.0888075977563858,"687":-0.0509556382894516,"688":0.014367477968335152,"689":0.20868957042694092,"690":-0.13972912728786469,"691":0.039895642548799515,"692":-0.03208616375923157,"693":0.2849411964416504,"694":-0.012657102197408676,"695":-0.12643760442733765,"696":-0.02867933362722397,"697":0.20841680467128754,"698":0.1309407502412796,"699":-0.1608181893825531,"700":0.0369146466255188,"701":0.012695313431322575,"702":0.04859153553843498,"703":-0.05952882394194603,"704":0.2225300520658493,"705":0.12144670635461807,"706":0.05181368812918663,"707":-0.1305447369813919,"708":0.2348223328590393,"709":0.15633778274059296,"710":0.43608370423316956,"711":0.33601728081703186,"712":-0.290229856967926,"713":-0.22666002810001373,"714":0.34297361969947815,"715":0.05389248579740524,"716":-0.16728784143924713,"717":-0.2748095393180847,"718":-0.3602730929851532,"719":0.059289027005434036,"720":-0.07148811221122742,"721":0.20010270178318024,"722":-0.14397472143173218,"723":-0.0842016413807869,"724":-0.019093988463282585,"725":0.02232484333217144,"726":0.0635729506611824,"727":-0.17909030616283417,"728":-0.13972246646881104,"729":-0.0662861093878746,"730":-0.13784606754779816,"731":0.037579912692308426,"732":-0.038635533303022385,"733":0.1080794483423233,"734":0.053621806204319,"735":-0.12310738116502762,"736":-0.029812226071953773,"737":0.2089448720216751,"738":0.3624480068683624,"739":-0.14034520089626312,"740":0.1629803627729416,"741":0.04016604647040367,"742":0.22786372900009155,"743":0.3125435411930084,"744":0.337471604347229,"745":0.261417955160141,"746":-0.08525390923023224,"747":0.12244214117527008,"748":-0.0454290397465229,"749":0.08486394584178925,"750":-0.029615486040711403,"751":0.13636089861392975,"752":0.1423364132642746,"753":0.08972428739070892,"754":0.08673805743455887,"755":-0.00775234866887331,"756":-0.06472215801477432,"757":-0.05311840772628784,"758":-0.02538912743330002,"759":-0.19616903364658356,"760":0.0007267204928211868,"761":0.0856349915266037,"762":-0.03401586785912514,"763":0.19971415400505066,"764":-0.004530947655439377,"765":0.11183563619852066,"766":0.0896490216255188,"767":0.013547033071517944,"768":-0.11747939139604568,"769":-0.08023892343044281,"770":0.027964338660240173,"771":0.02847079560160637,"772":-0.0252004936337471,"773":0.14734572172164917,"774":0.052035439759492874,"775":-0.01291611697524786,"776":0.11789113283157349,"777":0.10267036408185959,"778":-0.1341937780380249,"779":-0.11482156068086624,"780":-0.0771375447511673,"781":0.1641465425491333,"782":-0.02064700983464718,"783":-0.07478843629360199}},"3":{"bias":0.7486220002174377,"weights":{"0":-0.13938626646995544,"1":0.10720017552375793,"2":0.108321912586689,"3":0.09917829930782318,"4":0.15554292500019073,"5":-0.010562746785581112,"6":0.045598890632390976,"7":-0.0351124033331871,"8":-0.054478518664836884,"9":0.15848617255687714,"10":-0.15183493494987488,"11":-0.08972059190273285,"12":0.13471122086048126,"13":-0.17328989505767822,"14":-0.16863051056861877,"15":-0.021446174010634422,"16":-0.03816990926861763,"17":0.03301689773797989,"18":-0.008283684961497784,"19":-0.12219367921352386,"20":-0.052094120532274246,"21":0.03286748006939888,"22":0.15939003229141235,"23":0.08089393377304077,"24":-0.18005774915218353,"25":0.16506430506706238,"26":0.019656535238027573,"27":0.19780400395393372,"28":-0.10218752175569534,"29":-0.04215604439377785,"30":0.19995152950286865,"31":-0.02838125452399254,"32":0.1252366155385971,"33":-0.10880394279956818,"34":-0.08832864463329315,"35":0.13524021208286285,"36":0.0730094164609909,"37":0.09283556044101715,"38":0.14773879945278168,"39":-0.15862616896629333,"40":0.06348096579313278,"41":0.14173804223537445,"42":-0.07575901597738266,"43":0.00626474479213357,"44":0.002087945118546486,"45":-0.21869352459907532,"46":-0.18016932904720306,"47":-0.10738977789878845,"48":-0.10215223580598831,"49":-0.01930359937250614,"50":-0.09731033444404602,"51":-0.17595911026000977,"52":-0.11148408055305481,"53":0.1677367091178894,"54":0.11447568237781525,"55":-0.17553208768367767,"56":-0.05347425490617752,"57":0.12779828906059265,"58":0.11932174861431122,"59":0.1584918200969696,"60":0.16908051073551178,"61":0.14114733040332794,"62":0.04418447986245155,"63":0.028101371601223946,"64":-0.0171639584004879,"65":-0.17516717314720154,"66":0.01671026088297367,"67":-0.10751430690288544,"68":-0.10566259920597076,"69":-0.11563932150602341,"70":-0.02921268716454506,"71":0.025353064760565758,"72":-0.016267212107777596,"73":-0.02264568768441677,"74":-0.06640815734863281,"75":-0.01016678661108017,"76":-0.051394470036029816,"77":-0.012645458802580833,"78":-0.176566019654274,"79":0.18921811878681183,"80":-0.02051347866654396,"81":-0.044968243688344955,"82":-0.18948444724082947,"83":-0.01562089566141367,"84":-0.10743320733308792,"85":0.11093194782733917,"86":0.1609734445810318,"87":-0.1488381326198578,"88":0.08315853774547577,"89":-0.08986720442771912,"90":0.03810104727745056,"91":0.024304168298840523,"92":-0.285976767539978,"93":-0.08741080015897751,"94":-0.04089902713894844,"95":-0.17083555459976196,"96":-0.24370509386062622,"97":-0.024142084643244743,"98":-0.056073762476444244,"99":-0.03992023691534996,"100":0.002519844798371196,"101":0.12168319523334503,"102":-0.05699963495135307,"103":0.12465010583400726,"104":-0.0638480931520462,"105":0.21776796877384186,"106":0.02039599046111107,"107":0.10268741101026535,"108":0.17990882694721222,"109":-0.09454883635044098,"110":-0.14327861368656158,"111":-0.020793989300727844,"112":-0.027914797887206078,"113":-0.060158561915159225,"114":-0.07514866441488266,"115":0.05934585630893707,"116":-0.21933332085609436,"117":-0.17797091603279114,"118":-0.4007357358932495,"119":-0.013417817652225494,"120":-0.1574355810880661,"121":-0.14773990213871002,"122":-0.2628233730792999,"123":0.020583463832736015,"124":-0.16718050837516785,"125":-0.35823458433151245,"126":-0.3824669122695923,"127":-0.1998312622308731,"128":-0.19020944833755493,"129":-0.09783336520195007,"130":0.09689364582300186,"131":-0.03485387936234474,"132":0.18701602518558502,"133":0.6320948600769043,"134":0.4396224021911621,"135":0.27554458379745483,"136":0.32377949357032776,"137":-0.009719076566398144,"138":0.03655590862035751,"139":-0.04959547147154808,"140":0.19631101191043854,"141":-0.1117357462644577,"142":0.09609930962324142,"143":-0.1981860101222992,"144":-0.33187153935432434,"145":-0.26856857538223267,"146":-0.45782291889190674,"147":-0.35690420866012573,"148":-0.05909695848822594,"149":-0.17219361662864685,"150":0.01878606528043747,"151":0.2104683667421341,"152":0.1559494137763977,"153":0.4083296060562134,"154":-0.07800948619842529,"155":-0.4068053066730499,"156":-0.054119884967803955,"157":-0.18576228618621826,"158":-0.025726953521370888,"159":0.025155842304229736,"160":-0.3042161762714386,"161":0.010329999029636383,"162":0.6012057662010193,"163":0.3818971514701843,"164":0.5013035535812378,"165":0.19918730854988098,"166":0.11691144853830338,"167":-0.05339183658361435,"168":0.022884419187903404,"169":-0.15168675780296326,"170":-0.1767386496067047,"171":-0.07354129105806351,"172":0.03857342526316643,"173":0.26478633284568787,"174":-0.11675602197647095,"175":-0.15628491342067719,"176":-0.004625876899808645,"177":-0.3056811988353729,"178":-0.13489525020122528,"179":0.08667762577533722,"180":-0.32278209924697876,"181":-0.21535959839820862,"182":-0.08651436120271683,"183":-0.20259366929531097,"184":0.0650898739695549,"185":-0.17115053534507751,"186":0.007547285407781601,"187":0.32036611437797546,"188":-0.19055423140525818,"189":0.08520838618278503,"190":0.5740996599197388,"191":0.3740783631801605,"192":0.5734236836433411,"193":0.20705334842205048,"194":-0.013571728952229023,"195":-0.12272968888282776,"196":-0.059252068400382996,"197":-0.007682378403842449,"198":-0.04018343612551689,"199":-0.12452144920825958,"200":-0.31144627928733826,"201":0.2712254822254181,"202":0.05997016280889511,"203":0.36848369240760803,"204":0.12137258797883987,"205":-0.1695602834224701,"206":0.2350420355796814,"207":0.37485694885253906,"208":-0.08813753724098206,"209":0.3223046362400055,"210":0.2760521173477173,"211":-0.011922868900001049,"212":0.07212307304143906,"213":0.404670774936676,"214":0.0073640914633870125,"215":0.6002901792526245,"216":0.22229856252670288,"217":0.39891624450683594,"218":-0.028820138424634933,"219":0.09493829309940338,"220":-0.23589515686035156,"221":0.10762770473957062,"222":-0.02872813493013382,"223":0.07411797344684601,"224":0.02256552316248417,"225":-0.05448111891746521,"226":0.15909361839294434,"227":-0.25056856870651245,"228":-0.2515139877796173,"229":-0.20882239937782288,"230":-0.26462098956108093,"231":-0.1173766627907753,"232":-0.09117228537797928,"233":0.15926973521709442,"234":-0.17915615439414978,"235":0.5013576149940491,"236":0.11825139820575714,"237":-0.3716723620891571,"238":-0.06679193675518036,"239":0.14200793206691742,"240":0.493961364030838,"241":0.29560354351997375,"242":-0.32173216342926025,"243":0.22576893866062164,"244":0.14691826701164246,"245":0.05772925540804863,"246":0.07359614223241806,"247":0.2814076840877533,"248":0.2744947671890259,"249":0.02783248946070671,"250":-0.05375863239169121,"251":-0.02573634870350361,"252":0.16368748247623444,"253":0.17408357560634613,"254":-0.027963068336248398,"255":0.11604073643684387,"256":-0.37663039565086365,"257":-0.2997172772884369,"258":-0.05231750011444092,"259":-0.5876632928848267,"260":0.06903843581676483,"261":-0.0170598141849041,"262":0.38016411662101746,"263":0.12889418005943298,"264":0.47325804829597473,"265":-0.2249075025320053,"266":-0.3753809630870819,"267":0.32586556673049927,"268":0.2719718813896179,"269":0.05438319221138954,"270":0.16381992399692535,"271":0.37251541018486023,"272":-0.4432227611541748,"273":-0.19152143597602844,"274":-0.18055284023284912,"275":-0.3352656960487366,"276":0.0050830901600420475,"277":-0.1526380181312561,"278":-0.250238299369812,"279":0.20810465514659882,"280":0.15208223462104797,"281":0.013093145564198494,"282":0.06820860505104065,"283":-0.16610988974571228,"284":-0.06575462967157364,"285":0.07715478539466858,"286":-0.07101749628782272,"287":-0.08001265674829483,"288":0.6133834719657898,"289":-0.14512336254119873,"290":0.39659249782562256,"291":0.1744382530450821,"292":0.6388480067253113,"293":0.12250009179115295,"294":-0.7424455285072327,"295":-0.0726601630449295,"296":0.17854604125022888,"297":0.3719393014907837,"298":0.32400092482566833,"299":0.28460368514060974,"300":0.06843365728855133,"301":-0.013699330389499664,"302":0.008884056471288204,"303":-0.5850280523300171,"304":0.03339904546737671,"305":0.20206083357334137,"306":0.07299698889255524,"307":0.09994032233953476,"308":-0.17297419905662537,"309":0.009637738578021526,"310":-0.0803782194852829,"311":-0.24314188957214355,"312":0.27546244859695435,"313":-0.1754176765680313,"314":0.06845107674598694,"315":0.27481380105018616,"316":0.3131292164325714,"317":-0.11321493983268738,"318":0.05718681961297989,"319":0.07002799212932587,"320":0.5171189904212952,"321":-0.10010439902544022,"322":-0.8513113260269165,"323":-0.40561383962631226,"324":-0.06182222440838814,"325":0.29168614745140076,"326":-0.10428918898105621,"327":-0.002207813784480095,"328":0.017775656655430794,"329":0.10963090509176254,"330":-0.11094598472118378,"331":-0.3030741214752197,"332":-0.2239680290222168,"333":-0.009253083728253841,"334":-0.09698779881000519,"335":-0.041628267616033554,"336":0.053938087075948715,"337":0.009059120900928974,"338":0.047141183167696,"339":-0.11238105595111847,"340":-0.07487142831087112,"341":0.23798832297325134,"342":0.5406674742698669,"343":0.25858789682388306,"344":0.4579567015171051,"345":0.2546873092651367,"346":0.5925207734107971,"347":0.3042212128639221,"348":0.015455860644578934,"349":-0.002916887402534485,"350":-0.9705576300621033,"351":-0.6522389650344849,"352":-0.6446305513381958,"353":0.18193258345127106,"354":-0.031667813658714294,"355":0.14130136370658875,"356":-0.038369543850421906,"357":-0.026461802423000336,"358":-0.04109029099345207,"359":-0.18534588813781738,"360":-0.01174473762512207,"361":-0.050304241478443146,"362":0.11293398588895798,"363":-0.04697295278310776,"364":0.10414531081914902,"365":-0.07514751702547073,"366":-0.11363088339567184,"367":-0.14195920526981354,"368":0.2135971635580063,"369":0.3802696466445923,"370":0.28490132093429565,"371":0.053042978048324585,"372":0.0668024942278862,"373":0.16348545253276825,"374":-0.15220369398593903,"375":0.12029632925987244,"376":0.417907178401947,"377":-0.5953466892242432,"378":-0.863679826259613,"379":-0.6584650874137878,"380":-0.007359624374657869,"381":0.04852866008877754,"382":0.0014181737788021564,"383":0.24919681251049042,"384":-0.08184035867452621,"385":-0.08795934170484543,"386":0.09854082763195038,"387":0.11914166808128357,"388":0.11470237374305725,"389":-0.28589698672294617,"390":-0.29229581356048584,"391":-0.002501990646123886,"392":-0.07470456510782242,"393":-0.07322842627763748,"394":-0.11590492725372314,"395":0.22816242277622223,"396":0.3946896195411682,"397":0.20216438174247742,"398":0.18875382840633392,"399":0.2953689396381378,"400":0.43136295676231384,"401":0.07175496965646744,"402":0.08206462115049362,"403":-0.1957230418920517,"404":0.37178024649620056,"405":-0.09066637605428696,"406":-1.286556601524353,"407":-0.3290630280971527,"408":0.37907519936561584,"409":-0.016994141042232513,"410":-0.2881152927875519,"411":-0.05204888805747032,"412":0.20638899505138397,"413":-0.5963633060455322,"414":0.5390511751174927,"415":0.30456674098968506,"416":0.19276973605155945,"417":-0.09128822386264801,"418":-0.2349952608346939,"419":-0.04140881821513176,"420":-0.08454211056232452,"421":-0.07029781490564346,"422":-0.05727658420801163,"423":0.20367182791233063,"424":0.009587928652763367,"425":0.04664850980043411,"426":0.49664050340652466,"427":0.45810407400131226,"428":0.06937001645565033,"429":0.19759172201156616,"430":0.30471712350845337,"431":-0.01867351122200489,"432":0.3173176944255829,"433":-0.8763344287872314,"434":-1.2689484357833862,"435":-0.4175846576690674,"436":0.03034750185906887,"437":0.06367067247629166,"438":-0.32320845127105713,"439":-0.16092561185359955,"440":-0.021303536370396614,"441":-0.068266861140728,"442":0.42849019169807434,"443":0.249109148979187,"444":0.13827133178710938,"445":-0.5723952054977417,"446":-0.15702618658542633,"447":-0.0655912309885025,"448":-0.07529490441083908,"449":0.11636491119861603,"450":-0.09175016731023788,"451":0.11865970492362976,"452":-0.06532083451747894,"453":0.04348476231098175,"454":0.21284250915050507,"455":0.2622144818305969,"456":0.2190243899822235,"457":0.10427428781986237,"458":-0.1597193479537964,"459":-0.015868401154875755,"460":-0.11754635721445084,"461":-1.1539607048034668,"462":-1.0054830312728882,"463":0.05889023467898369,"464":-0.3386145234107971,"465":0.5062413811683655,"466":-0.3407301604747772,"467":0.10022483766078949,"468":-0.22004210948944092,"469":0.09326595067977905,"470":0.04397077485918999,"471":-0.24724704027175903,"472":-0.0911998599767685,"473":-0.5594119429588318,"474":-0.19531595706939697,"475":-0.20748773217201233,"476":-0.19420234858989716,"477":0.17733649909496307,"478":0.08162625879049301,"479":-0.13162896037101746,"480":-0.21548447012901306,"481":0.09976045787334442,"482":0.2714385390281677,"483":-0.2562042474746704,"484":-0.021582243964076042,"485":0.026203125715255737,"486":0.21678386628627777,"487":0.05704216659069061,"488":-0.16239795088768005,"489":-0.6602569222450256,"490":-0.742855429649353,"491":0.20273754000663757,"492":-0.03056761994957924,"493":0.47917869687080383,"494":0.18611307442188263,"495":-0.22463887929916382,"496":-0.26795071363449097,"497":-0.18219517171382904,"498":-0.31162768602371216,"499":-0.42072704434394836,"500":-0.016334539279341698,"501":-0.274865061044693,"502":-0.057965826243162155,"503":-0.20424766838550568,"504":-0.10151123255491257,"505":-0.12747520208358765,"506":0.1050819531083107,"507":-0.15258489549160004,"508":-0.17931902408599854,"509":-0.335976779460907,"510":0.05182768777012825,"511":-0.03931302949786186,"512":0.1739448457956314,"513":-0.11689841747283936,"514":0.0024425582960247993,"515":-0.36053577065467834,"516":-0.7583617568016052,"517":-0.4084017276763916,"518":0.2782059907913208,"519":0.07216891646385193,"520":0.2603113353252411,"521":0.018099047243595123,"522":-0.35537490248680115,"523":0.04578927159309387,"524":0.13944239914417267,"525":0.27183112502098083,"526":0.03521430864930153,"527":-0.045434899628162384,"528":-0.12435004115104675,"529":-0.20121391117572784,"530":-0.0986829623579979,"531":0.08522451668977737,"532":-0.09884721785783768,"533":0.18603460490703583,"534":0.2915177047252655,"535":-0.0173775814473629,"536":0.08217988908290863,"537":-0.22268067300319672,"538":0.24808688461780548,"539":0.09455697983503342,"540":0.13166742026805878,"541":-0.2661667466163635,"542":-0.33394941687583923,"543":-0.5755462050437927,"544":-0.4785307049751282,"545":0.03616219386458397,"546":0.06543692201375961,"547":-0.14083336293697357,"548":0.011018840596079826,"549":-0.3443949222564697,"550":-0.11183012276887894,"551":0.036781229078769684,"552":-0.1269356608390808,"553":-0.16368284821510315,"554":-0.011011720634996891,"555":-0.22245287895202637,"556":-0.06121411174535751,"557":-0.3178026080131531,"558":0.05433056503534317,"559":-0.005822532810270786,"560":0.0742059126496315,"561":0.1739588975906372,"562":-0.1663438379764557,"563":-0.3306305706501007,"564":0.2319883406162262,"565":0.10416580736637115,"566":-0.020916538313031197,"567":-0.10134610533714294,"568":-0.1641731560230255,"569":-0.29043784737586975,"570":-0.29176339507102966,"571":-0.05444374307990074,"572":0.37873950600624084,"573":0.1691477745771408,"574":-0.16267883777618408,"575":-0.11112674325704575,"576":0.22588536143302917,"577":0.1682412326335907,"578":-0.009407643228769302,"579":-0.16941775381565094,"580":-0.3105836510658264,"581":-0.3906003534793854,"582":-0.1305278241634369,"583":0.14596131443977356,"584":0.09434863179922104,"585":-0.34618401527404785,"586":-0.04262977093458176,"587":-0.047174207866191864,"588":-0.024941854178905487,"589":0.17002247273921967,"590":-0.057498086243867874,"591":-0.3427925407886505,"592":0.04666660353541374,"593":-0.333339124917984,"594":-0.12356217950582504,"595":-0.35866522789001465,"596":-0.5166800022125244,"597":-0.5861191153526306,"598":0.12834374606609344,"599":0.12216825038194656,"600":0.3988320827484131,"601":-0.26019635796546936,"602":-0.42796313762664795,"603":-0.004719915799796581,"604":0.03325672820210457,"605":0.024963751435279846,"606":-0.08654254674911499,"607":-0.3097858130931854,"608":-0.05252848565578461,"609":0.0514521524310112,"610":-0.23497135937213898,"611":0.11160943657159805,"612":-0.2617532014846802,"613":-0.08273374289274216,"614":-0.13527768850326538,"615":-0.09328128397464752,"616":0.05466087535023689,"617":-0.18817852437496185,"618":-0.16922853887081146,"619":-0.08616791665554047,"620":-0.4944734573364258,"621":-0.42067956924438477,"622":-0.43957945704460144,"623":0.16046680510044098,"624":-0.4481099545955658,"625":-0.11108656227588654,"626":-0.08821890503168106,"627":0.08414502441883087,"628":0.08980992436408997,"629":0.05126824602484703,"630":0.34606558084487915,"631":0.07508910447359085,"632":-0.2116091251373291,"633":-0.0855400562286377,"634":0.0766320526599884,"635":0.09798081964254379,"636":0.36198753118515015,"637":0.0918039008975029,"638":0.2739224433898926,"639":-0.055777985602617264,"640":-0.07631802558898926,"641":-0.1585100293159485,"642":0.020474238321185112,"643":-0.11589927971363068,"644":0.15613314509391785,"645":-0.18573036789894104,"646":-0.1542663276195526,"647":-0.025864260271191597,"648":-0.4863191843032837,"649":-0.3991187512874603,"650":-0.30720800161361694,"651":-0.5962314605712891,"652":-0.5827793478965759,"653":-0.22931241989135742,"654":-0.041242167353630066,"655":0.30875229835510254,"656":0.014082908630371094,"657":0.003211266826838255,"658":-0.03518577292561531,"659":0.07818013429641724,"660":-0.02079194225370884,"661":-0.013741576112806797,"662":0.0002549462951719761,"663":0.17167331278324127,"664":-0.2449118047952652,"665":0.08669484406709671,"666":0.2384234070777893,"667":0.07934816926717758,"668":-0.12832695245742798,"669":-0.1911734938621521,"670":-0.1699279248714447,"671":-0.1287262886762619,"672":-0.06126774102449417,"673":-0.08503039926290512,"674":-0.07494848221540451,"675":0.13847459852695465,"676":0.13530929386615753,"677":0.07359578460454941,"678":-0.12174560129642487,"679":-0.46165379881858826,"680":-0.1184132844209671,"681":-0.11148973554372787,"682":0.3001328706741333,"683":-0.22585918009281158,"684":-0.21797269582748413,"685":0.29253089427948,"686":0.09722419083118439,"687":0.1277877390384674,"688":-0.10811931639909744,"689":0.00498294597491622,"690":0.023230254650115967,"691":-0.07739327847957611,"692":0.07251248508691788,"693":-0.037188466638326645,"694":-0.09768977761268616,"695":0.005720102693885565,"696":-0.04942978918552399,"697":-0.1510920226573944,"698":-0.11145024746656418,"699":0.1024022027850151,"700":0.1177806481719017,"701":0.19814901053905487,"702":-0.11456244438886642,"703":-0.06922107189893723,"704":0.028762154281139374,"705":-0.038366131484508514,"706":-0.2679825723171234,"707":0.0288437157869339,"708":-0.13803774118423462,"709":0.04280519112944603,"710":0.12144923955202103,"711":-0.05861574783921242,"712":0.27493640780448914,"713":0.15980279445648193,"714":0.08876635879278183,"715":-0.04798039421439171,"716":-0.11021804064512253,"717":-0.12472940236330032,"718":-0.0629069060087204,"719":-0.08470971882343292,"720":0.046392329037189484,"721":0.3045724332332611,"722":0.23830349743366241,"723":-0.006702541373670101,"724":0.020903022959828377,"725":-0.10288908332586288,"726":0.14066366851329803,"727":-0.06078077480196953,"728":0.15508224070072174,"729":-0.05072465538978577,"730":-0.15037399530410767,"731":0.0540403313934803,"732":0.004190322011709213,"733":0.10008582472801208,"734":0.16578368842601776,"735":0.13315923511981964,"736":-0.05581071227788925,"737":0.2793278694152832,"738":0.19158224761486053,"739":0.2821848392486572,"740":0.034171804785728455,"741":0.059863679111003876,"742":0.04473000764846802,"743":0.21963222324848175,"744":0.1639813780784607,"745":-0.16673113405704498,"746":0.14861562848091125,"747":0.17365191876888275,"748":-0.07771793007850647,"749":0.18242688477039337,"750":-0.07557363063097,"751":-0.07635735720396042,"752":0.1735495924949646,"753":-0.008996974676847458,"754":0.08111148327589035,"755":0.026179950684309006,"756":0.05272633954882622,"757":0.09990570694208145,"758":-0.03867065906524658,"759":-0.16243721544742584,"760":-0.049201782792806625,"761":-0.025255432352423668,"762":-0.09485447406768799,"763":0.059335220605134964,"764":0.044675104320049286,"765":-0.1668107956647873,"766":-0.13355308771133423,"767":-0.16204845905303955,"768":0.09762152284383774,"769":-0.1537814438343048,"770":0.14719219505786896,"771":0.1864037662744522,"772":-0.08266212791204453,"773":-0.17923900485038757,"774":0.07846198230981827,"775":0.06461689621210098,"776":0.03322112560272217,"777":0.18501538038253784,"778":-0.0380149781703949,"779":0.18295282125473022,"780":-0.05551629140973091,"781":0.1252984255552292,"782":-0.15761710703372955,"783":-0.15395274758338928}},"4":{"bias":-1.5730451345443726,"weights":{"0":-0.17763710021972656,"1":0.08693917840719223,"2":0.15114304423332214,"3":0.08623184263706207,"4":0.015713781118392944,"5":-0.044934969395399094,"6":0.15984855592250824,"7":-0.03475223109126091,"8":0.1710292100906372,"9":0.16920392215251923,"10":-0.15349826216697693,"11":0.031529348343610764,"12":0.154829740524292,"13":-0.026695573702454567,"14":-0.06067242845892906,"15":0.03813546523451805,"16":-0.030534617602825165,"17":-0.06324154883623123,"18":0.10765266418457031,"19":-0.03497200086712837,"20":-0.07766589522361755,"21":-0.14530791342258453,"22":0.16867420077323914,"23":0.07006308436393738,"24":0.17328126728534698,"25":-0.19401000440120697,"26":0.0180418211966753,"27":0.04445934668183327,"28":-0.08815044164657593,"29":-0.0981854647397995,"30":-0.05736587569117546,"31":0.013100412674248219,"32":0.11893502622842789,"33":0.0528918094933033,"34":-0.07995578646659851,"35":0.19593825936317444,"36":0.04661872237920761,"37":0.09562283009290695,"38":-0.16775430738925934,"39":0.11201503127813339,"40":0.13624343276023865,"41":0.08885516971349716,"42":-0.07171376049518585,"43":0.02502775937318802,"44":0.005705262068659067,"45":-0.02203204482793808,"46":-0.1508147418498993,"47":-0.14336180686950684,"48":0.04819462075829506,"49":-0.2001250833272934,"50":0.054311156272888184,"51":0.1254841387271881,"52":-0.0368896909058094,"53":-0.15018989145755768,"54":0.004748390056192875,"55":-0.0916326567530632,"56":-0.06651560962200165,"57":0.11652693152427673,"58":-0.11688825488090515,"59":-0.12610329687595367,"60":0.15939904749393463,"61":-0.1061684787273407,"62":-0.0065126558765769005,"63":-0.020780133083462715,"64":0.08690498769283295,"65":0.047837886959314346,"66":-0.0019590489100664854,"67":-0.11794021725654602,"68":-0.20061171054840088,"69":0.028743978589773178,"70":-0.18946295976638794,"71":-0.24276863038539886,"72":-0.3767941892147064,"73":-0.18702222406864166,"74":-0.3201390504837036,"75":-0.22142468392848969,"76":-0.2629908323287964,"77":-0.10186461359262466,"78":-0.06770884245634079,"79":-0.061332497745752335,"80":-0.13560426235198975,"81":0.04798218980431557,"82":-0.010424671694636345,"83":0.12457328289747238,"84":-0.13763679563999176,"85":-0.10702075809240341,"86":-0.1583034247159958,"87":-0.11594486981630325,"88":-0.09269426017999649,"89":-0.19669663906097412,"90":0.03760284185409546,"91":-0.11893386393785477,"92":0.11594375222921371,"93":-0.25707679986953735,"94":0.0909019485116005,"95":0.46523094177246094,"96":0.10932882130146027,"97":0.14016930758953094,"98":0.6256921291351318,"99":-0.03727276623249054,"100":0.3686104416847229,"101":0.30892670154571533,"102":-0.07172740995883942,"103":-0.14312958717346191,"104":-0.10573562979698181,"105":-0.4118533432483673,"106":-0.4332474172115326,"107":-0.017131486907601357,"108":0.06598836928606033,"109":-0.17937937378883362,"110":0.09228437393903732,"111":-0.002006825990974903,"112":-0.11367526650428772,"113":0.029553299769759178,"114":0.055205632001161575,"115":0.11693481355905533,"116":0.07492668926715851,"117":-0.2157236784696579,"118":0.046260323375463486,"119":0.09866845607757568,"120":0.7258671522140503,"121":0.5201727747917175,"122":0.11160014569759369,"123":0.09278961271047592,"124":0.17206773161888123,"125":0.5623415112495422,"126":0.24294397234916687,"127":0.3245704174041748,"128":0.08868633210659027,"129":-0.09102755039930344,"130":0.33851590752601624,"131":0.20463994145393372,"132":-0.12227345257997513,"133":-0.46947699785232544,"134":0.20272348821163177,"135":-0.09913115948438644,"136":-0.05800919979810715,"137":-0.01283465325832367,"138":0.07032813131809235,"139":-0.08057395368814468,"140":0.16832104325294495,"141":0.045490942895412445,"142":0.06771285831928253,"143":0.14961856603622437,"144":-0.0627594143152237,"145":-0.13548476994037628,"146":0.270437628030777,"147":0.288139283657074,"148":0.1452597975730896,"149":-0.10625746101140976,"150":0.5292532444000244,"151":0.13970179855823517,"152":-0.001247901120223105,"153":0.31329020857810974,"154":0.08568154275417328,"155":0.60249263048172,"156":0.011287416331470013,"157":0.2882315218448639,"158":-0.0711766704916954,"159":0.13120156526565552,"160":0.28768521547317505,"161":0.04089709743857384,"162":0.20823155343532562,"163":-0.3279944062232971,"164":-0.4911055564880371,"165":-0.21541990339756012,"166":-0.2135058492422104,"167":-0.04673241078853607,"168":-0.03798932582139969,"169":-0.0446397140622139,"170":0.03172563016414642,"171":0.1980370283126831,"172":0.046053141355514526,"173":0.17338445782661438,"174":0.1906202882528305,"175":0.058035749942064285,"176":0.10542994737625122,"177":-0.19337837398052216,"178":0.15426549315452576,"179":0.28953343629837036,"180":-0.2882044017314911,"181":0.7362825870513916,"182":0.2001698613166809,"183":-0.1490715891122818,"184":-0.28497251868247986,"185":0.11808327585458755,"186":0.1313452273607254,"187":0.010850204154849052,"188":0.2445884793996811,"189":0.11579225212335587,"190":0.1331261545419693,"191":-0.29895222187042236,"192":-0.282692551612854,"193":-0.13412757217884064,"194":0.1397884041070938,"195":-0.030128948390483856,"196":-0.0779997929930687,"197":0.11028343439102173,"198":-0.07517795264720917,"199":-0.03876824304461479,"200":0.12802422046661377,"201":0.07959382236003876,"202":0.3038909435272217,"203":-0.2975166440010071,"204":-0.43799376487731934,"205":-0.026049798354506493,"206":-0.188469797372818,"207":-0.23102766275405884,"208":0.21296541392803192,"209":0.2800850570201874,"210":0.6565624475479126,"211":-0.13358767330646515,"212":-0.20750100910663605,"213":-0.07447638362646103,"214":-0.058393444865942,"215":0.24745550751686096,"216":0.2838245630264282,"217":0.08108985424041748,"218":0.33736947178840637,"219":0.07034514099359512,"220":-0.19641263782978058,"221":0.09526985138654709,"222":0.09211273491382599,"223":-0.014165578410029411,"224":0.1460706889629364,"225":-0.1427394151687622,"226":0.025984106585383415,"227":-0.10787630826234818,"228":-0.21544720232486725,"229":-0.17565375566482544,"230":-0.5081833004951477,"231":-0.692939281463623,"232":-0.4527108371257782,"233":-0.2556108236312866,"234":0.053704649209976196,"235":-0.36999791860580444,"236":0.18433654308319092,"237":-0.43544647097587585,"238":0.11250682175159454,"239":0.6460922956466675,"240":0.28528958559036255,"241":0.2508298456668854,"242":0.3542216718196869,"243":0.040339525789022446,"244":0.20140308141708374,"245":-0.09058184921741486,"246":-0.001294407993555069,"247":0.03838218376040459,"248":-0.4312361478805542,"249":-0.32376524806022644,"250":-0.18131554126739502,"251":-0.057590216398239136,"252":-0.12016133219003677,"253":0.020745281130075455,"254":-0.030919138342142105,"255":-0.12596073746681213,"256":-0.30739009380340576,"257":-0.6778799295425415,"258":-0.9810617566108704,"259":-0.4048362672328949,"260":-0.07609193027019501,"261":-0.8070726990699768,"262":-0.3199833631515503,"263":-0.6477214694023132,"264":-1.1317675113677979,"265":-0.76703280210495,"266":-0.13252027332782745,"267":0.3065604567527771,"268":0.8139826655387878,"269":0.2673165798187256,"270":0.2185603380203247,"271":0.32882022857666016,"272":0.5581547021865845,"273":0.040528491139411926,"274":-0.02038951963186264,"275":-0.10956303030252457,"276":0.04695025831460953,"277":-0.3271808326244354,"278":-0.211588516831398,"279":-0.06920554488897324,"280":-0.13722331821918488,"281":0.03914029151201248,"282":-0.031097110360860825,"283":-0.23631097376346588,"284":-0.6910451650619507,"285":-0.937811553478241,"286":-0.828805148601532,"287":-0.5702281594276428,"288":-0.6369857788085938,"289":-0.6082820296287537,"290":-1.4167672395706177,"291":-0.43372103571891785,"292":-0.6392750144004822,"293":-0.37185508012771606,"294":-0.23608726263046265,"295":-0.2788691818714142,"296":0.3521757423877716,"297":0.4130382239818573,"298":-0.021360043436288834,"299":0.10068659484386444,"300":0.09060139954090118,"301":0.3218756318092346,"302":0.487843781709671,"303":0.2639097571372986,"304":0.38660237193107605,"305":-0.3724849224090576,"306":-0.18737801909446716,"307":-0.14747098088264465,"308":0.07427888363599777,"309":0.18160521984100342,"310":0.10921845585107803,"311":0.1433718502521515,"312":-0.4118838906288147,"313":-0.31324267387390137,"314":-0.4377172887325287,"315":-0.26356619596481323,"316":-0.5600375533103943,"317":-0.24699264764785767,"318":-0.4813200831413269,"319":0.07016018778085709,"320":0.1439463198184967,"321":0.2329043596982956,"322":0.37379515171051025,"323":-0.016015347093343735,"324":-0.23768292367458344,"325":-0.14514341950416565,"326":-0.47136351466178894,"327":0.08682812750339508,"328":0.15066011250019073,"329":0.2885008454322815,"330":0.026475152000784874,"331":0.4634101092815399,"332":0.429995059967041,"333":-0.3657282292842865,"334":-0.16036124527454376,"335":0.05705273896455765,"336":0.015126843005418777,"337":-0.05917220935225487,"338":0.17439518868923187,"339":0.07376803457736969,"340":-0.14050526916980743,"341":0.07562334835529327,"342":0.11921261250972748,"343":0.11556456983089447,"344":-0.11511309444904327,"345":0.2765001952648163,"346":0.6265263557434082,"347":0.25888365507125854,"348":0.7338023781776428,"349":-0.009606460109353065,"350":-0.08905598521232605,"351":-0.4979366064071655,"352":0.10442902147769928,"353":-0.4791097044944763,"354":0.11542368680238724,"355":0.18438109755516052,"356":0.32325825095176697,"357":-0.05193100497126579,"358":0.08968103677034378,"359":0.34543561935424805,"360":0.1176837608218193,"361":-0.2210640013217926,"362":0.016601888462901115,"363":-0.030525708571076393,"364":0.11618151515722275,"365":-0.15325725078582764,"366":0.11643975228071213,"367":-0.10022169351577759,"368":0.03634118288755417,"369":0.30288010835647583,"370":0.795932948589325,"371":0.31771647930145264,"372":0.539533793926239,"373":0.24936893582344055,"374":0.41037335991859436,"375":-0.0060106064192950726,"376":0.17723716795444489,"377":0.10125628858804703,"378":-0.07918734848499298,"379":-0.5177456736564636,"380":-0.19466833770275116,"381":-0.31195616722106934,"382":0.04410349577665329,"383":-0.12379904836416245,"384":0.1648162603378296,"385":0.21087612211704254,"386":0.08066485822200775,"387":0.21643972396850586,"388":-0.13498982787132263,"389":0.03401317447423935,"390":0.17703282833099365,"391":0.1954101175069809,"392":-0.1377147138118744,"393":-0.13721345365047455,"394":-0.014737996272742748,"395":0.1562764048576355,"396":0.07253321260213852,"397":0.6938113570213318,"398":0.5315766334533691,"399":0.47571873664855957,"400":0.5985474586486816,"401":-0.013575003482401371,"402":-0.24609190225601196,"403":-0.009148423559963703,"404":0.026639925315976143,"405":-0.39684000611305237,"406":-0.4158840775489807,"407":-0.13908597826957703,