{"sizes":[784,16,16,10],"layers":[{"0":{},"1":{},"2":{},"3":{},"4":{},"5":{},"6":{},"7":{},"8":{},"9":{},"10":{},"11":{},"12":{},"13":{},"14":{},"15":{},"16":{},"17":{},"18":{},"19":{},"20":{},"21":{},"22":{},"23":{},"24":{},"25":{},"26":{},"27":{},"28":{},"29":{},"30":{},"31":{},"32":{},"33":{},"34":{},"35":{},"36":{},"37":{},"38":{},"39":{},"40":{},"41":{},"42":{},"43":{},"44":{},"45":{},"46":{},"47":{},"48":{},"49":{},"50":{},"51":{},"52":{},"53":{},"54":{},"55":{},"56":{},"57":{},"58":{},"59":{},"60":{},"61":{},"62":{},"63":{},"64":{},"65":{},"66":{},"67":{},"68":{},"69":{},"70":{},"71":{},"72":{},"73":{},"74":{},"75":{},"76":{},"77":{},"78":{},"79":{},"80":{},"81":{},"82":{},"83":{},"84":{},"85":{},"86":{},"87":{},"88":{},"89":{},"90":{},"91":{},"92":{},"93":{},"94":{},"95":{},"96":{},"97":{},"98":{},"99":{},"100":{},"101":{},"102":{},"103":{},"104":{},"105":{},"106":{},"107":{},"108":{},"109":{},"110":{},"111":{},"112":{},"113":{},"114":{},"115":{},"116":{},"117":{},"118":{},"119":{},"120":{},"121":{},"122":{},"123":{},"124":{},"125":{},"126":{},"127":{},"128":{},"129":{},"130":{},"131":{},"132":{},"133":{},"134":{},"135":{},"136":{},"137":{},"138":{},"139":{},"140":{},"141":{},"142":{},"143":{},"144":{},"145":{},"146":{},"147":{},"148":{},"149":{},"150":{},"151":{},"152":{},"153":{},"154":{},"155":{},"156":{},"157":{},"158":{},"159":{},"160":{},"161":{},"162":{},"163":{},"164":{},"165":{},"166":{},"167":{},"168":{},"169":{},"170":{},"171":{},"172":{},"173":{},"174":{},"175":{},"176":{},"177":{},"178":{},"179":{},"180":{},"181":{},"182":{},"183":{},"184":{},"185":{},"186":{},"187":{},"188":{},"189":{},"190":{},"191":{},"192":{},"193":{},"194":{},"195":{},"196":{},"197":{},"198":{},"199":{},"200":{},"201":{},"202":{},"203":{},"204":{},"205":{},"206":{},"207":{},"208":{},"209":{},"210":{},"211":{},"212":{},"213":{},"214":{},"215":{},"216":{},"217":{},"218":{},"219":{},"220":{},"221":{},"222":{},"223":{},"224":{},"225":{},"226":{},"227":{},"228":{},"229":{},"230":{},"231":{},"232":{},"233":{},"234":{},"235":{},"236":{},"237":{},"238":{},"239":{},"240":{},"241":{},"242":{},"243":{},"244":{},"245":{},"246":{},"247":{},"248":{},"249":{},"250":{},"251":{},"252":{},"253":{},"254":{},"255":{},"256":{},"257":{},"258":{},"259":{},"260":{},"261":{},"262":{},"263":{},"264":{},"265":{},"266":{},"267":{},"268":{},"269":{},"270":{},"271":{},"272":{},"273":{},"274":{},"275":{},"276":{},"277":{},"278":{},"279":{},"280":{},"281":{},"282":{},"283":{},"284":{},"285":{},"286":{},"287":{},"288":{},"289":{},"290":{},"291":{},"292":{},"293":{},"294":{},"295":{},"296":{},"297":{},"298":{},"299":{},"300":{},"301":{},"302":{},"303":{},"304":{},"305":{},"306":{},"307":{},"308":{},"309":{},"310":{},"311":{},"312":{},"313":{},"314":{},"315":{},"316":{},"317":{},"318":{},"319":{},"320":{},"321":{},"322":{},"323":{},"324":{},"325":{},"326":{},"327":{},"328":{},"329":{},"330":{},"331":{},"332":{},"333":{},"334":{},"335":{},"336":{},"337":{},"338":{},"339":{},"340":{},"341":{},"342":{},"343":{},"344":{},"345":{},"346":{},"347":{},"348":{},"349":{},"350":{},"351":{},"352":{},"353":{},"354":{},"355":{},"356":{},"357":{},"358":{},"359":{},"360":{},"361":{},"362":{},"363":{},"364":{},"365":{},"366":{},"367":{},"368":{},"369":{},"370":{},"371":{},"372":{},"373":{},"374":{},"375":{},"376":{},"377":{},"378":{},"379":{},"380":{},"381":{},"382":{},"383":{},"384":{},"385":{},"386":{},"387":{},"388":{},"389":{},"390":{},"391":{},"392":{},"393":{},"394":{},"395":{},"396":{},"397":{},"398":{},"399":{},"400":{},"401":{},"402":{},"403":{},"404":{},"405":{},"406":{},"407":{},"408":{},"409":{},"410":{},"411":{},"412":{},"413":{},"414":{},"415":{},"416":{},"417":{},"418":{},"419":{},"420":{},"421":{},"422":{},"423":{},"424":{},"425":{},"426":{},"427":{},"428":{},"429":{},"430":{},"431":{},"432":{},"433":{},"434":{},"435":{},"436":{},"437":{},"438":{},"439":{},"440":{},"441":{},"442":{},"443":{},"444":{},"445":{},"446":{},"447":{},"448":{},"449":{},"450":{},"451":{},"452":{},"453":{},"454":{},"455":{},"456":{},"457":{},"458":{},"459":{},"460":{},"461":{},"462":{},"463":{},"464":{},"465":{},"466":{},"467":{},"468":{},"469":{},"470":{},"471":{},"472":{},"473":{},"474":{},"475":{},"476":{},"477":{},"478":{},"479":{},"480":{},"481":{},"482":{},"483":{},"484":{},"485":{},"486":{},"487":{},"488":{},"489":{},"490":{},"491":{},"492":{},"493":{},"494":{},"495":{},"496":{},"497":{},"498":{},"499":{},"500":{},"501":{},"502":{},"503":{},"504":{},"505":{},"506":{},"507":{},"508":{},"509":{},"510":{},"511":{},"512":{},"513":{},"514":{},"515":{},"516":{},"517":{},"518":{},"519":{},"520":{},"521":{},"522":{},"523":{},"524":{},"525":{},"526":{},"527":{},"528":{},"529":{},"530":{},"531":{},"532":{},"533":{},"534":{},"535":{},"536":{},"537":{},"538":{},"539":{},"540":{},"541":{},"542":{},"543":{},"544":{},"545":{},"546":{},"547":{},"548":{},"549":{},"550":{},"551":{},"552":{},"553":{},"554":{},"555":{},"556":{},"557":{},"558":{},"559":{},"560":{},"561":{},"562":{},"563":{},"564":{},"565":{},"566":{},"567":{},"568":{},"569":{},"570":{},"571":{},"572":{},"573":{},"574":{},"575":{},"576":{},"577":{},"578":{},"579":{},"580":{},"581":{},"582":{},"583":{},"584":{},"585":{},"586":{},"587":{},"588":{},"589":{},"590":{},"591":{},"592":{},"593":{},"594":{},"595":{},"596":{},"597":{},"598":{},"599":{},"600":{},"601":{},"602":{},"603":{},"604":{},"605":{},"606":{},"607":{},"608":{},"609":{},"610":{},"611":{},"612":{},"613":{},"614":{},"615":{},"616":{},"617":{},"618":{},"619":{},"620":{},"621":{},"622":{},"623":{},"624":{},"625":{},"626":{},"627":{},"628":{},"629":{},"630":{},"631":{},"632":{},"633":{},"634":{},"635":{},"636":{},"637":{},"638":{},"639":{},"640":{},"641":{},"642":{},"643":{},"644":{},"645":{},"646":{},"647":{},"648":{},"649":{},"650":{},"651":{},"652":{},"653":{},"654":{},"655":{},"656":{},"657":{},"658":{},"659":{},"660":{},"661":{},"662":{},"663":{},"664":{},"665":{},"666":{},"667":{},"668":{},"669":{},"670":{},"671":{},"672":{},"673":{},"674":{},"675":{},"676":{},"677":{},"678":{},"679":{},"680":{},"681":{},"682":{},"683":{},"684":{},"685":{},"686":{},"687":{},"688":{},"689":{},"690":{},"691":{},"692":{},"693":{},"694":{},"695":{},"696":{},"697":{},"698":{},"699":{},"700":{},"701":{},"702":{},"703":{},"704":{},"705":{},"706":{},"707":{},"708":{},"709":{},"710":{},"711":{},"712":{},"713":{},"714":{},"715":{},"716":{},"717":{},"718":{},"719":{},"720":{},"721":{},"722":{},"723":{},"724":{},"725":{},"726":{},"727":{},"728":{},"729":{},"730":{},"731":{},"732":{},"733":{},"734":{},"735":{},"736":{},"737":{},"738":{},"739":{},"740":{},"741":{},"742":{},"743":{},"744":{},"745":{},"746":{},"747":{},"748":{},"749":{},"750":{},"751":{},"752":{},"753":{},"754":{},"755":{},"756":{},"757":{},"758":{},"759":{},"760":{},"761":{},"762":{},"763":{},"764":{},"765":{},"766":{},"767":{},"768":{},"769":{},"770":{},"771":{},"772":{},"773":{},"774":{},"775":{},"776":{},"777":{},"778":{},"779":{},"780":{},"781":{},"782":{},"783":{}},{"0":{"bias":1.0910078287124634,"weights":{"0":-0.10470961034297943,"1":-0.17724908888339996,"2":-0.0969226136803627,"3":0.01815732754766941,"4":0.17911554872989655,"5":-0.05680832266807556,"6":-0.11414457857608795,"7":0.049043938517570496,"8":-0.07882175594568253,"9":0.1506103128194809,"10":0.1296529471874237,"11":0.048310503363609314,"12":-0.1182514950633049,"13":0.19113117456436157,"14":0.11493930965662003,"15":0.13561929762363434,"16":-0.07275327295064926,"17":0.05251928046345711,"18":-0.050557009875774384,"19":0.08977166563272476,"20":0.07215845584869385,"21":0.11581014841794968,"22":0.033460233360528946,"23":0.13517610728740692,"24":0.16713236272335052,"25":-0.19070714712142944,"26":-0.011901254765689373,"27":0.006491039879620075,"28":-0.02077023684978485,"29":0.005368111655116081,"30":-0.005289576016366482,"31":-0.1544148027896881,"32":-0.06396960467100143,"33":0.14762137830257416,"34":-0.17175576090812683,"35":-0.1249062642455101,"36":-0.1443367600440979,"37":-0.050616055727005005,"38":0.11721629649400711,"39":0.0437614768743515,"40":-0.15909886360168457,"41":0.026471633464097977,"42":-0.11330501735210419,"43":0.04638897255063057,"44":0.12913598120212555,"45":-0.031511444598436356,"46":0.04458456113934517,"47":0.1868445873260498,"48":-0.14550663530826569,"49":-0.07456497102975845,"50":0.12896490097045898,"51":-0.17628759145736694,"52":-0.0277261883020401,"53":-0.033852718770504,"54":-0.13586276769638062,"55":0.1832764893770218,"56":0.07184407114982605,"57":-0.1901102364063263,"58":-0.08220253884792328,"59":-0.03881196305155754,"60":0.16744226217269897,"61":-0.012659268453717232,"62":0.0930514931678772,"63":0.017313040792942047,"64":0.14562717080116272,"65":0.40008026361465454,"66":0.20784850418567657,"67":-0.18630841374397278,"68":0.03302233666181564,"69":0.1571008563041687,"70":0.1886163204908371,"71":0.09175929427146912,"72":0.03441177308559418,"73":-0.03159043937921524,"74":-0.1235324814915657,"75":0.040243856608867645,"76":0.07030025124549866,"77":-0.036724235862493515,"78":0.19715213775634766,"79":-0.013050422072410583,"80":-0.030183175578713417,"81":0.04278009012341499,"82":-0.14744406938552856,"83":-0.04690070450305939,"84":-0.10689445585012436,"85":-0.11767041683197021,"86":0.07535151392221451,"87":-0.03720546141266823,"88":-0.19100987911224365,"89":-0.0908130556344986,"90":-0.08582278341054916,"91":-0.10779920220375061,"92":-0.02817104384303093,"93":0.36933818459510803,"94":-0.1245800256729126,"95":-0.17067518830299377,"96":0.04978646710515022,"97":-0.0026911129243671894,"98":0.157766193151474,"99":0.4099116325378418,"100":0.6314018368721008,"101":0.8350607752799988,"102":1.0102723836898804,"103":0.6659317016601562,"104":0.47425326704978943,"105":0.365116149187088,"106":0.17633827030658722,"107":-0.12556147575378418,"108":-0.10159676522016525,"109":0.006963472347706556,"110":-0.15343528985977173,"111":-0.01583285629749298,"112":-0.18017037212848663,"113":0.04337095841765404,"114":0.14884988963603973,"115":0.005233684089034796,"116":-0.06627862900495529,"117":0.12435736507177353,"118":-0.0011007384164258838,"119":-0.05846729874610901,"120":-0.15588989853858948,"121":-0.37290483713150024,"122":-0.3377801179885864,"123":-0.059601474553346634,"124":-0.37640121579170227,"125":-0.1880156248807907,"126":0.06555438786745071,"127":0.49515897035598755,"128":0.8983669281005859,"129":0.7161059975624084,"130":0.9663330912590027,"131":1.1538314819335938,"132":1.353229284286499,"133":0.6911938786506653,"134":0.2565072774887085,"135":0.11028192937374115,"136":-0.17584706842899323,"137":0.078367680311203,"138":0.033933479338884354,"139":-0.15724849700927734,"140":-0.020237065851688385,"141":-0.02232799120247364,"142":-0.05431734025478363,"143":0.055381715297698975,"144":0.0013888919493183494,"145":0.0772649273276329,"146":-0.13962985575199127,"147":-0.13220542669296265,"148":-0.43282729387283325,"149":0.1032128781080246,"150":0.17553459107875824,"151":-0.05928638577461243,"152":-0.1974928081035614,"153":0.3001684248447418,"154":0.9421813488006592,"155":0.5878864526748657,"156":1.5678550004959106,"157":1.7064096927642822,"158":1.4114558696746826,"159":0.1432119607925415,"160":0.6462261080741882,"161":1.0513933897018433,"162":0.5250800251960754,"163":0.3921040892601013,"164":-0.03516474738717079,"165":0.05962533876299858,"166":0.1699223518371582,"167":0.15083706378936768,"168":0.127607524394989,"169":-0.07744624465703964,"170":-0.03940381482243538,"171":-0.1312595158815384,"172":-0.04430693760514259,"173":-0.047100115567445755,"174":-0.1521412581205368,"175":0.249168261885643,"176":-0.5761527419090271,"177":-0.20061668753623962,"178":0.17147955298423767,"179":-0.46655601263046265,"180":-1.0612069368362427,"181":-0.0552518256008625,"182":-0.6988697052001953,"183":-1.5992954969406128,"184":-1.9783400297164917,"185":-1.1548199653625488,"186":0.15481135249137878,"187":-0.226427361369133,"188":-0.006530569400638342,"189":0.1795172393321991,"190":0.9324343800544739,"191":1.1577993631362915,"192":0.599273681640625,"193":0.17454755306243896,"194":-0.14349313080310822,"195":0.12942513823509216,"196":-0.147713303565979,"197":-0.1420922726392746,"198":-0.16864892840385437,"199":-0.3307492434978485,"200":-0.2884276807308197,"201":0.1579786241054535,"202":0.16093510389328003,"203":-0.5894560813903809,"204":0.2390623539686203,"205":0.1253136396408081,"206":-0.4860328435897827,"207":-0.9407976865768433,"208":-2.221611738204956,"209":-0.9131787419319153,"210":-1.4160710573196411,"211":-3.4681830406188965,"212":-2.7553601264953613,"213":-1.4649494886398315,"214":0.01513622235506773,"215":-0.20416229963302612,"216":-0.2318643182516098,"217":-0.1439477801322937,"218":0.863187849521637,"219":1.2430263757705688,"220":0.7762782573699951,"221":0.3280874788761139,"222":0.17244498431682587,"223":0.08724595606327057,"224":-0.15682430565357208,"225":0.06931175291538239,"226":0.052262429147958755,"227":-0.29292482137680054,"228":-0.01532719936221838,"229":0.5454226136207581,"230":0.6703670024871826,"231":-0.013346529565751553,"232":-0.7063343524932861,"233":-0.029826011508703232,"234":-0.12879610061645508,"235":0.09907326102256775,"236":-1.2309566736221313,"237":-1.163360357284546,"238":-2.534255027770996,"239":-2.09709095954895,"240":-2.5026423931121826,"241":-1.3574358224868774,"242":-1.2788809537887573,"243":-0.0052217948250472546,"244":-0.01618351973593235,"245":0.19208717346191406,"246":1.3169314861297607,"247":0.10719531029462814,"248":0.21389399468898773,"249":0.20234271883964539,"250":-0.1155194342136383,"251":0.03142761439085007,"252":0.1616668403148651,"253":-0.02550012618303299,"254":0.04063977673649788,"255":-0.43646934628486633,"256":0.2909161150455475,"257":0.3383345305919647,"258":-0.14225873351097107,"259":0.03647710010409355,"260":-0.1183113157749176,"261":-0.806943953037262,"262":-0.1332715004682541,"263":-0.07046915590763092,"264":-1.2464373111724854,"265":-0.6383106708526611,"266":-2.797713041305542,"267":-2.242565870285034,"268":-0.372347354888916,"269":-0.9648990631103516,"270":-0.6818434000015259,"271":0.19921496510505676,"272":-1.0570943355560303,"273":0.3522091805934906,"274":0.24411733448505402,"275":-0.4405273497104645,"276":-0.5380172729492188,"277":0.11127333343029022,"278":-0.03314557299017906,"279":-0.040604013949632645,"280":-0.07839225232601166,"281":-0.05913121998310089,"282":0.1600639522075653,"283":-0.24449749290943146,"284":0.20694014430046082,"285":-0.751107394695282,"286":-0.4199336767196655,"287":0.3086261451244354,"288":-0.524285614490509,"289":-0.6513294577598572,"290":-0.655114471912384,"291":-0.9673242568969727,"292":-0.14228253066539764,"293":-0.9393644332885742,"294":-1.355593204498291,"295":-0.4535083472728729,"296":0.20464955270290375,"297":0.5579665899276733,"298":-0.38744524121284485,"299":0.41974589228630066,"300":-0.934345006942749,"301":-0.23419056832790375,"302":-0.564081072807312,"303":-0.6484395265579224,"304":-0.4932708442211151,"305":0.3840445280075073,"306":-0.037019308656454086,"307":0.033424701541662216,"308":0.01678510196506977,"309":0.12367767095565796,"310":0.1341785043478012,"311":-0.04494988173246384,"312":0.21632316708564758,"313":-0.8226068019866943,"314":0.058502137660980225,"315":-0.2029719054698944,"316":0.2127871960401535,"317":-1.2999942302703857,"318":-0.6616241931915283,"319":0.0920325368642807,"320":1.2884660959243774,"321":-0.3162190318107605,"322":-1.5284777879714966,"323":-0.13659924268722534,"324":0.6387673616409302,"325":-0.6154882311820984,"326":-0.8017480969429016,"327":0.2564031481742859,"328":-0.6161300539970398,"329":-0.5041422843933105,"330":-0.24693356454372406,"331":-0.47738632559776306,"332":-0.31081441044807434,"333":0.14418266713619232,"334":0.15895992517471313,"335":0.009594193659722805,"336":0.04691599681973457,"337":0.012529491446912289,"338":-0.08367869257926941,"339":-0.061942555010318756,"340":-0.01412183791399002,"341":-0.37235578894615173,"342":-0.05496086925268173,"343":-0.16555841267108917,"344":0.19715994596481323,"345":0.41958683729171753,"346":-0.20003850758075714,"347":0.9902830123901367,"348":1.6867482662200928,"349":0.8061751127243042,"350":-0.27183979749679565,"351":1.3255798816680908,"352":0.48190394043922424,"353":-1.8046979904174805,"354":-0.6454808712005615,"355":0.2648308277130127,"356":-0.4519297480583191,"357":-0.640340268611908,"358":-0.42988622188568115,"359":-0.24084076285362244,"360":-0.10750472545623779,"361":0.03897782415151596,"362":-0.08036643266677856,"363":-0.15100312232971191,"364":-0.04887785762548447,"365":-0.16186974942684174,"366":-0.17965944111347198,"367":-0.1589478701353073,"368":0.21050630509853363,"369":-0.5750642418861389,"370":-0.4445466697216034,"371":0.6484791040420532,"372":0.6359724998474121,"373":0.6640486717224121,"374":0.49580684304237366,"375":1.585677981376648,"376":0.7720788717269897,"377":0.8263206481933594,"378":0.6232715845108032,"379":0.35412874817848206,"380":-0.8338556885719299,"381":-0.45463117957115173,"382":0.9942774176597595,"383":1.197273850440979,"384":0.46862637996673584,"385":-0.6163302659988403,"386":-0.49785885214805603,"387":-0.059100259095430374,"388":0.12135360389947891,"389":0.05678211897611618,"390":0.14571882784366608,"391":0.00006916624988662079,"392":-0.023402590304613113,"393":0.1848779022693634,"394":-0.19536525011062622,"395":0.18360187113285065,"396":0.4292043149471283,"397":-0.0014296735171228647,"398":-0.2831667959690094,"399":0.9745266437530518,"400":0.22836820781230927,"401":0.5175937414169312,"402":-0.2990644574165344,"403":1.0823779106140137,"404":1.4420533180236816,"405":0.9715154767036438,"406":0.1970740705728531,"407":-0.3362337350845337,"408":0.46663856506347656,"409":0.29461270570755005,"410":0.10632612556219101,"411":0.00536131439730525,"412":-0.13706620037555695,"413":-0.7939504384994507,"414":-0.8112397789955139,"415":-0.32682621479034424,"416":-0.038688018918037415,"417":-0.0903269499540329,"418":0.1538085788488388,"419":0.02740875445306301,"420":0.003156373044475913,"421":-0.10888030380010605,"422":-0.26454782485961914,"423":0.29120269417762756,"424":0.48169848322868347,"425":0.14016833901405334,"426":-0.13150165975093842,"427":0.05946511775255203,"428":0.7921704649925232,"429":0.3285757005214691,"430":-0.4880047142505646,"431":-0.036690015345811844,"432":-0.21955347061157227,"433":0.40632158517837524,"434":1.2997058629989624,"435":0.8051883578300476,"436":-0.18266049027442932,"437":-0.1352401077747345,"438":-0.3038254976272583,"439":-0.0627952292561531,"440":0.2779920697212219,"441":-0.42996945977211,"442":-0.0046702902764081955,"443":-0.08527926355600357,"444":0.20373159646987915,"445":0.10816263407468796,"446":0.20169593393802643,"447":0.17194980382919312,"448":-0.006289606913924217,"449":-0.0677993968129158,"450":-0.07733147591352463,"451":0.21151518821716309,"452":0.7701518535614014,"453":0.5000190734863281,"454":0.4163583219051361,"455":-0.27643948793411255,"456":0.32221364974975586,"457":0.20631299912929535,"458":-0.20384880900382996,"459":0.16236478090286255,"460":-0.05837927758693695,"461":1.7556169033050537,"462":1.574639916419983,"463":0.7961122393608093,"464":0.06953465193510056,"465":0.8822275996208191,"466":-0.4381835162639618,"467":0.39890536665916443,"468":-0.23449629545211792,"469":0.018989745527505875,"470":0.7635977268218994,"471":0.9817251563072205,"472":1.0096309185028076,"473":0.27789026498794556,"474":-0.12414726614952087,"475":-0.1459076702594757,"476":0.1374204009771347,"477":0.13177603483200073,"478":-0.26054683327674866,"479":-0.23299719393253326,"480":0.48226428031921387,"481":0.13332010805606842,"482":0.3395576477050781,"483":-0.1776975393295288,"484":0.6800448894500732,"485":0.1743258386850357,"486":-0.4042378067970276,"487":0.14441101253032684,"488":0.7712256908416748,"489":1.666486144065857,"490":0.405049592256546,"491":-0.008201733231544495,"492":1.0669649839401245,"493":1.3374687433242798,"494":-0.5747187733650208,"495":-0.08183350414037704,"496":0.22315678000450134,"497":-0.5154316425323486,"498":-0.6535104513168335,"499":0.472951740026474,"500":0.4910150170326233,"501":0.23927375674247742,"502":-0.03792190179228783,"503":0.1408744901418686,"504":-0.19791775941848755,"505":0.05974011868238449,"506":-0.24336795508861542,"507":-0.3950214087963104,"508":0.17353105545043945,"509":0.4845961928367615,"510":0.5110340118408203,"511":-0.16632288694381714,"512":0.11614016443490982,"513":-0.5163524746894836,"514":-0.9595308899879456,"515":-0.876602292060852,"516":0.6435972452163696,"517":1.5108000040054321,"518":0.9257391095161438,"519":1.3256486654281616,"520":0.6633731722831726,"521":0.37605544924736023,"522":-0.7107871174812317,"523":-0.24807009100914001,"524":0.3281814157962799,"525":-0.6818123459815979,"526":-0.3250841498374939,"527":0.6798848509788513,"528":0.2631160020828247,"529":0.346452534198761,"530":-0.03708697482943535,"531":0.16564792394638062,"532":0.11580874025821686,"533":0.08238738030195236,"534":-0.07586866617202759,"535":0.026498552411794662,"536":0.843792200088501,"537":0.08440739661455154,"538":0.8025854825973511,"539":0.08969881385564804,"540":-0.5306915640830994,"541":0.29048919677734375,"542":0.11832552403211594,"543":0.08226924389600754,"544":1.3924543857574463,"545":1.5991805791854858,"546":1.2382431030273438,"547":1.5356742143630981,"548":0.4958946704864502,"549":0.46233931183815,"550":0.4733857214450836,"551":-0.5430260896682739,"552":0.8956194519996643,"553":0.5032752752304077,"554":0.5259007215499878,"555":0.5224714279174805,"556":0.3046286702156067,"557":0.18032345175743103,"558":0.05560540035367012,"559":-0.14340868592262268,"560":-0.18060289323329926,"561":0.07958649098873138,"562":0.05507684871554375,"563":0.3975704312324524,"564":0.34816974401474,"565":-0.295994371175766,"566":0.47026944160461426,"567":0.6413151025772095,"568":0.45467156171798706,"569":0.6117410659790039,"570":0.39492177963256836,"571":1.0308457612991333,"572":1.3105804920196533,"573":1.3422987461090088,"574":0.5463181734085083,"575":1.1468956470489502,"576":0.8151279091835022,"577":0.35068368911743164,"578":0.8463714122772217,"579":-0.06794898957014084,"580":1.1664530038833618,"581":0.7602039575576782,"582":0.8345105051994324,"583":0.2340918481349945,"584":0.051039211452007294,"585":-0.05886295810341835,"586":0.019028186798095703,"587":-0.02830415777862072,"588":-0.10138239711523056,"589":0.15745209157466888,"590":0.2235359251499176,"591":0.3334554433822632,"592":0.13262732326984406,"593":-0.43811795115470886,"594":0.09528414905071259,"595":0.28852739930152893,"596":0.5767467021942139,"597":0.8952534794807434,"598":0.34215259552001953,"599":1.0723166465759277,"600":0.5256019830703735,"601":0.40745216608047485,"602":1.0087631940841675,"603":0.3061968684196472,"604":0.12032344937324524,"605":0.35725077986717224,"606":1.4346535205841064,"607":0.8854044079780579,"608":0.4707795977592468,"609":0.21678273379802704,"610":0.5701380968093872,"611":-0.010616907849907875,"612":0.09731052815914154,"613":-0.05055592209100723,"614":0.07177123427391052,"615":-0.08582969754934311,"616":0.011239835061132908,"617":-0.10019040107727051,"618":0.20526278018951416,"619":0.17663493752479553,"620":0.0499098114669323,"621":-0.056356970220804214,"622":0.0017639099387452006,"623":0.19107063114643097,"624":-0.7443486452102661,"625":0.033272165805101395,"626":0.027948664501309395,"627":0.5380123853683472,"628":-0.2415492832660675,"629":-0.07389099150896072,"630":-0.10454264283180237,"631":-0.9290129542350769,"632":0.36913442611694336,"633":0.9148662686347961,"634":1.701066493988037,"635":0.7827826738357544,"636":0.016777779906988144,"637":0.17750059068202972,"638":0.3893572986125946,"639":0.43400248885154724,"640":0.06565294414758682,"641":-0.15491639077663422,"642":-0.08992509543895721,"643":0.18341834843158722,"644":0.11167962104082108,"645":-0.16697782278060913,"646":0.1372920721769333,"647":-0.08446581661701202,"648":-0.004006312694400549,"649":-0.10156377404928207,"650":-0.16957934200763702,"651":-0.6244626641273499,"652":-0.9070923328399658,"653":-0.3264288306236267,"654":-0.2957174479961395,"655":-0.04173518344759941,"656":-0.5414376258850098,"657":-0.34641337394714355,"658":0.2941102981567383,"659":0.34265774488449097,"660":0.24493813514709473,"661":0.0016134347533807158,"662":0.7730360627174377,"663":0.6362557411193848,"664":0.5271143913269043,"665":0.4586532413959503,"666":0.3335222005844116,"667":0.14980803430080414,"668":0.12052242457866669,"669":-0.06245563551783562,"670":0.11551573127508163,"671":0.16312605142593384,"672":0.07234971970319748,"673":0.14621174335479736,"674":0.06090955063700676,"675":0.0024248219560831785,"676":-0.07031670957803726,"677":-0.3775281310081482,"678":-0.6279873847961426,"679":-1.088572382926941,"680":-0.9016328454017639,"681":-0.7582632303237915,"682":-0.7109672427177429,"683":0.08300315588712692,"684":0.3323116898536682,"685":0.5704582333564758,"686":1.0056557655334473,"687":1.1743264198303223,"688":-0.13748688995838165,"689":-0.6964824199676514,"690":-0.8264471292495728,"691":0.4652480185031891,"692":0.27571865916252136,"693":0.2967045307159424,"694":0.26634344458580017,"695":0.0875203013420105,"696":0.03801954165101051,"697":-0.008669497445225716,"698":-0.07125022262334824,"699":-0.1497686356306076,"700":-0.1303965449333191,"701":-0.1390509456396103,"702":0.17882557213306427,"703":-0.10810297727584839,"704":-0.16454188525676727,"705":-0.2600729465484619,"706":-0.7585184574127197,"707":-0.9503431916236877,"708":-1.3082352876663208,"709":-0.9010289907455444,"710":-0.4178789556026459,"711":-0.9148751497268677,"712":-1.173609733581543,"713":-0.41727718710899353,"714":-0.10318151116371155,"715":0.5783825516700745,"716":-0.5694820284843445,"717":-1.9577460289001465,"718":-2.062217950820923,"719":-1.5186344385147095,"720":-0.762993335723877,"721":-0.12501512467861176,"722":-0.09727584570646286,"723":0.08566176891326904,"724":-0.05785909295082092,"725":-0.1270068883895874,"726":-0.13622000813484192,"727":-0.1341627985239029,"728":-0.0384906567633152,"729":-0.1285908967256546,"730":-0.057312484830617905,"731":-0.18922150135040283,"732":0.04402026906609535,"733":0.03147943317890167,"734":-0.1766754686832428,"735":-0.47128039598464966,"736":0.022906912490725517,"737":-0.015713291242718697,"738":-0.47563299536705017,"739":-1.1996219158172607,"740":-0.3061574399471283,"741":-0.08259398490190506,"742":-0.7653806209564209,"743":-0.5559961199760437,"744":-0.6450210213661194,"745":-1.0182052850723267,"746":-1.1595510244369507,"747":-0.5963323712348938,"748":-0.107525534927845,"749":-0.15793456137180328,"750":-0.03277411684393883,"751":0.033004280179739,"752":-0.09923069924116135,"753":0.01112777553498745,"754":0.10919447243213654,"755":0.1497674286365509,"756":-0.032204799354076385,"757":0.018792210146784782,"758":-0.19371628761291504,"759":-0.0013839738676324487,"760":-0.009783410467207432,"761":-0.040234558284282684,"762":-0.06957153975963593,"763":0.06627713143825531,"764":0.16701918840408325,"765":-0.1298934817314148,"766":-0.10164414346218109,"767":0.13450251519680023,"768":-0.18459518253803253,"769":-0.22743628919124603,"770":-0.4074862599372864,"771":0.0883050262928009,"772":-0.13821931183338165,"773":0.09869832545518875,"774":-0.03602795675396919,"775":0.13614895939826965,"776":0.09419643878936768,"777":-0.2736685276031494,"778":-0.20640552043914795,"779":0.02059638686478138,"780":-0.0940265879034996,"781":-0.1485729217529297,"782":-0.014804883860051632,"783":0.045328084379434586}},"1":{"bias":-2.501709222793579,"weights":{"0":-0.1622033566236496,"1":0.10732704401016235,"2":-0.014057413674890995,"3":0.1886274516582489,"4":-0.05049970746040344,"5":0.020057113841176033,"6":0.17345061898231506,"7":-0.07116317003965378,"8":-0.1569535881280899,"9":0.01900562085211277,"10":-0.10422594100236893,"11":-0.029299218207597733,"12":0.08629678934812546,"13":0.16338759660720825,"14":-0.1258845180273056,"15":0.1810588389635086,"16":0.11457677185535431,"17":-0.16009634733200073,"18":0.05970589816570282,"19":-0.195803701877594,"20":-0.17990361154079437,"21":0.06236746907234192,"22":0.05373544991016388,"23":0.060726720839738846,"24":-0.04321516305208206,"25":-0.09760673344135284,"26":-0.008080464787781239,"27":0.019009528681635857,"28":-0.1902725249528885,"29":-0.06208692491054535,"30":-0.0742761567234993,"31":-0.10352801531553268,"32":-0.08196329325437546,"33":0.0057370164431631565,"34":0.13508015871047974,"35":-0.14484481513500214,"36":0.025885354727506638,"37":-0.12180007994174957,"38":0.10683942586183548,"39":0.16660523414611816,"40":-0.18512114882469177,"41":0.19000385701656342,"42":-0.041099805384874344,"43":-0.1949274092912674,"44":0.10635755211114883,"45":-0.11279628425836563,"46":0.17839016020298004,"47":-0.19340388476848602,"48":0.1270298808813095,"49":0.014504354447126389,"50":0.0007646373123861849,"51":-0.03720901161432266,"52":0.009472343139350414,"53":0.1489284634590149,"54":0.17465604841709137,"55":-0.1468440443277359,"56":-0.18724939227104187,"57":-0.037440333515405655,"58":-0.10546071827411652,"59":-0.03129319101572037,"60":0.11334234476089478,"61":-0.11389056593179703,"62":0.06429105997085571,"63":0.027104778215289116,"64":-0.15412458777427673,"65":0.09781506657600403,"66":0.0950646921992302,"67":-0.07473602145910263,"68":-0.03491314873099327,"69":-0.2871350049972534,"70":-0.40572473406791687,"71":-0.5175459384918213,"72":-0.26934316754341125,"73":-0.2439352422952652,"74":0.17484189569950104,"75":-0.19386398792266846,"76":-0.12337952852249146,"77":-0.018874546512961388,"78":0.12999024987220764,"79":0.08615905046463013,"80":0.1719008833169937,"81":-0.1434667855501175,"82":0.06838986277580261,"83":0.17969605326652527,"84":-0.1729092001914978,"85":0.17920289933681488,"86":0.043342992663383484,"87":-0.1890503168106079,"88":0.09291807562112808,"89":0.036623772233724594,"90":-0.015226197429001331,"91":-0.07170853763818741,"92":-0.19345149397850037,"93":0.014244758524000645,"94":-0.33192378282546997,"95":-0.40464913845062256,"96":0.26949256658554077,"97":0.11301517486572266,"98":-0.4343303143978119,"99":-0.7530695199966431,"100":-0.8236783146858215,"101":-0.1138860359787941,"102":0.6227612495422363,"103":0.08608163148164749,"104":-0.13388805091381073,"105":0.11290235072374344,"106":0.11944512277841568,"107":0.1429315209388733,"108":-0.12697188556194305,"109":0.11924110352993011,"110":0.0598638691008091,"111":-0.05162099748849869,"112":0.12995901703834534,"113":-0.03540406748652458,"114":-0.017732201144099236,"115":0.003607106627896428,"116":0.2072431594133377,"117":-0.2935503125190735,"118":-0.1455247700214386,"119":-0.19978314638137817,"120":0.6328812837600708,"121":-0.032860107719898224,"122":0.03595530241727829,"123":0.02316141314804554,"124":0.028484808281064034,"125":-0.1889914870262146,"126":-0.41659459471702576,"127":0.41414910554885864,"128":-0.4041494131088257,"129":0.30099019408226013,"130":1.06813645362854,"131":0.9578597545623779,"132":0.45194119215011597,"133":0.2633237838745117,"134":0.36950385570526123,"135":-0.05149313807487488,"136":0.01498955674469471,"137":0.1092929020524025,"138":-0.07894548028707504,"139":0.030744174495339394,"140":-0.15350733697414398,"141":0.0717681497335434,"142":-0.07621675729751587,"143":0.09461084008216858,"144":-0.03487594798207283,"145":-0.0652993842959404,"146":0.044035904109478,"147":0.1627064049243927,"148":0.018664799630641937,"149":-0.5074582099914551,"150":-0.38320720195770264,"151":-0.6142316460609436,"152":-0.34025058150291443,"153":0.25363120436668396,"154":-0.4333650469779968,"155":0.6769368052482605,"156":0.10082435607910156,"157":1.1197901964187622,"158":0.43447503447532654,"159":0.6624674201011658,"160":-0.9433472156524658,"161":-1.4409743547439575,"162":-0.9117980003356934,"163":-0.7072485685348511,"164":-0.4571121037006378,"165":-0.0836673155426979,"166":-0.1549675315618515,"167":0.1684788465499878,"168":0.10831690579652786,"169":-0.09828279167413712,"170":0.1375005543231964,"171":0.2486536204814911,"172":0.47126635909080505,"173":0.6848618388175964,"174":0.7045645713806152,"175":0.40644848346710205,"176":0.4407493770122528,"177":-0.2210996150970459,"178":-0.5509458184242249,"179":-0.33364352583885193,"180":0.3441162407398224,"181":0.2870606780052185,"182":-0.47195711731910706,"183":-0.5839378833770752,"184":-0.8875856995582581,"185":-0.1309068202972412,"186":0.1126106008887291,"187":0.20301420986652374,"188":0.29519400000572205,"189":-1.8317530155181885,"190":-1.636309027671814,"191":-1.6337859630584717,"192":-1.0663288831710815,"193":-0.3075912296772003,"194":-0.0480160191655159,"195":-0.12616758048534393,"196":-0.055002231150865555,"197":-0.15168718993663788,"198":0.21259847283363342,"199":0.33005812764167786,"200":0.788810670375824,"201":0.448043555021286,"202":0.004579298198223114,"203":-0.06770145893096924,"204":-0.10400819778442383,"205":0.1608538180589676,"206":-0.5017444491386414,"207":-0.3853690028190613,"208":-0.3524431884288788,"209":-0.467642605304718,"210":1.0205987691879272,"211":0.2724355161190033,"212":-0.15565793216228485,"213":-0.007469876203685999,"214":0.1630876064300537,"215":-0.2092260718345642,"216":0.25681379437446594,"217":-1.1824220418930054,"218":-1.3237507343292236,"219":-1.2955598831176758,"220":-1.1200872659683228,"221":-0.29079416394233704,"222":-0.07699626684188843,"223":-0.13594357669353485,"224":-0.16721752285957336,"225":0.057417698204517365,"226":-0.03845701739192009,"227":0.3378969132900238,"228":0.9263646602630615,"229":-0.19525188207626343,"230":-0.8451911807060242,"231":-0.39495956897735596,"232":-1.0661667585372925,"233":-0.9575193524360657,"234":-0.6281001567840576,"235":-0.17531360685825348,"236":0.2822968065738678,"237":0.6675510406494141,"238":1.4352225065231323,"239":0.999111533164978,"240":0.7827472686767578,"241":0.9226794838905334,"242":-0.28989821672439575,"243":-0.9130008816719055,"244":-0.8165613412857056,"245":-0.6589380502700806,"246":-1.222954273223877,"247":-1.6391583681106567,"248":-1.1262634992599487,"249":-0.02452191337943077,"250":-0.0866994634270668,"251":-0.12696395814418793,"252":0.03771188482642174,"253":-0.1872565895318985,"254":0.11243586242198944,"255":0.4404382109642029,"256":0.3965410888195038,"257":-0.5538083910942078,"258":-0.6767387390136719,"259":-0.051893025636672974,"260":-0.48833543062210083,"261":-0.6805757880210876,"262":-0.33522218465805054,"263":0.17230692505836487,"264":-0.18248455226421356,"265":1.0313924551010132,"266":1.6117812395095825,"267":0.8307837843894958,"268":1.6143386363983154,"269":0.3987286686897278,"270":0.44323137402534485,"271":-0.5819810628890991,"272":0.3359231948852539,"273":-0.35079771280288696,"274":-0.17628704011440277,"275":-0.6828933358192444,"276":-0.2814187705516815,"277":-0.055270660668611526,"278":0.18797405064105988,"279":0.19107872247695923,"280":-0.11061590909957886,"281":0.04160809889435768,"282":0.1898753046989441,"283":0.29577094316482544,"284":0.3080856502056122,"285":0.04233825206756592,"286":-0.41242220997810364,"287":-0.27027735114097595,"288":-0.2466762363910675,"289":-0.722671627998352,"290":-1.132407546043396,"291":-0.35490521788597107,"292":-0.5768467783927917,"293":0.23988522589206696,"294":0.9633250832557678,"295":0.22396820783615112,"296":-0.07978421449661255,"297":-0.029992109164595604,"298":0.6311675310134888,"299":0.3184494078159332,"300":0.5127160549163818,"301":-0.47606539726257324,"302":-0.6515319347381592,"303":-0.5000642538070679,"304":-0.25013649463653564,"305":-0.19917930662631989,"306":-0.0276251919567585,"307":0.09545861184597015,"308":-0.08730685710906982,"309":0.06647332012653351,"310":0.18233342468738556,"311":0.09507542848587036,"312":-0.12526021897792816,"313":-0.08893287181854248,"314":-0.22790193557739258,"315":0.0163405891507864,"316":-0.43895423412323,"317":0.025631990283727646,"318":-0.3535687327384949,"319":-0.7325419783592224,"320":-0.24095416069030762,"321":1.14382803440094,"322":2.153348922729492,"323":1.1101772785186768,"324":0.5065830945968628,"325":0.48786309361457825,"326":0.8038089871406555,"327":0.15042605996131897,"328":-0.2626188099384308,"329":-0.7425956726074219,"330":-0.2567814588546753,"331":-0.21508219838142395,"332":-0.37080109119415283,"333":0.05267476290464401,"334":0.10198810696601868,"335":0.04493914917111397,"336":-0.003271615831181407,"337":-0.05327682942152023,"338":0.034276083111763,"339":-0.10347452014684677,"340":-0.4035543203353882,"341":0.06965920329093933,"342":-0.30471280217170715,"343":-0.4771842658519745,"344":-0.5842028856277466,"345":-0.06909449398517609,"346":0.18127328157424927,"347":-0.39837008714675903,"348":0.09407903254032135,"349":1.2785629034042358,"350":1.5600411891937256,"351":0.5905352234840393,"352":0.8240758180618286,"353":0.2855868935585022,"354":1.005974292755127,"355":0.359459787607193,"356":-0.11596546322107315,"357":-0.7231566309928894,"358":-0.2804390788078308,"359":0.13743041455745697,"360":0.1298842430114746,"361":-0.1613263487815857,"362":0.0703042596578598,"363":-0.05525226518511772,"364":0.10220609605312347,"365":-0.18211962282657623,"366":-0.20569927990436554,"367":-0.27111029624938965,"368":0.09207457304000854,"369":0.17666643857955933,"370":-0.4253752529621124,"371":-0.3277450501918793,"372":-0.07136624306440353,"373":-0.33886945247650146,"374":-0.9028854370117188,"375":-0.8116695880889893,"376":0.48417341709136963,"377":1.7936029434204102,"378":1.1122289896011353,"379":1.5142557621002197,"380":0.23705022037029266,"381":0.15784864127635956,"382":-0.06174413859844208,"383":-0.6559667587280273,"384":-0.30217358469963074,"385":0.14451651275157928,"386":-0.19422461092472076,"387":0.05670393258333206,"388":-0.14416344463825226,"389":0.04678114131093025,"390":-0.0802663117647171,"391":0.04933426156640053,"392":0.07346451282501221,"393":0.10856281965970993,"394":-0.05590655654668808,"395":0.03500330075621605,"396":0.2935342490673065,"397":0.0753561332821846,"398":-0.5487518906593323,"399":-0.37810641527175903,"400":-0.24117645621299744,"401":-0.15801697969436646,"402":-1.1051136255264282,"403":-0.5780206322669983,"404":0.4450589120388031,"405":0.7554351091384888,"406":1.3239387273788452,"407":0.7976750135421753,"408":-0.5215693116188049,"409":-0.17768630385398865,"410":-0.14147287607192993,"411":-0.860377311706543,"412":-0.4833521842956543,"413":0.3207694888114929,"414":0.06335604190826416,"415":-0.10703200846910477,"416":-0.1614827811717987,"417":0.01169550884515047,"418":0.10802444815635681,"419":0.03388307988643646,"420":0.09709785133600235,"421":-0.03067166358232498,"422":0.03464938700199127,"423":0.12607859075069427,"424":0.009798393584787846,"425":0.2884579598903656,"426":-0.6729746460914612,"427":-0.5522853136062622,"428":-0.9770773649215698,"429":-0.9785090088844299,"430":-1.4767403602600098,"431":-0.6411153674125671,"432":-0.20629557967185974,"433":0.7000510692596436,"434":0.8346740007400513,"435":0.4904872477054596,"436":-0.029990239068865776,"437":-0.37331509590148926,"438":-0.24287930130958557,"439":-0.7186375260353088,"440":0.2374449223279953,"441":1.16336190700531,"442":0.22049936652183533,"443":-0.2555605173110962,"444":0.07418125867843628,"445":0.035498905926942825,"446":0.13591518998146057,"447":0.11578808724880219,"448":0.05600579455494881,"449":0.02503696084022522,"450":-0.06371397525072098,"451":0.13898079097270966,"452":-0.05579783394932747,"453":0.24367070198059082,"454":-0.145711749792099,"455":-0.14199721813201904,"456":-1.0316365957260132,"457":-1.5958720445632935,"458":-2.3521671295166016,"459":-1.2989581823349,"460":-0.7438825964927673,"461":-1.6810696125030518,"462":-0.4239879846572876,"463":-0.6978861093521118,"464":-0.1148337721824646,"465":-0.16747793555259705,"466":0.1688757836818695,"467":0.92136549949646,"468":0.5169629454612732,"469":0.38432931900024414,"470":-0.045315932482481,"471":-0.291237473487854,"472":-0.5276840925216675,"473":-0.018195398151874542,"474":0.08111554384231567,"475":0.09148122370243073,"476":0.038445182144641876,"477":0.07412493228912354,"478":-0.024457983672618866,"479":0.19737228751182556,"480":-0.028844572603702545,"481":0.3583986759185791,"482":0.04928091913461685,"483":-0.19297590851783752,"484":-0.10202323645353317,"485":-1.6624200344085693,"486":-2.0261480808258057,"487":-2.019700527191162,"488":-1.2973697185516357,"489":-1.889366626739502,"490":-0.8926963806152344,"491":-0.9873762726783752,"492":-0.807687520980835,"493":-0.5351696014404297,"494":0.09864473342895508,"495":0.7781018614768982,"496":0.00005544600571738556,"497":0.09303788840770721,"498":0.051126886159181595,"499":-0.7005888819694519,"500":-0.7349762320518494,"501":-0.47528016567230225,"502":-0.08837220072746277,"503":-0.00045490587945096195,"504":-0.03427136316895485,"505":0.14275513589382172,"506":0.17596526443958282,"507":0.4164503812789917,"508":0.16211766004562378,"509":-0.01762918382883072,"510":-0.1639161854982376,"511":-0.3668825626373291,"512":0.03958924859762192,"513":-0.5382761359214783,"514":-1.177858591079712,"515":-1.8647290468215942,"516":-1.357778787612915,"517":-0.6621369123458862,"518":-0.5708158612251282,"519":-1.0356347560882568,"520":-0.27537664771080017,"521":-0.18192026019096375,"522":0.455174058675766,"523":0.229589581489563,"524":0.05025495961308479,"525":0.5504050254821777,"526":0.24661698937416077,"527":-0.067053884267807,"528":-0.5598610639572144,"529":-0.287092387676239,"530":-0.012826300226151943,"531":-0.037205033004283905,"532":0.1087261289358139,"533":-0.12695324420928955,"534":-0.18334874510765076,"535":0.4962470829486847,"536":0.26614508032798767,"537":0.357624351978302,"538":-0.41115230321884155,"539":-0.6007572412490845,"540":0.3471139371395111,"541":-0.05605149641633034,"542":-0.5625877380371094,"543":-0.9596791863441467,"544":-0.156471848487854,"545":0.32118651270866394,"546":-0.2794112265110016,"547":-0.4628640115261078,"548":-0.3281623423099518,"549":-0.12104920297861099,"550":-0.346966415643692,"551":0.38975268602371216,"552":0.41028892993927,"553":-0.3129548132419586,"554":-0.16099727153778076,"555":0.01904657669365406,"556":-0.6730506420135498,"557":-0.24059966206550598,"558":0.033035002648830414,"559":0.09456339478492737,"560":0.006106738932430744,"561":0.12862518429756165,"562":-0.19198796153068542,"563":0.06703734397888184,"564":-0.03773678466677666,"565":0.017587004229426384,"566":-0.5889622569084167,"567":-0.5118452906608582,"568":0.003904093289747834,"569":-0.06365805119276047,"570":0.43099257349967957,"571":0.38890165090560913,"572":0.3602040112018585,"573":0.050904255360364914,"574":0.8259570002555847,"575":-0.3256361782550812,"576":-0.26589006185531616,"577":-0.8295210599899292,"578":-0.1504950076341629,"579":0.11063006520271301,"580":0.4039912521839142,"581":0.05939562991261482,"582":-0.005214156582951546,"583":-0.44553643465042114,"584":-0.46124133467674255,"585":-0.012747381813824177,"586":-0.019427597522735596,"587":-0.1328548789024353,"588":0.04427281394600868,"589":0.1265580803155899,"590":-0.36216554045677185,"591":-0.2077331244945526,"592":0.12039176374673843,"593":0.09697572141885757,"594":0.12361399084329605,"595":-0.13416175544261932,"596":-0.20300783216953278,"597":-0.893750011920929,"598":0.06251166015863419,"599":-0.46916788816452026,"600":-0.27066537737846375,"601":0.1551801562309265,"602":0.09640131145715714,"603":0.8845959305763245,"604":0.14574699103832245,"605":-0.7272036671638489,"606":-0.5143239498138428,"607":-0.3255414068698883,"608":-0.37169918417930603,"609":0.37215280532836914,"610":-0.020577356219291687,"611":-0.23014940321445465,"612":-0.28597480058670044,"613":-0.14331582188606262,"614":-0.0994231179356575,"615":0.04443031921982765,"616":0.027572454884648323,"617":-0.194859117269516,"618":-0.20024292171001434,"619":-0.4821043610572815,"620":0.004561187699437141,"621":-0.05882299691438675,"622":0.09681122750043869,"623":-0.007033044472336769,"624":0.43388548493385315,"625":0.49089643359184265,"626":0.48706358671188354,"627":-0.3761129081249237,"628":-0.6936971545219421,"629":-0.43905407190322876,"630":-0.08589377999305725,"631":-0.17028124630451202,"632":-0.4847951829433441,"633":-0.3573279082775116,"634":-0.3518243432044983,"635":-0.7267176508903503,"636":-0.2568608224391937,"637":0.1619783341884613,"638":-0.26591750979423523,"639":-0.47502437233924866,"640":-0.23779909312725067,"641":-0.21733365952968597,"642":-0.09865356236696243,"643":-0.11415350437164307,"644":0.10118024796247482,"645":-0.17412014305591583,"646":0.06588393449783325,"647":0.13407529890537262,"648":0.04214636981487274,"649":0.21665360033512115,"650":0.2774151861667633,"651":-0.15477728843688965,"652":0.2825199067592621,"653":1.2809244394302368,"654":0.47636502981185913,"655":-0.16329506039619446,"656":0.31592974066734314,"657":-0.10895702242851257,"658":-0.6518688201904297,"659":0.6914889812469482,"660":0.685013473033905,"661":0.6483982801437378,"662":-0.11217125505208969,"663":-0.08629359304904938,"664":0.16970646381378174,"665":-0.3095753490924835,"666":-0.366811066865921,"667":-0.2294338196516037,"668":-0.21187752485275269,"669":-0.010785931721329689,"670":-0.09920237958431244,"671":-0.07482373714447021,"672":-0.01137483585625887,"673":0.07765386253595352,"674":-0.08117697387933731,"675":0.10598437488079071,"676":-0.08738504350185394,"677":0.061588697135448456,"678":0.3568282127380371,"679":0.18169669806957245,"680":-0.31966134905815125,"681":-0.4043219983577728,"682":-0.7660332918167114,"683":-0.6309404373168945,"684":-0.15493133664131165,"685":-0.647940993309021,"686":-0.5531028509140015,"687":-0.35073134303092957,"688":-0.1293359249830246,"689":-0.38738173246383667,"690":-0.519237756729126,"691":-0.10748779028654099,"692":-0.20281760394573212,"693":-0.3011361360549927,"694":-0.30130496621131897,"695":-0.2609233260154724,"696":0.06578599661588669,"697":0.014293975196778774,"698":-0.1454833745956421,"699":0.05726199224591255,"700":0.10817180573940277,"701":-0.17169277369976044,"702":0.08141939342021942,"703":-0.15412046015262604,"704":-0.11465968191623688,"705":0.014307206496596336,"706":0.4817454218864441,"707":0.326680988073349,"708":0.5290139317512512,"709":0.08405417203903198,"710":0.4638698399066925,"711":0.030377879738807678,"712":0.2625104784965515,"713":-0.004804487805813551,"714":-0.14879544079303741,"715":0.025907572358846664,"716":0.5154467225074768,"717":0.16405612230300903,"718":0.1875542402267456,"719":0.24013660848140717,"720":0.013244683854281902,"721":0.25625112652778625,"722":0.019137797877192497,"723":-0.177432119846344,"724":0.07000315934419632,"725":-0.1421659290790558,"726":0.10327965021133423,"727":-0.07872354239225388,"728":0.04036560654640198,"729":0.07707726210355759,"730":0.004286368377506733,"731":-0.13463321328163147,"732":0.15568114817142487,"733":-0.2061631828546524,"734":0.13134320080280304,"735":0.014659195207059383,"736":-0.03800668567419052,"737":0.09343049675226212,"738":0.16704998910427094,"739":0.14785821735858917,"740":-0.0773455798625946,"741":-0.4246457517147064,"742":-0.41099587082862854,"743":-0.0693596601486206,"744":0.05151279270648956,"745":0.009519313462078571,"746":0.07494793087244034,"747":-0.07184278219938278,"748":0.06860421597957611,"749":0.33151909708976746,"750":0.24476200342178345,"751":-0.12904125452041626,"752":0.05607644096016884,"753":0.0367647185921669,"754":-0.07459486275911331,"755":-0.09458200633525848,"756":0.15537814795970917,"757":-0.14395873248577118,"758":-0.0959722250699997,"759":-0.16875489056110382,"760":-0.06903219223022461,"761":-0.0027437026146799326,"762":0.16953790187835693,"763":0.015094653703272343,"764":-0.12601511180400848,"765":-0.008873797953128815,"766":-0.14979618787765503,"767":-0.10372047871351242,"768":-0.061820562928915024,"769":0.1506384313106537,"770":-0.06271419674158096,"771":-0.08680810779333115,"772":0.01269761472940445,"773":-0.03820852190256119,"774":0.10476352274417877,"775":-0.1122954934835434,"776":0.1838984489440918,"777":-0.06245766580104828,"778":-0.13660591840744019,"779":-0.028512997552752495,"780":0.1950611025094986,"781":-0.019597822800278664,"782":-0.011692764237523079,"783":-0.14527414739131927}},"2":{"bias":1.363153100013733,"weights":{"0":0.05606207624077797,"1":-0.03951454535126686,"2":-0.06846072524785995,"3":0.08199074119329453,"4":0.02203967235982418,"5":0.07762549072504044,"6":0.0018976089777424932,"7":0.13969697058200836,"8":-0.024803820997476578,"9":-0.02136874943971634,"10":-0.1322626918554306,"11":0.1963845044374466,"12":-0.08897654712200165,"13":0.05589905381202698,"14":0.1191803514957428,"15":0.029887771233916283,"16":0.18943889439105988,"17":-0.12010062485933304,"18":-0.08392336219549179,"19":0.14046591520309448,"20":-0.051525458693504333,"21":0.09478307515382767,"22":0.03772566094994545,"23":-0.1407918483018875,"24":0.007925569079816341,"25":0.08217272907495499,"26":-0.029047377407550812,"27":-0.053829167038202286,"28":0.19554394483566284,"29":0.16279087960720062,"30":0.1527470052242279,"31":-0.1737123429775238,"32":0.11175400018692017,"33":0.07425572723150253,"34":-0.18490684032440186,"35":0.053919341415166855,"36":0.17195197939872742,"37":0.19093164801597595,"38":0.05059722065925598,"39":0.018831033259630203,"40":0.13852646946907043,"41":0.022618239745497704,"42":0.12864388525485992,"43":0.1344062238931656,"44":0.039641957730054855,"45":0.12815454602241516,"46":-0.0012640514178201556,"47":0.12273808568716049,"48":-0.03788943216204643,"49":0.12168575078248978,"50":0.17333242297172546,"51":0.07524234056472778,"52":-0.17137187719345093,"53":0.1869925707578659,"54":0.09972221404314041,"55":0.05491814389824867,"56":0.012754801660776138,"57":0.17041195929050446,"58":0.1986672282218933,"59":0.0879165455698967,"60":-0.024303719401359558,"61":0.17753422260284424,"62":-0.1267353594303131,"63":-0.15876135230064392,"64":-0.24390912055969238,"65":-0.16709455847740173,"66":0.11506560444831848,"67":0.10135806351900101,"68":-0.2082902044057846,"69":0.03556634485721588,"70":-0.03844514116644859,"71":-0.12524300813674927,"72":-0.004350757692009211,"73":-0.10055272281169891,"74":-0.2867850959300995,"75":0.015081069432199001,"76":0.005004195962101221,"77":-0.20772242546081543,"78":-0.04481473192572594,"79":0.07143078744411469,"80":0.14723315834999084,"81":0.06169890612363815,"82":-0.16196711361408234,"83":-0.16469408571720123,"84":-0.005242469254881144,"85":-0.1790017932653427,"86":0.14461320638656616,"87":0.17289434373378754,"88":-0.15111224353313446,"89":-0.19710949063301086,"90":-0.09161653369665146,"91":0.10105632245540619,"92":0.05498899146914482,"93":0.20150482654571533,"94":-0.048177991062402725,"95":-0.05023495852947235,"96":-0.06782950460910797,"97":0.07189758121967316,"98":0.31671142578125,"99":0.060142118483781815,"100":-0.01398050133138895,"101":-0.4173220694065094,"102":-0.5014176964759827,"103":-0.5373091697692871,"104":-0.20405128598213196,"105":-0.34197181463241577,"106":-0.14475978910923004,"107":0.2673186659812927,"108":-0.03419293090701103,"109":-0.016647882759571075,"110":-0.19657881557941437,"111":0.1301838755607605,"112":0.020373553037643433,"113":0.09903549402952194,"114":0.10262145847082138,"115":-0.08119689673185349,"116":-0.1652168333530426,"117":-0.14694881439208984,"118":0.12911924719810486,"119":-0.07868339866399765,"120":-0.11189655214548111,"121":0.4671299457550049,"122":0.4509533643722534,"123":-0.27809152007102966,"124":0.5571684241294861,"125":0.45858994126319885,"126":0.1904027760028839,"127":0.31574493646621704,"128":0.6574511528015137,"129":0.6941483020782471,"130":0.3868247866630554,"131":-0.6456935405731201,"132":-0.3299601972103119,"133":-0.1127687469124794,"134":-0.2883809506893158,"135":0.1238040030002594,"136":0.07894910871982574,"137":0.09969872236251831,"138":-0.12011945247650146,"139":-0.19908453524112701,"140":0.14082011580467224,"141":-0.06994321197271347,"142":-0.09258770197629929,"143":0.1563291698694229,"144":-0.13595423102378845,"145":0.3099251985549927,"146":0.480233371257782,"147":0.5124161839485168,"148":1.5277838706970215,"149":0.9456640481948853,"150":1.078569769859314,"151":0.27984005212783813,"152":0.9087406396865845,"153":0.8200639486312866,"154":0.13471533358097076,"155":-0.7371381521224976,"156":-0.6031657457351685,"157":-0.5455620288848877,"158":0.6739932298660278,"159":0.3146710991859436,"160":0.10963767766952515,"161":0.1010768786072731,"162":-0.026139741763472557,"163":0.4073423743247986,"164":0.17346686124801636,"165":-0.002184745855629444,"166":0.14779505133628845,"167":-0.09091859310865402,"168":-0.15451499819755554,"169":-0.08445501327514648,"170":-0.06319373846054077,"171":0.09802696853876114,"172":-0.04030565917491913,"173":0.10241051763296127,"174":0.5920677781105042,"175":0.5396233797073364,"176":1.226885437965393,"177":0.883058488368988,"178":0.38511964678764343,"179":-0.018253972753882408,"180":0.6428888440132141,"181":-0.052778925746679306,"182":-0.01084703579545021,"183":-0.4183162748813629,"184":0.5677455067634583,"185":-0.7642862200737,"186":0.15831002593040466,"187":0.4193473756313324,"188":0.8402877449989319,"189":-0.07434418797492981,"190":-0.14258573949337006,"191":-0.18151375651359558,"192":0.021741006523370743,"193":0.38744598627090454,"194":0.18674975633621216,"195":-0.08541074395179749,"196":-0.020848944783210754,"197":-0.10263204574584961,"198":-0.12861783802509308,"199":-0.16315782070159912,"200":0.16634231805801392,"201":0.47079312801361084,"202":0.45540687441825867,"203":0.44148722290992737,"204":0.68082594871521,"205":1.2132433652877808,"206":1.4096074104309082,"207":0.9026872515678406,"208":1.4836162328720093,"209":1.8747568130493164,"210":1.6466803550720215,"211":0.6558091044425964,"212":-0.12315524369478226,"213":0.1773172914981842,"214":0.5801492929458618,"215":-0.3387572765350342,"216":0.528209924697876,"217":0.1827847957611084,"218":0.10234377533197403,"219":-0.2446596771478653,"220":0.4618639349937439,"221":0.2761736214160919,"222":-0.003399401903152466,"223":-0.17781293392181396,"224":-0.10552430897951126,"225":-0.1534845232963562,"226":-0.011834717355668545,"227":-0.03232859447598457,"228":0.3655775785446167,"229":0.6409551501274109,"230":0.7028854489326477,"231":0.07225748896598816,"232":1.133798360824585,"233":1.4691535234451294,"234":1.424721360206604,"235":1.2658931016921997,"236":0.9065914154052734,"237":1.7308032512664795,"238":1.6562968492507935,"239":1.6046093702316284,"240":0.7215745449066162,"241":1.225618600845337,"242":0.9021579623222351,"243":0.5679991841316223,"244":0.22712135314941406,"245":0.33076363801956177,"246":0.41039761900901794,"247":-0.24683673679828644,"248":0.13993316888809204,"249":0.5355809926986694,"250":-0.06690414249897003,"251":-0.18937763571739197,"252":0.16892485320568085,"253":0.11796359717845917,"254":0.088650181889534,"255":0.39600932598114014,"256":0.3753565549850464,"257":0.6564109921455383,"258":0.6669802069664001,"259":-0.028722966089844704,"260":-0.505471408367157,"261":0.06430013477802277,"262":-0.5983397364616394,"263":0.4752492308616638,"264":0.4835661053657532,"265":0.3567170798778534,"266":0.9008054733276367,"267":1.4487197399139404,"268":0.17945130169391632,"269":0.18184922635555267,"270":0.0911935567855835,"271":-0.4035760760307312,"272":-0.21627084910869598,"273":-0.16130861639976501,"274":-0.20649705827236176,"275":-0.10337808728218079,"276":0.06956490129232407,"277":0.3863068222999573,"278":-0.03611571341753006,"279":0.06174784153699875,"280":-0.16930876672267914,"281":0.1697477549314499,"282":0.11048267781734467,"283":0.25644293427467346,"284":-0.15436600148677826,"285":-0.14537662267684937,"286":-0.35911279916763306,"287":-0.32253456115722656,"288":-0.5677950978279114,"289":-0.4423827528953552,"290":-0.10945308208465576,"291":0.13419710099697113,"292":-0.13028836250305176,"293":-0.1543426215648651,"294":-0.43157222867012024,"295":0.005117244087159634,"296":0.12388617545366287,"297":-0.11593852192163467,"298":-0.4698895514011383,"299":-0.25172582268714905,"300":0.29244351387023926,"301":0.03485246002674103,"302":-0.5465523600578308,"303":-0.5268861651420593,"304":-0.08111337572336197,"305":0.4335636794567108,"306":0.08620648831129074,"307":0.08577660471200943,"308":0.13289880752563477,"309":-0.1654767245054245,"310":-0.11999309808015823,"311":0.04847722873091698,"312":-0.32465261220932007,"313":-0.6226779222488403,"314":-0.6468742489814758,"315":-0.8640125393867493,"316":0.07938144356012344,"317":-0.27432337403297424,"318":-0.5094090700149536,"319":-0.7807139754295349,"320":-0.7176064848899841,"321":-1.8193763494491577,"322":-2.116868734359741,"323":-0.8206113576889038,"324":-0.491254061460495,"325":-0.8950116038322449,"326":-0.3683359622955322,"327":-0.19287559390068054,"328":-0.4120804965496063,"329":-1.1694414615631104,"330":-0.9107028245925903,"331":-0.42173245549201965,"332":-0.19132333993911743,"333":0.11329485476016998,"334":0.18409252166748047,"335":-0.15090204775333405,"336":0.10495545715093613,"337":-0.038421664386987686,"338":0.18486379086971283,"339":0.14868907630443573,"340":-0.3075225353240967,"341":-0.922821581363678,"342":-1.4587302207946777,"343":-0.6696869134902954,"344":-0.5794026851654053,"345":-1.4522958993911743,"346":-0.7796907424926758,"347":-0.7913410663604736,"348":-1.270569086074829,"349":-1.826321005821228,"350":-1.4397344589233398,"351":-0.5024755597114563,"352":-0.5910305976867676,"353":-0.8193317651748657,"354":-0.5094017386436462,"355":-0.6061378121376038,"356":-1.007418155670166,"357":-1.6309852600097656,"358":-1.461067795753479,"359":-0.5952467322349548,"360":-0.21697132289409637,"361":0.1281033307313919,"362":0.08079668879508972,"363":-0.17064811289310455,"364":0.09655696153640747,"365":-0.04233190044760704,"366":-0.13756009936332703,"367":-0.11401567608118057,"368":-0.18957366049289703,"369":-0.4126719534397125,"370":-1.6560202836990356,"371":-1.319466233253479,"372":-1.0259199142456055,"373":-1.2863177061080933,"374":-1.344925045967102,"375":-1.5734503269195557,"376":-1.0399067401885986,"377":-1.334868311882019,"378":-0.03283870965242386,"379":-1.1968554258346558,"380":-1.1908293962478638,"381":-0.3476393222808838,"382":-0.03312724456191063,"383":-0.3847463130950928,"384":-1.191988229751587,"385":-1.4497647285461426,"386":-1.0778577327728271,"387":-0.5498234033584595,"388":-0.258825421333313,"389":0.08097440749406815,"390":0.07272771745920181,"391":0.17737939953804016,"392":-0.02381047233939171,"393":-0.038486044853925705,"394":-0.08395550400018692,"395":-0.09323473274707794,"396":0.1886209398508072,"397":-0.3571820557117462,"398":-1.3117990493774414,"399":-1.0069478750228882,"400":-0.26252928376197815,"401":-1.0652557611465454,"402":-0.5669320225715637,"403":-1.1011725664138794,"404":-0.9553302526473999,"405":-0.05662946403026581,"406":-0.9386147856712341,"407":-1.7080434560775757,"408":-1.519242286682129,"409":-1.0004454851150513,"410":-0.36620190739631653,"411":0.03044898808002472,"412":-0.2423185259103775,"413":-0.5261088609695435,"414":-0.6946236491203308,"415":-0.5939419269561768,"416":-0.32233455777168274,"417":-0.13226158916950226,"418":-0.02080133743584156,"419":0.11589163541793823,"420":0.11703130602836609,"421":0.13755548000335693,"422":0.028055276721715927,"423":0.16771242022514343,"424":0.18814314901828766,"425":-0.25991857051849365,"426":-0.5329000353813171,"427":-0.4699209928512573,"428":-0.03325502201914787,"429":0.1324770301580429,"430":-0.29146403074264526,"431":-1.0538495779037476,"432":-0.6688456535339355,"433":-0.20571711659431458,"434":-0.4901184141635895,"435":-0.5364401936531067,"436":-0.9554510116577148,"437":-1.4776456356048584,"438":-0.20314785838127136,"439":0.16464735567569733,"440":-0.11007321625947952,"441":0.4253395199775696,"442":0.06740929931402206,"443":-0.14377106726169586,"444":0.1832665055990219,"445":0.06865393370389938,"446":0.2519087791442871,"447":-0.054017383605241776,"448":0.06914930790662766,"449":-0.13657106459140778,"450":0.1884327530860901,"451":0.147188201546669,"452":-0.033805157989263535,"453":0.038162846118211746,"454":-0.5758470892906189,"455":-0.12242033332586288,"456":-0.26947328448295593,"457":-0.204525426030159,"458":0.4922664165496826,"459":-1.0290707349777222,"460":0.2952762544155121,"461":-0.339898020029068,"462":-0.7803748846054077,"463":0.06185705214738846,"464":-1.3263490200042725,"465":-2.4565317630767822,"466":-0.19062599539756775,"467":0.034618079662323,"468":-0.060988977551460266,"469":0.46990683674812317,"470":0.6979981064796448,"471":0.5652502775192261,"472":0.18303442001342773,"473":0.10476619750261307,"474":-0.05310167744755745,"475":0.15415267646312714,"476":-0.15795236825942993,"477":-0.00289067137055099,"478":0.07957596331834793,"479":0.15298503637313843,"480":0.2190285325050354,"481":0.3039487600326538,"482":-0.05378921702504158,"483":-0.41854119300842285,"484":-0.5210980772972107,"485":-0.4690682888031006,"486":-0.2474813312292099,"487":-0.4029344618320465,"488":-0.6551687717437744,"489":0.04693020135164261,"490":-0.7596867084503174,"491":-0.561398446559906,"492":-0.372868150472641,"493":-0.047515880316495895,"494":0.7051722407341003,"495":0.37476786971092224,"496":-0.12955769896507263,"497":0.8886435031890869,"498":0.6928103566169739,"499":0.34083983302116394,"500":0.3107442557811737,"501":0.40667814016342163,"502":0.21655137836933136,"503":0.15766537189483643,"504":0.003725699381902814,"505":0.18450862169265747,"506":-0.16408225893974304,"507":0.062372203916311264,"508":0.2947784960269928,"509":0.2059219479560852,"510":0.2836011052131653,"511":-0.2054455280303955,"512":-0.5770938396453857,"513":-1.0241619348526,"514":-0.253656268119812,"515":-0.932608962059021,"516":0.12110408395528793,"517":-0.3324405550956726,"518":-0.2744217813014984,"519":0.48338741064071655,"520":0.24224364757537842,"521":0.980633556842804,"522":1.4519015550613403,"523":-0.00901742372661829,"524":-0.2287989854812622,"525":0.9520618915557861,"526":0.6800212264060974,"527":0.38330063223838806,"528":0.5012282133102417,"529":0.30026131868362427,"530":0.056708842515945435,"531":0.16721610724925995,"532":0.039044756442308426,"533":0.011316632851958275,"534":-0.18063640594482422,"535":0.05750918760895729,"536":0.29476398229599,"537":-0.3418658375740051,"538":0.4348227083683014,"539":0.4702690541744232,"540":0.4095829427242279,"541":-0.4031909108161926,"542":-0.5077614784240723,"543":-0.4455234110355377,"544":-0.06927425414323807,"545":-0.36018794775009155,"546":0.6750863194465637,"547":0.6967126727104187,"548":0.259421169757843,"549":1.0425307750701904,"550":0.8178794384002686,"551":-0.47389453649520874,"552":-0.377554714679718,"553":1.1187304258346558,"554":0.6403234601020813,"555":0.6590887904167175,"556":0.6215196251869202,"557":0.37582817673683167,"558":-0.16332902014255524,"559":-0.08268635720014572,"560":0.14594633877277374,"561":0.055876005440950394,"562":0.011332051828503609,"563":0.24814783036708832,"564":0.2779196500778198,"565":-0.07692749053239822,"566":0.6412093639373779,"567":0.8176910877227783,"568":0.5684378147125244,"569":0.37793105840682983,"570":0.1320939064025879,"571":-0.02945730648934841,"572":0.09974813461303711,"573":0.14808525145053864,"574":0.23512060940265656,"575":1.130327820777893,"576":0.33224499225616455,"577":0.6460175514221191,"578":0.2662564516067505,"579":-0.6641778945922852,"580":0.27382174134254456,"581":0.3214091360569,"582":0.10337044298648834,"583":0.3130882978439331,"584":0.41814401745796204,"585":-0.009417410008609295,"586":-0.09378553181886673,"587":-0.16212238371372223,"588":-0.1113949567079544,"589":0.012846404686570168,"590":-0.1296456903219223,"591":0.15936054289340973,"592":0.33079248666763306,"593":-0.3494795262813568,"594":0.24777695536613464,"595":0.2166927605867386,"596":0.473874568939209,"597":0.9524238705635071,"598":0.5319260358810425,"599":1.1213804483413696,"600":0.27910491824150085,"601":0.37562498450279236,"602":0.6551625728607178,"603":0.510783314704895,"604":0.24002496898174286,"605":-0.1154499500989914,"606":-0.236662358045578,"607":-0.13437440991401672,"608":0.288837730884552,"609":0.6309190392494202,"610":0.1698971539735794,"611":0.06252217292785645,"612":-0.13111485540866852,"613":0.03382060304284096,"614":0.024876637384295464,"615":0.10500111430883408,"616":0.17282842099666595,"617":-0.1341659128665924,"618":0.1886846125125885,"619":0.10009846091270447,"620":0.3366974890232086,"621":0.08626843988895416,"622":-0.10210278630256653,"623":0.5037381052970886,"624":0.32441842555999756,"625":1.4928487539291382,"626":0.4556679129600525,"627":0.745887041091919,"628":0.4453158378601074,"629":0.9999008178710938,"630":-0.13344384729862213,"631":-0.00010357572318753228,"632":-0.050367824733257294,"633":0.11754697561264038,"634":0.045327842235565186,"635":0.42926865816116333,"636":0.6291429996490479,"637":0.7648168206214905,"638":-0.2817132771015167,"639":-0.2511415481567383,"640":0.16494974493980408,"641":-0.11764425039291382,"642":0.047229573130607605,"643":-0.1648019403219223,"644":-0.09306813031435013,"645":-0.14157269895076752,"646":0.11555910110473633,"647":-0.030025243759155273,"648":0.48897475004196167,"649":0.19584542512893677,"650":0.7655572891235352,"651":0.9157193303108215,"652":0.42617544531822205,"653":0.06882843375205994,"654":-0.45700350403785706,"655":0.45978841185569763,"656":-0.05325205996632576,"657":0.2833455801010132,"658":0.5962714552879333,"659":0.3654246926307678,"660":-0.2791249454021454,"661":-0.2854415774345398,"662":-0.539280891418457,"663":0.03179330378770828,"664":-0.2826150059700012,"665":-0.3747369050979614,"666":-0.0802743062376976,"667":-0.5119343400001526,"668":-0.05080832168459892,"669":0.05155796557664871,"670":-0.14522215723991394,"671":-0.14267580211162567,"672":0.10613130778074265,"673":0.16867195069789886,"674":-0.14520759880542755,"675":0.017460215836763382,"676":0.48437216877937317,"677":0.5131276845932007,"678":0.9408626556396484,"679":0.9537550210952759,"680":0.799285888671875,"681":0.30884483456611633,"682":0.236728698015213,"683":0.04197341203689575,"684":-0.443230539560318,"685":-0.016367115080356598,"686":0.1709664762020111,"687":-0.22845567762851715,"688":-0.35278913378715515,"689":0.2381356954574585,"690":-0.04631873592734337,"691":-0.3251315951347351,"692":-0.7583362460136414,"693":-0.29006627202033997,"694":-0.09807441383600235,"695":-0.21481503546237946,"696":-0.20408548414707184,"697":0.19994059205055237,"698":0.19608274102210999,"699":0.010658002458512783,"700":0.031502529978752136,"701":-0.18714618682861328,"702":0.04004554823040962,"703":-0.08418014645576477,"704":-0.09354965388774872,"705":0.29155340790748596,"706":0.444542795419693,"707":0.8187859058380127,"708":0.4951324760913849,"709":0.8245736360549927,"710":0.992333173751831,"711":1.047863245010376,"712":0.4848218560218811,"713":0.4083264172077179,"714":0.5060201287269592,"715":0.549659788608551,"716":0.5311234593391418,"717":-0.32413914799690247,"718":-0.22787074744701385,"719":-0.241494283080101,"720":-0.303611695766449,"721":-0.12516038119792938,"722":-0.17282718420028687,"723":-0.2646951675415039,"724":0.0011296110460534692,"725":0.16123877465724945,"726":-0.06524647772312164,"727":0.0173955075442791,"728":-0.09645945578813553,"729":0.16019673645496368,"730":-0.13009902834892273,"731":-0.10211043804883957,"732":0.11094629019498825,"733":0.07521294057369232,"734":0.3266417980194092,"735":0.04709598049521446,"736":0.15433520078659058,"737":-0.26133066415786743,"738":-0.01540797483175993,"739":-0.24197927117347717,"740":-0.21531793475151062,"741":0.3345975875854492,"742":-0.0782269760966301,"743":0.141723170876503,"744":0.556959867477417,"745":0.19019871950149536,"746":0.0031042529735714197,"747":0.26141151785850525,"748":0.04276229813694954,"749":-0.291629821062088,"750":0.12402146309614182,"751":-0.010110462084412575,"752":-0.04057754948735237,"753":-0.11197829991579056,"754":-0.17453831434249878,"755":0.1961013525724411,"756":0.14400646090507507,"757":-0.0655282735824585,"758":-0.09524413198232651,"759":-0.09104984998703003,"760":0.18277688324451447,"761":0.07653313130140305,"762":0.07579383254051208,"763":-0.006397042889147997,"764":-0.0919804498553276,"765":0.045027632266283035,"766":-0.09349878132343292,"767":0.05153204873204231,"768":0.004121565259993076,"769":-0.05340659245848656,"770":-0.10227365046739578,"771":-0.01790614053606987,"772":0.08522749692201614,"773":0.14376749098300934,"774":-0.015939660370349884,"775":-0.09702274203300476,"776":-0.11594748497009277,"777":-0.10981285572052002,"778":0.09512115269899368,"779":-0.06173330917954445,"780":-0.08550062775611877,"781":-0.14607705175876617,"782":0.18060797452926636,"783":-0.01926524005830288}},"3":{"bias":-0.98560631275177,"weights":{"0":0.11706806719303131,"1":0.1582077145576477,"2":-0.15516504645347595,"3":0.1331699937582016,"4":0.016835082322359085,"5":0.03589891269803047,"6":0.15891103446483612,"7":0.09674471616744995,"8":0.19180253148078918,"9":0.17514337599277496,"10":-0.03721054270863533,"11":0.15795418620109558,"12":0.006596710067242384,"13":0.03507232666015625,"14":0.008878449909389019,"15":-0.10326122492551804,"16":-0.055393461138010025,"17":-0.09872622042894363,"18":0.01161444652825594,"19":0.026327483355998993,"20":-0.013660126365721226,"21":-0.04178149625658989,"22":0.08415878564119339,"23":-0.030862772837281227,"24":-0.0878453403711319,"25":-0.1823737621307373,"26":-0.19102276861667633,"27":-0.031186895444989204,"28":0.18374493718147278,"29":-0.15783803164958954,"30":0.1430329829454422,"31":0.024764742702245712,"32":0.19976003468036652,"33":0.09563445299863815,"34":-0.1637060046195984,"35":-0.024259047582745552,"36":-0.18318982422351837,"37":-0.18659700453281403,"38":0.11734655499458313,"39":0.020763330161571503,"40":0.13121221959590912,"41":-0.017842719331383705,"42":-0.031953588128089905,"43":-0.1594177782535553,"44":-0.08764716237783432,"45":-0.18078075349330902,"46":-0.11211986094713211,"47":-0.1979808211326599,"48":-0.048981525003910065,"49":-0.11961283534765244,"50":-0.06958161294460297,"51":-0.07833775132894516,"52":-0.15431423485279083,"53":-0.04617117717862129,"54":0.01676292158663273,"55":0.13541771471500397,"56":-0.014603749848902225,"57":0.1570490449666977,"58":0.035134363919496536,"59":0.17560212314128876,"60":-0.0937340259552002,"61":0.13714903593063354,"62":-0.08024483174085617,"63":0.11892633885145187,"64":0.11179191619157791,"65":0.11203842610120773,"66":0.05544719845056534,"67":0.17569799721240997,"68":-0.08334654569625854,"69":0.08804236352443695,"70":0.14220532774925232,"71":0.02554558403789997,"72":-0.30228370428085327,"73":-0.18053224682807922,"74":-0.0840361937880516,"75":-0.03817310929298401,"76":-0.41156861186027527,"77":-0.12792310118675232,"78":-0.05207296460866928,"79":-0.0438946858048439,"80":0.12128493189811707,"81":0.10724446177482605,"82":0.11737459897994995,"83":0.0801931768655777,"84":-0.06207432225346565,"85":-0.027005599811673164,"86":0.1714824140071869,"87":0.04860468581318855,"88":-0.0027667637914419174,"89":0.0751127079129219,"90":-0.004349404014647007,"91":0.06392370164394379,"92":0.0307755284011364,"93":-0.02041669934988022,"94":0.41920197010040283,"95":0.2719906270503998,"96":-0.029630480334162712,"97":0.2006302922964096,"98":-0.1354389488697052,"99":0.14139360189437866,"100":0.015938743948936462,"101":-0.5329327583312988,"102":-0.7686526775360107,"103":-0.6411969661712646,"104":-0.8727596402168274,"105":-0.4979499578475952,"106":-0.06095012649893761,"107":0.031920429319143295,"108":-0.10245455801486969,"109":-0.13993604481220245,"110":0.1881842017173767,"111":0.1943037509918213,"112":0.06449545174837112,"113":-0.04053691774606705,"114":0.16926927864551544,"115":-0.1801377236843109,"116":0.15469598770141602,"117":-0.16172869503498077,"118":-0.047175608575344086,"119":0.0722963884472847,"120":0.21360774338245392,"121":0.3025042414665222,"122":0.29040414094924927,"123":0.39913904666900635,"124":0.5492463707923889,"125":0.5554231405258179,"126":0.5170589089393616,"127":0.3601982593536377,"128":0.1594133973121643,"129":0.04972832649946213,"130":-0.06715913861989975,"131":-0.37430840730667114,"132":-1.05559241771698,"133":-0.44577082991600037,"134":-0.014274262823164463,"135":-0.0036467770114541054,"136":0.15768314898014069,"137":0.01942889578640461,"138":0.09783472120761871,"139":0.15741066634655,"140":-0.17489928007125854,"141":-0.10420680791139603,"142":0.10617828369140625,"143":-0.06412114202976227,"144":0.18537873029708862,"145":0.25456637144088745,"146":0.2978494465351105,"147":-0.1730782687664032,"148":-0.2599036693572998,"149":-0.2408524453639984,"150":0.09343864023685455,"151":0.5500710010528564,"152":0.5072892904281616,"153":0.6826290488243103,"154":0.5678023099899292,"155":0.5978387594223022,"156":0.2276453822851181,"157":0.5545316934585571,"158":1.0181124210357666,"159":0.3681260943412781,"160":-0.4039226770401001,"161":-0.4591231048107147,"162":-0.42964890599250793,"163":-0.22854654490947723,"164":-0.29476648569107056,"165":0.11337518692016602,"166":0.07881339639425278,"167":-0.08012322336435318,"168":-0.042554352432489395,"169":0.12251152843236923,"170":-0.1856464445590973,"171":0.008656651712954044,"172":0.21124304831027985,"173":0.4883778691291809,"174":0.18605712056159973,"175":-0.2223014533519745,"176":0.21733388304710388,"177":0.3389979898929596,"178":-0.3382958769798279,"179":-0.23991380631923676,"180":-0.0040102568455040455,"181":0.3465993106365204,"182":-0.3415151834487915,"183":-0.23320350050926208,"184":0.34905609488487244,"185":1.5890718698501587,"186":0.7641024589538574,"187":0.30695798993110657,"188":0.8566321134567261,"189":-0.07122649252414703,"190":-0.17471949756145477,"191":-0.1850736290216446,"192":-0.44106775522232056,"193":-0.0912405252456665,"194":0.1217229962348938,"195":0.08297862857580185,"196":-0.1240081787109375,"197":-0.0031877385918051004,"198":0.18238209187984467,"199":0.179207906126976,"200":0.33278727531433105,"201":0.3805316388607025,"202":0.46116557717323303,"203":1.0521526336669922,"204":1.0542086362838745,"205":0.15138030052185059,"206":-0.8252283930778503,"207":-0.8531729578971863,"208":-0.3472677767276764,"209":-0.8736820220947266,"210":-0.3744322657585144,"211":-0.3928784430027008,"212":-0.31463050842285156,"213":-0.5072730779647827,"214":-0.3535805642604828,"215":-0.3038013279438019,"216":-0.38364177942276,"217":0.2677661180496216,"218":-0.07472764700651169,"219":-0.12511388957500458,"220":-0.23048239946365356,"221":-0.17954912781715393,"222":-0.08788368850946426,"223":-0.14990238845348358,"224":-0.12007534503936768,"225":0.01840830408036709,"226":0.15201638638973236,"227":0.30781611800193787,"228":0.5183410048484802,"229":0.5381673574447632,"230":0.3956691026687622,"231":1.7686076164245605,"232":1.2049669027328491,"233":0.6919769644737244,"234":0.8044080138206482,"235":0.7179670333862305,"236":0.574098527431488,"237":0.39046376943588257,"238":0.3739909529685974,"239":-0.40146955847740173,"240":-0.21282827854156494,"241":-0.6653565168380737,"242":0.18481117486953735,"243":0.18717998266220093,"244":-0.05189188942313194,"245":-0.49595361948013306,"246":0.25902315974235535,"247":0.4323759078979492,"248":0.05154349282383919,"249":0.07997383922338486,"250":0.1552046686410904,"251":-0.14601503312587738,"252":0.1499912142753601,"253":-0.18290024995803833,"254":0.017464077100157738,"255":0.455055832862854,"256":0.7439349889755249,"257":0.5570418238639832,"258":0.4987459182739258,"259":0.9791063070297241,"260":0.943275511264801,"261":0.8312015533447266,"262":0.1348041594028473,"263":1.1076723337173462,"264":-0.1688595414161682,"265":0.09208227694034576,"266":0.660363495349884,"267":0.7039796113967896,"268":0.6417509317398071,"269":0.2405078262090683,"270":0.5101051926612854,"271":-0.4593357741832733,"272":0.184642493724823,"273":0.321064829826355,"274":0.7369965314865112,"275":0.5376236438751221,"276":0.34834715723991394,"277":0.21124376356601715,"278":0.1741693764925003,"279":0.15437303483486176,"280":0.15813487768173218,"281":0.09329217672348022,"282":0.0688234195113182,"283":0.28109073638916016,"284":0.39105355739593506,"285":0.4060349762439728,"286":0.40278753638267517,"287":-0.21814937889575958,"288":0.4463518261909485,"289":0.38213613629341125,"290":0.021320194005966187,"291":0.14992712438106537,"292":-0.19812312722206116,"293":0.5684522390365601,"294":1.022510051727295,"295":0.7560002207756042,"296":1.1825120449066162,"297":1.1079736948013306,"298":0.4539779722690582,"299":0.19738246500492096,"300":1.402321457862854,"301":0.8852590918540955,"302":0.6317896246910095,"303":1.2897111177444458,"304":1.1458046436309814,"305":0.19775390625,"306":-0.07544197887182236,"307":-0.12163370102643967,"308":-0.06657928228378296,"309":-0.07434173673391342,"310":0.06074618548154831,"311":0.16026079654693604,"312":0.2689739167690277,"313":-0.1872151643037796,"314":-0.6931886672973633,"315":-0.6510491967201233,"316":0.20979566872119904,"317":-0.3955846428871155,"318":-0.24640445411205292,"319":-0.41958779096603394,"320":-0.825894832611084,"321":0.11208412051200867,"322":0.8194761276245117,"323":0.17739997804164886,"324":-0.09223155677318573,"325":0.13737238943576813,"326":0.5955932140350342,"327":0.0319964699447155,"328":0.6348190903663635,"329":0.20720364153385162,"330":0.966262936592102,"331":0.8693338632583618,"332":0.6287446618080139,"333":0.3588862419128418,"334":0.05723843723535538,"335":0.15773451328277588,"336":0.17194640636444092,"337":0.14380060136318207,"338":0.19171641767024994,"339":0.11245932430028915,"340":-0.22173459827899933,"341":-0.2171122133731842,"342":-0.7977002263069153,"343":-0.7972251772880554,"344":-0.3668586313724518,"345":-0.3634587824344635,"346":-1.0573744773864746,"347":-2.4781062602996826,"348":-1.363717794418335,"349":-0.08203762769699097,"350":-0.5336824655532837,"351":-0.2262338101863861,"352":-0.62382972240448,"353":-0.6585647463798523,"354":0.5128166675567627,"355":-0.07059606164693832,"356":-0.6012542247772217,"357":-0.10484698414802551,"358":0.7338836789131165,"359":0.533300518989563,"360":0.34169405698776245,"361":0.32003822922706604,"362":0.2284548282623291,"363":0.12360867112874985,"364":-0.1928185522556305,"365":0.018808458000421524,"366":0.006382499821484089,"367":-0.06346214562654495,"368":-0.46287208795547485,"369":-0.2358369380235672,"370":-0.7753274440765381,"371":-1.1803232431411743,"372":-0.3511165678501129,"373":-0.7613516449928284,"374":-1.342503547668457,"375":-1.1414693593978882,"376":-0.9601361155509949,"377":-0.02422434836626053,"378":0.11892775446176529,"379":-0.2907369136810303,"380":-1.0571199655532837,"381":-1.2769004106521606,"382":-0.08593789488077164,"383":-1.0432257652282715,"384":-0.6671282052993774,"385":-0.8007755875587463,"386":0.029680471867322922,"387":0.6818228363990784,"388":0.4624069333076477,"389":0.2688385844230652,"390":-0.1363280862569809,"391":-0.1269654780626297,"392":0.10866093635559082,"393":0.11073994636535645,"394":-0.10780800879001617,"395":-0.15503756701946259,"396":-0.43202459812164307,"397":-0.3533945679664612,"398":-0.6800066828727722,"399":-1.3892803192138672,"400":-0.5429336428642273,"401":-0.6196116805076599,"402":-0.7311276793479919,"403":0.42604967951774597,"404":-0.6237662434577942,"405":0.22641032934188843,"406":0.6893215179443359,"407":-0.8566184639930725,"408":-0.6154930591583252,"409":-0.6642897129058838,"410":-0.5009694695472717,"411":-0.2510979175567627,"412":-0.6577664017677307,"413":-0.8921346664428711,"414":-0.16800177097320557,"415":0.6881102919578552,"416":0.4941343665122986,"417":0.16019219160079956,"418":0.07449202239513397,"419":-0.03813275694847107,"420":0.19517338275909424,"421":-0.12582944333553314,"422":0.16947191953659058,"423":-0.011999614536762238,"424":-0.30311137437820435,"425":-0.9637144804000854,"426":-1.0346367359161377,"427":-1.0593088865280151,"428":-1.3260189294815063,"429":-0.2687326967716217,"430":-1.0974177122116089,"431":-0.3056585490703583,"432":0.024491388350725174,"433":0.5125300884246826,"434":1.399090051651001,"435":-0.0013029461260885,"436":-0.19946341216564178,"437":-0.6923186182975769,"438":-0.455738365650177,"439":0.4406201243400574,"440":-0.46346914768218994,"441":-0.916739284992218,"442":-0.07461468130350113,"443":0.7549356818199158,"444":0.8837835192680359,"445":0.17500154674053192,"446":0.10996972769498825,"447":0.08414115756750107,"448":-0.05570051819086075,"449":-0.09435447305440903,"450":-0.05804114416241646,"451":0.10583748668432236,"452":0.015787586569786072,"453":-0.4009294807910919,"454":-0.8427049517631531,"455":-0.7138971090316772,"456":-1.0506820678710938,"457":-0.6934380531311035,"458":-1.0070198774337769,"459":-0.12487813085317612,"460":0.16031751036643982,"461":1.141093373298645,"462":1.4511702060699463,"463":-0.9593897461891174,"464":-0.30212241411209106,"465":-0.27190518379211426,"466":0.0901484414935112,"467":0.3130439221858978,"468":0.3413246273994446,"469":-0.005952507723122835,"470":0.6583870053291321,"471":0.6641976833343506,"472":0.24900300800800323,"473":0.1197032704949379,"474":0.24050374329090118,"475":0.11511479318141937,"476":0.1989082247018814,"477":0.01366685051470995,"478":-0.09712175279855728,"479":0.4066544771194458,"480":0.2317911684513092,"481":-0.22344611585140228,"482":0.3006865382194519,"483":0.0015717525966465473,"484":-0.2111530750989914,"485":0.49585407972335815,"486":0.48951292037963867,"487":0.40046802163124084,"488":0.2843889594078064,"489":1.157989740371704,"490":0.01426816824823618,"491":-1.064989447593689,"492":-0.7534310221672058,"493":-0.05567656457424164,"494":-0.6548683643341064,"495":0.11143186688423157,"496":0.27688807249069214,"497":0.9481001496315002,"498":1.3773243427276611,"499":0.7335114479064941,"500":0.21738141775131226,"501":0.20363637804985046,"502":0.1609000861644745,"503":0.13409686088562012,"504":0.0013715177774429321,"505":0.05382275953888893,"506":-0.050499625504016876,"507":0.29379552602767944,"508":0.49542343616485596,"509":0.25874245166778564,"510":0.8658705949783325,"511":0.7538882493972778,"512":-0.05436573177576065,"513":0.18711701035499573,"514":0.20066608488559723,"515":0.25702571868896484,"516":0.18829329311847687,"517":0.7048474550247192,"518":-0.020349368453025818,"519":-0.010339547879993916,"520":-0.4892863631248474,"521":-0.1125565767288208,"522":0.14089471101760864,"523":-1.022188663482666,"524":-0.13978923857212067,"525":0.6982496380805969,"526":1.27189302444458,"527":0.504534125328064,"528":0.4159587323665619,"529":0.16800758242607117,"530":-0.125514954328537,"531":0.17498400807380676,"532":0.015076897107064724,"533":-0.03854641690850258,"534":-0.08090224862098694,"535":0.178695410490036,"536":0.3193180561065674,"537":0.8148629069328308,"538":1.084631085395813,"539":1.3294259309768677,"540":0.8468632102012634,"541":1.1581404209136963,"542":0.7919089794158936,"543":-0.6046758890151978,"544":0.05418461561203003,"545":0.1428283154964447,"546":0.09663493931293488,"547":-0.20754145085811615,"548":-0.4940812885761261,"549":-0.0031380150467157364,"550":-0.24380220472812653,"551":-0.9580409526824951,"552":0.398237407207489,"553":0.12462053447961807,"554":0.08919690549373627,"555":0.5773842930793762,"556":0.36729729175567627,"557":0.02265091799199581,"558":0.1920982301235199,"559":0.05510011687874794,"560":0.14945538341999054,"561":0.07668871432542801,"562":0.01154994871467352,"563":-0.007399274036288261,"564":0.2610292434692383,"565":0.33705323934555054,"566":1.1678557395935059,"567":1.521289587020874,"568":1.388885736465454,"569":1.6606628894805908,"570":1.2905285358428955,"571":0.4779468774795532,"572":0.5768206119537354,"573":0.40949735045433044,"574":0.16895952820777893,"575":-0.261604905128479,"576":-0.715331494808197,"577":0.2600191831588745,"578":-0.349989116191864,"579":-0.41103893518447876,"580":0.6884785294532776,"581":0.4217894971370697,"582":-0.04102190583944321,"583":0.6609549522399902,"584":0.21274733543395996,"585":-0.10689552128314972,"586":-0.11351510137319565,"587":0.1023336797952652,"588":-0.03727829083800316,"589":-0.08652564138174057,"590":0.015949219465255737,"591":-0.09275233000516891,"592":-0.03110615722835064,"593":0.3874111771583557,"594":0.7331382632255554,"595":1.0747528076171875,"596":1.3965884447097778,"597":1.010765552520752,"598":0.7708550691604614,"599":1.337849736213684,"600":0.7595803737640381,"601":0.551514208316803,"602":0.3636455535888672,"603":0.12417852878570557,"604":0.40598541498184204,"605":0.26555269956588745,"606":-0.10978051275014877,"607":-0.055432528257369995,"608":0.14459101855754852,"609":0.5816593170166016,"610":0.3889363706111908,"611":0.26772627234458923,"612":0.006482971832156181,"613":-0.17953623831272125,"614":0.1347152590751648,"615":-0.12009787559509277,"616":-0.0730137974023819,"617":-0.17856739461421967,"618":-0.12742654979228973,"619":-0.24101100862026215,"620":-0.16928638517856598,"621":0.2518855333328247,"622":1.1770437955856323,"623":0.7239800095558167,"624":0.1518472582101822,"625":0.0755869597196579,"626":0.07348877936601639,"627":1.0502660274505615,"628":1.304101824760437,"629":1.630403757095337,"630":1.2732244729995728,"631":0.6465792059898376,"632":0.5567964911460876,"633":0.42921480536460876,"634":0.47757306694984436,"635":0.3479415476322174,"636":0.49861055612564087,"637":0.008805536665022373,"638":0.014800090342760086,"639":0.10927709192037582,"640":0.13521558046340942,"641":0.171453595161438,"642":0.03162495419383049,"643":-0.14159920811653137,"644":-0.10751659423112869,"645":0.1409822404384613,"646":0.13551601767539978,"647":-0.05132850632071495,"648":0.18381401896476746,"649":0.21773648262023926,"650":0.6752068400382996,"651":0.5671032667160034,"652":-0.5634174346923828,"653":-0.3978629410266876,"654":-0.00032539136009290814,"655":-0.34034132957458496,"656":0.0882260650396347,"657":0.9437017440795898,"658":0.7069900631904602,"659":0.8038367033004761,"660":1.2445918321609497,"661":0.42346635460853577,"662":0.07902958989143372,"663":-0.3314015567302704,"664":-0.5269466638565063,"665":-0.6845535039901733,"666":-0.36638325452804565,"667":-0.09139714390039444,"668":-0.12822920083999634,"669":-0.09898384660482407,"670":-0.1769157499074936,"671":-0.1262025237083435,"672":0.1357341706752777,"673":-0.08588091284036636,"674":-0.1869811713695526,"675":-0.02737637795507908,"676":0.0954229086637497,"677":-0.0314866304397583,"678":0.32075998187065125,"679":-0.15401872992515564,"680":-0.6877337098121643,"681":-0.2602749466896057,"682":-0.4287075102329254,"683":-0.7213582396507263,"684":-0.07606837898492813,"685":0.4798603355884552,"686":0.8298494219779968,"687":0.8353755474090576,"688":0.7999699711799622,"689":0.06863027811050415,"690":-0.36468979716300964,"691":-0.3876252770423889,"692":-0.7949987649917603,"693":-0.33553290367126465,"694":-0.34680086374282837,"695":-0.17372553050518036,"696":-0.15586817264556885,"697":-0.19484850764274597,"698":0.1529029756784439,"699":0.14433041214942932,"700":0.1369861513376236,"701":0.07714208215475082,"702":0.11233585327863693,"703":0.1411311775445938,"704":0.17861981689929962,"705":-0.020808035507798195,"706":-0.18444378674030304,"707":-0.46237197518348694,"708":-0.42448633909225464,"709":0.020642271265387535,"710":-0.4546216130256653,"711":-1.1554490327835083,"712":-0.022189443930983543,"713":0.12747229635715485,"714":0.0034314931835979223,"715":-0.5371306538581848,"716":-0.917232096195221,"717":-0.4930102229118347,"718":-0.13589829206466675,"719":-0.1082589402794838,"720":-0.35434848070144653,"721":-0.08737450838088989,"722":-0.1231299489736557,"723":-0.41128233075141907,"724":-0.2352682203054428,"725":-0.09430010616779327,"726":0.1728462129831314,"727":-0.035239849239587784,"728":-0.10017982870340347,"729":0.010397806763648987,"730":0.17689983546733856,"731":0.039006758481264114,"732":-0.25037965178489685,"733":-0.11128959059715271,"734":-0.30391135811805725,"735":-0.2043658047914505,"736":-0.2855403423309326,"737":-0.43382561206817627,"738":-0.04686740040779114,"739":0.04859408736228943,"740":0.20019462704658508,"741":0.32066524028778076,"742":-0.04215816780924797,"743":-0.21756550669670105,"744":0.44879350066185,"745":0.22111395001411438,"746":-0.29677456617355347,"747":0.08701419830322266,"748":-0.0866682305932045,"749":-0.21910417079925537,"750":0.13918069005012512,"751":0.16616369783878326,"752":0.0016084931557998061,"753":-0.09249919652938843,"754":-0.07837240397930145,"755":0.03382142260670662,"756":0.031145110726356506,"757":0.029850605875253677,"758":0.045699480921030045,"759":0.13067984580993652,"760":0.03833455219864845,"761":0.11520149558782578,"762":-0.021066468209028244,"763":-0.03604124113917351,"764":0.17551378905773163,"765":-0.026111455634236336,"766":0.011865167878568172,"767":0.3345009982585907,"768":0.1559506207704544,"769":-0.14592327177524567,"770":0.12015213817358017,"771":0.10697748512029648,"772":0.05722256749868393,"773":0.06068779528141022,"774":-0.26711055636405945,"775":0.15215180814266205,"776":0.03310710936784744,"777":-0.011063908226788044,"778":-0.10333536565303802,"779":0.022094378247857094,"780":-0.08116400241851807,"781":0.05827872455120087,"782":0.1854829341173172,"783":0.11541030555963516}},"4":{"bias":-1.0555813312530518,"weights":{"0":-0.05833027884364128,"1":-0.04923401027917862,"2":0.11178512871265411,"3":-0.028666554018855095,"4":0.1053367331624031,"5":0.08760461956262589,"6":0.1430710107088089,"7":-0.0018629973055794835,"8":-0.10011951625347137,"9":-0.10447056591510773,"10":0.02421877719461918,"11":0.0294102244079113,"12":0.034210849553346634,"13":-0.13007153570652008,"14":0.149990051984787,"15":-0.16811886429786682,"16":-0.02015315368771553,"17":-0.08751010149717331,"18":-0.173655167222023,"19":0.11412570625543594,"20":0.193930983543396,"21":0.16763776540756226,"22":-0.09276813268661499,"23":0.05103903263807297,"24":-0.05710321664810181,"25":-0.06530606001615524,"26":-0.0636669471859932,"27":0.07685278356075287,"28":0.03963196277618408,"29":-0.17135848104953766,"30":0.059568557888269424,"31":0.1408148556947708,"32":-0.0625452920794487,"33":-0.058166082948446274,"34":-0.11587823927402496,"35":-0.07090036571025848,"36":0.09406020492315292,"37":-0.19890567660331726,"38":-0.08938206732273102,"39":-0.05915294587612152,"40":-0.15602543950080872,"41":0.04981302097439766,"42":0.17123943567276,"43":0.12209834158420563,"44":-0.10660173743963242,"45":0.16483384370803833,"46":0.0572594553232193,"47":-0.09276334941387177,"48":0.12408781796693802,"49":-0.06037525832653046,"50":-0.030618106946349144,"51":-0.14667366445064545,"52":-0.18042005598545074,"53":-0.05896604433655739,"54":-0.022909728810191154,"55":-0.16796377301216125,"56":0.12054680287837982,"57":0.0843987688422203,"58":-0.05006999149918556,"59":0.08745953440666199,"60":0.15287120640277863,"61":-0.10818351805210114,"62":0.02153465896844864,"63":-0.0394325777888298,"64":-0.25958406925201416,"65":-0.36347895860671997,"66":-0.15920569002628326,"67":0.016331225633621216,"68":-0.03488008305430412,"69":-0.19391673803329468,"70":-0.3561150133609772,"71":-0.21269024908542633,"72":-0.08004671335220337,"73":-0.26569345593452454,"74":-0.14783906936645508,"75":-0.22426843643188477,"76":-0.018963517621159554,"77":-0.11688743531703949,"78":-0.027665216475725174,"79":-0.16872665286064148,"80":-0.07563039660453796,"81":-0.15949419140815735,"82":0.0512048713862896,"83":0.11144843697547913,"84":0.1864183247089386,"85":-0.13235077261924744,"86":0.00208908854983747,"87":-0.17029982805252075,"88":-0.08542173355817795,"89":-0.08558624237775803,"90":-0.006559337023645639,"91":-0.13546310365200043,"92":-0.4576588273048401,"93":-0.6635599732398987,"94":-0.5048115849494934,"95":-0.5326299071311951,"96":-0.22112545371055603,"97":-0.17897088825702667,"98":0.2950788736343384,"99":-0.20796503126621246,"100":-0.862750768661499,"101":-0.6175040006637573,"102":-0.7339566349983215,"103":-0.5817321538925171,"104":-0.3394224941730499,"105":0.010079723782837391,"106":-0.017596058547496796,"107":0.14483842253684998,"108":0.10610403120517731,"109":0.11463559418916702,"110":-0.17610888183116913,"111":-0.07183477282524109,"112":-0.07147650420665741,"113":-0.044935066252946854,"114":0.0018908352358266711,"115":-0.07565752416849136,"116":-0.01909303292632103,"117":0.1549687683582306,"118":-0.16688860952854156,"119":-0.41508227586746216,"120":-0.5109199285507202,"121":-0.38439851999282837,"122":0.24557805061340332,"123":0.23577894270420074,"124":0.6302680969238281,"125":0.6077946424484253,"126":0.36252495646476746,"127":0.434779554605484,"128":-0.021558424457907677,"129":-0.24039019644260406,"130":-0.28054672479629517,"131":-0.6594053506851196,"132":-0.9295570850372314,"133":-0.688096821308136,"134":-0.46087127923965454,"135":-0.28210148215293884,"136":-0.02364763803780079,"137":0.09820430725812912,"138":-0.057005804032087326,"139":-0.07181250303983688,"140":0.16883577406406403,"141":-0.03253661096096039,"142":0.005436877254396677,"143":0.03793924301862717,"144":0.07375247776508331,"145":0.021858902648091316,"146":-0.055241893976926804,"147":-0.4421347975730896,"148":0.6008215546607971,"149":0.4526721239089966,"150":1.0706541538238525,"151":1.0330640077590942,"152":0.6779816150665283,"153":0.6889130473136902,"154":0.19975684583187103,"155":0.05473032966256142,"156":0.6915122270584106,"157":0.8922224640846252,"158":0.32096144556999207,"159":-0.6003730893135071,"160":-0.669904887676239,"161":-0.6665346026420593,"162":-0.8626646399497986,"163":-0.4013303816318512,"164":0.10325662046670914,"165":0.22235837578773499,"166":0.1896050125360489,"167":0.10255865007638931,"168":-0.04342568665742874,"169":-0.09611158818006516,"170":-0.1275225728750229,"171":-0.20484015345573425,"172":0.2292383760213852,"173":-0.15701599419116974,"174":-0.04921850189566612,"175":0.588057816028595,"176":1.0505002737045288,"177":1.3160834312438965,"178":0.5256236791610718,"179":0.17786650359630585,"180":-0.10480266064405441,"181":0.2648562788963318,"182":0.09994054585695267,"183":-0.14183762669563293,"184":0.8622342348098755,"185":0.35561975836753845,"186":0.6395769715309143,"187":-0.48397403955459595,"188":0.37870216369628906,"189":-0.2331627905368805,"190":-0.4328064024448395,"191":-0.131738543510437,"192":0.46737799048423767,"193":0.5059533715248108,"194":0.22930793464183807,"195":0.09960077702999115,"196":0.00029259969596751034,"197":-0.04630889743566513,"198":0.02966952696442604,"199":-0.1299891471862793,"200":0.21935029327869415,"201":0.07412097603082657,"202":0.061408814042806625,"203":-0.09159211069345474,"204":0.09612766653299332,"205":-0.029506593942642212,"206":-0.2998051345348358,"207":-1.1711839437484741,"208":0.6921578049659729,"209":0.5577574968338013,"210":0.4430069923400879,"211":0.4694296419620514,"212":0.07457653433084488,"213":0.029408589005470276,"214":0.0860178992152214,"215":-0.7444018721580505,"216":0.6175390481948853,"217":0.5191237330436707,"218":0.33369070291519165,"219":0.5546385049819946,"220":1.0004773139953613,"221":0.7045037746429443,"222":-0.09250819683074951,"223":0.008841214701533318,"224":-0.06232595443725586,"225":-0.18007773160934448,"226":0.08168524503707886,"227":-0.05699324607849121,"228":-0.09839243441820145,"229":-0.07285675406455994,"230":0.028273608535528183,"231":-0.6017408967018127,"232":-0.19935575127601624,"233":-0.17387908697128296,"234":-0.579612135887146,"235":0.3104363679885864,"236":0.3556864857673645,"237":-0.21813121438026428,"238":-0.1719406545162201,"239":0.5863044857978821,"240":0.04861220717430115,"241":0.27066105604171753,"242":0.0009804244618862867,"243":-0.2270699441432953,"244":0.6285898685455322,"245":0.21549630165100098,"246":0.14871938526630402,"247":0.7120888233184814,"248":0.8966926336288452,"249":0.7409607768058777,"250":0.10562272369861603,"251":-0.15559713542461395,"252":0.09719806909561157,"253":0.09725655615329742,"254":-0.1522432267665863,"255":-0.1049332320690155,"256":-0.5611550807952881,"257":-0.4097035825252533,"258":-0.6299297213554382,"259":-0.42563480138778687,"260":0.044700197875499725,"261":-0.7862403392791748,"262":-0.44684070348739624,"263":0.3216780424118042,"264":0.05137499421834946,"265":-0.4721849262714386,"266":-0.2798493802547455,"267":-0.23083694279193878,"268":0.21071425080299377,"269":0.5981711149215698,"270":0.8345126509666443,"271":-0.26827549934387207,"272":0.7500233054161072,"273":0.5087202787399292,"274":-0.10055869817733765,"275":-0.02287629246711731,"276":0.9026089310646057,"277":0.4890934228897095,"278":0.09134504199028015,"279":0.21272701025009155,"280":0.0932823196053505,"281":0.12826503813266754,"282":0.06291548162698746,"283":0.0669538676738739,"284":-0.2649940550327301,"285":-0.5459787249565125,"286":-0.6696245670318604,"287":0.014689493924379349,"288":0.06463097780942917,"289":-0.7061154842376709,"290":-0.5963625907897949,"291":-0.17906613647937775,"292":0.6301000714302063,"293":0.9231290817260742,"294":0.04944278672337532,"295":0.3609081506729126,"296":0.6401901245117188,"297":0.19976669549942017,"298":0.4486026167869568,"299":0.31808462738990784,"300":0.4028458595275879,"301":0.7602020502090454,"302":0.5798770785331726,"303":0.7862281799316406,"304":0.8413936495780945,"305":0.44561925530433655,"306":0.14584168791770935,"307":0.21040654182434082,"308":-0.19895651936531067,"309":-0.1866040676832199,"310":-0.05573965981602669,"311":0.20160406827926636,"312":-0.2410746067762375,"313":-0.5856497883796692,"314":-0.7427261471748352,"315":0.25161847472190857,"316":-0.09574795514345169,"317":-0.38950055837631226,"318":-0.012961420230567455,"319":0.15970569849014282,"320":0.2684769034385681,"321":0.984057605266571,"322":0.846031129360199,"323":0.8561795353889465,"324":0.742560625076294,"325":-0.11913695186376572,"326":-0.6442699432373047,"327":-0.3785758316516876,"328":-0.5141940712928772,"329":-0.07348696887493134,"330":-0.3716711103916168,"331":0.4673919975757599,"332":0.1225486546754837,"333":0.21443696320056915,"334":0.2638581693172455,"335":-0.02287604846060276,"336":0.10490646213293076,"337":0.05978190153837204,"338":0.05829748138785362,"339":0.3297167718410492,"340":-0.16942036151885986,"341":-0.3034156560897827,"342":-0.1669863611459732,"343":0.13386426866054535,"344":-0.21356910467147827,"345":-0.09356190264225006,"346":-0.006413563154637814,"347":0.2077331691980362,"348":0.905555784702301,"349":1.0837690830230713,"350":0.4155384600162506,"351":-0.4580635130405426,"352":-0.1995854675769806,"353":-0.5776022672653198,"354":-0.9348046183586121,"355":-0.8271664381027222,"356":-0.16334111988544464,"357":-0.4575432240962982,"358":-0.36523646116256714,"359":0.060121290385723114,"360":-0.23524148762226105,"361":-0.1489141881465912,"362":0.05315257981419563,"363":0.07089833170175552,"364":0.1069490984082222,"365":-0.0790943056344986,"366":0.11621643602848053,"367":-0.2614007592201233,"368":-0.046708062291145325,"369":0.19760388135910034,"370":0.603671669960022,"371":0.34796586632728577,"372":0.11844784021377563,"373":-0.23388539254665375,"374":0.057968128472566605,"375":0.9057632684707642,"376":1.6287567615509033,"377":0.8991535305976868,"378":0.19948434829711914,"379":-0.11893853545188904,"380":-0.6297864317893982,"381":-0.6193852424621582,"382":-0.39828991889953613,"383":-0.8623714447021484,"384":-0.14286670088768005,"385":-0.8787299990653992,"386":-0.8933873176574707,"387":-0.4708540737628937,"388":-0.15171533823013306,"389":-0.09763289988040924,"390":-0.14223220944404602,"391":0.032427828758955,"392":-0.12998835742473602,"393":-0.06871816515922546,"394":-0.07578902691602707,"395":-0.07863076776266098,"396":-0.17287826538085938,"397":0.1516227424144745,"398":0.2418147623538971,"399":-0.03300868347287178,"400":0.4412449896335602,"401":0.8032414317131042,"402":1.1424494981765747,"403":0.8456951379776001,"404":0.636560320854187,"405":-0.010376428253948689,"406":-1.011600375175476,"407":-1.1502947807312012,"408":-0.8575271368026733,"409":-0.6784144639968872,"410":-0.1921122968196869,"411":-0.4069584906101227,"412":-0.3122815787792206,"413":-0.282941609621048,"414":-0.20454919338226318,"415":-0.4333643913269043,"416":0.15775200724601746,"417":0.0915493369102478,"418":0.00022122194059193134,"419":0.09228376299142838,"420":0.045751459896564484,"421":-0.16402415931224823,"422":0.1594645231962204,"423":-0.25424134731292725,"424":-0.030886681750416756,"425":0.7051526308059692,"426":-0.10196039080619812,"427":0.14759351313114166,"428":0.2561395764350891,"429":1.4292521476745605,"430":1.3140677213668823,"431":0.08872956782579422,"432":-0.38297373056411743,"433":-0.9714210629463196,"434":-1.2735544443130493,"435":-1.3010767698287964,"436":-1.0041624307632446,"437":-0.8389119505882263,"438":0.13054990768432617,"439":-0.3020816147327423,"440":0.34224092960357666,"441":0.17547857761383057,"442":-0.2686144709587097,