{"sizes":[784,16,16,10],"layers":[{"0":{},"1":{},"2":{},"3":{},"4":{},"5":{},"6":{},"7":{},"8":{},"9":{},"10":{},"11":{},"12":{},"13":{},"14":{},"15":{},"16":{},"17":{},"18":{},"19":{},"20":{},"21":{},"22":{},"23":{},"24":{},"25":{},"26":{},"27":{},"28":{},"29":{},"30":{},"31":{},"32":{},"33":{},"34":{},"35":{},"36":{},"37":{},"38":{},"39":{},"40":{},"41":{},"42":{},"43":{},"44":{},"45":{},"46":{},"47":{},"48":{},"49":{},"50":{},"51":{},"52":{},"53":{},"54":{},"55":{},"56":{},"57":{},"58":{},"59":{},"60":{},"61":{},"62":{},"63":{},"64":{},"65":{},"66":{},"67":{},"68":{},"69":{},"70":{},"71":{},"72":{},"73":{},"74":{},"75":{},"76":{},"77":{},"78":{},"79":{},"80":{},"81":{},"82":{},"83":{},"84":{},"85":{},"86":{},"87":{},"88":{},"89":{},"90":{},"91":{},"92":{},"93":{},"94":{},"95":{},"96":{},"97":{},"98":{},"99":{},"100":{},"101":{},"102":{},"103":{},"104":{},"105":{},"106":{},"107":{},"108":{},"109":{},"110":{},"111":{},"112":{},"113":{},"114":{},"115":{},"116":{},"117":{},"118":{},"119":{},"120":{},"121":{},"122":{},"123":{},"124":{},"125":{},"126":{},"127":{},"128":{},"129":{},"130":{},"131":{},"132":{},"133":{},"134":{},"135":{},"136":{},"137":{},"138":{},"139":{},"140":{},"141":{},"142":{},"143":{},"144":{},"145":{},"146":{},"147":{},"148":{},"149":{},"150":{},"151":{},"152":{},"153":{},"154":{},"155":{},"156":{},"157":{},"158":{},"159":{},"160":{},"161":{},"162":{},"163":{},"164":{},"165":{},"166":{},"167":{},"168":{},"169":{},"170":{},"171":{},"172":{},"173":{},"174":{},"175":{},"176":{},"177":{},"178":{},"179":{},"180":{},"181":{},"182":{},"183":{},"184":{},"185":{},"186":{},"187":{},"188":{},"189":{},"190":{},"191":{},"192":{},"193":{},"194":{},"195":{},"196":{},"197":{},"198":{},"199":{},"200":{},"201":{},"202":{},"203":{},"204":{},"205":{},"206":{},"207":{},"208":{},"209":{},"210":{},"211":{},"212":{},"213":{},"214":{},"215":{},"216":{},"217":{},"218":{},"219":{},"220":{},"221":{},"222":{},"223":{},"224":{},"225":{},"226":{},"227":{},"228":{},"229":{},"230":{},"231":{},"232":{},"233":{},"234":{},"235":{},"236":{},"237":{},"238":{},"239":{},"240":{},"241":{},"242":{},"243":{},"244":{},"245":{},"246":{},"247":{},"248":{},"249":{},"250":{},"251":{},"252":{},"253":{},"254":{},"255":{},"256":{},"257":{},"258":{},"259":{},"260":{},"261":{},"262":{},"263":{},"264":{},"265":{},"266":{},"267":{},"268":{},"269":{},"270":{},"271":{},"272":{},"273":{},"274":{},"275":{},"276":{},"277":{},"278":{},"279":{},"280":{},"281":{},"282":{},"283":{},"284":{},"285":{},"286":{},"287":{},"288":{},"289":{},"290":{},"291":{},"292":{},"293":{},"294":{},"295":{},"296":{},"297":{},"298":{},"299":{},"300":{},"301":{},"302":{},"303":{},"304":{},"305":{},"306":{},"307":{},"308":{},"309":{},"310":{},"311":{},"312":{},"313":{},"314":{},"315":{},"316":{},"317":{},"318":{},"319":{},"320":{},"321":{},"322":{},"323":{},"324":{},"325":{},"326":{},"327":{},"328":{},"329":{},"330":{},"331":{},"332":{},"333":{},"334":{},"335":{},"336":{},"337":{},"338":{},"339":{},"340":{},"341":{},"342":{},"343":{},"344":{},"345":{},"346":{},"347":{},"348":{},"349":{},"350":{},"351":{},"352":{},"353":{},"354":{},"355":{},"356":{},"357":{},"358":{},"359":{},"360":{},"361":{},"362":{},"363":{},"364":{},"365":{},"366":{},"367":{},"368":{},"369":{},"370":{},"371":{},"372":{},"373":{},"374":{},"375":{},"376":{},"377":{},"378":{},"379":{},"380":{},"381":{},"382":{},"383":{},"384":{},"385":{},"386":{},"387":{},"388":{},"389":{},"390":{},"391":{},"392":{},"393":{},"394":{},"395":{},"396":{},"397":{},"398":{},"399":{},"400":{},"401":{},"402":{},"403":{},"404":{},"405":{},"406":{},"407":{},"408":{},"409":{},"410":{},"411":{},"412":{},"413":{},"414":{},"415":{},"416":{},"417":{},"418":{},"419":{},"420":{},"421":{},"422":{},"423":{},"424":{},"425":{},"426":{},"427":{},"428":{},"429":{},"430":{},"431":{},"432":{},"433":{},"434":{},"435":{},"436":{},"437":{},"438":{},"439":{},"440":{},"441":{},"442":{},"443":{},"444":{},"445":{},"446":{},"447":{},"448":{},"449":{},"450":{},"451":{},"452":{},"453":{},"454":{},"455":{},"456":{},"457":{},"458":{},"459":{},"460":{},"461":{},"462":{},"463":{},"464":{},"465":{},"466":{},"467":{},"468":{},"469":{},"470":{},"471":{},"472":{},"473":{},"474":{},"475":{},"476":{},"477":{},"478":{},"479":{},"480":{},"481":{},"482":{},"483":{},"484":{},"485":{},"486":{},"487":{},"488":{},"489":{},"490":{},"491":{},"492":{},"493":{},"494":{},"495":{},"496":{},"497":{},"498":{},"499":{},"500":{},"501":{},"502":{},"503":{},"504":{},"505":{},"506":{},"507":{},"508":{},"509":{},"510":{},"511":{},"512":{},"513":{},"514":{},"515":{},"516":{},"517":{},"518":{},"519":{},"520":{},"521":{},"522":{},"523":{},"524":{},"525":{},"526":{},"527":{},"528":{},"529":{},"530":{},"531":{},"532":{},"533":{},"534":{},"535":{},"536":{},"537":{},"538":{},"539":{},"540":{},"541":{},"542":{},"543":{},"544":{},"545":{},"546":{},"547":{},"548":{},"549":{},"550":{},"551":{},"552":{},"553":{},"554":{},"555":{},"556":{},"557":{},"558":{},"559":{},"560":{},"561":{},"562":{},"563":{},"564":{},"565":{},"566":{},"567":{},"568":{},"569":{},"570":{},"571":{},"572":{},"573":{},"574":{},"575":{},"576":{},"577":{},"578":{},"579":{},"580":{},"581":{},"582":{},"583":{},"584":{},"585":{},"586":{},"587":{},"588":{},"589":{},"590":{},"591":{},"592":{},"593":{},"594":{},"595":{},"596":{},"597":{},"598":{},"599":{},"600":{},"601":{},"602":{},"603":{},"604":{},"605":{},"606":{},"607":{},"608":{},"609":{},"610":{},"611":{},"612":{},"613":{},"614":{},"615":{},"616":{},"617":{},"618":{},"619":{},"620":{},"621":{},"622":{},"623":{},"624":{},"625":{},"626":{},"627":{},"628":{},"629":{},"630":{},"631":{},"632":{},"633":{},"634":{},"635":{},"636":{},"637":{},"638":{},"639":{},"640":{},"641":{},"642":{},"643":{},"644":{},"645":{},"646":{},"647":{},"648":{},"649":{},"650":{},"651":{},"652":{},"653":{},"654":{},"655":{},"656":{},"657":{},"658":{},"659":{},"660":{},"661":{},"662":{},"663":{},"664":{},"665":{},"666":{},"667":{},"668":{},"669":{},"670":{},"671":{},"672":{},"673":{},"674":{},"675":{},"676":{},"677":{},"678":{},"679":{},"680":{},"681":{},"682":{},"683":{},"684":{},"685":{},"686":{},"687":{},"688":{},"689":{},"690":{},"691":{},"692":{},"693":{},"694":{},"695":{},"696":{},"697":{},"698":{},"699":{},"700":{},"701":{},"702":{},"703":{},"704":{},"705":{},"706":{},"707":{},"708":{},"709":{},"710":{},"711":{},"712":{},"713":{},"714":{},"715":{},"716":{},"717":{},"718":{},"719":{},"720":{},"721":{},"722":{},"723":{},"724":{},"725":{},"726":{},"727":{},"728":{},"729":{},"730":{},"731":{},"732":{},"733":{},"734":{},"735":{},"736":{},"737":{},"738":{},"739":{},"740":{},"741":{},"742":{},"743":{},"744":{},"745":{},"746":{},"747":{},"748":{},"749":{},"750":{},"751":{},"752":{},"753":{},"754":{},"755":{},"756":{},"757":{},"758":{},"759":{},"760":{},"761":{},"762":{},"763":{},"764":{},"765":{},"766":{},"767":{},"768":{},"769":{},"770":{},"771":{},"772":{},"773":{},"774":{},"775":{},"776":{},"777":{},"778":{},"779":{},"780":{},"781":{},"782":{},"783":{}},{"0":{"bias":8.139737129211426,"weights":{"0":-0.13443835079669952,"1":0.19692009687423706,"2":0.034860529005527496,"3":0.04987926408648491,"4":-0.03609979897737503,"5":0.003227971028536558,"6":-0.039632197469472885,"7":0.1802607625722885,"8":0.12956573069095612,"9":-0.18257273733615875,"10":-0.010656994767487049,"11":-0.027619261294603348,"12":0.07514368742704391,"13":0.12608258426189423,"14":-0.09531286358833313,"15":-0.18641039729118347,"16":-0.029907267540693283,"17":0.054989613592624664,"18":0.047836508601903915,"19":0.14758771657943726,"20":-0.1686401665210724,"21":0.19356709718704224,"22":0.020904703065752983,"23":0.04457373172044754,"24":0.19377489387989044,"25":-0.06516188383102417,"26":-0.02951112762093544,"27":0.09842922538518906,"28":-0.03100382164120674,"29":-0.13516493141651154,"30":-0.11180851608514786,"31":0.17752985656261444,"32":0.07943961769342422,"33":-0.004442584700882435,"34":0.1297592967748642,"35":0.11967973411083221,"36":-0.17271411418914795,"37":0.0871853232383728,"38":0.17637960612773895,"39":-0.0051786103285849094,"40":0.16510659456253052,"41":0.03668172284960747,"42":-0.039903879165649414,"43":-0.016431644558906555,"44":-0.028761539608240128,"45":-0.16511525213718414,"46":0.18231964111328125,"47":0.035126764327287674,"48":0.07868849486112595,"49":-0.17916542291641235,"50":0.16921909153461456,"51":-0.13489356637001038,"52":-0.01246787328273058,"53":0.07015810161828995,"54":0.18023663759231567,"55":-0.18132537603378296,"56":0.18517032265663147,"57":0.05705181881785393,"58":0.14590966701507568,"59":0.15099744498729706,"60":0.17442432045936584,"61":-0.18415099382400513,"62":-0.0013928861590102315,"63":-0.034132156521081924,"64":0.03688497841358185,"65":0.15405377745628357,"66":0.18196704983711243,"67":-0.13438673317432404,"68":-0.07767356932163239,"69":0.44282853603363037,"70":0.025683028623461723,"71":0.1806211769580841,"72":1.0738576650619507,"73":0.062474675476551056,"74":0.23915694653987885,"75":0.07729429006576538,"76":0.026144525036215782,"77":0.13379524648189545,"78":-0.013268448412418365,"79":0.19244317710399628,"80":-0.09718292206525803,"81":0.12231101840734482,"82":-0.11251379549503326,"83":-0.06461483240127563,"84":-0.12413881719112396,"85":-0.12022121995687485,"86":-0.18000926077365875,"87":-0.006355775520205498,"88":0.00020224598119966686,"89":-0.1314161866903305,"90":-0.009103700518608093,"91":-0.1123504787683487,"92":-0.2757043242454529,"93":-0.6774377226829529,"94":-0.45942211151123047,"95":-0.9039835333824158,"96":-1.0688120126724243,"97":2.021864652633667,"98":2.4515974521636963,"99":2.255678176879883,"100":0.8041646480560303,"101":1.1563645601272583,"102":3.822890520095825,"103":4.383039951324463,"104":2.4262733459472656,"105":0.9994251132011414,"106":0.4251624345779419,"107":-0.1269260197877884,"108":-0.008677185513079166,"109":0.010288611054420471,"110":-0.09780121594667435,"111":0.030061887577176094,"112":0.0999705046415329,"113":-0.03568914905190468,"114":0.012485610321164131,"115":-0.13767412304878235,"116":-0.18162091076374054,"117":-0.08820705115795135,"118":-0.08147677034139633,"119":0.04778037220239639,"120":0.10032199323177338,"121":-0.8135966658592224,"122":-0.7222954034805298,"123":-1.0198650360107422,"124":-0.17280316352844238,"125":1.3149452209472656,"126":-0.0782514289021492,"127":-0.09167143702507019,"128":0.8365111351013184,"129":1.6049140691757202,"130":5.793905735015869,"131":7.33419132232666,"132":6.703818321228027,"133":3.912574052810669,"134":2.4001145362854004,"135":0.9327667355537415,"136":-0.05359025299549103,"137":-0.28819990158081055,"138":-0.176910862326622,"139":-0.1975133866071701,"140":0.08964980393648148,"141":-0.026380928233265877,"142":-0.17979419231414795,"143":-0.09078480303287506,"144":-0.3707522451877594,"145":-0.1247730478644371,"146":-0.0722430944442749,"147":0.3115665316581726,"148":0.662418782711029,"149":0.4044719636440277,"150":-0.13418251276016235,"151":-2.7627553939819336,"152":-2.8364405632019043,"153":-6.7288994789123535,"154":1.4776923656463623,"155":-0.05870318040251732,"156":2.7462384700775146,"157":0.550819993019104,"158":0.6766566634178162,"159":-2.139848232269287,"160":-1.7034376859664917,"161":1.1388188600540161,"162":1.0758898258209229,"163":0.6730949878692627,"164":0.3214500844478607,"165":0.2345946878194809,"166":-0.003501624334603548,"167":0.1830051988363266,"168":0.06648382544517517,"169":-0.08895844966173172,"170":-0.11009734123945236,"171":-0.31624218821525574,"172":-0.13505473732948303,"173":0.9726303815841675,"174":-0.7747488617897034,"175":-2.042576551437378,"176":-2.091390371322632,"177":0.9591779112815857,"178":-0.4284156262874603,"179":-4.7205634117126465,"180":-2.850435495376587,"181":-2.9480552673339844,"182":-6.682525157928467,"183":-3.34250807762146,"184":-3.2883615493774414,"185":-6.603343963623047,"186":-8.172951698303223,"187":-3.984278678894043,"188":1.3199230432510376,"189":-0.02622547745704651,"190":2.667951822280884,"191":3.1822195053100586,"192":2.055356740951538,"193":0.1558060348033905,"194":-0.21005702018737793,"195":-0.08910498768091202,"196":0.09559573978185654,"197":-0.09779757261276245,"198":-0.023433180525898933,"199":-0.09500966221094131,"200":0.364479124546051,"201":1.7765740156173706,"202":-0.8545852899551392,"203":-1.7536247968673706,"204":1.0337363481521606,"205":-4.410925388336182,"206":-3.1794769763946533,"207":-3.5064988136291504,"208":-8.835015296936035,"209":-3.029249429702759,"210":-4.891026020050049,"211":-3.4130868911743164,"212":-9.480816841125488,"213":0.25265514850616455,"214":-4.893265247344971,"215":-1.00632905960083,"216":-3.5246798992156982,"217":-5.360912322998047,"218":-1.3600783348083496,"219":3.0855038166046143,"220":2.5725045204162598,"221":0.21299892663955688,"222":0.09783004224300385,"223":-0.06761611998081207,"224":-0.12088395655155182,"225":0.27383238077163696,"226":0.4011535942554474,"227":0.4925173223018646,"228":0.8576307892799377,"229":1.8099316358566284,"230":-0.31237637996673584,"231":-0.6301810145378113,"232":-2.54613995552063,"233":-0.3687543272972107,"234":0.21390728652477264,"235":-4.139214038848877,"236":-6.625875949859619,"237":-1.1789774894714355,"238":-9.7512788772583,"239":-3.9796879291534424,"240":-8.054091453552246,"241":-2.2990829944610596,"242":-5.080536842346191,"243":-3.9541280269622803,"244":-0.7564623355865479,"245":-1.783819317817688,"246":-0.8644769787788391,"247":1.0690126419067383,"248":1.5461608171463013,"249":0.818198561668396,"250":-0.028996186330914497,"251":-0.155596524477005,"252":-0.06925641000270844,"253":0.02544817514717579,"254":0.2722366750240326,"255":0.8611317873001099,"256":0.381563663482666,"257":1.5675992965698242,"258":-0.003039632923901081,"259":-3.126328945159912,"260":-0.483519971370697,"261":-3.167581796646118,"262":-2.5625929832458496,"263":-4.429712772369385,"264":-1.7226828336715698,"265":-5.320876121520996,"266":-7.225344657897949,"267":-8.273322105407715,"268":-4.761841773986816,"269":-1.835359811782837,"270":-2.7189319133758545,"271":-1.9158821105957031,"272":-0.48689189553260803,"273":4.528425693511963,"274":-0.726812481880188,"275":-0.5316519141197205,"276":-1.4140228033065796,"277":-1.1300475597381592,"278":-0.26404938101768494,"279":0.05347977578639984,"280":0.09951206296682358,"281":0.3075650930404663,"282":-0.633850634098053,"283":0.187460795044899,"284":-0.034996479749679565,"285":-0.3486592173576355,"286":-1.4289289712905884,"287":-1.0714023113250732,"288":-1.3233295679092407,"289":0.12664075195789337,"290":-2.348033905029297,"291":-4.278064250946045,"292":1.7102434635162354,"293":-3.078669548034668,"294":-7.130270957946777,"295":0.9670547246932983,"296":-1.397042989730835,"297":0.07644288241863251,"298":1.8002943992614746,"299":-1.4949836730957031,"300":-1.4859652519226074,"301":-1.7396270036697388,"302":0.5036206841468811,"303":-2.5834856033325195,"304":-2.5230283737182617,"305":-0.45677173137664795,"306":-0.034630510956048965,"307":-0.13858860731124878,"308":0.08745676279067993,"309":0.10373041778802872,"310":0.6720671653747559,"311":2.1683948040008545,"312":1.4660989046096802,"313":-2.172980785369873,"314":-2.6398603916168213,"315":3.2902560234069824,"316":-2.263892889022827,"317":4.143479824066162,"318":2.6205737590789795,"319":-0.128508061170578,"320":5.12375020980835,"321":-3.434481620788574,"322":1.5166016817092896,"323":4.453123092651367,"324":2.5724141597747803,"325":-1.627601146697998,"326":-2.2008535861968994,"327":-1.1469507217407227,"328":-1.9498027563095093,"329":-2.0670974254608154,"330":-2.255972385406494,"331":-2.3752222061157227,"332":-3.3673949241638184,"333":-1.373518943786621,"334":-1.1033576726913452,"335":0.023106181994080544,"336":-0.0832316055893898,"337":0.008775225840508938,"338":0.6396312713623047,"339":1.000637173652649,"340":-0.7626741528511047,"341":-3.423553705215454,"342":-2.4412331581115723,"343":0.27241820096969604,"344":-0.9603030681610107,"345":1.3042575120925903,"346":5.030277729034424,"347":1.4674198627471924,"348":7.874911308288574,"349":4.680394649505615,"350":-0.13040827214717865,"351":1.903403639793396,"352":1.0731078386306763,"353":-0.7597663998603821,"354":-2.63447642326355,"355":-5.279362201690674,"356":-2.923414707183838,"357":-0.7839291095733643,"358":-1.128214716911316,"359":0.41915708780288696,"360":0.311044305562973,"361":-0.866085410118103,"362":-1.2609219551086426,"363":0.11535854637622833,"364":0.09491068124771118,"365":0.16699595749378204,"366":-0.012734238058328629,"367":-0.49994224309921265,"368":-1.583074688911438,"369":-1.3724002838134766,"370":0.9636220932006836,"371":1.8048921823501587,"372":-1.0697659254074097,"373":0.5027289986610413,"374":4.025206565856934,"375":3.0546634197235107,"376":7.525669574737549,"377":2.9392120838165283,"378":-5.792972087860107,"379":3.268048048019409,"380":0.29426705837249756,"381":0.9073100686073303,"382":0.4507456123828888,"383":-0.49612465500831604,"384":-1.214188814163208,"385":-2.6819419860839844,"386":1.739946961402893,"387":4.621777534484863,"388":1.6606348752975464,"389":0.5614949464797974,"390":-0.5426749587059021,"391":0.17303912341594696,"392":0.007701237685978413,"393":0.10053161531686783,"394":0.13613510131835938,"395":-0.835785984992981,"396":-1.629690170288086,"397":1.4505248069763184,"398":4.271119594573975,"399":4.43226957321167,"400":2.3746423721313477,"401":6.000797271728516,"402":1.9521621465682983,"403":2.714256525039673,"404":5.505353927612305,"405":-0.9628950357437134,"406":-1.0318349599838257,"407":2.330528497695923,"408":0.3127136826515198,"409":2.6800575256347656,"410":0.9915675520896912,"411":3.8600149154663086,"412":2.3561606407165527,"413":-3.485238552093506,"414":3.025594711303711,"415":3.133082151412964,"416":1.4047834873199463,"417":0.15314918756484985,"418":-0.15169523656368256,"419":0.10724561661481857,"420":-0.16643987596035004,"421":-0.13398291170597076,"422":-0.1387670785188675,"423":-0.5777333974838257,"424":-0.8349881768226624,"425":2.387629508972168,"426":4.364076614379883,"427":2.828251838684082,"428":1.6245585680007935,"429":3.4960074424743652,"430":1.5787932872772217,"431":1.198643445968628,"432":4.36771297454834,"433":2.7320539951324463,"434":1.8708970546722412,"435":-1.0422676801681519,"436":-0.16644640266895294,"437":1.7551929950714111,"438":2.113997220993042,"439":5.3831377029418945,"440":-1.476072072982788,"441":2.0689280033111572,"442":5.140500545501709,"443":1.6219813823699951,"444":0.8576023578643799,"445":-0.20630981028079987,"446":0.3692629635334015,"447":-0.024908974766731262,"448":-0.19718065857887268,"449":-0.15173693001270294,"450":-0.1471979171037674,"451":-0.12452640384435654,"452":0.7720972895622253,"453":4.196144104003906,"454":2.624018669128418,"455":1.7571626901626587,"456":3.3458871841430664,"457":1.2580695152282715,"458":0.22071203589439392,"459":-0.3270215392112732,"460":1.5794169902801514,"461":3.4074361324310303,"462":6.020447254180908,"463":6.710756778717041,"464":4.416446685791016,"465":2.9427430629730225,"466":5.296383380889893,"467":5.4185791015625,"468":7.0917158126831055,"469":8.50623607635498,"470":2.9719526767730713,"471":2.980177164077759,"472":1.6663988828659058,"473":0.5601816177368164,"474":0.23243369162082672,"475":-0.042096756398677826,"476":-0.14711715281009674,"477":0.05560529977083206,"478":0.3155340850353241,"479":1.8664368391036987,"480":3.0064773559570312,"481":2.675790309906006,"482":4.603586196899414,"483":-0.014813592657446861,"484":3.1900742053985596,"485":1.6051539182662964,"486":-1.1812700033187866,"487":-1.1570122241973877,"488":-1.400876760482788,"489":1.5898873805999756,"490":4.634472370147705,"491":4.738612651824951,"492":-0.39904484152793884,"493":0.5714740753173828,"494":1.2883559465408325,"495":0.5219051241874695,"496":4.732813358306885,"497":3.197561740875244,"498":1.6469452381134033,"499":1.5840625762939453,"500":0.3078813850879669,"501":-0.37551799416542053,"502":0.04491780698299408,"503":-0.17974098026752472,"504":0.003545591374859214,"505":0.20087897777557373,"506":0.25718382000923157,"507":2.6235787868499756,"508":3.8407437801361084,"509":1.6218774318695068,"510":1.7871482372283936,"511":-2.6917409896850586,"512":2.393028974533081,"513":-0.3965087831020355,"514":-1.5520408153533936,"515":-0.7832130193710327,"516":5.02659797668457,"517":-1.220954418182373,"518":0.6184287071228027,"519":2.502685546875,"520":4.003777027130127,"521":1.5007902383804321,"522":-1.951202630996704,"523":-2.200273275375366,"524":1.4677635431289673,"525":-0.01014651358127594,"526":-1.0570036172866821,"527":-0.7819486856460571,"528":-0.5306838750839233,"529":-1.5570571422576904,"530":-0.18460611999034882,"531":0.0006233633612282574,"532":0.08455336093902588,"533":-0.0764271542429924,"534":-0.0607345774769783,"535":1.74306058883667,"536":2.6313672065734863,"537":-0.516900897026062,"538":0.6218578815460205,"539":-1.137661337852478,"540":-1.2639288902282715,"541":1.8387466669082642,"542":3.519998073577881,"543":3.186145305633545,"544":1.2736775875091553,"545":1.023052453994751,"546":1.1998604536056519,"547":1.564428687095642,"548":3.2614123821258545,"549":-0.12331677228212357,"550":-1.518903136253357,"551":-4.257251262664795,"552":-0.2553013563156128,"553":-1.7009309530258179,"554":-2.8384687900543213,"555":0.22010955214500427,"556":-0.9012449979782104,"557":-1.342482089996338,"558":0.16157028079032898,"559":-0.03821331262588501,"560":0.19502274692058563,"561":0.15088973939418793,"562":0.1622481495141983,"563":0.1920146942138672,"564":-1.411765694618225,"565":-2.290799856185913,"566":0.7438974380493164,"567":-1.3898085355758667,"568":-2.1981565952301025,"569":-0.29555368423461914,"570":2.1779699325561523,"571":4.682822227478027,"572":1.5350531339645386,"573":-2.0700106620788574,"574":0.5157243609428406,"575":-1.7142257690429688,"576":1.2472484111785889,"577":0.08258575946092606,"578":0.48172271251678467,"579":-4.961002349853516,"580":-0.9357568621635437,"581":-2.1508026123046875,"582":-3.721264600753784,"583":0.2868199050426483,"584":0.206054225564003,"585":-0.2475484162569046,"586":0.1516537070274353,"587":0.010961650870740414,"588":-0.1792941391468048,"589":0.18876945972442627,"590":-0.015471609309315681,"591":-0.12136159092187881,"592":-2.3401377201080322,"593":-3.124297857284546,"594":0.4464685022830963,"595":-1.1893141269683838,"596":-2.931511878967285,"597":-3.3923442363739014,"598":-0.673498272895813,"599":2.7331032752990723,"600":-0.7449337244033813,"601":-0.9785326719284058,"602":0.27666741609573364,"603":-2.4681236743927,"604":-1.9815568923950195,"605":0.7209678888320923,"606":-0.14828617870807648,"607":-3.4272093772888184,"608":-2.557523012161255,"609":-3.8760669231414795,"610":-4.826584815979004,"611":-0.17605319619178772,"612":-0.6116434931755066,"613":0.2852648198604584,"614":0.4089750349521637,"615":-0.1003047302365303,"616":-0.1254412978887558,"617":-0.10841779410839081,"618":0.06841092556715012,"619":-0.22953864932060242,"620":-1.3552788496017456,"621":-0.9067673683166504,"622":-2.7496047019958496,"623":-3.976944923400879,"624":-4.2753987312316895,"625":-4.090967655181885,"626":1.4819890260696411,"627":-0.9445674419403076,"628":-0.5295003652572632,"629":0.5808623433113098,"630":-4.984772205352783,"631":1.560760259628296,"632":0.12192195653915405,"633":-0.45623302459716797,"634":2.454291343688965,"635":2.130559206008911,"636":0.37050044536590576,"637":-3.3958182334899902,"638":-4.8184895515441895,"639":-2.311507225036621,"640":-0.5905390977859497,"641":0.3803356885910034,"642":0.3945913016796112,"643":0.04996953904628754,"644":-0.14704938232898712,"645":0.10585753619670868,"646":-0.01338108815252781,"647":-0.07396949082612991,"648":-0.28532594442367554,"649":-0.7520831227302551,"650":-1.7214388847351074,"651":-1.2215842008590698,"652":-3.5982022285461426,"653":-3.2453513145446777,"654":-3.60538649559021,"655":0.7648653388023376,"656":-2.4147329330444336,"657":-4.463343620300293,"658":-2.402494192123413,"659":-2.555821657180786,"660":-0.26901084184646606,"661":-2.6606712341308594,"662":0.5307679176330566,"663":0.39995643496513367,"664":0.8670182228088379,"665":-1.9212830066680908,"666":-4.05246114730835,"667":-2.670640230178833,"668":-0.8004426956176758,"669":0.5984363555908203,"670":0.49400821328163147,"671":-0.027193080633878708,"672":0.010412793606519699,"673":0.09077111631631851,"674":0.11763746291399002,"675":0.08148258179426193,"676":-1.1066244840621948,"677":-1.097440481185913,"678":-1.0350162982940674,"679":-0.03912454843521118,"680":-1.777489423751831,"681":-2.394462823867798,"682":-0.2723657190799713,"683":1.4531892538070679,"684":-0.04730334132909775,"685":-0.18578378856182098,"686":-0.046225618571043015,"687":-1.669083833694458,"688":-1.970015525817871,"689":-1.0432984828948975,"690":-1.4983705282211304,"691":1.1557726860046387,"692":1.3968201875686646,"693":0.16786330938339233,"694":-1.9481298923492432,"695":-1.4822367429733276,"696":-1.789067029953003,"697":0.37620797753334045,"698":0.1258855164051056,"699":-0.14357969164848328,"700":-0.06757666170597076,"701":-0.03714732825756073,"702":-0.05870563164353371,"703":0.16684004664421082,"704":-0.15178944170475006,"705":-0.5914593935012817,"706":-0.31280219554901123,"707":-1.285881519317627,"708":-4.1942315101623535,"709":-6.9415812492370605,"710":-2.615355968475342,"711":-1.6883819103240967,"712":-4.004037857055664,"713":-2.568547487258911,"714":-5.668287754058838,"715":-1.2627288103103638,"716":-3.314527750015259,"717":-3.6698105335235596,"718":-5.439384937286377,"719":-5.017574310302734,"720":-1.3178383111953735,"721":-1.7318086624145508,"722":-0.6067764759063721,"723":-0.6374068856239319,"724":-0.7720728516578674,"725":0.06522903591394424,"726":0.06437356770038605,"727":0.17662453651428223,"728":-0.14140436053276062,"729":0.14505577087402344,"730":-0.07516461610794067,"731":-0.0026986156590282917,"732":-0.3570266366004944,"733":-0.5289568305015564,"734":-0.7727035284042358,"735":-1.0341120958328247,"736":-3.0202460289001465,"737":-5.843470096588135,"738":-2.7648754119873047,"739":-1.099396824836731,"740":-6.744476318359375,"741":-7.004437446594238,"742":-7.923217296600342,"743":-6.83392858505249,"744":-3.274505615234375,"745":-2.432781457901001,"746":-5.468741416931152,"747":-5.507391452789307,"748":-3.5549604892730713,"749":-2.309347152709961,"750":-0.6408042311668396,"751":-0.5332284569740295,"752":0.06862428039312363,"753":-0.0101835448294878,"754":-0.18154647946357727,"755":0.12576091289520264,"756":-0.10586028546094894,"757":0.016161270439624786,"758":0.13649874925613403,"759":-0.13949811458587646,"760":0.15757694840431213,"761":-0.15263397991657257,"762":-0.12266730517148972,"763":0.0550132691860199,"764":-0.04048692807555199,"765":-0.02593844011425972,"766":-0.7671705484390259,"767":-0.030267352238297462,"768":-1.7513729333877563,"769":-1.2748801708221436,"770":-1.0848207473754883,"771":0.007838494144380093,"772":-0.17368414998054504,"773":-0.4444649815559387,"774":-1.1518476009368896,"775":-1.6945871114730835,"776":-0.03438805416226387,"777":-0.20555870234966278,"778":0.017168782651424408,"779":-0.057037193328142166,"780":0.17486640810966492,"781":0.03859039023518562,"782":-0.032054562121629715,"783":-0.06271173059940338}},"1":{"bias":-4.765960693359375,"weights":{"0":-0.07144444435834885,"1":-0.19594387710094452,"2":-0.11859782040119171,"3":0.12955054640769958,"4":0.016627665609121323,"5":-0.07441997528076172,"6":-0.04579116404056549,"7":-0.19492381811141968,"8":0.06990855932235718,"9":0.12692658603191376,"10":0.008914468809962273,"11":-0.040235891938209534,"12":-0.07264506816864014,"13":0.05180342122912407,"14":0.034169070422649384,"15":0.07710466533899307,"16":-0.06001551076769829,"17":-0.13609430193901062,"18":0.13368037343025208,"19":0.0467848964035511,"20":-0.08041920512914658,"21":-0.04811336100101471,"22":0.18302607536315918,"23":-0.06400171667337418,"24":-0.11946341395378113,"25":-0.040367934852838516,"26":0.14898721873760223,"27":0.011282598599791527,"28":0.1773504614830017,"29":0.14508932828903198,"30":0.07278907299041748,"31":-0.05692676827311516,"32":0.06525082886219025,"33":0.10678970068693161,"34":0.025415007025003433,"35":-0.10262405127286911,"36":-0.058588892221450806,"37":-0.06484172493219376,"38":-0.14178888499736786,"39":-0.030438484624028206,"40":0.018597809597849846,"41":-0.14242839813232422,"42":0.21025602519512177,"43":0.13134810328483582,"44":-0.022584784775972366,"45":0.17931169271469116,"46":-0.031067728996276855,"47":0.03267403692007065,"48":-0.09185197949409485,"49":0.06776072084903717,"50":0.13765552639961243,"51":-0.07515692710876465,"52":0.12516213953495026,"53":0.16700370609760284,"54":0.046024736016988754,"55":0.001317117945291102,"56":-0.017015723511576653,"57":-0.10488234460353851,"58":0.0015513317193835974,"59":0.10621029883623123,"60":-0.0860513299703598,"61":-0.10160718858242035,"62":-0.021279260516166687,"63":-0.1921238899230957,"64":-0.12067034095525742,"65":-0.374152272939682,"66":-1.8099517822265625,"67":-2.2073638439178467,"68":-2.339364767074585,"69":-1.702804684638977,"70":-0.8718724846839905,"71":0.04677102342247963,"72":-0.046819962561130524,"73":-0.4273272156715393,"74":-0.7385382652282715,"75":-0.25149229168891907,"76":0.4337817132472992,"77":-0.007849148474633694,"78":0.1660819798707962,"79":-0.011230293661355972,"80":-0.1502808779478073,"81":0.10640203207731247,"82":-0.16168637573719025,"83":-0.09252087771892548,"84":0.11439569294452667,"85":-0.025107676163315773,"86":0.03820067644119263,"87":-0.09910526126623154,"88":-0.009395020082592964,"89":0.0052891625091433525,"90":-0.15051783621311188,"91":-0.04464207962155342,"92":-0.9969564080238342,"93":-1.8418809175491333,"94":-2.760030746459961,"95":-3.189976930618286,"96":-3.59001088142395,"97":-4.912653923034668,"98":-4.081515312194824,"99":-1.1652672290802002,"100":-5.351480484008789,"101":-3.5769121646881104,"102":-1.8514130115509033,"103":-1.0044324398040771,"104":0.0006537066656164825,"105":-0.026973307132720947,"106":0.16058941185474396,"107":-0.1282239854335785,"108":-0.18398793041706085,"109":0.3380652368068695,"110":0.19702772796154022,"111":-0.0496789924800396,"112":-0.03526315838098526,"113":0.03697856143116951,"114":-0.18453967571258545,"115":0.19075900316238403,"116":-0.020794600248336792,"117":-0.26293739676475525,"118":0.5663806200027466,"119":1.1010106801986694,"120":1.1767027378082275,"121":1.2212371826171875,"122":0.6076934337615967,"123":0.15944746136665344,"124":1.9891142845153809,"125":1.3041372299194336,"126":-0.35300934314727783,"127":0.748603343963623,"128":1.7869806289672852,"129":-0.08314358443021774,"130":3.5689616203308105,"131":-0.20773422718048096,"132":-0.0778033509850502,"133":2.3015058040618896,"134":2.2749903202056885,"135":1.1530566215515137,"136":2.0587520599365234,"137":0.7458472847938538,"138":-0.05139363557100296,"139":0.12335193157196045,"140":-0.1440368890762329,"141":0.1008218377828598,"142":0.1342499852180481,"143":-0.09318647533655167,"144":-0.04685181379318237,"145":0.8050937652587891,"146":2.0400092601776123,"147":1.9046578407287598,"148":1.6005641222000122,"149":1.7948871850967407,"150":-0.6644054651260376,"151":3.69230580329895,"152":3.358823776245117,"153":-0.8024571537971497,"154":0.4061301648616791,"155":2.8121330738067627,"156":0.7456555962562561,"157":-1.3528352975845337,"158":0.5339436531066895,"159":2.053741455078125,"160":0.32179898023605347,"161":-0.3780173361301422,"162":2.8426802158355713,"163":3.3293445110321045,"164":4.691708087921143,"165":3.6569154262542725,"166":1.7337675094604492,"167":0.19352087378501892,"168":0.0122634656727314,"169":0.11544383317232132,"170":0.04975544661283493,"171":0.14834901690483093,"172":0.5790067911148071,"173":2.3019700050354004,"174":3.514075994491577,"175":2.116518974304199,"176":1.2928475141525269,"177":1.6979092359542847,"178":2.8377392292022705,"179":0.8427401781082153,"180":1.539943814277649,"181":0.7062684297561646,"182":-1.7887907028198242,"183":-1.969742774963379,"184":0.8922101855278015,"185":0.6614392399787903,"186":-0.9242697358131409,"187":-0.7037882804870605,"188":0.45970481634140015,"189":1.2166372537612915,"190":1.5814834833145142,"191":3.9497954845428467,"192":6.076379299163818,"193":5.098402976989746,"194":2.6684625148773193,"195":0.2947223484516144,"196":0.023311948403716087,"197":0.21427568793296814,"198":0.1785241663455963,"199":0.46974363923072815,"200":1.6993043422698975,"201":3.0161349773406982,"202":2.429380178451538,"203":2.84394907951355,"204":0.526686429977417,"205":-1.1104004383087158,"206":1.9142745733261108,"207":-3.025381326675415,"208":-0.561878502368927,"209":-1.0205943584442139,"210":-0.01978038251399994,"211":0.897890567779541,"212":-0.7932519316673279,"213":1.1860512495040894,"214":-3.052708387374878,"215":2.3933746814727783,"216":1.8499658107757568,"217":1.9807111024856567,"218":3.102691173553467,"219":2.4427642822265625,"220":3.910787582397461,"221":4.173595428466797,"222":2.6076014041900635,"223":0.13036036491394043,"224":-0.2624087333679199,"225":0.009435492567718029,"226":0.26597005128860474,"227":0.7992470860481262,"228":1.8279438018798828,"229":2.5264229774475098,"230":1.6177685260772705,"231":0.7309601902961731,"232":2.290771484375,"233":1.8310654163360596,"234":-0.5196399688720703,"235":-0.31559765338897705,"236":2.7866079807281494,"237":0.8858721256256104,"238":0.11864297837018967,"239":-1.7854998111724854,"240":-3.392213821411133,"241":-1.8361849784851074,"242":0.8075776696205139,"243":2.0208911895751953,"244":0.18914294242858887,"245":1.358304500579834,"246":4.6847333908081055,"247":3.1325128078460693,"248":3.8539772033691406,"249":3.7391059398651123,"250":0.7473772764205933,"251":0.14314475655555725,"252":0.10449245572090149,"253":0.030951565131545067,"254":0.3036094605922699,"255":1.0887004137039185,"256":0.773036003112793,"257":1.9267847537994385,"258":1.204797625541687,"259":1.2066476345062256,"260":2.679380416870117,"261":2.12319278717041,"262":-1.254069209098816,"263":3.4706642627716064,"264":-1.4459567070007324,"265":-0.4068364202976227,"266":-2.086566925048828,"267":-1.9222314357757568,"268":-0.9905627369880676,"269":3.8552801609039307,"270":1.7500866651535034,"271":1.0100080966949463,"272":-1.7964081764221191,"273":2.5432000160217285,"274":2.835341215133667,"275":1.4077497720718384,"276":3.628565549850464,"277":3.556337356567383,"278":1.1561040878295898,"279":-0.4163876473903656,"280":-0.07832245528697968,"281":-0.005065418314188719,"282":-0.014964932575821877,"283":1.043289065361023,"284":1.3694759607315063,"285":0.6066844463348389,"286":-0.2737845778465271,"287":1.0985251665115356,"288":3.705784559249878,"289":2.7681946754455566,"290":2.2128779888153076,"291":-1.6734609603881836,"292":0.7230021953582764,"293":3.792328119277954,"294":6.032097816467285,"295":0.8938161730766296,"296":2.35284423828125,"297":2.7898004055023193,"298":-0.014791102148592472,"299":2.9579098224639893,"300":1.3907551765441895,"301":1.4912997484207153,"302":-1.067633032798767,"303":-0.05737035349011421,"304":4.112799167633057,"305":4.334287166595459,"306":2.515740156173706,"307":-0.16090959310531616,"308":-0.07950003445148468,"309":0.012560989707708359,"310":0.21146784722805023,"311":1.3225876092910767,"312":0.8738910555839539,"313":-0.058915264904499054,"314":-0.9351386427879333,"315":-2.17574143409729,"316":1.5436899662017822,"317":2.1855430603027344,"318":3.15695858001709,"319":4.93327522277832,"320":3.3325347900390625,"321":3.38332462310791,"322":4.310848712921143,"323":2.66056752204895,"324":4.492329120635986,"325":3.980139970779419,"326":3.240694284439087,"327":2.186662435531616,"328":-0.5359970331192017,"329":-1.727015495300293,"330":-1.9108707904815674,"331":-0.5054761171340942,"332":2.073179244995117,"333":4.510766983032227,"334":1.8892213106155396,"335":-0.14514082670211792,"336":0.12153392285108566,"337":0.06013655662536621,"338":0.2199592888355255,"339":1.4858510494232178,"340":1.3807578086853027,"341":-0.7495095133781433,"342":-2.59340763092041,"343":-1.7920868396759033,"344":2.548650026321411,"345":1.069616436958313,"346":2.7753469944000244,"347":0.6190595030784607,"348":-0.6978843808174133,"349":-1.51078200340271,"350":2.638944387435913,"351":1.6606565713882446,"352":1.661669135093689,"353":-1.510951042175293,"354":-2.7735579013824463,"355":-4.360044479370117,"356":-2.905673027038574,"357":-4.257089138031006,"358":-5.956037521362305,"359":-5.811198711395264,"360":-3.188161849975586,"361":-0.4093441367149353,"362":0.40513837337493896,"363":-0.022082343697547913,"364":-0.0430002324283123,"365":0.037836190313100815,"366":-0.13004262745380402,"367":1.5221880674362183,"368":0.4792511761188507,"369":-2.6061248779296875,"370":-3.6690073013305664,"371":-2.567146062850952,"372":-0.48588383197784424,"373":0.603810727596283,"374":1.0277386903762817,"375":0.46564781665802,"376":-0.9016924500465393,"377":2.4386019706726074,"378":1.730565071105957,"379":0.7547913193702698,"380":3.4806222915649414,"381":1.565197467803955,"382":-0.8280447721481323,"383":-1.6786402463912964,"384":-1.0453510284423828,"385":-2.737009048461914,"386":-5.166358470916748,"387":-4.514706611633301,"388":-3.2170817852020264,"389":-0.9258440732955933,"390":0.1392807513475418,"391":0.0002922211424447596,"392":0.08934888988733292,"393":-0.04002603143453598,"394":0.08427619189023972,"395":0.9715969562530518,"396":-1.3712083101272583,"397":-5.643187522888184,"398":-7.051179885864258,"399":-7.292552471160889,"400":-5.8055620193481445,"401":-4.123960971832275,"402":-1.3348819017410278,"403":-1.5395307540893555,"404":-0.023791691288352013,"405":3.300438165664673,"406":3.4985594749450684,"407":3.5439558029174805,"408":-0.09747954457998276,"409":-0.9483247995376587,"410":1.3145796060562134,"411":1.5652996301651,"412":-1.2142621278762817,"413":-2.730323314666748,"414":-1.2904666662216187,"415":-1.0626416206359863,"416":-1.5188292264938354,"417":-1.134366750717163,"418":0.04430292174220085,"419":0.003999273758381605,"420":0.15587835013866425,"421":-0.1898341327905655,"422":0.059188734740018845,"423":0.2707826495170593,"424":-2.67789363861084,"425":-7.456645965576172,"426":-8.00758171081543,"427":-12.896000862121582,"428":-12.299980163574219,"429":-9.45397663116455,"430":-8.726972579956055,"431":-6.088376522064209,"432":-2.629878044128418,"433":-0.8668497800827026,"434":-0.6852540969848633,"435":3.0858705043792725,"436":0.7001542448997498,"437":-2.9732751846313477,"438":0.18439926207065582,"439":0.664419412612915,"440":-1.6360398530960083,"441":-2.973104238510132,"442":-3.028766393661499,"443":-0.7088128328323364,"444":-1.2097455263137817,"445":-1.2107521295547485,"446":-0.06756013631820679,"447":0.16286569833755493,"448":-0.15335752069950104,"449":0.0003099141176789999,"450":0.2681514322757721,"451":0.39430829882621765,"452":-0.8944210410118103,"453":-4.288702487945557,"454":-4.339115142822266,"455":-7.854422569274902,"456":-11.174944877624512,"457":-9.306050300598145,"458":-8.499056816101074,"459":-10.893280029296875,"460":-5.431397438049316,"461":-2.842606782913208,"462":-0.8102670311927795,"463":2.0295701026916504,"464":-2.1911556720733643,"465":-3.0297510623931885,"466":-0.23541764914989471,"467":0.36569279432296753,"468":-2.4102120399475098,"469":-0.062429316341876984,"470":-0.6143825650215149,"471":0.5270451307296753,"472":-0.6235010623931885,"473":-2.113175630569458,"474":-0.03208688646554947,"475":-0.12260962277650833,"476":0.06888032704591751,"477":-0.09290336072444916,"478":0.11218756437301636,"479":2.167677164077759,"480":2.697817802429199,"481":-1.4127724170684814,"482":-0.16627661883831024,"483":-0.15803492069244385,"484":-1.381224274635315,"485":-4.044098377227783,"486":-7.538177967071533,"487":-7.538243293762207,"488":-1.0133018493652344,"489":3.139475107192993,"490":-1.2312496900558472,"491":-4.701679229736328,"492":-1.9993212223052979,"493":2.400209903717041,"494":0.035013481974601746,"495":-0.11819448322057724,"496":-0.557931125164032,"497":-0.424782931804657,"498":-2.056959390640259,"499":-0.15671682357788086,"500":-1.2214443683624268,"501":-2.7287092208862305,"502":0.14567364752292633,"503":-0.016130022704601288,"504":0.11466840654611588,"505":0.13502785563468933,"506":-0.07518183439970016,"507":4.241253852844238,"508":4.754884243011475,"509":0.5813916921615601,"510":0.6196465492248535,"511":-1.1654222011566162,"512":3.8819689750671387,"513":1.9957867860794067,"514":0.03280743584036827,"515":-0.14195764064788818,"516":-1.6964024305343628,"517":-0.028110533952713013,"518":-0.8466662764549255,"519":-3.5527474880218506,"520":0.5458871722221375,"521":1.745546579360962,"522":-1.2001614570617676,"523":-1.1990206241607666,"524":2.286498546600342,"525":-1.4903653860092163,"526":-2.9320719242095947,"527":-2.2436907291412354,"528":-2.6304519176483154,"529":-2.1747310161590576,"530":0.1116873100399971,"531":0.04041052982211113,"532":0.13211286067962646,"533":0.0523923821747303,"534":0.18722423911094666,"535":2.3532309532165527,"536":2.06632399559021,"537":2.262174129486084,"538":0.2124696671962738,"539":1.5942718982696533,"540":4.824577808380127,"541":-0.548182487487793,"542":2.798269510269165,"543":2.9511311054229736,"544":-0.21204733848571777,"545":-0.529178261756897,"546":2.299302577972412,"547":-0.4331759214401245,"548":-3.0152323246002197,"549":-1.250259280204773,"550":-0.9150826930999756,"551":-0.9043229222297668,"552":1.5467478036880493,"553":1.8136510848999023,"554":-2.0134177207946777,"555":-1.4822924137115479,"556":-0.9744284152984619,"557":-0.4114336669445038,"558":0.026283228769898415,"559":-0.06768767535686493,"560":-0.11588765680789948,"561":0.1305081844329834,"562":-0.2703288495540619,"563":0.81089186668396,"564":-0.3720913529396057,"565":-0.0045006051659584045,"566":0.37959402799606323,"567":-0.9282596707344055,"568":1.4480541944503784,"569":0.487140953540802,"570":2.578639268875122,"571":4.71705961227417,"572":1.3358014822006226,"573":0.11301776021718979,"574":0.9325628280639648,"575":-2.8753321170806885,"576":-2.94120192527771,"577":1.1165962219238281,"578":-1.8039501905441284,"579":-0.02544618397951126,"580":1.1363906860351562,"581":-0.2941446602344513,"582":-0.39379146695137024,"583":-0.5412730574607849,"584":-1.2709500789642334,"585":-0.3377320170402527,"586":0.09674239903688431,"587":0.014989634044468403,"588":0.06714924424886703,"589":-0.0625838115811348,"590":-0.4566640257835388,"591":0.2541908323764801,"592":0.42938658595085144,"593":-2.837282419204712,"594":-3.0706841945648193,"595":0.6250317692756653,"596":1.4897112846374512,"597":-0.7838613390922546,"598":2.4221434593200684,"599":-0.6886938214302063,"600":-1.7389116287231445,"601":-0.9548409581184387,"602":3.0560836791992188,"603":2.5559771060943604,"604":0.3782428801059723,"605":1.9206852912902832,"606":0.6839239001274109,"607":-0.13934364914894104,"608":-0.32126379013061523,"609":0.8766307830810547,"610":-0.5744005441665649,"611":-1.7396893501281738,"612":-1.3864415884017944,"613":-0.1471991240978241,"614":0.12732626497745514,"615":0.09392207115888596,"616":-0.011218619532883167,"617":0.15702424943447113,"618":-0.46969902515411377,"619":-0.37027421593666077,"620":-0.3574659824371338,"621":-1.4327809810638428,"622":-2.0189461708068848,"623":0.8013692498207092,"624":0.5731530785560608,"625":-3.7639949321746826,"626":1.4958534240722656,"627":1.7933300733566284,"628":-1.8659592866897583,"629":-0.23023512959480286,"630":-0.706707775592804,"631":-0.47938773036003113,"632":0.4001169204711914,"633":1.2530620098114014,"634":1.9310150146484375,"635":2.766303777694702,"636":1.1136584281921387,"637":0.6573516726493835,"638":-0.23424112796783447,"639":-0.8052830696105957,"640":-0.49731960892677307,"641":0.026364736258983612,"642":0.13926634192466736,"643":-0.1547582447528839,"644":0.04351865500211716,"645":0.01731901429593563,"646":0.17527242004871368,"647":0.017615411430597305,"648":0.2580978572368622,"649":-0.37758564949035645,"650":-0.14686939120292664,"651":2.5235931873321533,"652":0.6986566781997681,"653":-0.7633465528488159,"654":0.05950889736413956,"655":1.6900638341903687,"656":1.6662142276763916,"657":-0.08452779799699783,"658":0.01081637479364872,"659":-0.9183427691459656,"660":-0.1348600685596466,"661":0.44752317667007446,"662":-0.7640971541404724,"663":0.050864484161138535,"664":-0.031549204140901566,"665":0.6822495460510254,"666":0.21281872689723969,"667":-0.2660559415817261,"668":-0.6569284796714783,"669":-0.3995557129383087,"670":-0.031118243932724,"671":-0.0980176329612732,"672":-0.12679456174373627,"673":0.18810975551605225,"674":0.1808445304632187,"675":0.05428498610854149,"676":0.17129994928836823,"677":0.002131822519004345,"678":0.8376091718673706,"679":2.186353921890259,"680":3.318511486053467,"681":1.195250153541565,"682":-1.0208073854446411,"683":-1.104737401008606,"684":-0.273013710975647,"685":1.1406030654907227,"686":-0.041970375925302505,"687":-1.2851362228393555,"688":0.019988512620329857,"689":-0.02715178020298481,"690":-0.24856655299663544,"691":0.18842104077339172,"692":-0.11570392549037933,"693":0.3738738000392914,"694":0.3157157301902771,"695":-0.07503427565097809,"696":0.004851449280977249,"697":-0.1632949560880661,"698":-0.19355429708957672,"699":-0.17286595702171326,"700":0.008101632818579674,"701":0.12380458414554596,"702":-0.06130144000053406,"703":-0.09013135731220245,"704":-0.1675509661436081,"705":0.8628653287887573,"706":1.2145148515701294,"707":2.607761859893799,"708":2.968614101409912,"709":2.604152202606201,"710":3.560689687728882,"711":4.802648544311523,"712":4.907111167907715,"713":2.9349875450134277,"714":0.8395564556121826,"715":0.6806963682174683,"716":1.3779150247573853,"717":1.3182251453399658,"718":0.7380371689796448,"719":0.45073819160461426,"720":0.1869400590658188,"721":0.032311324030160904,"722":0.054766152054071426,"723":-0.11976514011621475,"724":0.21893258392810822,"725":0.1983107477426529,"726":0.0019025126239284873,"727":-0.099159374833107,"728":0.09249164909124374,"729":0.13958770036697388,"730":0.16383139789104462,"731":0.012604080140590668,"732":0.05311287194490433,"733":0.5084519982337952,"734":0.41078460216522217,"735":0.1623147875070572,"736":0.2207210659980774,"737":0.5173762440681458,"738":0.5348628759384155,"739":0.8710448145866394,"740":1.240737795829773,"741":1.1189020872116089,"742":0.535027265548706,"743":0.6255390048027039,"744":0.70008784532547,"745":0.746143102645874,"746":0.20968887209892273,"747":0.3164564073085785,"748":0.2512986361980438,"749":0.07657051831483841,"750":-0.10406828671693802,"751":-0.031371552497148514,"752":-0.09891009330749512,"753":-0.13182567059993744,"754":-0.1740713119506836,"755":-0.1089412197470665,"756":-0.06992828845977783,"757":-0.18921029567718506,"758":-0.17575930058956146,"759":0.14817212522029877,"760":-0.12030144780874252,"761":0.1612594872713089,"762":-0.026823095977306366,"763":-0.1298242062330246,"764":-0.18336273729801178,"765":0.14207306504249573,"766":-0.1175345703959465,"767":-0.04419655352830887,"768":-0.03381023928523064,"769":0.21334971487522125,"770":-0.0856180340051651,"771":-0.06760099530220032,"772":0.03477168083190918,"773":0.07333783060312271,"774":0.14133583009243011,"775":-0.06050204485654831,"776":-0.15069423615932465,"777":-0.11252233386039734,"778":-0.1420319676399231,"779":0.11951059848070145,"780":-0.09574734419584274,"781":0.026203876361250877,"782":0.1405610591173172,"783":-0.18286922574043274}},"2":{"bias":-6.244900226593018,"weights":{"0":-0.04964481666684151,"1":0.19171340763568878,"2":-0.06672736257314682,"3":-0.04925418645143509,"4":-0.05221889540553093,"5":-0.12487058341503143,"6":-0.15432655811309814,"7":0.10866712778806686,"8":0.1381274163722992,"9":-0.06724032014608383,"10":0.10857893526554108,"11":0.031084109097719193,"12":0.11984645575284958,"13":0.5261385440826416,"14":-0.106260284781456,"15":-0.022534050047397614,"16":0.003639020025730133,"17":0.1282554715871811,"18":0.031437765806913376,"19":0.030895749107003212,"20":-0.03945482522249222,"21":-0.16266298294067383,"22":-0.12737931311130524,"23":0.01655990071594715,"24":0.1483520269393921,"25":0.11701034009456635,"26":0.1090729609131813,"27":-0.15246018767356873,"28":-0.0449930801987648,"29":-0.14491303265094757,"30":-0.09490537643432617,"31":-0.08412141352891922,"32":0.025446491315960884,"33":0.09615274518728256,"34":-0.10671842098236084,"35":0.14610199630260468,"36":0.5048434734344482,"37":0.4689341187477112,"38":0.7219548225402832,"39":0.7873177528381348,"40":1.2196054458618164,"41":0.6975724697113037,"42":0.11620941758155823,"43":-0.08009163290262222,"44":-0.03822540491819382,"45":0.02965356595814228,"46":0.18143640458583832,"47":0.6260733604431152,"48":1.015952467918396,"49":1.4963462352752686,"50":0.5375679731369019,"51":0.3703840672969818,"52":0.05874476209282875,"53":-0.15458537638187408,"54":0.12933266162872314,"55":0.13926616311073303,"56":0.17556600272655487,"57":-0.18203692138195038,"58":-0.1305442452430725,"59":0.10629591345787048,"60":0.07838957756757736,"61":-0.11536979675292969,"62":0.1476731151342392,"63":0.49932995438575745,"64":1.025984764099121,"65":0.8401704430580139,"66":1.9386366605758667,"67":1.707045555114746,"68":1.9741607904434204,"69":1.6153937578201294,"70":0.5883577466011047,"71":0.5098706483840942,"72":0.6452385187149048,"73":0.608301043510437,"74":1.0775947570800781,"75":1.8961893320083618,"76":2.068530321121216,"77":2.150790214538574,"78":1.6041144132614136,"79":1.0297095775604248,"80":0.42867961525917053,"81":0.15659348666667938,"82":-0.17386490106582642,"83":0.02624174766242504,"84":-0.15353143215179443,"85":0.03381100296974182,"86":-0.07210759818553925,"87":-0.00859889481216669,"88":0.10662989318370819,"89":-0.03212413936853409,"90":0.2314375787973404,"91":0.952319324016571,"92":1.6093180179595947,"93":1.7691385746002197,"94":2.0077366828918457,"95":2.7961320877075195,"96":3.4380929470062256,"97":3.6207892894744873,"98":3.0220272541046143,"99":3.8377485275268555,"100":2.8554980754852295,"101":2.48512601852417,"102":4.562358856201172,"103":3.2868659496307373,"104":3.677769660949707,"105":1.9041048288345337,"106":0.5861042737960815,"107":1.0648729801177979,"108":1.0164246559143066,"109":0.43465644121170044,"110":0.43060657382011414,"111":-0.046652842313051224,"112":0.029227806255221367,"113":0.16619320213794708,"114":0.11729270219802856,"115":-0.0651373416185379,"116":-0.14458751678466797,"117":-0.28570908308029175,"118":0.46677252650260925,"119":1.706200361251831,"120":1.8960062265396118,"121":1.84256112575531,"122":2.831252336502075,"123":4.92223596572876,"124":2.973947286605835,"125":3.417797565460205,"126":6.022931098937988,"127":4.448257923126221,"128":1.1897369623184204,"129":-0.37668314576148987,"130":0.2333088517189026,"131":-0.7495971322059631,"132":-1.5604653358459473,"133":0.5701888799667358,"134":-0.8387742638587952,"135":-0.886691689491272,"136":1.3723475933074951,"137":0.9215561747550964,"138":-0.07816173136234283,"139":-0.09303395450115204,"140":-0.03630509227514267,"141":-0.08324506878852844,"142":0.14277517795562744,"143":0.047106336802244186,"144":-0.0790804773569107,"145":-0.1314111053943634,"146":-0.8035891056060791,"147":0.40848371386528015,"148":-1.3571271896362305,"149":-2.0035388469696045,"150":-0.06656867265701294,"151":0.7717437744140625,"152":0.30217382311820984,"153":0.8892025947570801,"154":5.322449684143066,"155":1.9434843063354492,"156":-0.3297739326953888,"157":0.028642142191529274,"158":2.238290786743164,"159":0.10673096030950546,"160":1.6915526390075684,"161":0.6816607713699341,"162":-3.666682481765747,"163":-0.5431867241859436,"164":0.33683809638023376,"165":0.670544445514679,"166":0.09470591694116592,"167":0.05990806221961975,"168":0.01315237581729889,"169":-0.1622152179479599,"170":-0.01206571701914072,"171":0.10420427471399307,"172":-0.2771262228488922,"173":0.0053327251225709915,"174":0.7769874930381775,"175":0.5780321955680847,"176":0.16718250513076782,"177":0.8749055862426758,"178":2.4679527282714844,"179":-1.3830978870391846,"180":0.4365983009338379,"181":0.8096380829811096,"182":1.67080557346344,"183":1.1087299585342407,"184":-0.16312368214130402,"185":-1.1666488647460938,"186":-3.9964470863342285,"187":-0.035048920661211014,"188":-1.3516583442687988,"189":0.6705554127693176,"190":-0.6212844252586365,"191":1.1419416666030884,"192":0.4113198220729828,"193":0.08845873177051544,"194":-0.19499889016151428,"195":-0.13376587629318237,"196":-0.005969262216240168,"197":-0.1608791947364807,"198":-0.17639391124248505,"199":-0.15157511830329895,"200":0.048835523426532745,"201":1.7406671047210693,"202":2.28507661819458,"203":1.6576861143112183,"204":-1.277489423751831,"205":-1.3690211772918701,"206":-1.452101707458496,"207":-1.2242681980133057,"208":-1.0311731100082397,"209":-0.15710820257663727,"210":2.5732197761535645,"211":-1.3197360038757324,"212":-2.7782373428344727,"213":-4.111335277557373,"214":-1.6056338548660278,"215":0.2842051684856415,"216":-1.6250381469726562,"217":-0.3929792046546936,"218":3.1627895832061768,"219":0.41424405574798584,"220":0.8538936972618103,"221":0.045448772609233856,"222":-0.13972167670726776,"223":-0.09509815275669098,"224":-0.11020705103874207,"225":0.13953521847724915,"226":-0.018969397991895676,"227":-0.12085048854351044,"228":-0.40868911147117615,"229":1.7029041051864624,"230":2.0444793701171875,"231":0.42662525177001953,"232":-2.650965452194214,"233":0.022778380662202835,"234":1.0430983304977417,"235":-3.491678476333618,"236":1.1501858234405518,"237":0.2458053082227707,"238":0.4295637607574463,"239":0.6555006504058838,"240":-1.1489958763122559,"241":-1.9842227697372437,"242":-2.5590243339538574,"243":1.6588016748428345,"244":-0.5719944834709167,"245":0.18654532730579376,"246":1.276076316833496,"247":1.203385591506958,"248":3.538151979446411,"249":0.7755033373832703,"250":0.35933154821395874,"251":0.017687173560261726,"252":0.04063919931650162,"253":-0.2160484790802002,"254":-0.2670340836048126,"255":-0.2658674418926239,"256":0.725812554359436,"257":2.313699245452881,"258":2.3057668209075928,"259":-0.14858442544937134,"260":-1.2105094194412231,"261":0.5932099223136902,"262":1.3315327167510986,"263":-2.085761070251465,"264":5.189826488494873,"265":3.6024065017700195,"266":0.23842154443264008,"267":-2.16483211517334,"268":-5.424028396606445,"269":-2.0655267238616943,"270":-3.2076172828674316,"271":-1.6756728887557983,"272":-1.0505996942520142,"273":-0.1853506714105606,"274":0.07799779623746872,"275":0.724852442741394,"276":3.9176783561706543,"277":2.5357284545898438,"278":0.5422036647796631,"279":-0.15521645545959473,"280":0.028232689946889877,"281":0.16455240547657013,"282":-0.2303558588027954,"283":-0.01549958810210228,"284":2.0703492164611816,"285":2.4433460235595703,"286":1.5541102886199951,"287":0.9927985072135925,"288":0.9708154201507568,"289":-2.4905083179473877,"290":0.4608125686645508,"291":-0.6270614266395569,"292":1.6007643938064575,"293":3.366565227508545,"294":1.4225307703018188,"295":-3.540316343307495,"296":-6.039509296417236,"297":-1.4376102685928345,"298":-1.648787498474121,"299":0.15894298255443573,"300":-0.5915224552154541,"301":1.940030574798584,"302":1.6914764642715454,"303":2.2970967292785645,"304":5.589665412902832,"305":1.1919171810150146,"306":0.6570364832878113,"307":-0.02516511268913746,"308":-0.0006187293329276145,"309":-0.18458084762096405,"310":-0.42378148436546326,"311":-0.7276124358177185,"312":-0.6420056223869324,"313":1.542844533920288,"314":2.124051332473755,"315":2.4528706073760986,"316":0.40110111236572266,"317":-0.8548956513404846,"318":0.6697970628738403,"319":-2.1845953464508057,"320":0.9218988418579102,"321":1.696958303451538,"322":-0.5004396438598633,"323":-3.3608672618865967,"324":-7.667784214019775,"325":-4.703390121459961,"326":-2.658506155014038,"327":1.357527494430542,"328":-3.2777082920074463,"329":-1.0328434705734253,"330":-2.682044267654419,"331":2.102911949157715,"332":3.318328857421875,"333":0.5715022683143616,"334":0.10676509886980057,"335":-0.03926262632012367,"336":-0.1646968424320221,"337":-0.12965913116931915,"338":-0.32300862669944763,"339":-0.46669307351112366,"340":-2.1177945137023926,"341":0.5475425124168396,"342":1.6303056478500366,"343":1.738655686378479,"344":-2.210719108581543,"345":-0.8906329870223999,"346":-0.7753596305847168,"347":2.688836097717285,"348":3.736016035079956,"349":-1.7122435569763184,"350":0.8180480003356934,"351":-3.563187837600708,"352":-2.937203884124756,"353":-3.1992499828338623,"354":-4.499209403991699,"355":-1.44439697265625,"356":-0.6449726819992065,"357":-0.8899216651916504,"358":-0.9540772438049316,"359":1.7897292375564575,"360":2.7052338123321533,"361":0.5465012192726135,"362":0.18172238767147064,"363":-0.05031757056713104,"364":-0.042427923530340195,"365":-0.03944496437907219,"366":0.03631569445133209,"367":-1.1404379606246948,"368":-3.657532215118408,"369":-0.8138835430145264,"370":-0.780799925327301,"371":-2.9307668209075928,"372":-0.592573344707489,"373":2.5288448333740234,"374":2.482506513595581,"375":-1.711715579032898,"376":-0.5380642414093018,"377":-2.141638994216919,"378":-2.3710885047912598,"379":-2.056724786758423,"380":-2.597799777984619,"381":-1.3201522827148438,"382":0.8589918613433838,"383":2.959529399871826,"384":-2.109079360961914,"385":2.228631019592285,"386":3.002284288406372,"387":2.2674272060394287,"388":2.418677806854248,"389":0.5831931829452515,"390":0.30223432183265686,"391":0.26280903816223145,"392":-0.02598929964005947,"393":-0.0045303055085241795,"394":0.15599824488162994,"395":-0.1190599724650383,"396":-1.7160122394561768,"397":-0.6794140338897705,"398":-2.4810078144073486,"399":-2.118887424468994,"400":-0.8947004079818726,"401":-3.371356248855591,"402":-3.6045286655426025,"403":-4.298844814300537,"404":0.5574981570243835,"405":0.35977625846862793,"406":4.821969985961914,"407":-0.5841684937477112,"408":-1.647012710571289,"409":-3.2138257026672363,"410":-4.70236349105835,"411":-1.7492824792861938,"412":-1.4864246845245361,"413":0.8078131079673767,"414":-2.6463539600372314,"415":-0.31387612223625183,"416":2.0729153156280518,"417":0.49446359276771545,"418":0.3370937407016754,"419":0.030849168077111244,"420":0.13156606256961823,"421":-0.05129799246788025,"422":0.2923632562160492,"423":0.6710239052772522,"424":-2.6864206790924072,"425":-1.8295948505401611,"426":-4.232370376586914,"427":-3.0151851177215576,"428":-4.082122325897217,"429":-2.554004669189453,"430":1.7841516733169556,"431":-1.537243366241455,"432":-1.4987391233444214,"433":2.7942593097686768,"434":0.14189429581165314,"435":-3.215329170227051,"436":-2.8574039936065674,"437":-7.03802490234375,"438":-6.460753440856934,"439":-2.9792540073394775,"440":-0.7038301825523376,"441":1.152461051940918,"442":-2.256392240524292,"443":-1.5123893022537231,"444":1.170306921005249,"445":0.6843982338905334,"446":0.22962649166584015,"447":0.17134350538253784,"448":0.033725813031196594,"449":0.19454674422740936,"450":-0.14915521442890167,"451":0.19788886606693268,"452":-1.703089714050293,"453":0.12042868137359619,"454":-0.5660076141357422,"455":-4.053872585296631,"456":-3.021946430206299,"457":0.7140131592750549,"458":3.7927358150482178,"459":1.7349369525909424,"460":-0.7661356925964355,"461":3.1024861335754395,"462":4.6859002113342285,"463":-1.0389174222946167,"464":0.43744024634361267,"465":-3.553224802017212,"466":0.20866575837135315,"467":2.7812652587890625,"468":-0.10376404225826263,"469":0.43444061279296875,"470":-0.4143252372741699,"471":-1.2229260206222534,"472":1.9847118854522705,"473":1.3986437320709229,"474":0.4860003888607025,"475":-0.14686991274356842,"476":-0.1980835646390915,"477":-0.014711115509271622,"478":-0.05108156055212021,"479":0.11216554790735245,"480":-0.4954858720302582,"481":0.20865781605243683,"482":-0.5864330530166626,"483":0.11705537885427475,"484":1.6914509534835815,"485":1.1934127807617188,"486":2.5421037673950195,"487":1.1142257452011108,"488":-0.20994941890239716,"489":-0.766445517539978,"490":0.6438469886779785,"491":-2.194356918334961,"492":0.133254736661911,"493":3.3138175010681152,"494":3.761186361312866,"495":3.2021613121032715,"496":3.083754301071167,"497":1.9006626605987549,"498":1.1872059106826782,"499":0.4831571578979492,"500":2.201387882232666,"501":0.9697238802909851,"502":0.47911834716796875,"503":0.08545519411563873,"504":0.06301248073577881,"505":-0.1957419365644455,"506":0.163761168718338,"507":0.3556656539440155,"508":-0.8713049292564392,"509":-0.5923037528991699,"510":-0.15710031986236572,"511":1.1736892461776733,"512":2.6797635555267334,"513":-2.165456771850586,"514":2.6528725624084473,"515":0.040408141911029816,"516":3.2622885704040527,"517":0.562433123588562,"518":2.5443673133850098,"519":0.8028472065925598,"520":0.4632377624511719,"521":2.1851420402526855,"522":2.956866979598999,"523":3.630636692047119,"524":2.2167980670928955,"525":1.989031434059143,"526":1.8584401607513428,"527":1.7628493309020996,"528":2.588233470916748,"529":0.840047299861908,"530":0.4090633988380432,"531":0.12405769526958466,"532":-0.13340920209884644,"533":0.02982315793633461,"534":-0.06359847635030746,"535":1.1590731143951416,"536":-0.031517453491687775,"537":2.4554295539855957,"538":4.073468208312988,"539":3.3897526264190674,"540":2.5342187881469727,"541":2.416383981704712,"542":2.8404932022094727,"543":-2.1989779472351074,"544":2.1039352416992188,"545":1.5032037496566772,"546":1.4326575994491577,"547":1.3307510614395142,"548":2.9779748916625977,"549":1.7450698614120483,"550":0.5681175589561462,"551":-1.4161224365234375,"552":0.017343273386359215,"553":1.0768541097640991,"554":2.0123484134674072,"555":2.326711416244507,"556":0.37321698665618896,"557":-0.19862006604671478,"558":0.18412165343761444,"559":-0.003204925451427698,"560":0.04417472332715988,"561":-0.08654355257749557,"562":0.11982656270265579,"563":-0.0016651030164211988,"564":1.9440412521362305,"565":3.87440824508667,"566":3.0842182636260986,"567":4.15910005569458,"568":3.6248490810394287,"569":1.11496901512146,"570":-0.8707112073898315,"571":3.1085205078125,"572":1.374164342880249,"573":2.502915859222412,"574":3.615846633911133,"575":3.362999677658081,"576":4.158788681030273,"577":0.7811058759689331,"578":0.7092764377593994,"579":2.332918405532837,"580":2.759509563446045,"581":2.461852788925171,"582":1.9675593376159668,"583":1.9532307386398315,"584":0.05131591856479645,"585":-0.38935089111328125,"586":-0.1185142993927002,"587":0.12112335115671158,"588":0.19561517238616943,"589":-0.14943918585777283,"590":0.049255549907684326,"591":-0.6252626776695251,"592":-0.4348028302192688,"593":2.75642466545105,"594":3.620680093765259,"595":2.811295747756958,"596":4.615050315856934,"597":2.3017385005950928,"598":0.1205514520406723,"599":6.79697322845459,"600":2.7661855220794678,"601":3.917015552520752,"602":1.9684938192367554,"603":3.730034351348877,"604":0.306198388338089,"605":4.521312236785889,"606":4.135536193847656,"607":5.590034484863281,"608":3.0100560188293457,"609":1.5704139471054077,"610":1.1510292291641235,"611":0.4615459442138672,"612":-0.9495788216590881,"613":-0.2622636556625366,"614":-0.13008320331573486,"615":0.09952839463949203,"616":-0.10056615620851517,"617":-0.01772516593337059,"618":0.15734340250492096,"619":0.009650003165006638,"620":-1.1396145820617676,"621":-3.023237943649292,"622":-2.267451524734497,"623":-0.43195369839668274,"624":0.9018141031265259,"625":-0.5346704721450806,"626":1.5298044681549072,"627":3.1036739349365234,"628":1.9653923511505127,"629":0.9758492708206177,"630":1.0628271102905273,"631":5.131505966186523,"632":1.4494315385818481,"633":-0.07252755016088486,"634":1.7155966758728027,"635":1.288806438446045,"636":1.2057596445083618,"637":2.1105923652648926,"638":-0.3401957154273987,"639":-0.3209938406944275,"640":0.28470438718795776,"641":0.12396050244569778,"642":-0.16965413093566895,"643":-0.08223871886730194,"644":-0.04284266382455826,"645":-0.12287615984678268,"646":0.3457998037338257,"647":0.4021837115287781,"648":0.0316522978246212,"649":-2.4264466762542725,"650":-3.1888582706451416,"651":-1.1055247783660889,"652":1.2525854110717773,"653":0.23766064643859863,"654":2.2796783447265625,"655":0.8064311742782593,"656":1.2310889959335327,"657":2.0277373790740967,"658":3.8656704425811768,"659":2.8075196743011475,"660":2.41450834274292,"661":0.6560848355293274,"662":0.7755832076072693,"663":-0.4438794255256653,"664":0.8749105930328369,"665":-0.9173083305358887,"666":-2.1963040828704834,"667":-1.5868608951568604,"668":0.3840869963169098,"669":0.2353707253932953,"670":-0.09070682525634766,"671":-0.08903583139181137,"672":-0.11933392286300659,"673":-0.03382677584886551,"674":0.33157968521118164,"675":0.5039006471633911,"676":0.037790898233652115,"677":-1.5720473527908325,"678":-0.8676565885543823,"679":0.0954107716679573,"680":-0.21103975176811218,"681":2.6728250980377197,"682":3.973998546600342,"683":3.474431276321411,"684":3.416719436645508,"685":3.6408321857452393,"686":3.92822265625,"687":1.8861596584320068,"688":2.594223976135254,"689":4.925973892211914,"690":2.6298136711120605,"691":0.9067707061767578,"692":0.28320953249931335,"693":-1.9425522089004517,"694":-2.6524999141693115,"695":-1.701884150505066,"696":0.5005117654800415,"697":0.3519919216632843,"698":0.22504906356334686,"699":-0.1271217316389084,"700":-0.13986264169216156,"701":0.16622337698936462,"702":-0.05403977632522583,"703":0.0011614459799602628,"704":-0.2013940066099167,"705":-0.9931461215019226,"706":-0.8656190633773804,"707":-1.1804490089416504,"708":-2.9047062397003174,"709":-0.9078441262245178,"710":0.16338400542736053,"711":-0.7694610953330994,"712":2.917536497116089,"713":-1.8151437044143677,"714":-0.4406570792198181,"715":1.5793533325195312,"716":0.3437025845050812,"717":2.1294643878936768,"718":2.3625283241271973,"719":1.8182376623153687,"720":1.4125285148620605,"721":0.14602616429328918,"722":-0.379886269569397,"723":-0.2251642495393753,"724":0.50333571434021,"725":-0.08181343227624893,"726":0.04980633035302162,"727":-0.052261948585510254,"728":-0.13583683967590332,"729":0.13234280049800873,"730":-0.002752708736807108,"731":-0.04417482390999794,"732":0.07283715903759003,"733":-0.174610897898674,"734":-0.3032301664352417,"735":-0.2875599265098572,"736":-0.1774604320526123,"737":-0.6553229689598083,"738":-0.6987593173980713,"739":2.317612409591675,"740":1.2000806331634521,"741":-1.7969844341278076,"742":-3.618332862854004,"743":-1.5119885206222534,"744":-0.7648276686668396,"745":-0.9658851027488708,"746":-0.9273654818534851,"747":-0.4981318712234497,"748":0.14270535111427307,"749":-0.16742318868637085,"750":-0.18345890939235687,"751":-0.1975151002407074,"752":-0.19135509431362152,"753":0.10850416868925095,"754":-0.12874741852283478,"755":-0.019368905574083328,"756":-0.10858552902936935,"757":0.16265638172626495,"758":-0.023033445701003075,"759":0.08614455163478851,"760":-0.09387437999248505,"761":0.019566960632801056,"762":0.03627153858542442,"763":-0.11393168568611145,"764":-0.04049647971987724,"765":0.018013162538409233,"766":-0.13527296483516693,"767":0.16815407574176788,"768":0.039510954171419144,"769":-0.13344530761241913,"770":-0.3266611099243164,"771":-0.17106293141841888,"772":-0.060434166342020035,"773":-0.098163902759552,"774":0.09539366513490677,"775":-0.15849359333515167,"776":0.1457231193780899,"777":-0.23290665447711945,"778":0.01059507392346859,"779":0.06699704378843307,"780":-0.07261408120393753,"781":0.12709437310695648,"782":-0.18399322032928467,"783":0.08544628322124481}},"3":{"bias":10.26692008972168,"weights":{"0":0.08028135448694229,"1":0.04559619724750519,"2":-0.17477534711360931,"3":0.08461318910121918,"4":-0.001520307152532041,"5":-0.18365469574928284,"6":0.08152365684509277,"7":0.003796112025156617,"8":0.027128633111715317,"9":0.01930893026292324,"10":-0.00826991070061922,"11":0.024411700665950775,"12":-0.13728395104408264,"13":-0.017196059226989746,"14":0.19720958173274994,"15":0.17813308537006378,"16":0.03561604395508766,"17":0.040892887860536575,"18":0.10160383582115173,"19":-0.0907822996377945,"20":-0.06396599858999252,"21":-0.11650104075670242,"22":0.07434409856796265,"23":-0.1675184965133667,"24":0.02823992632329464,"25":-0.08314386010169983,"26":0.042103301733732224,"27":0.09236890822649002,"28":0.16821369528770447,"29":0.17788127064704895,"30":-0.1515604555606842,"31":-0.10069137811660767,"32":-0.005914590321481228,"33":-0.01786474511027336,"34":0.168452650308609,"35":0.06885835528373718,"36":0.04939085617661476,"37":-0.10947758704423904,"38":0.012500443495810032,"39":-0.28152480721473694,"40":-0.23562979698181152,"41":0.14823594689369202,"42":-0.12801885604858398,"43":0.02400178462266922,"44":-0.13959446549415588,"45":0.10107453167438507,"46":0.13088202476501465,"47":0.11808621883392334,"48":0.07780157029628754,"49":-0.10260666161775589,"50":-0.1705814003944397,"51":-0.05823952704668045,"52":0.016444861888885498,"53":-0.09366852790117264,"54":0.04106370732188225,"55":-0.08836862444877625,"56":0.1794106513261795,"57":-0.057502128183841705,"58":0.015415340662002563,"59":-0.007969026453793049,"60":-0.014562126249074936,"61":0.07642053812742233,"62":0.03243405371904373,"63":-0.05635523423552513,"64":-0.07804986089468002,"65":0.144611194729805,"66":0.19027748703956604,"67":0.25058713555336,"68":0.136974036693573,"69":0.30180251598358154,"70":-1.8441497087478638,"71":-2.210266351699829,"72":0.33681198954582214,"73":0.9473149180412292,"74":1.7495328187942505,"75":0.5735541582107544,"76":-0.044341545552015305,"77":-0.028626251965761185,"78":0.03919083997607231,"79":-0.06704864650964737,"80":0.07919848710298538,"81":-0.1929280012845993,"82":0.00039468807517550886,"83":0.02447381243109703,"84":0.1934630423784256,"85":-0.03517827391624451,"86":0.03350100666284561,"87":-0.02968795970082283,"88":-0.07108352333307266,"89":0.006989746820181608,"90":-0.14957672357559204,"91":-0.033434655517339706,"92":0.28190186619758606,"93":0.831501305103302,"94":0.5498520135879517,"95":-0.13453613221645355,"96":-1.1710312366485596,"97":-0.7305327653884888,"98":-2.1826727390289307,"99":0.7634555697441101,"100":2.345576047897339,"101":1.8832943439483643,"102":1.8901287317276,"103":1.8055769205093384,"104":1.120660662651062,"105":1.9192684888839722,"106":0.9996066689491272,"107":0.1402655690908432,"108":0.12913432717323303,"109":-0.18536023795604706,"110":-0.058667201548814774,"111":0.18791726231575012,"112":-0.17478524148464203,"113":0.13400870561599731,"114":0.13248834013938904,"115":0.1441180258989334,"116":-0.09088105708360672,"117":-1.3396241664886475,"118":-1.0870150327682495,"119":-1.9817991256713867,"120":-2.8946428298950195,"121":-1.1581729650497437,"122":0.25481876730918884,"123":1.0905275344848633,"124":-2.0395824909210205,"125":-0.953076183795929,"126":0.5468346476554871,"127":-0.7103720307350159,"128":1.2216248512268066,"129":2.827131509780884,"130":0.22008004784584045,"131":4.273952007293701,"132":4.764740943908691,"133":2.926483392715454,"134":3.1257457733154297,"135":1.0231176614761353,"136":0.20404052734375,"137":-0.02019505389034748,"138":-0.08443084359169006,"139":-0.08461941033601761,"140":0.07929714769124985,"141":0.11960626393556595,"142":0.07105239480733871,"143":-0.4849635362625122,"144":-1.677842140197754,"145":-2.7979912757873535,"146":-5.924215316772461,"147":-7.369211196899414,"148":-5.544657230377197,"149":-2.587669849395752,"150":-1.8076708316802979,"151":0.5749038457870483,"152":-0.3617597222328186,"153":-1.0017763376235962,"154":-0.8406721949577332,"155":-0.5327261090278625,"156":-0.1649320274591446,"157":4.843255043029785,"158":4.342629909515381,"159":2.903796672821045,"160":6.780727863311768,"161":4.877155303955078,"162":4.299408435821533,"163":2.014805555343628,"164":0.2902250289916992,"165":-0.0813199058175087,"166":-0.10395685583353043,"167":0.172674298286438,"168":0.15135522186756134,"169":0.11158236116170883,"170":-0.10970936715602875,"171":-0.7853270769119263,"172":-3.2240920066833496,"173":-3.4069838523864746,"174":-4.111143589019775,"175":-4.483841896057129,"176":-1.126921534538269,"177":-3.469348669052124,"178":-0.0444575659930706,"179":-0.7382782101631165,"180":-0.9321908354759216,"181":-0.212151899933815,"182":-0.9521341323852539,"183":-0.5464963316917419,"184":-0.06911899149417877,"185":-0.3072522282600403,"186":-1.2356981039047241,"187":3.399064540863037,"188":7.055870056152344,"189":6.359835624694824,"190":5.199333667755127,"191":3.5881717205047607,"192":1.1807900667190552,"193":0.6384435296058655,"194":-0.00947130098938942,"195":0.24617993831634521,"196":0.06418906897306442,"197":-0.1606232076883316,"198":-0.14222842454910278,"199":-0.6454800367355347,"200":-5.441365718841553,"201":-3.551790237426758,"202":-0.6568025946617126,"203":0.5874260663986206,"204":1.5642584562301636,"205":0.14506421983242035,"206":3.285820484161377,"207":0.11308638751506805,"208":-1.5867267847061157,"209":0.4798468351364136,"210":1.286867380142212,"211":-2.915602684020996,"212":-0.394879549741745,"213":2.1311607360839844,"214":2.411435127258301,"215":4.630747318267822,"216":8.179350852966309,"217":10.278122901916504,"218":7.697384357452393,"219":3.8145759105682373,"220":1.9578840732574463,"221":0.7024427652359009,"222":0.02413296140730381,"223":0.16449308395385742,"224":-0.14579060673713684,"225":-0.15455374121665955,"226":0.10191862285137177,"227":-1.5877305269241333,"228":-5.106657028198242,"229":-2.4323954582214355,"230":-0.10478156805038452,"231":-2.695054292678833,"232":0.673136830329895,"233":-1.6462855339050293,"234":1.808860182762146,"235":3.8452706336975098,"236":2.4839584827423096,"237":-0.7277666926383972,"238":-4.446718215942383,"239":-5.463417053222656,"240":-1.788744330406189,"241":-0.3211117386817932,"242":1.491726279258728,"243":3.2124695777893066,"244":8.155014038085938,"245":9.280360221862793,"246":6.912906169891357,"247":5.366470813751221,"248":2.4631638526916504,"249":1.2173854112625122,"250":0.2122412770986557,"251":-0.09333562105894089,"252":-0.09143812209367752,"253":-0.09496941417455673,"254":-0.009752928279340267,"255":-1.8115079402923584,"256":-3.328543186187744,"257":-0.8775981664657593,"258":1.0405035018920898,"259":0.4449997842311859,"260":5.414878845214844,"261":2.1336681842803955,"262":7.185746192932129,"263":5.375868320465088,"264":2.7751479148864746,"265":1.0013408660888672,"266":-7.903858661651611,"267":-11.650847434997559,"268":-6.207827091217041,"269":-3.008099317550659,"270":0.8604918122291565,"271":2.6939871311187744,"272":8.836323738098145,"273":8.367114067077637,"274":5.224010944366455,"275":4.74229621887207,"276":1.7367297410964966,"277":0.6851786971092224,"278":0.04661151394248009,"279":0.06200210005044937,"280":0.08372476696968079,"281":0.050937265157699585,"282":0.12671853601932526,"283":-0.9445708394050598,"284":-1.4307148456573486,"285":0.10379304736852646,"286":2.752793788909912,"287":5.603921890258789,"288":11.168652534484863,"289":8.568652153015137,"290":1.5014522075653076,"291":2.206002950668335,"292":2.9062893390655518,"293":-1.9977209568023682,"294":-4.192671298980713,"295":-6.639280319213867,"296":-7.595202445983887,"297":-4.243260383605957,"298":2.9743850231170654,"299":4.568528652191162,"300":7.161368370056152,"301":4.27971887588501,"302":3.5994842052459717,"303":2.9078052043914795,"304":1.6531472206115723,"305":0.41532519459724426,"306":0.17831271886825562,"307":0.02813147008419037,"308":-0.16991521418094635,"309":-0.020326972007751465,"310":0.06006236374378204,"311":-0.6721314191818237,"312":-0.07153637707233429,"313":1.7798887491226196,"314":2.2942912578582764,"315":4.768420219421387,"316":4.904219627380371,"317":1.756506085395813,"318":0.4792448878288269,"319":-3.564544200897217,"320":-1.5195666551589966,"321":-2.2174501419067383,"322":-4.656483173370361,"323":-4.459826469421387,"324":-0.7646158337593079,"325":2.343174934387207,"326":6.628739356994629,"327":4.072928428649902,"328":2.6152102947235107,"329":1.648409366607666,"330":2.07724666595459,"331":1.2890629768371582,"332":0.9542608261108398,"333":0.35825127363204956,"334":0.30101707577705383,"335":-0.04689547419548035,"336":-0.19977949559688568,"337":-0.13975246250629425,"338":-0.05408220738172531,"339":-0.12929008901119232,"340":0.9461653828620911,"341":1.5492254495620728,"342":2.846903085708618,"343":4.187112331390381,"344":2.000314235687256,"345":-1.3443129062652588,"346":2.396226644515991,"347":0.03582356870174408,"348":2.118908643722534,"349":-2.6620450019836426,"350":-2.901920795440674,"351":-1.0303574800491333,"352":0.6453061103820801,"353":2.446455717086792,"354":3.813176393508911,"355":4.068842887878418,"356":2.6957976818084717,"357":0.5813618898391724,"358":0.8821032047271729,"359":1.1024702787399292,"360":0.6015112996101379,"361":0.002803283277899027,"362":1.0964665412902832,"363":0.13616378605365753,"364":0.18202544748783112,"365":-0.08461438864469528,"366":-0.03754645958542824,"367":0.10987956821918488,"368":1.1934833526611328,"369":0.28689584136009216,"370":1.7585774660110474,"371":2.2551705837249756,"372":0.8519130349159241,"373":-1.415342926979065,"374":-0.20905302464962006,"375":2.4518373012542725,"376":0.06118890643119812,"377":-2.9087395668029785,"378":-3.910159111022949,"379":-4.0065460205078125,"380":-2.640608787536621,"381":3.76578688621521,"382":-0.0769716128706932,"383":1.0126346349716187,"384":0.41803666949272156,"385":-0.619577944278717,"386":-0.27876272797584534,"387":0.8053101301193237,"388":1.285683512687683,"389":0.9584982991218567,"390":0.7398509979248047,"391":-0.06665680557489395,"392":0.005417461507022381,"393":-0.11555208265781403,"394":-0.3690824508666992,"395":-0.08253034949302673,"396":0.2835388779640198,"397":0.8980042934417725,"398":1.744113564491272,"399":1.5258467197418213,"400":0.7456918358802795,"401":-3.4886586666107178,"402":4.266001224517822,"403":2.4248406887054443,"404":-1.5933839082717896,"405":-0.21050366759300232,"406":1.8291187286376953,"407":1.0854594707489014,"408":-2.9913220405578613,"409":2.825089693069458,"410":0.9572245478630066,"411":-1.9475822448730469,"412":1.0318788290023804,"413":-0.8918309807777405,"414":-1.5617536306381226,"415":-0.6869837641716003,"416":1.9783895015716553,"417":0.9297400116920471,"418":-0.027372093871235847,"419":0.18184292316436768,"420":-0.11395999044179916,"421":0.11948878318071365,"422":-0.14871548116207123,"423":0.28759765625,"424":0.36699941754341125,"425":0.07201197743415833,"426":-0.8200333714485168,"427":-2.5762217044830322,"428":-2.0162880420684814,"429":-2.069512128829956,"430":2.233217239379883,"431":4.643418788909912,"432":0.27271929383277893,"433":-5.619926929473877,"434":-3.8807222843170166,"435":-0.7296762466430664,"436":-1.6694138050079346,"437":-0.5719747543334961,"438":2.6885623931884766,"439":-2.224207878112793,"440":-0.39730700850486755,"441":0.20480889081954956,"442":-1.8750115633010864,"443":-2.4536678791046143,"444":1.3793219327926636,"445":0.10233941674232483,"446":-0.3444047272205353,"447":-0.13905157148838043,"448":0.15740646421909332,"449":0.16041609644889832,"450":-0.21824628114700317,"451":0.5349338054656982,"452":0.9639917016029358,"453":-1.1161575317382812,"454":-1.5935425758361816,"455":-2.1853952407836914,"456":1.064562201499939,"457":0.8655217289924622,"458":2.9628467559814453,"459":0.47955766320228577,"460":0.57731693983078,"461":-2.2642436027526855,"462":-0.7769282460212708,"463":4.582880973815918,"464":3.3960466384887695,"465":4.521541118621826,"466":0.8074192404747009,"467":-0.9224493503570557,"468":-1.770176649093628,"469":0.6491552591323853,"470":0.9361830949783325,"471":-1.6037997007369995,"472":-0.9158931374549866,"473":-0.36177316308021545,"474":-0.13745778799057007,"475":-0.09968848526477814,"476":-0.16545136272907257,"477":-0.0773296132683754,"478":-0.19289714097976685,"479":0.03932427987456322,"480":0.0377541109919548,"481":1.2987072467803955,"482":1.5744128227233887,"483":3.063622236251831,"484":0.36919355392456055,"485":2.3818976879119873,"486":4.832436561584473,"487":4.437650203704834,"488":2.9129276275634766,"489":-2.1063625812530518,"490":-1.356139063835144,"491":0.6877593398094177,"492":4.22727632522583,"493":2.2920615673065186,"494":1.2031630277633667,"495":-1.5458320379257202,"496":0.7080094218254089,"497":0.45616739988327026,"498":-2.183969497680664,"499":-3.2031116485595703,"500":-1.8224676847457886,"501":-0.437756210565567,"502":0.13832005858421326,"503":0.18173621594905853,"504":0.09796473383903503,"505":0.18508201837539673,"506":-0.09481031447649002,"507":-0.74652498960495,"508":-0.454995721578598,"509":0.5357595086097717,"510":1.5522160530090332,"511":5.857153415679932,"512":2.8986809253692627,"513":1.148385763168335,"514":5.146886825561523,"515":3.434499502182007,"516":0.1378299593925476,"517":-1.2105096578598022,"518":0.029505133628845215,"519":-1.8537862300872803,"520":0.919744074344635,"521":-1.099807620048523,"522":-1.491821527481079,"523":-2.27053165435791,"524":-3.3295841217041016,"525":-0.2790904641151428,"526":-2.5962207317352295,"527":-0.9556063413619995,"528":0.9367687702178955,"529":-0.27243176102638245,"530":-0.20338043570518494,"531":-0.1994105726480484,"532":-0.03299024701118469,"533":-0.06371507793664932,"534":-0.04472731798887253,"535":-0.22664731740951538,"536":0.2879035472869873,"537":-0.7635028958320618,"538":2.166649341583252,"539":1.0047308206558228,"540":2.9745991230010986,"541":2.3067216873168945,"542":2.528913974761963,"543":0.9617697596549988,"544":-2.5513947010040283,"545":-0.4893644452095032,"546":-0.4495694041252136,"547":-3.9351096153259277,"548":-3.87977933883667,"549":-5.830749988555908,"550":-3.9621992111206055,"551":-2.9142980575561523,"552":-4.991225719451904,"553":0.267750084400177,"554":-0.8651022911071777,"555":0.5886759161949158,"556":0.23352845013141632,"557":-0.4176887273788452,"558":-0.21034155786037445,"559":-0.18805602192878723,"560":-0.01157753448933363,"561":-0.10314028710126877,"562":0.10975447297096252,"563":-0.6907728910446167,"564":1.5127440690994263,"565":0.31445857882499695,"566":1.1610798835754395,"567":-1.3656202554702759,"568":-0.07452934235334396,"569":2.127429246902466,"570":1.2459537982940674,"571":3.308260917663574,"572":-0.12804946303367615,"573":1.8672913312911987,"574":-2.3408098220825195,"575":-0.9567571878433228,"576":-0.596473217010498,"577":-0.9665597677230835,"578":-0.9498290419578552,"579":0.9010108113288879,"580":-2.4754931926727295,"581":-1.2094159126281738,"582":1.0814778804779053,"583":1.320025086402893,"584":-0.9531117081642151,"585":-0.0034957549069076777,"586":-0.007625479716807604,"587":0.12315560132265091,"588":-0.19217874109745026,"589":0.0323311984539032,"590":-0.031860701739788055,"591":-0.14057092368602753,"592":1.3158295154571533,"593":3.2726430892944336,"594":1.2096527814865112,"595":2.0077223777770996,"596":3.420656204223633,"597":1.4616682529449463,"598":0.43325483798980713,"599":2.989069700241089,"600":2.163562536239624,"601":5.420198440551758,"602":3.643017292022705,"603":1.0415233373641968,"604":2.031087636947632,"605":-1.2352865934371948,"606":0.4214225113391876,"607":-1.797196388244629,"608":-0.28975722193717957,"609":2.890995502471924,"610":4.143664836883545,"611":-0.46213024854660034,"612":-0.5388780236244202,"613":-0.7834768891334534,"614":0.050866663455963135,"615":0.10337264090776443,"616":-0.05574459210038185,"617":-0.1422717422246933,"618":-0.03995482623577118,"619":-0.28594085574150085,"620":0.11318378150463104,"621":2.010427951812744,"622":0.24250943958759308,"623":-2.910174608230591,"624":2.2129158973693848,"625":1.5931999683380127,"626":-3.7213010787963867,"627":1.8751215934753418,"628":2.126948356628418,"629":0.1455119401216507,"630":-1.7748587131500244,"631":2.1226446628570557,"632":0.04475746676325798,"633":-1.8959765434265137,"634":-2.267920970916748,"635":-3.216337203979492,"636":-3.9076828956604004,"637":1.9646109342575073,"638":0.7518959641456604,"639":0.11015850305557251,"640":-0.49221116304397583,"641":-0.15772105753421783,"642":-0.19396410882472992,"643":-0.12958493828773499,"644":-0.16981320083141327,"645":-0.1641995757818222,"646":-0.13696838915348053,"647":-0.5571267604827881,"648":-0.843920886516571,"649":0.4218924939632416,"650":1.764623999595642,"651":0.06833796203136444,"652":-0.7339156270027161,"653":-3.79836106300354,"654":0.4768300950527191,"655":-0.002100160578265786,"656":3.6240196228027344,"657":1.5927687883377075,"658":4.610546112060547,"659":-0.30703726410865784,"660":-0.5231400728225708,"661":-0.4995092749595642,"662":-1.2273533344268799,"663":-1.1793558597564697,"664":-0.3688535690307617,"665":1.3772153854370117,"666":0.5553469061851501,"667":0.19550853967666626,"668":0.12699289619922638,"669":-0.18129931390285492,"670":-0.12021051347255707,"671":0.09496475756168365,"672":0.09232142567634583,"673":0.08910616487264633,"674":-0.1436706930398941,"675":-0.16082732379436493,"676":-0.48026105761528015,"677":-1.3486720323562622,"678":-0.4950939118862152,"679":-0.00035675065009854734,"680":0.5936689376831055,"681":-1.6199610233306885,"682":0.8765283823013306,"683":-1.3155019283294678,"684":4.470239162445068,"685":2.230103015899658,"686":-0.4626680314540863,"687":1.7995550632476807,"688":-2.1239054203033447,"689":-2.177216053009033,"690":-2.0293121337890625,"691":-2.5301051139831543,"692":0.4258068799972534,"693":0.2599428594112396,"694":0.20392519235610962,"695":0.018402280285954475,"696":-0.27708473801612854,"697":-0.22271504998207092,"698":0.14813682436943054,"699":-0.18164506554603577,"700":-0.07367736846208572,"701":0.03805765137076378,"702":0.1103796660900116,"703":0.029429059475660324,"704":-0.26269248127937317,"705":-0.7170497179031372,"706":-0.4538654088973999,"707":0.4865845739841461,"708":1.0136204957962036,"709":1.377090573310852,"710":1.522789716720581,"711":1.402115821838379,"712":1.180361270904541,"713":1.8822919130325317,"714":2.3948841094970703,"715":2.6793735027313232,"716":2.4381179809570312,"717":2.4030463695526123,"718":1.9831246137619019,"719":1.0039699077606201,"720":0.7018805146217346,"721":0.41539207100868225,"722":0.22726593911647797,"723":-0.10617177933454514,"724":-0.19689631462097168,"725":0.09822755306959152,"726":0.18823833763599396,"727":-0.01102360524237156,"728":0.14770132303237915,"729":0.057843875139951706,"730":-0.1296057552099228,"731":-0.15451395511627197,"732":-0.1487961709499359,"733":0.08249528706073761,"734":-0.12269282341003418,"735":0.17958009243011475,"736":0.4244388937950134,"737":0.5099856853485107,"738":0.5604442358016968,"739":0.3711268901824951,"740":1.2885338068008423,"741":1.2862459421157837,"742":0.928138017654419,"743":1.724377155303955,"744":1.4274723529815674,"745":1.1476002931594849,"746":1.2561241388320923,"747":0.1712474524974823,"748":0.3673940598964691,"749":0.720237672328949,"750":0.29176780581474304,"751":-0.06819597631692886,"752":-0.058253951370716095,"753":-0.058605991303920746,"754":-0.04886997491121292,"755":-0.12479300051927567,"756":-0.11937502026557922,"757":0.13016252219676971,"758":-0.1587459146976471,"759":-0.033642593771219254,"760":-0.06331214308738708,"761":-0.10569481551647186,"762":0.04797443002462387,"763":0.09226737916469574,"764":-0.11429877579212189,"765":0.03315124288201332,"766":0.32585522532463074,"767":0.1787392944097519,"768":0.4999159276485443,"769":0.3925684094429016,"770":0.20029260218143463,"771":0.12080429494380951,"772":-0.0768979862332344,"773":0.12023808807134628,"774":-0.021362707018852234,"775":0.24559259414672852,"776":0.0171598382294178,"777":-0.1100153997540474,"778":0.03768189996480942,"779":-0.11031391471624374,"780":0.19630810618400574,"781":-0.0175620224326849,"782":-0.036844402551651,"783":-0.031278062611818314}},"4":{"bias":1.4947479963302612,"weights":{"0":0.0020305400248616934,"1":0.0942615196108818,"2":0.06816461682319641,"3":-0.1150246113538742,"4":0.1919466257095337,"5":-0.09045197814702988,"6":0.0834871307015419,"7":-0.059918515384197235,"8":0.1742294728755951,"9":0.09518184512853622,"10":0.015519707463681698,"11":-0.009772763587534428,"12":0.024581339210271835,"13":-0.009364974685013294,"14":0.14850856363773346,"15":0.047630857676267624,"16":-0.1078258752822876,"17":0.17559486627578735,"18":-0.07989208400249481,"19":-0.11886241286993027,"20":-0.04867472127079964,"21":0.16143587231636047,"22":0.11381727457046509,"23":-0.16848935186862946,"24":0.09619123488664627,"25":-0.15701553225517273,"26":0.06198101118206978,"27":-0.1816972941160202,"28":-0.12344309687614441,"29":-0.0454060398042202,"30":0.15281523764133453,"31":-0.05270486697554588,"32":0.09029245376586914,"33":-0.10121946781873703,"34":-0.5158825516700745,"35":-1.2091666460037231,"36":-0.47144603729248047,"37":0.04842890426516533,"38":-0.2602795362472534,"39":-0.5510069131851196,"40":-0.6667401790618896,"41":-0.539467453956604,"42":0.04682360962033272,"43":-0.058700501918792725,"44":-0.2782680094242096,"45":-0.09636400640010834,"46":0.11953675746917725,"47":-1.594019889831543,"48":-0.9186652898788452,"49":-0.023871950805187225,"50":-0.18862025439739227,"51":-0.19718913733959198,"52":0.15465912222862244,"53":0.10953355580568314,"54":0.07123798131942749,"55":0.19851258397102356,"56":-0.18001706898212433,"57":-0.13283410668373108,"58":0.1140284538269043,"59":-0.0672127828001976,"60":-0.07659146934747696,"61":-0.054114244878292084,"62":-0.3959276080131531,"63":-1.7330962419509888,"64":-0.6459334492683411,"65":-0.7530592679977417,"66":-3.6160292625427246,"67":-3.0429513454437256,"68":-3.7693207263946533,"69":-3.0145316123962402,"70":-1.5955511331558228,"71":-1.600626826286316,"72":-0.45843222737312317,"73":-1.3529422283172607,"74":-1.85989511013031,"75":-1.2942748069763184,"76":-0.18083083629608154,"77":-0.1271585077047348,"78":-0.16259123384952545,"79":-0.18387609720230103,"80":-0.07498089969158173,"81":-0.13330726325511932,"82":0.15669851005077362,"83":0.15155254304409027,"84":0.13313870131969452,"85":-0.035694438964128494,"86":-0.10440094769001007,"87":-0.16958674788475037,"88":0.2988669276237488,"89":0.013059516437351704,"90":-1.8915311098098755,"91":-3.453130006790161,"92":-3.377798318862915,"93":-2.4397470951080322,"94":-3.4334797859191895,"95":-2.9241721630096436,"96":-4.517099857330322,"97":-6.135340213775635,"98":-5.214789390563965,"99":-5.8740410804748535,"100":-3.7310028076171875,"101":-2.070547342300415,"102":-1.76152503490448,"103":0.6595876216888428,"104":-0.8524224758148193,"105":-1.1068224906921387,"106":0.43996307253837585,"107":-0.1469159722328186,"108":-0.37508130073547363,"109":0.03464294597506523,"110":-0.07705194503068924,"111":-0.11619549244642258,"112":0.16925041377544403,"113":0.1573815494775772,"114":0.04243268072605133,"115":-0.1675739586353302,"116":1.068040370941162,"117":1.0261802673339844,"118":-2.187936305999756,"119":-5.101615905761719,"120":-4.988511085510254,"121":-3.430530548095703,"122":-4.021955966949463,"123":-2.6613309383392334,"124":-3.2505998611450195,"125":-1.899025321006775,"126":-3.276942014694214,"127":-3.5319149494171143,"128":-5.165957927703857,"129":-4.620471954345703,"130":-1.7304950952529907,"131":0.5942515134811401,"132":-0.5850509405136108,"133":-0.5762909650802612,"134":1.4654226303100586,"135":2.919325113296509,"136":2.2422258853912354,"137":-0.18916727602481842,"138":-0.05299071967601776,"139":-0.12258820980787277,"140":0.03765720874071121,"141":-0.04240113124251366,"142":0.03792190179228783,"143":0.01951698772609234,"144":1.7732598781585693,"145":1.8834128379821777,"146":-0.37332645058631897,"147":-4.376924991607666,"148":-3.4614474773406982,"149":-2.174910306930542,"150":-1.6802318096160889,"151":0.04328741505742073,"152":-1.592427372932434,"153":-4.259924411773682,"154":-0.8906363248825073,"155":2.402489185333252,"156":-2.5216917991638184,"157":-0.47139278054237366,"158":-1.6802055835723877,"159":0.9848453998565674,"160":0.9742433428764343,"161":1.4150375127792358,"162":0.03306860476732254,"163":2.216326951980591,"164":2.368680477142334,"165":-0.6687800288200378,"166":0.11429286003112793,"167":0.13389140367507935,"168":-0.14884740114212036,"169":-0.027589838951826096,"170":-0.19640569388866425,"171":-0.11792512983083725,"172":1.6158230304718018,"173":2.1390395164489746,"174":0.07731287181377411,"175":-3.1995203495025635,"176":-1.9054795503616333,"177":-1.3646726608276367,"178":0.5795143842697144,"179":2.5161170959472656,"180":0.6137499213218689,"181":0.7659533023834229,"182":1.6590410470962524,"183":0.07332020998001099,"184":-2.7051494121551514,"185":-1.497056484222412,"186":-2.6044092178344727,"187":-0.6063610315322876,"188":-2.338240146636963,"189":0.04156189039349556,"190":1.5019645690917969,"191":1.8713860511779785,"192":1.401493787765503,"193":0.8203055262565613,"194":1.5570391416549683,"195":1.0604557991027832,"196":0.14731545746326447,"197":-0.06751459091901779,"198":0.05560406669974327,"199":-0.08666174113750458,"200":1.5346529483795166,"201":2.926142930984497,"202":-0.3611007332801819,"203":-0.8987250924110413,"204":1.6564234495162964,"205":1.8434102535247803,"206":2.382131814956665,"207":0.03753846511244774,"208":0.6696581840515137,"209":3.1126465797424316,"210":0.5645729303359985,"211":-1.5636308193206787,"212":-1.6532771587371826,"213":1.3375983238220215,"214":1.2442495822906494,"215":1.314590573310852,"216":2.4228553771972656,"217":4.2132568359375,"218":3.289623975753784,"219":2.454334020614624,"220":1.3902336359024048,"221":1.2531081438064575,"222":1.7143455743789673,"223":0.656587541103363,"224":-0.3399107754230499,"225":0.15161046385765076,"226":0.3206939399242401,"227":0.750751793384552,"228":2.252063274383545,"229":1.5028842687606812,"230":0.08722714334726334,"231":-0.03647783026099205,"232":0.4168694317340851,"233":0.5891170501708984,"234":-0.31276944279670715,"235":-1.189021348953247,"236":-2.552889823913574,"237":-1.609931468963623,"238":-0.04770640656352043,"239":0.3610190153121948,"240":-0.7776046991348267,"241":-2.545344591140747,"242":1.1566780805587769,"243":-0.5176690816879272,"244":1.7559393644332886,"245":1.0677160024642944,"246":-2.14849853515625,"247":-0.5766028165817261,"248":2.3903658390045166,"249":3.833125591278076,"250":0.7093436121940613,"251":0.3316982388496399,"252":-0.0641043484210968,"253":-0.032316677272319794,"254":0.7968274354934692,"255":1.663978934288025,"256":1.22688889503479,"257":-0.5773522853851318,"258":0.30802831053733826,"259":-0.003140676999464631,"260":-1.8203704357147217,"261":-2.662273645401001,"262":-0.19091807305812836,"263":3.1619019508361816,"264":1.0184978246688843,"265":3.049628734588623,"266":-1.550179362297058,"267":2.9948232173919678,"268":2.8527023792266846,"269":-0.4231121838092804,"270":4.310031414031982,"271":2.1147866249084473,"272":0.577530026435852,"273":0.9714493155479431,"274":0.5993992686271667,"275":3.209102153778076,"276":1.7890256643295288,"277":2.8291103839874268,"278":0.7562782168388367,"279":0.09153067320585251,"280":-0.020426645874977112,"281":-0.08791296184062958,"282":1.1958879232406616,"283":1.7746787071228027,"284":0.2242918610572815,"285":-1.9242100715637207,"286":-1.8015203475952148,"287":1.1600563526153564,"288":-1.085066795349121,"289":-1.6387256383895874,"290":-1.691686987876892,"291":-1.5985456705093384,"292":-0.4088395833969116,"293":2.070660352706909,"294":-2.56101131439209,"295":1.9563348293304443,"296":1.9995766878128052,"297":-0.3014415204524994,"298":1.3994885683059692,"299":2.3479204177856445,"300":1.7633134126663208,"301":-2.793503522872925,"302":-1.4034864902496338,"303":0.5008878707885742,"304":1.4236770868301392,"305":3.9762513637542725,"306":2.286125898361206,"307":-0.04377971962094307,"308":-0.05094604566693306,"309":0.00317061017267406,"310":1.001685380935669,"311":0.7260638475418091,"312":0.40811702609062195,"313":0.3465738296508789,"314":0.6277816295623779,"315":2.262706995010376,"316":0.5450546145439148,"317":-1.0187186002731323,"318":-0.3892100751399994,"319":0.6096997857093811,"320":1.8679208755493164,"321":0.9130442142486572,"322":-3.379676342010498,"323":-0.6827324032783508,"324":0.8660174608230591,"325":0.569006085395813,"326":-0.5326036810874939,"327":-1.0082241296768188,"328":-2.488096237182617,"329":-0.8921546936035156,"330":2.8495733737945557,"331":-2.6714298725128174,"332":-1.8874425888061523,"333":3.84379506111145,"334":2.1364221572875977,"335":0.06029033660888672,"336":0.09132794290781021,"337":0.15097776055335999,"338":0.5762500762939453,"339":0.16862717270851135,"340":1.2114859819412231,"341":1.832632303237915,"342":-1.1582430601119995,"343":0.6853761672973633,"344":2.1757373809814453,"345":1.2972841262817383,"346":1.380238652229309,"347":-0.7789991497993469,"348":0.6402204036712646,"349":-2.579101085662842,"350":-5.301524639129639,"351":-0.5298694968223572,"352":-1.295223593711853,"353":1.4374052286148071,"354":3.0064339637756348,"355":-1.372593641281128,"356":-4.766664028167725,"357":-3.3815510272979736,"358":-0.6436585187911987,"359":-6.186636924743652,"360":-5.356692790985107,"361":0.04781987890601158,"362":-1.6923508644104004,"363":0.16707180440425873,"364":-0.18775507807731628,"365":0.12906920909881592,"366":-0.060348328202962875,"367":0.3901510238647461,"368":1.2304562330245972,"369":1.9797005653381348,"370":-2.8108346462249756,"371":-0.7504861950874329,"372":2.400838613510132,"373":-1.757340431213379,"374":-2.3946313858032227,"375":-1.4875454902648926,"376":-2.588594675064087,"377":-2.1036744117736816,"378":2.383124828338623,"379":0.30489906668663025,"380":0.5889593362808228,"381":2.0049281120300293,"382":2.7543842792510986,"383":-1.301973581314087,"384":2.509162425994873,"385":-0.8673385977745056,"386":0.04899787902832031,"387":-5.758309841156006,"388":-5.766490936279297,"389":-1.9641685485839844,"390":-2.1674671173095703,"391":-0.10063983500003815,"392":-0.08643834292888641,"393":0.04478202760219574,"394":-0.0542028546333313,"395":1.0555236339569092,"396":3.7505176067352295,"397":3.202241897583008,"398":-1.0502967834472656,"399":1.295771837234497,"400":1.478367805480957,"401":-3.1577320098876953,"402":-1.1705564260482788,"403":-3.0756964683532715,"404":-0.057693034410476685,"405":-1.6582918167114258,"406":1.262636423110962,"407":-0.09604401886463165,"408":-0.3659377992153168,"409":1.9848854541778564,"410":-3.012040853500366,"411":0.23989735543727875,"412":1.094101905822754,"413":-2.1156368255615234,"414":-1.0231122970581055,"415":-1.534885287284851,"416":-3.2713074684143066,"417":-3.527362108230591,"418":-0.96502685546875,"419":0.0722329244017601,"420":-0.004173928871750832,"421":-0.012952679768204689,"422":0.06325370818376541,"423":0.015021652914583683,"424":1.5815452337265015,"425":1.9343267679214478,"426":-0.14305603504180908,"427":-0.03235149011015892,"428":3.7872750759124756,"429":2.2049484252929688,"430":1.030838131904602,"431":-0.042951054871082306,"432":-0.3092085123062134,"433":0.4235342741012573,"434":1.0802286863327026,"435":0.04544765129685402,"436":0.5260898470878601,"437":1.0878431797027588,"438":-0.6256463527679443,"439":-0.5154650211334229,"440":-1.4738997220993042,"441":-1.5062270164489746,"442":0.2111300379037857,"443":0.021583637222647667,"444":-1.4883829355239868,"445":-2.867406129837036,"446":-0.12244383245706558,"447":-0.05547235906124115,"448":-0.12580715119838715,"449":0.05586529150605202,"450":-0.21965475380420685,"451":-1.1418358087539673,"452":-1.1512603759765625,"453":0.8197700381278992,"454":-0.9607744216918945,"455":0.27505940198898315,"456":1.9595693349838257,"457":-0.86822909116745,"458":1.7068082094192505,"459":2.0452327728271484,"460":0.6006629467010498,"461":-1.9141179323196411,"462":-0.3852214217185974,"463":-0.6962874531745911,"464":3.0495896339416504,"465":0.8986424207687378,"466":0.8436753749847412,"467":0.32116609811782837,"468":-0.1312318593263626,"469":-2.483030080795288,"470":-2.8596420288085938,"471":-1.4936535358428955,"472":-2.665565252304077,"473":-5.55670690536499,"474":-2.40756893157959,"475":0.14812533557415009,"476":-0.10003071278333664,"477":0.18729133903980255,"478":-0.07059262692928314,"479":-1.1593780517578125,"480":-2.2848312854766846,"481":1.424232006072998,"482":2.622952938079834,"483":-0.6278542876243591,"484":2.2902090549468994,"485":0.37142762541770935,"486":0.6185806393623352,"487":-1.396281361579895,"488":-1.9464164972305298,"489":-1.2805918455123901,"490":1.7172350883483887,"491":4.706130027770996,"492":2.9165756702423096,"493":2.3173348903656006,"494":1.109553575515747,"495":-1.9565694332122803,"496":-1.239224910736084,"497":-2.2659170627593994,"498":-0.3305794596672058,"499":-1.7004084587097168,"500":-2.820389986038208,"501":-3.6323275566101074,"502":-1.3778568506240845,"503":-0.9381121397018433,"504":-0.1230531558394432,